{"learner":{"attributes":{"best_iteration":"39","best_score":"6.4782092440184735"},"feature_names":[],"feature_types":[],"gradient_booster":{"model":{"gbtree_model_param":{"num_parallel_tree":"1","num_trees":"90"},"iteration_indptr":[0,1,2,3,4,5,6,7,8,9,10,11,12,13,14,15,16,17,18,19,20,21,22,23,24,25,26,27,28,29,30,31,32,33,34,35,36,37,38,39,40,41,42,43,44,45,46,47,48,49,50,51,52,53,54,55,56,57,58,59,60,61,62,63,64,65,66,67,68,69,70,71,72,73,74,75,76,77,78,79,80,81,82,83,84,85,86,87,88,89,90],"tree_info":[0,0,0,0,0,0,0,0,0,0,0,0,0,0,0,0,0,0,0,0,0,0,0,0,0,0,0,0,0,0,0,0,0,0,0,0,0,0,0,0,0,0,0,0,0,0,0,0,0,0,0,0,0,0,0,0,0,0,0,0,0,0,0,0,0,0,0,0,0,0,0,0,0,0,0,0,0,0,0,0,0,0,0,0,0,0,0,0,0,0],"trees":[{"base_weights":[4.498795E-2,-3.6053264E0,4.2585087E0,-4.3105483E0,-1.2896714E0,2.1677682E0,6.669977E0,-1.7037553E0,-4.536379E0,-1.3474226E0,6.309585E-1,1.2345008E0,3.5312572E0,5.7173915E0,1.0331284E1,7.4181956E-1,-3.099243E0,-5.7543745E0,-3.7754695E0,-1.8719748E0,-3.8991255E-1,-1.7962396E-1,1.8254064E0,2.3099103E0,4.4582114E0,4.732585E0,7.2860694E0,4.479336E0,1.1031631E1,6.424377E0,-3.8499212E-1,-4.1886353E0,1.1470667E0,-5.944996E0,-3.262943E0,-4.6447043E0,-3.2586606E0,-2.7068772E0,-7.9680234E-1,-1.5146743E0,2.1829004E0,9.057757E0,-4.4192094E-1,1.6697667E0,7.6993613E0,1.973245E0,1.2113692E1,2.6262908E0,5.10878E0,1.6502467E0,5.077177E0,3.1664314E0,7.8057914E0,-6.387709E-4,8.622438E0,1.1200718E1,-2.7470356E-1,1.0052398E-1,1.1069584E0,-1.01781376E-1,3.6245158E-1,1.3023826E-1,-3.7314555E-1,2.1215808E-1,-5.0104153E-1,-4.7757408E-1,1.1462975E-1,-3.3410278E-1,-9.89726E-3,-3.9568853E-1,-2.3635302E-1,-2.6789504E-1,2.2976784E-1,2.6995018E-1,-2.3830931E-1,1.8027046E-1,-1.2829669E-1,-1.4074299E-1,6.409585E-1,-8.482246E-2,3.3127928E-1,1.4997232E-1,8.0795574E-1,1.4433898E-1,-1.077636E-1,1.2314314E-1,6.3507015E-1,9.50173E-1,-1.0724429E-1,1.2541226E-1,6.4179504E-1,1.1779537E0,-1.3802768E-1,5.4905885E-1,1.02996424E-1,6.763401E-2,4.4885302E-1,-5.295679E-2,3.6578026E-1,3.4521624E-1,4.9382702E-1,1.3001093E-1,6.984515E-1,6.886929E-1,3.530684E-1,3.3435568E-1,-1.8671587E-1,8.419501E-1,1.349585E-1,4.6242347E-1,9.4374496E-1],"categories":[],"categories_nodes":[],"categories_segments":[],"categories_sizes":[],"default_left":[0,0,0,0,0,0,0,0,0,0,0,0,0,0,0,0,0,0,0,0,0,0,0,0,0,0,0,0,0,0,0,0,0,0,0,0,0,0,0,0,0,0,0,0,0,0,0,0,0,0,0,0,0,0,0,0,0,0,0,0,0,0,0,0,0,0,0,0,0,0,0,0,0,0,0,0,0,0,0,0,0,0,0,0,0,0,0,0,0,0,0,0,0,0,0,0,0,0,0,0,0,0,0,0,0,0,0,0,0,0,0],"id":0,"left_children":[1,3,5,7,9,11,13,15,17,19,-1,21,23,25,27,29,31,33,35,37,39,41,43,45,47,49,51,53,55,57,59,61,63,65,67,69,71,73,75,77,79,81,83,85,87,89,91,93,95,97,99,101,103,105,107,109,-1,-1,-1,-1,-1,-1,-1,-1,-1,-1,-1,-1,-1,-1,-1,-1,-1,-1,-1,-1,-1,-1,-1,-1,-1,-1,-1,-1,-1,-1,-1,-1,-1,-1,-1,-1,-1,-1,-1,-1,-1,-1,-1,-1,-1,-1,-1,-1,-1,-1,-1,-1,-1,-1,-1],"loss_changes":[7.581138E4,4.3067695E3,1.1520191E4,1.1831602E3,3.374895E2,1.5565215E3,3.6432695E3,5.588163E2,1.7029961E3,3.079364E2,0E0,6.1049097E2,5.5282715E2,1.269709E3,8.424863E2,3.8726764E2,4.8620227E2,3.187754E2,5.002373E2,3.5386536E2,6.369821E2,5.2649567E2,4.5703088E2,6.9091675E2,3.2189404E2,5.4538965E2,6.678926E2,4.648925E2,5.137461E2,3.6417435E2,2.2787598E2,2.3754712E2,2.6158142E2,1.2954883E2,1.5101428E2,2.0162695E2,4.0926758E2,3.7886206E2,4.3426086E2,3.7001263E2,4.301783E2,2.4764984E1,4.3135864E2,3.982428E2,5.0794635E2,5.041537E2,2.7961462E2,4.2146423E2,4.375298E2,3.6825702E2,3.638662E2,3.1066745E2,7.424004E2,1.3636469E2,1.5250513E2,5.504219E2,0E0,0E0,0E0,0E0,0E0,0E0,0E0,0E0,0E0,0E0,0E0,0E0,0E0,0E0,0E0,0E0,0E0,0E0,0E0,0E0,0E0,0E0,0E0,0E0,0E0,0E0,0E0,0E0,0E0,0E0,0E0,0E0,0E0,0E0,0E0,0E0,0E0,0E0,0E0,0E0,0E0,0E0,0E0,0E0,0E0,0E0,0E0,0E0,0E0,0E0,0E0,0E0,0E0,0E0,0E0],"parents":[2147483647,0,0,1,1,2,2,3,3,4,4,5,5,6,6,7,7,8,8,9,9,11,11,12,12,13,13,14,14,15,15,16,16,17,17,18,18,19,19,20,20,21,21,22,22,23,23,24,24,25,25,26,26,27,27,28,28,29,29,30,30,31,31,32,32,33,33,34,34,35,35,36,36,37,37,38,38,39,39,40,40,41,41,42,42,43,43,44,44,45,45,46,46,47,47,48,48,49,49,50,50,51,51,52,52,53,53,54,54,55,55],"right_children":[2,4,6,8,10,12,14,16,18,20,-1,22,24,26,28,30,32,34,36,38,40,42,44,46,48,50,52,54,56,58,60,62,64,66,68,70,72,74,76,78,80,82,84,86,88,90,92,94,96,98,100,102,104,106,108,110,-1,-1,-1,-1,-1,-1,-1,-1,-1,-1,-1,-1,-1,-1,-1,-1,-1,-1,-1,-1,-1,-1,-1,-1,-1,-1,-1,-1,-1,-1,-1,-1,-1,-1,-1,-1,-1,-1,-1,-1,-1,-1,-1,-1,-1,-1,-1,-1,-1,-1,-1,-1,-1,-1,-1],"split_conditions":[1.7272833E1,1.714034E1,1.7375282E1,2E0,1.4125E1,1.4666667E1,1.7428375E1,2.019E3,2.75E0,1.37E1,6.309585E-1,1.0666667E1,5.9E0,4.3333335E0,2.3333333E0,1E0,1.1111112E0,9.4166666E-1,1.656215E1,1.0111111E0,9.666667E0,2.6666796E-2,1.736932E1,4.625E0,3E0,6E-1,4E0,1.3333334E0,2.5E-1,1E0,8.2E1,9.222222E-1,6.25E0,3.875E1,1.52E0,6.0833335E0,8.2E1,1.6666666E0,2.019E3,8.142858E0,3.0370371E0,6.9E0,2E0,9.285714E0,1.0888889E0,1.3548499E0,4.0666668E1,1E0,-1.6836449E0,3.3333333E0,2.46E1,1E0,2.023E3,1.2857143E0,1.743913E1,4.607143E0,-2.7470356E-1,1.0052398E-1,1.1069584E0,-1.01781376E-1,3.6245158E-1,1.3023826E-1,-3.7314555E-1,2.1215808E-1,-5.0104153E-1,-4.7757408E-1,1.1462975E-1,-3.3410278E-1,-9.89726E-3,-3.9568853E-1,-2.3635302E-1,-2.6789504E-1,2.2976784E-1,2.6995018E-1,-2.3830931E-1,1.8027046E-1,-1.2829669E-1,-1.4074299E-1,6.409585E-1,-8.482246E-2,3.3127928E-1,1.4997232E-1,8.0795574E-1,1.4433898E-1,-1.077636E-1,1.2314314E-1,6.3507015E-1,9.50173E-1,-1.0724429E-1,1.2541226E-1,6.4179504E-1,1.1779537E0,-1.3802768E-1,5.4905885E-1,1.02996424E-1,6.763401E-2,4.4885302E-1,-5.295679E-2,3.6578026E-1,3.4521624E-1,4.9382702E-1,1.3001093E-1,6.984515E-1,6.886929E-1,3.530684E-1,3.3435568E-1,-1.8671587E-1,8.419501E-1,1.349585E-1,4.6242347E-1,9.4374496E-1],"split_indices":[77,77,77,70,7,44,77,52,44,41,0,44,42,45,6,36,26,35,77,25,44,16,77,6,60,35,70,8,2,39,61,26,5,9,26,76,34,74,52,18,74,0,70,17,25,58,5,60,58,45,41,65,52,6,77,73,0,0,0,0,0,0,0,0,0,0,0,0,0,0,0,0,0,0,0,0,0,0,0,0,0,0,0,0,0,0,0,0,0,0,0,0,0,0,0,0,0,0,0,0,0,0,0,0,0,0,0,0,0,0,0],"split_type":[0,0,0,0,0,0,0,0,0,0,0,0,0,0,0,0,0,0,0,0,0,0,0,0,0,0,0,0,0,0,0,0,0,0,0,0,0,0,0,0,0,0,0,0,0,0,0,0,0,0,0,0,0,0,0,0,0,0,0,0,0,0,0,0,0,0,0,0,0,0,0,0,0,0,0,0,0,0,0,0,0,0,0,0,0,0,0,0,0,0,0,0,0,0,0,0,0,0,0,0,0,0,0,0,0,0,0,0,0,0,0],"sum_hessian":[4.927E3,2.64E3,2.287E3,2.023E3,6.17E2,1.226E3,1.061E3,1.62E2,1.861E3,6.14E2,3E0,7.29E2,4.97E2,8.44E2,2.17E2,5.9E1,1.03E2,7.13E2,1.148E3,3.96E2,2.18E2,2.15E2,5.14E2,2.16E2,2.81E2,5.21E2,3.23E2,2.4E1,1.93E2,9E0,5E1,8.2E1,2.1E1,6.61E2,5.2E1,4.25E2,7.23E2,2.22E2,1.74E2,1.52E2,6.6E1,5E0,2.1E2,5.02E2,1.2E1,2.1E2,6E0,7.5E1,2.06E2,5.3E1,4.68E2,3.7E1,2.86E2,1.2E1,1.2E1,1.91E2,2E0,6E0,3E0,4.3E1,7E0,6E0,7.6E1,1.8E1,3E0,6.59E2,2E0,4E1,1.2E1,3.59E2,6.6E1,7.13E2,1E1,9E0,2.13E2,3.6E1,1.38E2,1.49E2,3E0,2.5E1,4.1E1,1E0,4E0,6E1,1.5E2,4.93E2,9E0,8E0,4E0,1.98E2,1.2E1,5E0,1E0,1.7E1,5.8E1,2.2E1,1.84E2,3E1,2.3E1,2.79E2,1.89E2,3E1,7E0,2.3E2,5.6E1,4E0,8E0,9E0,3E0,2E1,1.71E2],"tree_param":{"num_deleted":"0","num_feature":"78","num_nodes":"111","size_leaf_vector":"1"}},{"base_weights":[-2.0348016E-2,-3.1590133E0,3.9804716E0,-3.9224062E0,-6.227965E-1,2.20497E0,6.1228414E0,-4.522459E0,-3.083344E0,-7.4709976E-1,6.5439196E0,3.3119676E0,1.4475043E0,5.120881E0,9.79888E0,-1.4641933E0,-4.883934E0,-3.7431824E0,-2.5093336E0,4.3890667E-1,-1.4257392E0,-6.250611E-1,1.2638913E1,3.5103984E0,-1.1970123E0,7.610422E-1,2.7684329E0,4.0157685E0,6.1305356E0,8.634965E0,1.3846595E1,-2.0111287E0,5.3995304E0,-5.078924E0,-3.8473697E0,-4.6852617E0,-3.0587893E0,6.046064E-1,-2.7798662E0,3.2031307E0,-6.6883695E-1,-1.6324502E0,1.0428066E1,-3.4295338E-1,9.446936E-1,2.4488735E-1,1.331004E0,3.410133E0,1.4088196E1,6.6729486E-1,-2.403301E0,1.4354395E0,-8.350969E-1,1.8594401E0,6.38252E0,3.3337357E0,5.7402983E0,6.3730483E0,-1.0386094E0,7.175849E0,1.1581099E1,1.509396E1,3.2063997E0,-3.7959188E-1,-1.12063564E-1,7.800607E-1,6.855343E-2,-4.1365072E-1,-2.0142934E-1,2.0900446E-1,-3.5984913E-1,-3.925445E-1,-1.1291854E-2,-5.8021784E-2,-2.826427E-1,-4.119144E-2,5.491468E-1,-4.594859E-2,-2.4235354E-1,-1.1138771E-1,3.3194876E-1,8.735108E-1,-7.028945E-2,-1.5813583E-1,1.04444206E-1,1.4452444E0,1.2684896E-2,-8.76509E-3,1.3739091E-1,2.0959733E-1,3.6923116E-1,1.4273765E0,1.0904661E-1,-1.6801776E-1,2.6570824E-1,-3.9915666E-2,-3.1600332E-1,-1.9377245E-2,1.746714E-1,-1.0321408E-1,7.5606817E-1,2.538035E-1,-3.265724E-2,2.7851456E-1,1.0020921E0,5.016548E-1,2.4053673E-1,2.4868566E-1,6.421272E-1,3.9352408E-1,6.060685E-1,-2.2498615E-1,2.157238E-1,5.24106E-1,1.3763708E0,1.2358965E0,7.0127374E-1,1.6160274E0,9.25087E-1,6.509531E-3,5.016779E-1],"categories":[],"categories_nodes":[],"categories_segments":[],"categories_sizes":[],"default_left":[0,0,0,0,0,0,0,0,0,0,0,0,0,0,0,0,0,0,0,0,0,0,0,0,0,0,0,0,0,0,0,0,0,0,0,0,0,0,0,0,0,0,0,0,0,0,0,0,0,0,0,0,0,0,0,0,0,0,0,0,0,0,0,0,0,0,0,0,0,0,0,0,0,0,0,0,0,0,0,0,0,0,0,0,0,0,0,0,0,0,0,0,0,0,0,0,0,0,0,0,0,0,0,0,0,0,0,0,0,0,0,0,0,0,0,0,0,0,0,0,0],"id":1,"left_children":[1,3,5,7,9,11,13,15,17,19,21,23,25,27,29,31,33,35,37,39,41,43,45,47,49,51,53,55,57,59,61,63,65,67,69,71,73,75,77,79,81,83,85,-1,87,-1,-1,89,91,93,95,97,99,101,103,105,107,109,111,113,115,117,119,-1,-1,-1,-1,-1,-1,-1,-1,-1,-1,-1,-1,-1,-1,-1,-1,-1,-1,-1,-1,-1,-1,-1,-1,-1,-1,-1,-1,-1,-1,-1,-1,-1,-1,-1,-1,-1,-1,-1,-1,-1,-1,-1,-1,-1,-1,-1,-1,-1,-1,-1,-1,-1,-1,-1,-1,-1,-1],"loss_changes":[6.186943E4,5.342756E3,8.224656E3,1.0536836E3,5.74451E2,9.8920605E2,3.5615898E3,1.3574922E3,3.2631543E2,5.0779297E2,4.897454E2,4.3479395E2,6.377179E2,8.368672E2,8.628262E2,5.0605E2,2.0270703E2,2.4988818E2,4.0457593E2,7.0666766E2,9.987194E2,3.8873344E1,1.7689044E2,4.3913867E2,4.900406E1,5.0287598E2,7.7903625E2,4.1749707E2,7.0607324E2,6.243135E2,5.470215E2,1.9796594E2,1.882431E2,2.0370703E2,7.644138E2,1.709519E2,2.637163E2,2.774721E2,2.4007202E2,2.9304572E2,4.0968567E2,4.02151E2,5.4434576E2,0E0,4.422031E0,0E0,0E0,4.233628E2,1.648399E2,7.320404E1,3.5876312E1,4.1229974E2,6.6202515E2,5.7923895E2,8.1030457E2,2.3858203E2,5.996929E2,6.417988E2,1.0034674E2,5.926543E2,4.392202E2,4.8433203E2,5.6315826E1,0E0,0E0,0E0,0E0,0E0,0E0,0E0,0E0,0E0,0E0,0E0,0E0,0E0,0E0,0E0,0E0,0E0,0E0,0E0,0E0,0E0,0E0,0E0,0E0,0E0,0E0,0E0,0E0,0E0,0E0,0E0,0E0,0E0,0E0,0E0,0E0,0E0,0E0,0E0,0E0,0E0,0E0,0E0,0E0,0E0,0E0,0E0,0E0,0E0,0E0,0E0,0E0,0E0,0E0,0E0,0E0,0E0,0E0],"parents":[2147483647,0,0,1,1,2,2,3,3,4,4,5,5,6,6,7,7,8,8,9,9,10,10,11,11,12,12,13,13,14,14,15,15,16,16,17,17,18,18,19,19,20,20,21,21,22,22,23,23,24,24,25,25,26,26,27,27,28,28,29,29,30,30,31,31,32,32,33,33,34,34,35,35,36,36,37,37,38,38,39,39,40,40,41,41,42,42,44,44,47,47,48,48,49,49,50,50,51,51,52,52,53,53,54,54,55,55,56,56,57,57,58,58,59,59,60,60,61,61,62,62],"right_children":[2,4,6,8,10,12,14,16,18,20,22,24,26,28,30,32,34,36,38,40,42,44,46,48,50,52,54,56,58,60,62,64,66,68,70,72,74,76,78,80,82,84,86,-1,88,-1,-1,90,92,94,96,98,100,102,104,106,108,110,112,114,116,118,120,-1,-1,-1,-1,-1,-1,-1,-1,-1,-1,-1,-1,-1,-1,-1,-1,-1,-1,-1,-1,-1,-1,-1,-1,-1,-1,-1,-1,-1,-1,-1,-1,-1,-1,-1,-1,-1,-1,-1,-1,-1,-1,-1,-1,-1,-1,-1,-1,-1,-1,-1,-1,-1,-1,-1,-1,-1,-1],"split_conditions":[1.7285501E1,1.7166325E1,1.7379772E1,1.656215E1,1.18E1,1E0,1.7428375E1,2E0,1.8E0,4.0307693E0,3.9833647E-1,9.67742E0,1.735253E1,3.75E0,5.875E0,1.2E0,1.8E0,7.5E-1,2E0,1E0,3E0,2.0408179E-1,7.35E0,9.090909E0,5.4545456E-1,5.130435E0,2.9411766E-1,3E0,2.14E1,1E0,1.75E0,1.4705883E-1,1E0,1.5E0,1.9666667E0,1.3495935E0,-6E0,1.2E0,1.9333333E0,9E-1,-5E-1,1.3029058E0,3.310345E0,-3.4295338E-1,9.5E0,2.4488735E-1,1.331004E0,5.5E0,1.605E1,1E0,5.4375E0,3.7E0,7.5E1,1.3375E1,1.5406999E-1,3.53125E0,4.8285713E0,-2.9542003E-2,5.681818E-1,1.3214285E0,1.7333334E1,6.3E0,7.5258927E0,-3.7959188E-1,-1.12063564E-1,7.800607E-1,6.855343E-2,-4.1365072E-1,-2.0142934E-1,2.0900446E-1,-3.5984913E-1,-3.925445E-1,-1.1291854E-2,-5.8021784E-2,-2.826427E-1,-4.119144E-2,5.491468E-1,-4.594859E-2,-2.4235354E-1,-1.1138771E-1,3.3194876E-1,8.735108E-1,-7.028945E-2,-1.5813583E-1,1.04444206E-1,1.4452444E0,1.2684896E-2,-8.76509E-3,1.3739091E-1,2.0959733E-1,3.6923116E-1,1.4273765E0,1.0904661E-1,-1.6801776E-1,2.6570824E-1,-3.9915666E-2,-3.1600332E-1,-1.9377245E-2,1.746714E-1,-1.0321408E-1,7.5606817E-1,2.538035E-1,-3.265724E-2,2.7851456E-1,1.0020921E0,5.016548E-1,2.4053673E-1,2.4868566E-1,6.421272E-1,3.9352408E-1,6.060685E-1,-2.2498615E-1,2.157238E-1,5.24106E-1,1.3763708E0,1.2358965E0,7.0127374E-1,1.6160274E0,9.25087E-1,6.509531E-3,5.016779E-1],"split_indices":[77,77,77,77,18,36,77,53,42,73,16,51,77,45,75,13,42,45,42,36,46,16,0,51,49,73,48,46,42,21,8,49,36,26,0,24,59,13,75,26,17,27,19,0,17,0,0,60,0,39,74,42,34,0,27,74,73,27,49,24,7,75,76,0,0,0,0,0,0,0,0,0,0,0,0,0,0,0,0,0,0,0,0,0,0,0,0,0,0,0,0,0,0,0,0,0,0,0,0,0,0,0,0,0,0,0,0,0,0,0,0,0,0,0,0,0,0,0,0,0,0],"split_type":[0,0,0,0,0,0,0,0,0,0,0,0,0,0,0,0,0,0,0,0,0,0,0,0,0,0,0,0,0,0,0,0,0,0,0,0,0,0,0,0,0,0,0,0,0,0,0,0,0,0,0,0,0,0,0,0,0,0,0,0,0,0,0,0,0,0,0,0,0,0,0,0,0,0,0,0,0,0,0,0,0,0,0,0,0,0,0,0,0,0,0,0,0,0,0,0,0,0,0,0,0,0,0,0,0,0,0,0,0,0,0,0,0,0,0,0,0,0,0,0,0],"sum_hessian":[4.925E3,2.76E3,2.165E3,2.121E3,6.39E2,1.185E3,9.8E2,1.234E3,8.87E2,6.29E2,1E1,4.8E2,7.05E2,7.72E2,2.08E2,1.31E2,1.103E3,4.1E2,4.77E2,2.29E2,4E2,5E0,5E0,4.6E2,2E1,4.65E2,2.4E2,3.71E2,4.01E2,1.64E2,4.4E1,1.22E2,9E0,9.25E2,1.78E2,1.7E2,2.4E2,3.8E1,4.39E2,6.5E1,1.64E2,3.94E2,6E0,1E0,4E0,2E0,3E0,4.57E2,3E0,8E0,1.2E1,3.27E2,1.38E2,1.93E2,4.7E1,2.68E2,1.03E2,3.88E2,1.3E1,1.12E2,5.2E1,3.9E1,5E0,2.1E1,1.01E2,4E0,5E0,8.92E2,3.3E1,1.6E1,1.62E2,1.62E2,8E0,4.1E1,1.99E2,3.3E1,5E0,4.5E1,3.94E2,1.1E1,5.4E1,2E0,1.62E2,3.53E2,4.1E1,3E0,3E0,2E0,2E0,2.78E2,1.79E2,2E0,1E0,4E0,4E0,6E0,6E0,1.01E2,2.26E2,1.33E2,5E0,1.22E2,7.1E1,3.3E1,1.4E1,2.5E1,2.43E2,4.9E1,5.4E1,1.78E2,2.1E2,9E0,4E0,1.07E2,5E0,2E1,3.2E1,1.4E1,2.5E1,3E0,2E0],"tree_param":{"num_deleted":"0","num_feature":"78","num_nodes":"121","size_leaf_vector":"1"}},{"base_weights":[5.5189185E-2,-2.8194337E0,3.6713753E0,-3.5201876E0,-5.745047E-1,1.9499825E0,5.758211E0,-4.349437E0,-2.7770152E0,-6.482422E-1,9.180009E0,1.3273753E0,3.244094E0,4.8120985E0,9.199788E0,-4.867149E0,-3.7099717E0,-2.8065202E0,1.1984915E0,-4.4144943E-1,-4.409326E0,1.8042906E-1,1.0409055E0,1.2715602E0,9.851963E-1,5.7982934E-1,3.783053E0,3.545687E0,6.021621E0,2.9602172E0,9.795106E0,1.0360885E0,-4.9459224E0,-4.701185E0,-3.2262473E0,-1.0271145E0,-3.0305068E0,-1.7141862E-1,-2.1212761E0,-5.3305264E0,1.9797425E0,2.1905344E0,6.48525E-1,9.5254704E-2,1.2984703E0,-1.8391119E0,4.099663E0,-1.6613991E0,3.7768683E0,7.6594257E0,5.102814E0,6.8902045E-2,7.2760773E0,8.542998E0,1.296311E1,-3.5260588E-1,6.0853153E-1,-4.416722E-1,-3.586366E-1,-3.841113E-2,-4.0621355E-1,-2.6319146E-1,3.3952665E-1,-1.320505E-1,2.052705E-1,-3.6508173E-1,-2.1181239E-1,-3.0182151E-2,7.086389E-1,5.0781715E-1,-2.004054E-1,-4.588919E-1,1.590328E-2,3.04511E-1,-2.0907357E-1,2.6716223E-1,9.9993244E-2,7.8731276E-2,-1.1140614E-1,2.6936263E-1,-8.852209E-2,2.7238908E-1,-2.4972516E-1,7.022253E-1,2.9240224E-1,-3.1428432E-1,1.6994643E-1,1.8049593E-1,3.6025402E-1,4.8553893E-1,8.344148E-1,1.1995873E0,3.910085E-1,-2.9815578E-1,3.0953553E-1,7.077185E-1,-1.4466994E-1,5.9639096E-1,1.0017892E0,1.2293466E0,4.1297975E-1],"categories":[],"categories_nodes":[],"categories_segments":[],"categories_sizes":[],"default_left":[0,0,0,0,0,0,0,0,0,0,0,0,0,0,0,0,0,0,0,0,0,0,0,0,0,0,0,0,0,0,0,0,0,0,0,0,0,0,0,0,0,0,0,0,0,0,0,0,0,0,0,0,0,0,0,0,0,0,0,0,0,0,0,0,0,0,0,0,0,0,0,0,0,0,0,0,0,0,0,0,0,0,0,0,0,0,0,0,0,0,0,0,0,0,0,0,0,0,0,0,0],"id":2,"left_children":[1,3,5,7,9,11,13,15,17,19,21,23,25,27,29,31,33,35,-1,37,39,-1,-1,41,-1,43,45,47,49,51,53,55,57,59,61,63,65,67,69,71,73,75,77,79,-1,81,83,85,87,89,91,93,95,97,99,-1,-1,-1,-1,-1,-1,-1,-1,-1,-1,-1,-1,-1,-1,-1,-1,-1,-1,-1,-1,-1,-1,-1,-1,-1,-1,-1,-1,-1,-1,-1,-1,-1,-1,-1,-1,-1,-1,-1,-1,-1,-1,-1,-1,-1,-1],"loss_changes":[5.1591277E4,4.3473086E3,7.883799E3,1.2857012E3,4.7909894E2,9.6693945E2,3.1876562E3,3.1016016E2,6.245166E2,5.070044E2,1.01780396E2,4.8341284E2,5.588179E2,1.1739922E3,7.609219E2,2.5941406E2,1.9932373E2,4.4008105E2,0E0,2.815494E2,2.1099902E2,0E0,0E0,4.6378137E2,0E0,5.0495615E2,5.8627686E2,4.6873877E2,5.585596E2,2.4833438E2,6.566426E2,3.1998984E2,1.1772949E2,2.2743408E2,1.5888159E2,2.8642072E2,5.670713E2,1.0006574E3,2.9504517E2,6.8978455E1,5.201738E1,3.498578E2,3.3425253E2,2.6346115E2,0E0,1.316529E2,6.0733496E2,1.544342E2,3.9560986E2,5.5629785E2,4.7396582E2,2.019639E2,1.308316E2,5.195088E2,9.124297E2,0E0,0E0,0E0,0E0,0E0,0E0,0E0,0E0,0E0,0E0,0E0,0E0,0E0,0E0,0E0,0E0,0E0,0E0,0E0,0E0,0E0,0E0,0E0,0E0,0E0,0E0,0E0,0E0,0E0,0E0,0E0,0E0,0E0,0E0,0E0,0E0,0E0,0E0,0E0,0E0,0E0,0E0,0E0,0E0,0E0,0E0],"parents":[2147483647,0,0,1,1,2,2,3,3,4,4,5,5,6,6,7,7,8,8,9,9,10,10,11,11,12,12,13,13,14,14,15,15,16,16,17,17,19,19,20,20,23,23,25,25,26,26,27,27,28,28,29,29,30,30,31,31,32,32,33,33,34,34,35,35,36,36,37,37,38,38,39,39,40,40,41,41,42,42,43,43,45,45,46,46,47,47,48,48,49,49,50,50,51,51,52,52,53,53,54,54],"right_children":[2,4,6,8,10,12,14,16,18,20,22,24,26,28,30,32,34,36,-1,38,40,-1,-1,42,-1,44,46,48,50,52,54,56,58,60,62,64,66,68,70,72,74,76,78,80,-1,82,84,86,88,90,92,94,96,98,100,-1,-1,-1,-1,-1,-1,-1,-1,-1,-1,-1,-1,-1,-1,-1,-1,-1,-1,-1,-1,-1,-1,-1,-1,-1,-1,-1,-1,-1,-1,-1,-1,-1,-1,-1,-1,-1,-1,-1,-1,-1,-1,-1,-1,-1,-1],"split_conditions":[1.7285501E1,1.7166325E1,1.7379772E1,2.3333333E-1,1.4666667E1,1.6E1,1.7428375E1,1.5736198E1,3.0375865E0,6.8333335E0,1E0,8.8333336E1,4.3E0,3.75E0,2E0,3.2E1,8.5714287E-1,2E0,1.1984915E0,1.81E1,2E0,1.8042906E-1,1.0409055E0,1E0,9.851963E-1,3.35E1,2.857143E-1,4.2E0,2.021E3,1E0,5.7875E0,5E-1,1E-1,-1.0339E0,1.79E1,7.3E1,1E0,1.76E1,1.03896104E-1,1.1111112E0,6.25E0,4.5E1,6.756757E0,1E0,1.2984703E0,4.9666668E1,6.9148935E-2,8.2666664E1,2.13E1,2.2208758E-1,2.5708333E-1,1.1625E2,3.3333334E-1,1.1666666E0,1.22333336E2,-3.5260588E-1,6.0853153E-1,-4.416722E-1,-3.586366E-1,-3.841113E-2,-4.0621355E-1,-2.6319146E-1,3.3952665E-1,-1.320505E-1,2.052705E-1,-3.6508173E-1,-2.1181239E-1,-3.0182151E-2,7.086389E-1,5.0781715E-1,-2.004054E-1,-4.588919E-1,1.590328E-2,3.04511E-1,-2.0907357E-1,2.6716223E-1,9.9993244E-2,7.8731276E-2,-1.1140614E-1,2.6936263E-1,-8.852209E-2,2.7238908E-1,-2.4972516E-1,7.022253E-1,2.9240224E-1,-3.1428432E-1,1.6994643E-1,1.8049593E-1,3.6025402E-1,4.8553893E-1,8.344148E-1,1.1995873E0,3.910085E-1,-2.9815578E-1,3.0953553E-1,7.077185E-1,-1.4466994E-1,5.9639096E-1,1.0017892E0,1.2293466E0,4.1297975E-1],"split_indices":[77,77,77,63,18,44,77,77,58,74,31,9,42,45,45,61,10,53,0,41,21,0,0,36,0,5,6,42,52,65,75,5,63,58,41,61,44,41,24,49,5,9,51,36,0,9,24,9,41,27,12,9,3,17,9,0,0,0,0,0,0,0,0,0,0,0,0,0,0,0,0,0,0,0,0,0,0,0,0,0,0,0,0,0,0,0,0,0,0,0,0,0,0,0,0,0,0,0,0,0,0],"split_type":[0,0,0,0,0,0,0,0,0,0,0,0,0,0,0,0,0,0,0,0,0,0,0,0,0,0,0,0,0,0,0,0,0,0,0,0,0,0,0,0,0,0,0,0,0,0,0,0,0,0,0,0,0,0,0,0,0,0,0,0,0,0,0,0,0,0,0,0,0,0,0,0,0,0,0,0,0,0,0,0,0,0,0,0,0,0,0,0,0,0,0,0,0,0,0,0,0,0,0,0,0],"sum_hessian":[4.961E3,2.764E3,2.197E3,2.106E3,6.58E2,1.205E3,9.92E2,9.93E2,1.113E3,6.54E2,4E0,8.15E2,3.9E2,7.8E2,2.12E2,5.45E2,4.48E2,1.112E3,1E0,6.21E2,3.3E1,2E0,2E0,8.12E2,3E0,6.6E1,3.24E2,3.83E2,3.97E2,1.9E1,1.93E2,7E0,5.38E2,1.44E2,3.04E2,1.25E2,9.87E2,5.36E2,8.5E1,2.9E1,4E0,3.27E2,4.85E2,6.5E1,1E0,1.7E1,3.07E2,1.6E1,3.67E2,1.4E2,2.57E2,1.2E1,7E0,1.41E2,5.2E1,4E0,3E0,2.35E2,3.03E2,1.2E1,1.32E2,3.02E2,2E0,1.07E2,1.8E1,1.95E2,7.92E2,5.25E2,1.1E1,3E0,8.2E1,2.7E1,2E0,3E0,1E0,1.46E2,1.81E2,4.17E2,6.8E1,1.7E1,4.8E1,3E0,1.4E1,2.5E1,2.82E2,1E1,6E0,1.2E2,2.47E2,9.1E1,4.9E1,4E0,2.53E2,6E0,6E0,6E0,1E0,1.13E2,2.8E1,3.9E1,1.3E1],"tree_param":{"num_deleted":"0","num_feature":"78","num_nodes":"101","size_leaf_vector":"1"}},{"base_weights":[-6.1279457E-2,-2.7584002E0,3.4076722E0,-3.6785862E0,-1.3800894E0,2.8142223E0,8.601933E0,-1.7469106E0,-3.8816404E0,-1.822749E0,-2.7846682E-1,1.232782E0,3.7959223E0,9.272064E0,3.189705E0,1.7868324E-1,-3.087625E0,-4.312464E0,-2.9221065E0,-2.6317704E0,-1.3605334E0,-1.725474E0,6.846383E-1,2.2337978E0,6.115654E-1,2.7380075E0,5.0875916E0,9.601926E0,1.3036311E0,6.278512E0,-3.7437278E-1,7.978965E0,-1.3280146E0,-3.5970383E0,2.1686602E0,-4.772156E0,-3.9202712E0,1.9837964E-1,-3.142137E0,-2.7090187E0,7.8062826E-1,-1.8642939E0,-1.03190616E-1,1.0352628E0,-2.3037121E0,3.1656304E-1,5.777336E0,9.559331E-1,3.451915E0,-1.4125569E0,1.0447236E0,-1.2976555E0,2.951618E0,9.613236E0,4.8211246E0,8.394307E0,1.2620187E1,-3.559885E-1,4.938684E0,5.4819804E-1,1.0495223E1,-4.266032E0,3.5564828E0,6.909056E-2,1.3059709E0,-3.7256114E-2,-4.259453E-1,-3.2321066E-1,1.6238275E-1,-5.8275964E-2,3.7216303E-1,2.9479843E-1,-3.867142E-1,-1.2894367E-1,-3.2697803E-1,3.2457078E-1,-1.0022021E-1,-3.535489E-1,-1.9361219E-1,-1.7267758E-1,-3.4165013E-1,1.9305536E-1,-1.6545454E-1,-1.10633925E-1,1.4618471E-1,-2.4954831E-2,8.123117E-1,-2.9197308E-1,-5.072169E-2,1.7585735E-1,-3.4560494E-2,1.0489941E0,-3.4691952E-2,-2.116141E-1,1.4045596E-1,2.4334288E-1,8.9176655E-1,-2.1323152E-3,-2.8592578E-1,6.1785214E-2,4.745361E-1,-3.553573E-1,-1.243875E-2,2.4930725E-1,-1.3902561E-1,1.2369576E0,4.1395643E-1,1.0795842E0,3.73918E-1,1.4564458E-1,7.3442954E-1,1.4730441E-2,1.0700623E0,1.8485549E-1,7.191454E-1,-1.6531749E-1,1.6218868E-1,2.1940263E-1,8.9573395E-1,2.5419958E-2,-4.946476E-1,4.369052E-1,-6.1631884E-2],"categories":[],"categories_nodes":[],"categories_segments":[],"categories_sizes":[],"default_left":[0,0,0,0,0,0,0,0,0,0,0,0,0,0,0,0,0,0,0,0,0,0,0,0,0,0,0,0,0,0,0,0,0,0,0,0,0,0,0,0,0,0,0,0,0,0,0,0,0,0,0,0,0,0,0,0,0,0,0,0,0,0,0,0,0,0,0,0,0,0,0,0,0,0,0,0,0,0,0,0,0,0,0,0,0,0,0,0,0,0,0,0,0,0,0,0,0,0,0,0,0,0,0,0,0,0,0,0,0,0,0,0,0,0,0,0,0,0,0,0,0,0,0],"id":3,"left_children":[1,3,5,7,9,11,13,15,17,19,21,23,25,27,29,31,33,35,37,39,41,43,45,47,49,51,53,55,57,59,61,63,65,67,69,71,73,75,77,79,-1,81,83,85,87,89,91,93,95,97,99,101,103,105,107,109,111,-1,113,115,117,119,121,-1,-1,-1,-1,-1,-1,-1,-1,-1,-1,-1,-1,-1,-1,-1,-1,-1,-1,-1,-1,-1,-1,-1,-1,-1,-1,-1,-1,-1,-1,-1,-1,-1,-1,-1,-1,-1,-1,-1,-1,-1,-1,-1,-1,-1,-1,-1,-1,-1,-1,-1,-1,-1,-1,-1,-1,-1,-1,-1,-1],"loss_changes":[4.6415992E4,3.534248E3,6.663746E3,6.488672E2,5.449558E2,3.0206387E3,7.7435156E2,4.164917E2,6.121328E2,2.9442603E2,4.500311E2,4.6349133E2,1.627793E3,5.0420117E2,2.8916843E2,7.9869E2,2.6231757E2,1.6828125E2,3.249939E2,3.0232446E2,3.2264478E2,2.0844266E2,3.6121396E2,4.4144397E2,4.073813E2,5.755415E2,6.0341504E2,5.8084766E2,2.1025339E2,3.3142523E2,2.1411118E2,6.373874E2,1.9336708E2,2.2531177E2,6.85327E1,2.6607422E2,2.1175488E2,1.8454909E2,3.9528223E2,2.3774463E2,0E0,3.2241077E2,3.6564975E2,2.866975E2,2.3772125E2,2.5748203E2,5.9920984E2,4.1064178E2,4.2545166E2,2.4518799E2,5.032875E2,1.2095517E2,4.9220068E2,6.708052E2,5.8858984E2,6.9528516E2,4.848047E2,0E0,4.1968597E1,3.1258146E1,1.1403931E1,6.406298E1,6.237037E1,0E0,0E0,0E0,0E0,0E0,0E0,0E0,0E0,0E0,0E0,0E0,0E0,0E0,0E0,0E0,0E0,0E0,0E0,0E0,0E0,0E0,0E0,0E0,0E0,0E0,0E0,0E0,0E0,0E0,0E0,0E0,0E0,0E0,0E0,0E0,0E0,0E0,0E0,0E0,0E0,0E0,0E0,0E0,0E0,0E0,0E0,0E0,0E0,0E0,0E0,0E0,0E0,0E0,0E0,0E0,0E0,0E0,0E0,0E0,0E0],"parents":[2147483647,0,0,1,1,2,2,3,3,4,4,5,5,6,6,7,7,8,8,9,9,10,10,11,11,12,12,13,13,14,14,15,15,16,16,17,17,18,18,19,19,20,20,21,21,22,22,23,23,24,24,25,25,26,26,27,27,28,28,29,29,30,30,31,31,32,32,33,33,34,34,35,35,36,36,37,37,38,38,39,39,41,41,42,42,43,43,44,44,45,45,46,46,47,47,48,48,49,49,50,50,51,51,52,52,53,53,54,54,55,55,56,56,58,58,59,59,60,60,61,61,62,62],"right_children":[2,4,6,8,10,12,14,16,18,20,22,24,26,28,30,32,34,36,38,40,42,44,46,48,50,52,54,56,58,60,62,64,66,68,70,72,74,76,78,80,-1,82,84,86,88,90,92,94,96,98,100,102,104,106,108,110,112,-1,114,116,118,120,122,-1,-1,-1,-1,-1,-1,-1,-1,-1,-1,-1,-1,-1,-1,-1,-1,-1,-1,-1,-1,-1,-1,-1,-1,-1,-1,-1,-1,-1,-1,-1,-1,-1,-1,-1,-1,-1,-1,-1,-1,-1,-1,-1,-1,-1,-1,-1,-1,-1,-1,-1,-1,-1,-1,-1,-1,-1,-1,-1,-1],"split_conditions":[1.7285501E1,1.6972635E1,1.7428375E1,2E0,1E1,1.7351244E1,1.2E1,2.019E3,1.3333334E0,-3.2709646E-1,3.5E0,1E0,3.75E0,3.3333334E-1,2.3236598E-1,1E0,1.2955556E0,2E0,1.25E0,1.6666666E1,8.25E0,5.2E0,4E-1,1.325E1,1.025E1,2.777778E-1,4.5E1,2.9411766E-1,3.58E1,2.4366667E1,1E0,1E0,7E0,4.866667E0,1E0,-1.6666667E-1,1.125E0,1E0,3.35E0,9.777778E-1,7.8062826E-1,1.698188E1,8.1666666E-1,4.733333E0,9.4339624E-2,1E0,5E-1,5.3333336E-1,1.6666666E0,2.175E1,9.5E-1,1.736391E1,1.2E1,1.2E1,1.08E1,4E0,9.444444E-1,-3.559885E-1,8.75E0,2.73E1,4.0666668E1,3.7333332E1,1.4916667E1,6.909056E-2,1.3059709E0,-3.7256114E-2,-4.259453E-1,-3.2321066E-1,1.6238275E-1,-5.8275964E-2,3.7216303E-1,2.9479843E-1,-3.867142E-1,-1.2894367E-1,-3.2697803E-1,3.2457078E-1,-1.0022021E-1,-3.535489E-1,-1.9361219E-1,-1.7267758E-1,-3.4165013E-1,1.9305536E-1,-1.6545454E-1,-1.10633925E-1,1.4618471E-1,-2.4954831E-2,8.123117E-1,-2.9197308E-1,-5.072169E-2,1.7585735E-1,-3.4560494E-2,1.0489941E0,-3.4691952E-2,-2.116141E-1,1.4045596E-1,2.4334288E-1,8.9176655E-1,-2.1323152E-3,-2.8592578E-1,6.1785214E-2,4.745361E-1,-3.553573E-1,-1.243875E-2,2.4930725E-1,-1.3902561E-1,1.2369576E0,4.1395643E-1,1.0795842E0,3.73918E-1,1.4564458E-1,7.3442954E-1,1.4730441E-2,1.0700623E0,1.8485549E-1,7.191454E-1,-1.6531749E-1,1.6218868E-1,2.1940263E-1,8.9573395E-1,2.5419958E-2,-4.946476E-1,4.369052E-1,-6.1631884E-2],"split_indices":[77,77,77,53,44,77,76,52,45,27,60,36,45,3,27,36,26,44,76,17,44,41,49,44,44,11,61,48,41,0,31,39,59,0,23,18,7,36,0,26,0,77,35,0,49,36,49,11,19,5,35,77,72,53,41,53,26,0,3,41,5,5,76,0,0,0,0,0,0,0,0,0,0,0,0,0,0,0,0,0,0,0,0,0,0,0,0,0,0,0,0,0,0,0,0,0,0,0,0,0,0,0,0,0,0,0,0,0,0,0,0,0,0,0,0,0,0,0,0,0,0,0,0],"split_type":[0,0,0,0,0,0,0,0,0,0,0,0,0,0,0,0,0,0,0,0,0,0,0,0,0,0,0,0,0,0,0,0,0,0,0,0,0,0,0,0,0,0,0,0,0,0,0,0,0,0,0,0,0,0,0,0,0,0,0,0,0,0,0,0,0,0,0,0,0,0,0,0,0,0,0,0,0,0,0,0,0,0,0,0,0,0,0,0,0,0,0,0,0,0,0,0,0,0,0,0,0,0,0,0,0,0,0,0,0,0,0,0,0,0,0,0,0,0,0,0,0,0,0],"sum_hessian":[4.959E3,2.79E3,2.169E3,1.672E3,1.118E3,1.948E3,2.21E2,1.6E2,1.512E3,7.97E2,3.21E2,7.47E2,1.201E3,1.96E2,2.5E1,6.6E1,9.4E1,1.041E3,4.71E2,2.88E2,5.09E2,1.28E2,1.93E2,2.85E2,4.62E2,6.62E2,5.39E2,1.88E2,8E0,1.3E1,1.2E1,1E1,5.6E1,8.6E1,8E0,4.74E2,5.67E2,3.1E1,4.4E2,2.87E2,1E0,3.63E2,1.46E2,2.2E1,1.06E2,1.81E2,1.2E1,1.4E2,1.45E2,8.1E1,3.81E2,3.3E1,6.29E2,2.8E1,5.11E2,1.37E2,5.1E1,3E0,5E0,6E0,7E0,6E0,6E0,6E0,4E0,4.7E1,9E0,8E1,6E0,4E0,4E0,3E0,4.71E2,3.9E1,5.28E2,8E0,2.3E1,1.57E2,2.83E2,2.14E2,7.3E1,1.6E1,3.47E2,8.8E1,5.8E1,2E1,2E0,5.8E1,4.8E1,5.1E1,1.3E2,5E0,7E0,2.5E1,1.15E2,1.39E2,6E0,5E1,3.1E1,3.62E2,1.9E1,8E0,2.5E1,6.08E2,2.1E1,1.1E1,1.7E1,7E0,5.04E2,1.5E1,1.22E2,3E0,4.8E1,4E0,1E0,2E0,4E0,1E0,6E0,2E0,4E0,4E0,2E0],"tree_param":{"num_deleted":"0","num_feature":"78","num_nodes":"123","size_leaf_vector":"1"}},{"base_weights":[4.191128E-3,-2.086155E0,3.4705834E0,-2.963354E0,-1.6779648E-1,2.5600944E0,6.575477E0,-9.293368E-1,-3.142329E0,-9.7741157E-1,6.622003E-1,1.7881992E0,3.7020657E0,7.042741E0,2.2909262E0,6.678065E-1,-1.8976898E0,-3.7349935E0,-2.206051E0,2.0569646E-1,-1.4535482E0,1.6469657E-1,2.8448884E0,2.0867481E0,-1.9074742E-1,4.7905445E0,2.5544157E0,8.129061E0,5.0558453E0,9.5259666E-1,8.014543E0,6.479499E0,-6.105229E-1,-2.2091424E0,2.2591121E0,-4.217589E0,-3.364023E0,-2.3483083E0,-3.4323207E-1,3.227835E0,-7.3795867E-1,8.402962E0,-1.5629518E0,1.4694536E0,-5.33805E-1,1.2847608E0,9.876423E0,3.0387633E0,1.3939236E0,1.6472923E0,-1.7064191E0,-3.915554E0,4.923104E0,1.0270377E0,4.1962037E0,3.6910274E0,8.878956E0,-3.6826807E-1,5.8802342E0,-2.006565E0,2.3388906E0,8.845979E-1,-7.0950186E-1,1.25468625E-2,1.2223889E0,4.5098087E-1,-1.1941157E-1,-1.8916698E-1,5.294129E-1,3.3133456E-1,-1.7805856E-1,-3.659883E-1,-2.527197E-1,-2.7324328E-1,3.3949926E-1,-6.27026E-2,-2.0091827E-1,-5.4517448E-2,7.1286064E-1,4.65104E-1,-1.5914008E-1,3.3960268E-1,-1.02814436E-1,-5.080768E-2,9.3285435E-1,-1.4012758E-1,1.9636904E-1,-2.1292466E-1,1.75937E-1,3.6225673E-2,-1.8630536E-1,-3.3247113E-2,4.4805372E-1,3.7166172E-1,1.6347761E0,3.5771288E-2,3.021595E-1,1.4490694E-1,-9.212972E-2,4.2857055E-2,5.5100286E-1,3.1021914E-1,-1.7219403E-1,-3.9456114E-2,-3.6982733E-1,1.0069373E0,3.7749472E-1,3.7842524E-1,7.3461086E-3,2.4843356E-1,8.333614E-1,8.726006E-1,1.3122119E-1,1.3457993E-1,7.641095E-1,-2.2453964E-1,5.600654E-1,2.034377E-1,5.7472366E-1,1.5399358E-1,-3.380338E-1,6.081094E-1,1.2371533E-1,7.784856E-2,-1.6698879E-1],"categories":[],"categories_nodes":[],"categories_segments":[],"categories_sizes":[],"default_left":[0,0,0,0,0,0,0,0,0,0,0,0,0,0,0,0,0,0,0,0,0,0,0,0,0,0,0,0,0,0,0,0,0,0,0,0,0,0,0,0,0,0,0,0,0,0,0,0,0,0,0,0,0,0,0,0,0,0,0,0,0,0,0,0,0,0,0,0,0,0,0,0,0,0,0,0,0,0,0,0,0,0,0,0,0,0,0,0,0,0,0,0,0,0,0,0,0,0,0,0,0,0,0,0,0,0,0,0,0,0,0,0,0,0,0,0,0,0,0,0,0,0,0,0,0],"id":4,"left_children":[1,3,5,7,9,11,13,15,17,19,21,23,25,27,29,31,33,35,37,39,41,43,45,47,49,51,53,55,57,59,61,63,65,67,69,71,73,75,77,79,81,83,85,87,89,91,93,95,97,99,101,103,105,107,109,111,113,115,117,119,121,-1,123,-1,-1,-1,-1,-1,-1,-1,-1,-1,-1,-1,-1,-1,-1,-1,-1,-1,-1,-1,-1,-1,-1,-1,-1,-1,-1,-1,-1,-1,-1,-1,-1,-1,-1,-1,-1,-1,-1,-1,-1,-1,-1,-1,-1,-1,-1,-1,-1,-1,-1,-1,-1,-1,-1,-1,-1,-1,-1,-1,-1,-1,-1],"loss_changes":[3.590386E4,5.200672E3,5.2517305E3,7.687969E2,6.531693E2,1.2648096E3,8.277832E2,2.6895178E2,1.0726641E3,2.775777E2,5.204603E2,5.1045874E2,7.128096E2,7.777754E2,3.208523E2,4.9487378E2,1.4480765E2,1.9845508E2,1.9979443E2,4.0759464E2,3.9094635E2,3.581369E2,9.6253314E2,4.9000537E2,3.2040546E2,3.6213818E2,7.098429E2,7.780166E2,6.1532324E2,1.5240799E2,2.2125348E2,6.637606E2,3.1112183E2,1.5380276E2,7.695414E1,1.7916797E2,2.805376E2,1.7742188E2,1.774013E2,4.7064847E2,3.0238107E2,1.2628198E2,2.6797314E2,4.1881323E2,4.546195E2,5.4589935E2,7.8618384E2,6.00551E2,4.6542108E2,2.9846506E2,1.6507996E2,9.311348E0,3.978877E2,5.151222E2,8.9592065E2,5.284276E2,9.893535E2,3.6064774E2,4.985464E2,1.1304451E2,9.158626E1,0E0,9.097838E0,0E0,0E0,0E0,0E0,0E0,0E0,0E0,0E0,0E0,0E0,0E0,0E0,0E0,0E0,0E0,0E0,0E0,0E0,0E0,0E0,0E0,0E0,0E0,0E0,0E0,0E0,0E0,0E0,0E0,0E0,0E0,0E0,0E0,0E0,0E0,0E0,0E0,0E0,0E0,0E0,0E0,0E0,0E0,0E0,0E0,0E0,0E0,0E0,0E0,0E0,0E0,0E0,0E0,0E0,0E0,0E0,0E0,0E0,0E0,0E0,0E0,0E0],"parents":[2147483647,0,0,1,1,2,2,3,3,4,4,5,5,6,6,7,7,8,8,9,9,10,10,11,11,12,12,13,13,14,14,15,15,16,16,17,17,18,18,19,19,20,20,21,21,22,22,23,23,24,24,25,25,26,26,27,27,28,28,29,29,30,30,31,31,32,32,33,33,34,34,35,35,36,36,37,37,38,38,39,39,40,40,41,41,42,42,43,43,44,44,45,45,46,46,47,47,48,48,49,49,50,50,51,51,52,52,53,53,54,54,55,55,56,56,57,57,58,58,59,59,60,60,62,62],"right_children":[2,4,6,8,10,12,14,16,18,20,22,24,26,28,30,32,34,36,38,40,42,44,46,48,50,52,54,56,58,60,62,64,66,68,70,72,74,76,78,80,82,84,86,88,90,92,94,96,98,100,102,104,106,108,110,112,114,116,118,120,122,-1,124,-1,-1,-1,-1,-1,-1,-1,-1,-1,-1,-1,-1,-1,-1,-1,-1,-1,-1,-1,-1,-1,-1,-1,-1,-1,-1,-1,-1,-1,-1,-1,-1,-1,-1,-1,-1,-1,-1,-1,-1,-1,-1,-1,-1,-1,-1,-1,-1,-1,-1,-1,-1,-1,-1,-1,-1,-1,-1,-1,-1,-1,-1],"split_conditions":[1.7316763E1,1.7161774E1,1.7412945E1,2E0,1.0333333E1,3.7142856E0,1.25E1,2.019E3,5E0,5E0,3E0,2.1311475E-1,1E0,1E0,2E0,1E0,1.3066666E0,2E0,1.3811111E0,4.0307693E0,7.0666665E-1,1E0,3.409091E-1,1E0,2.8169014E0,2.7E0,1.6333334E1,1.6E1,1.8666666E1,2.59E1,4.5E0,1E0,1.09061E1,1.25E-1,1.85E0,1.4E1,2E1,3E-1,1.3444445E1,4.5833335E0,9E-1,1.475E1,1.9E1,2E0,1.075E1,1.0111111E0,8E-1,9.3333334E-1,2.73E1,6.1333332E1,2.1333334E-1,2.1E1,3.6E0,4.2E0,1.0888889E0,1.7416912E1,9E-1,6.25E-1,-4.7870907E-1,2.3809524E0,3E0,8.845979E-1,1.7566668E1,1.25468625E-2,1.2223889E0,4.5098087E-1,-1.1941157E-1,-1.8916698E-1,5.294129E-1,3.3133456E-1,-1.7805856E-1,-3.659883E-1,-2.527197E-1,-2.7324328E-1,3.3949926E-1,-6.27026E-2,-2.0091827E-1,-5.4517448E-2,7.1286064E-1,4.65104E-1,-1.5914008E-1,3.3960268E-1,-1.02814436E-1,-5.080768E-2,9.3285435E-1,-1.4012758E-1,1.9636904E-1,-2.1292466E-1,1.75937E-1,3.6225673E-2,-1.8630536E-1,-3.3247113E-2,4.4805372E-1,3.7166172E-1,1.6347761E0,3.5771288E-2,3.021595E-1,1.4490694E-1,-9.212972E-2,4.2857055E-2,5.5100286E-1,3.1021914E-1,-1.7219403E-1,-3.9456114E-2,-3.6982733E-1,1.0069373E0,3.7749472E-1,3.7842524E-1,7.3461086E-3,2.4843356E-1,8.333614E-1,8.726006E-1,1.3122119E-1,1.3457993E-1,7.641095E-1,-2.2453964E-1,5.600654E-1,2.034377E-1,5.7472366E-1,1.5399358E-1,-3.380338E-1,6.081094E-1,1.2371533E-1,7.784856E-2,-1.6698879E-1],"split_indices":[77,77,77,53,44,10,76,52,44,53,69,48,36,36,17,36,26,44,26,73,26,36,49,36,51,42,44,5,44,41,60,39,77,1,0,53,69,42,76,76,25,5,53,60,7,26,17,26,41,9,12,5,42,42,25,77,25,4,58,51,53,0,0,0,0,0,0,0,0,0,0,0,0,0,0,0,0,0,0,0,0,0,0,0,0,0,0,0,0,0,0,0,0,0,0,0,0,0,0,0,0,0,0,0,0,0,0,0,0,0,0,0,0,0,0,0,0,0,0,0,0,0,0,0,0],"split_type":[0,0,0,0,0,0,0,0,0,0,0,0,0,0,0,0,0,0,0,0,0,0,0,0,0,0,0,0,0,0,0,0,0,0,0,0,0,0,0,0,0,0,0,0,0,0,0,0,0,0,0,0,0,0,0,0,0,0,0,0,0,0,0,0,0,0,0,0,0,0,0,0,0,0,0,0,0,0,0,0,0,0,0,0,0,0,0,0,0,0,0,0,0,0,0,0,0,0,0,0,0,0,0,0,0,0,0,0,0,0,0,0,0,0,0,0,0,0,0,0,0,0,0,0,0],"sum_hessian":[4.953E3,3.09E3,1.863E3,2.12E3,9.7E2,1.442E3,4.21E2,1.72E2,1.948E3,4.91E2,4.79E2,8.62E2,5.8E2,3.79E2,4.2E1,6.5E1,1.07E2,1.191E3,7.57E2,1.41E2,3.5E2,3.91E2,8.8E1,7.49E2,1.13E2,2.96E2,2.84E2,2.43E2,1.36E2,3.5E1,7E0,1.1E1,5.4E1,1E2,7E0,5.13E2,6.78E2,7.03E2,5.4E1,3.3E1,1.08E2,3E0,3.47E2,1.36E2,2.55E2,7.3E1,1.5E1,3.14E2,4.35E2,5.1E1,6.2E1,4E0,2.92E2,1.48E2,1.36E2,3.6E1,2.07E2,1.8E1,1.18E2,1.1E1,2.4E1,5E0,2E0,7E0,4E0,6E0,4.8E1,9.9E1,1E0,5E0,2E0,3.81E2,1.32E2,6.74E2,4E0,6.7E1,6.36E2,5.3E1,1E0,2.2E1,1.1E1,1E1,9.8E1,1E0,2E0,3.32E2,1.5E1,2E1,1.16E2,1.65E2,9E1,5.3E1,2E1,1.1E1,4E0,7E1,2.44E2,3.74E2,6.1E1,4.3E1,8E0,4E0,5.8E1,1E0,3E0,6E0,2.86E2,2.9E1,1.19E2,1.17E2,1.9E1,7E0,2.9E1,1.8E1,1.89E2,1.4E1,4E0,3.4E1,8.4E1,4E0,7E0,2E0,2.2E1,1E0,1E0],"tree_param":{"num_deleted":"0","num_feature":"78","num_nodes":"125","size_leaf_vector":"1"}},{"base_weights":[5.0612684E-2,-2.2339005E0,2.9192922E0,-2.7735863E0,-3.0718222E-1,2.0227222E0,5.416422E0,-1.0138583E0,-2.9355948E0,-4.1696915E-1,5.6401467E0,2.9658244E0,1.2913517E0,4.30264E0,7.200726E0,-1.346355E0,4.2984853E0,-3.7947834E0,-2.4076235E0,-1.7468593E0,3.2020733E-2,5.746553E-1,1.1583806E1,1.9142408E0,3.8858469E0,-8.883278E-1,1.6324023E0,5.418248E0,2.9869812E0,1.7231648E0,7.5907273E0,-4.877028E0,-1.0992154E0,2.0222976E0,9.660886E0,1.5929437E0,-3.8260252E0,-3.225386E0,-2.05994E0,-2.1742063E0,3.8418171E0,3.0876356E-1,-3.3194518E0,-2.95507E0,2.5975595E0,1.1220877E0,6.858579E-2,1.6301659E0,7.7834086E0,6.2880054E0,3.223149E0,7.719949E-1,-2.224411E0,1.479638E0,6.237693E0,4.808588E0,1.1441287E1,3.9185855E0,-5.0909585E-1,6.2196536E0,-8.770259E-1,6.20198E0,9.345575E0,-4.2760175E-1,-1.4512295E-1,2.4066977E-1,-1.0650191E-1,2.7459967E-1,-3.6637145E-1,1.0494174E0,1.0588888E-1,-4.6134345E-2,4.148574E-1,-3.1999058E-1,-2.2951633E-1,-2.754476E-1,-5.52568E-2,4.2700198E-2,-1.7391102E-1,-2.7136585E-1,-3.5442557E-2,1.648122E-2,5.456519E-1,-2.9977417E-1,4.2915292E-2,-4.7178695E-1,-1.8364717E-1,-2.31603E-2,-3.2744807E-1,2.4341588E-1,2.868009E-2,1.1717318E-1,6.988779E-1,7.094465E-1,-2.920803E-1,4.3380615E-1,1.4531933E0,4.0308532E-1,1.7704275E-1,-7.8433804E-2,4.8851362E-1,-2.4684655E-2,-3.441641E-1,-8.191549E-2,1.3835621E-1,1.2354125E0,3.809195E-1,4.7068176E-1,2.0901929E-1,1.0851233E0,-2.3623304E-1,4.4804698E-1,1.4441389E-1,-1.542929E-1,2.6917124E-1,-9.734627E-3,6.025806E-1,-2.1167874E-1,1.4039369E-1,-3.479792E-1,5.4455847E-1,3.3436936E-1,8.7024075E-1],"categories":[],"categories_nodes":[],"categories_segments":[],"categories_sizes":[],"default_left":[0,0,0,0,0,0,0,0,0,0,0,0,0,0,0,0,0,0,0,0,0,0,0,0,0,0,0,0,0,0,0,0,0,0,0,0,0,0,0,0,0,0,0,0,0,0,0,0,0,0,0,0,0,0,0,0,0,0,0,0,0,0,0,0,0,0,0,0,0,0,0,0,0,0,0,0,0,0,0,0,0,0,0,0,0,0,0,0,0,0,0,0,0,0,0,0,0,0,0,0,0,0,0,0,0,0,0,0,0,0,0,0,0,0,0,0,0,0,0,0,0,0,0],"id":5,"left_children":[1,3,5,7,9,11,13,15,17,19,21,23,25,27,29,31,33,35,37,39,41,43,45,47,49,51,53,55,57,59,61,63,65,67,69,71,73,75,77,79,81,83,85,87,89,-1,-1,91,93,95,97,99,101,103,105,107,109,111,113,115,117,119,121,-1,-1,-1,-1,-1,-1,-1,-1,-1,-1,-1,-1,-1,-1,-1,-1,-1,-1,-1,-1,-1,-1,-1,-1,-1,-1,-1,-1,-1,-1,-1,-1,-1,-1,-1,-1,-1,-1,-1,-1,-1,-1,-1,-1,-1,-1,-1,-1,-1,-1,-1,-1,-1,-1,-1,-1,-1,-1,-1,-1],"loss_changes":[3.2433484E4,2.8635518E3,4.900342E3,6.1014453E2,3.9620462E2,1.1103921E3,1.1185312E3,3.2873163E2,8.838867E2,3.5490915E2,3.233105E2,6.740547E2,6.7948804E2,5.0990137E2,4.5810156E2,1.4499594E2,1.1355861E2,1.3222266E2,3.405537E2,3.6643182E2,4.134596E2,5.762229E1,1.1747278E2,5.382411E2,5.757461E2,2.769353E2,5.4507886E2,6.5205566E2,5.462483E2,1.9305672E2,4.4251465E2,5.35614E0,1.5920898E2,9.9395294E1,6.7654816E1,4.2426224E1,1.11634766E2,1.9752002E2,2.5578857E2,2.932812E2,1.1702702E2,3.8214917E2,7.5382385E1,7.4772625E0,3.5525322E0,0E0,0E0,3.5898254E2,2.1893811E2,7.214302E2,5.309231E2,5.2999536E2,2.7286285E2,4.8029675E2,2.6415857E2,4.0156763E2,5.6055566E2,4.5837805E2,2.0431044E2,5.1599564E1,5.5946453E1,7.831426E2,6.575957E2,0E0,0E0,0E0,0E0,0E0,0E0,0E0,0E0,0E0,0E0,0E0,0E0,0E0,0E0,0E0,0E0,0E0,0E0,0E0,0E0,0E0,0E0,0E0,0E0,0E0,0E0,0E0,0E0,0E0,0E0,0E0,0E0,0E0,0E0,0E0,0E0,0E0,0E0,0E0,0E0,0E0,0E0,0E0,0E0,0E0,0E0,0E0,0E0,0E0,0E0,0E0,0E0,0E0,0E0,0E0,0E0,0E0,0E0,0E0,0E0],"parents":[2147483647,0,0,1,1,2,2,3,3,4,4,5,5,6,6,7,7,8,8,9,9,10,10,11,11,12,12,13,13,14,14,15,15,16,16,17,17,18,18,19,19,20,20,21,21,22,22,23,23,24,24,25,25,26,26,27,27,28,28,29,29,30,30,31,31,32,32,33,33,34,34,35,35,36,36,37,37,38,38,39,39,40,40,41,41,42,42,43,43,44,44,47,47,48,48,49,49,50,50,51,51,52,52,53,53,54,54,55,55,56,56,57,57,58,58,59,59,60,60,61,61,62,62],"right_children":[2,4,6,8,10,12,14,16,18,20,22,24,26,28,30,32,34,36,38,40,42,44,46,48,50,52,54,56,58,60,62,64,66,68,70,72,74,76,78,80,82,84,86,88,90,-1,-1,92,94,96,98,100,102,104,106,108,110,112,114,116,118,120,122,-1,-1,-1,-1,-1,-1,-1,-1,-1,-1,-1,-1,-1,-1,-1,-1,-1,-1,-1,-1,-1,-1,-1,-1,-1,-1,-1,-1,-1,-1,-1,-1,-1,-1,-1,-1,-1,-1,-1,-1,-1,-1,-1,-1,-1,-1,-1,-1,-1,-1,-1,-1,-1,-1,-1,-1,-1,-1,-1,-1],"split_conditions":[1.7285501E1,1.7174511E1,1.7403986E1,2E0,1.18E1,1E0,1.7428375E1,1.3066666E0,3E0,-3E0,7E-1,1.55E1,1.0666667E1,5.224138E0,4.5454545E0,-1.5372001E0,1.2967011E1,4.6E1,1.6473227E1,1.1125E1,3.2666668E1,1.45E1,6.6E0,4.5666668E1,6E0,2.021E3,1.8817533E0,5.142857E0,8.5E0,-3.075712E-1,4.5E0,-6.761882E-1,9.222222E-1,2.1504195E0,2E-1,6.084656E-1,4.9391127E0,3.0333333E0,3.75E0,2.5E0,7.7E0,-1.7068777E0,9.2E0,7.75E0,7.35E0,1.1220877E0,6.858579E-2,1.5555556E0,4E-1,1.8033333E1,1.3875E1,5.8333332E1,-2E0,1E1,1.075E1,1.975E1,6.5789473E-1,1E0,1.2E1,2.1966667E1,2.5666666E1,1.725E1,9.6666664E-1,-4.2760175E-1,-1.4512295E-1,2.4066977E-1,-1.0650191E-1,2.7459967E-1,-3.6637145E-1,1.0494174E0,1.0588888E-1,-4.6134345E-2,4.148574E-1,-3.1999058E-1,-2.2951633E-1,-2.754476E-1,-5.52568E-2,4.2700198E-2,-1.7391102E-1,-2.7136585E-1,-3.5442557E-2,1.648122E-2,5.456519E-1,-2.9977417E-1,4.2915292E-2,-4.7178695E-1,-1.8364717E-1,-2.31603E-2,-3.2744807E-1,2.4341588E-1,2.868009E-2,1.1717318E-1,6.988779E-1,7.094465E-1,-2.920803E-1,4.3380615E-1,1.4531933E0,4.0308532E-1,1.7704275E-1,-7.8433804E-2,4.8851362E-1,-2.4684655E-2,-3.441641E-1,-8.191549E-2,1.3835621E-1,1.2354125E0,3.809195E-1,4.7068176E-1,2.0901929E-1,1.0851233E0,-2.3623304E-1,4.4804698E-1,1.4441389E-1,-1.542929E-1,2.6917124E-1,-9.734627E-3,6.025806E-1,-2.1167874E-1,1.4039369E-1,-3.479792E-1,5.4455847E-1,3.3436936E-1,8.7024075E-1],"split_indices":[77,77,77,53,18,36,77,26,44,59,11,44,44,73,73,58,77,34,77,7,5,5,7,5,53,52,58,73,60,27,60,27,25,58,0,24,74,19,44,45,41,27,0,0,0,0,0,26,8,0,7,9,59,41,44,7,49,36,60,0,44,44,25,0,0,0,0,0,0,0,0,0,0,0,0,0,0,0,0,0,0,0,0,0,0,0,0,0,0,0,0,0,0,0,0,0,0,0,0,0,0,0,0,0,0,0,0,0,0,0,0,0,0,0,0,0,0,0,0,0,0,0,0],"split_type":[0,0,0,0,0,0,0,0,0,0,0,0,0,0,0,0,0,0,0,0,0,0,0,0,0,0,0,0,0,0,0,0,0,0,0,0,0,0,0,0,0,0,0,0,0,0,0,0,0,0,0,0,0,0,0,0,0,0,0,0,0,0,0,0,0,0,0,0,0,0,0,0,0,0,0,0,0,0,0,0,0,0,0,0,0,0,0,0,0,0,0,0,0,0,0,0,0,0,0,0,0,0,0,0,0,0,0,0,0,0,0,0,0,0,0,0,0,0,0,0,0,0,0],"sum_hessian":[4.947E3,2.754E3,2.193E3,2.151E3,6.03E2,1.615E3,5.78E2,1.82E2,1.969E3,5.93E2,1E1,7.04E2,9.11E2,3.58E2,2.2E2,1.72E2,1E1,7.47E2,1.222E3,1.49E2,4.44E2,6E0,4E0,3.3E2,3.74E2,1.23E2,7.88E2,1.92E2,1.66E2,1.5E1,2.05E2,1E1,1.62E2,8E0,2E0,4E0,7.43E2,3.62E2,8.6E2,1.39E2,1E1,4.11E2,3.3E1,2E0,4E0,3E0,1E0,3.16E2,1.4E1,7.9E1,2.95E2,5.5E1,6.8E1,7.64E2,2.4E1,1.76E2,1.6E1,1.31E2,3.5E1,5E0,1E1,1.17E2,8.8E1,8E0,2E0,8E0,1.54E2,7E0,1E0,1E0,1E0,3E0,1E0,6.26E2,1.17E2,3.33E2,2.9E1,3.6E1,8.24E2,8.1E1,5.8E1,5E0,5E0,2.1E1,3.9E2,8E0,2.5E1,1E0,1E0,3E0,1E0,3.1E2,6E0,1.3E1,1E0,7.5E1,4E0,1.04E2,1.91E2,4.2E1,1.3E1,3.6E1,3.2E1,6.9E1,6.95E2,2E0,2.2E1,1.17E2,5.9E1,1.4E1,2E0,7.2E1,5.9E1,2.6E1,9E0,1E0,4E0,6E0,4E0,6E0,1.11E2,2.1E1,6.7E1],"tree_param":{"num_deleted":"0","num_feature":"78","num_nodes":"123","size_leaf_vector":"1"}},{"base_weights":[6.277398E-2,-2.0682428E0,2.7149172E0,-2.7149282E0,-6.2495655E-1,1.353474E0,4.3780446E0,-8.517238E-1,-2.8706295E0,-1.1573088E0,-3.53246E-2,7.15482E-1,2.1292744E0,3.7538419E0,6.6861777E0,-1.1980664E0,6.2319946E0,-3.2356281E0,-1.9904081E0,-3.4292357E0,-7.238044E-1,-5.3495294E-1,2.476766E0,9.8468363E-1,-1.0142471E0,9.027475E-1,2.9755874E0,3.8874419E0,-1.796526E0,3.116418E0,7.5382237E0,3.9348584E-1,-2.2524242E0,3.056324E0,1.0074407E0,-3.2866282E0,3.7258083E-1,1.1553441E0,-2.3328335E0,2.4223094E0,-4.1086597E0,-1.0916569E0,1.2631965E0,2.6069229E0,-7.629789E-1,1.4615707E0,1.2537656E1,-1.474474E0,1.2317269E0,-1.88372E0,4.272917E0,-2.9761033E0,1.4953772E0,3.3485425E0,9.621359E-3,2.931207E0,4.701011E0,1.198214E0,-3.2785761E0,1.8071662E0,1.2423447E1,-1.3918734E0,7.8213058E0,1.0117753E-1,-4.0707263E-1,-1.9463663E-1,5.124965E-1,3.4489268E-1,2.6488252E-2,-2.9514474E-1,-2.3053537E-1,3.455151E-1,-2.5651196E-1,8.4414953E-1,-4.6168018E-2,-1.9342928E-1,4.735785E-1,7.029968E-1,-2.5074187E-1,-3.5701412E-1,1.8338095E-1,4.4862673E-1,-9.914086E-2,2.8815657E-1,-2.039785E-1,5.471713E-1,-1.4677647E-1,-6.891641E-2,4.395871E-1,3.1970778E-1,-1.0656299E-2,1.5596409E0,-7.082969E-2,-2.051312E-1,2.7660036E-1,1.4632829E-1,2.634563E-2,-1.8790919E-1,2.5243545E-1,-4.6569887E-1,5.3172094E-1,2.124102E-1,-3.1587306E-1,1.0353491E-1,1.1125486E0,2.9145482E-1,-7.827591E-2,-1.7850181E-1,3.8979384E-1,2.8380987E-1,7.55815E-2,1.249964E-1,4.1379318E-1,1.8998285E-1,-2.3044862E-1,-2.9055247E-1,3.44552E-2,2.8259695E-1,-1.7736103E-1,1.1630851E0,1.5451895E-1,-2.644647E-1,1.2725319E-1,6.441337E-1,-8.388615E-2],"categories":[],"categories_nodes":[],"categories_segments":[],"categories_sizes":[],"default_left":[0,0,0,0,0,0,0,0,0,0,0,0,0,0,0,0,0,0,0,0,0,0,0,0,0,0,0,0,0,0,0,0,0,0,0,0,0,0,0,0,0,0,0,0,0,0,0,0,0,0,0,0,0,0,0,0,0,0,0,0,0,0,0,0,0,0,0,0,0,0,0,0,0,0,0,0,0,0,0,0,0,0,0,0,0,0,0,0,0,0,0,0,0,0,0,0,0,0,0,0,0,0,0,0,0,0,0,0,0,0,0,0,0,0,0,0,0,0,0,0,0,0,0,0,0],"id":6,"left_children":[1,3,5,7,9,11,13,15,17,19,21,23,25,27,29,31,33,35,37,39,41,43,45,47,49,51,53,55,57,59,61,63,65,67,-1,69,71,73,75,77,79,81,83,85,87,89,91,93,95,97,99,101,103,105,107,109,111,113,115,117,119,121,123,-1,-1,-1,-1,-1,-1,-1,-1,-1,-1,-1,-1,-1,-1,-1,-1,-1,-1,-1,-1,-1,-1,-1,-1,-1,-1,-1,-1,-1,-1,-1,-1,-1,-1,-1,-1,-1,-1,-1,-1,-1,-1,-1,-1,-1,-1,-1,-1,-1,-1,-1,-1,-1,-1,-1,-1,-1,-1,-1,-1,-1,-1],"loss_changes":[2.785756E4,2.5488213E3,4.965801E3,5.446084E2,2.6570627E2,5.965918E2,1.3973125E3,3.6761182E2,5.523838E2,4.3537872E2,5.069408E2,3.1065027E2,5.6265015E2,5.8558496E2,6.111367E2,2.3767944E2,1.0135013E2,2.2767676E2,5.5540894E2,2.923943E2,2.7545804E2,2.4324133E2,6.645978E2,3.5172247E2,4.215442E2,5.19216E2,3.5581934E2,5.7826465E2,8.8465225E1,4.8790585E2,4.362246E2,2.7828552E2,1.4805856E2,1.8626545E1,0E0,1.8633984E2,2.6819037E2,8.3731384E2,3.3886768E2,3.1105554E2,1.5547278E2,3.1998462E2,5.354233E2,4.45453E2,1.9838782E2,2.5154724E2,5.794948E2,2.9360938E2,2.816579E2,1.9015839E2,3.50246E2,1.7487186E2,4.674115E2,3.6845752E2,4.143257E2,4.28438E2,5.978506E2,4.0383427E1,1.8922073E1,2.717932E2,8.123071E1,3.9680264E1,3.422041E2,0E0,0E0,0E0,0E0,0E0,0E0,0E0,0E0,0E0,0E0,0E0,0E0,0E0,0E0,0E0,0E0,0E0,0E0,0E0,0E0,0E0,0E0,0E0,0E0,0E0,0E0,0E0,0E0,0E0,0E0,0E0,0E0,0E0,0E0,0E0,0E0,0E0,0E0,0E0,0E0,0E0,0E0,0E0,0E0,0E0,0E0,0E0,0E0,0E0,0E0,0E0,0E0,0E0,0E0,0E0,0E0,0E0,0E0,0E0,0E0,0E0,0E0],"parents":[2147483647,0,0,1,1,2,2,3,3,4,4,5,5,6,6,7,7,8,8,9,9,10,10,11,11,12,12,13,13,14,14,15,15,16,16,17,17,18,18,19,19,20,20,21,21,22,22,23,23,24,24,25,25,26,26,27,27,28,28,29,29,30,30,31,31,32,32,33,33,35,35,36,36,37,37,38,38,39,39,40,40,41,41,42,42,43,43,44,44,45,45,46,46,47,47,48,48,49,49,50,50,51,51,52,52,53,53,54,54,55,55,56,56,57,57,58,58,59,59,60,60,61,61,62,62],"right_children":[2,4,6,8,10,12,14,16,18,20,22,24,26,28,30,32,34,36,38,40,42,44,46,48,50,52,54,56,58,60,62,64,66,68,-1,70,72,74,76,78,80,82,84,86,88,90,92,94,96,98,100,102,104,106,108,110,112,114,116,118,120,122,124,-1,-1,-1,-1,-1,-1,-1,-1,-1,-1,-1,-1,-1,-1,-1,-1,-1,-1,-1,-1,-1,-1,-1,-1,-1,-1,-1,-1,-1,-1,-1,-1,-1,-1,-1,-1,-1,-1,-1,-1,-1,-1,-1,-1,-1,-1,-1,-1,-1,-1,-1,-1,-1,-1,-1,-1,-1,-1,-1,-1,-1,-1],"split_conditions":[1.7285501E1,1.7109034E1,1.7379772E1,2E0,4.8333332E-1,1.475E1,1.7428375E1,1.2E0,1.8E0,5E-1,2.8301886E-1,6.8965516E0,5.9E0,2.0892637E0,7.222222E-1,2.019E3,1.0333333E0,3.3333333E0,2E0,-1.9127756E-1,1.2709705E0,2E0,4.32E0,3.8142858E0,5E0,4.5714285E-2,3E0,3.6666667E0,2.5454545E-1,1.3224598E0,2.25E1,1E0,1.1196428E1,1.5E0,1.0074407E0,1.1E1,2.075E1,-3.5E0,7.6363635E0,-3E0,1.7385715E0,-2.5E-1,1.7954775E0,7E0,2.95E1,3.472222E-1,1E0,2.4193548E-1,6.3463837E-1,1.3E1,9.111111E-1,1.5E0,5E0,7.375E1,2.24E1,1.6666667E-1,1.65E1,1.6875E1,3.3333334E-1,1.0625E1,2.65E1,2.01E1,1.25E1,1.0117753E-1,-4.0707263E-1,-1.9463663E-1,5.124965E-1,3.4489268E-1,2.6488252E-2,-2.9514474E-1,-2.3053537E-1,3.455151E-1,-2.5651196E-1,8.4414953E-1,-4.6168018E-2,-1.9342928E-1,4.735785E-1,7.029968E-1,-2.5074187E-1,-3.5701412E-1,1.8338095E-1,4.4862673E-1,-9.914086E-2,2.8815657E-1,-2.039785E-1,5.471713E-1,-1.4677647E-1,-6.891641E-2,4.395871E-1,3.1970778E-1,-1.0656299E-2,1.5596409E0,-7.082969E-2,-2.051312E-1,2.7660036E-1,1.4632829E-1,2.634563E-2,-1.8790919E-1,2.5243545E-1,-4.6569887E-1,5.3172094E-1,2.124102E-1,-3.1587306E-1,1.0353491E-1,1.1125486E0,2.9145482E-1,-7.827591E-2,-1.7850181E-1,3.8979384E-1,2.8380987E-1,7.55815E-2,1.249964E-1,4.1379318E-1,1.8998285E-1,-2.3044862E-1,-2.9055247E-1,3.44552E-2,2.8259695E-1,-1.7736103E-1,1.1630851E0,1.5451895E-1,-2.644647E-1,1.2725319E-1,6.441337E-1,-8.388615E-2],"split_indices":[77,77,77,70,63,44,77,13,42,45,49,51,42,27,11,52,25,10,42,16,27,70,75,73,69,24,46,45,24,27,41,38,76,13,0,70,57,59,19,59,27,17,27,0,57,49,38,49,16,60,25,42,6,9,41,48,44,0,3,76,0,0,59,0,0,0,0,0,0,0,0,0,0,0,0,0,0,0,0,0,0,0,0,0,0,0,0,0,0,0,0,0,0,0,0,0,0,0,0,0,0,0,0,0,0,0,0,0,0,0,0,0,0,0,0,0,0,0,0,0,0,0,0,0,0],"split_type":[0,0,0,0,0,0,0,0,0,0,0,0,0,0,0,0,0,0,0,0,0,0,0,0,0,0,0,0,0,0,0,0,0,0,0,0,0,0,0,0,0,0,0,0,0,0,0,0,0,0,0,0,0,0,0,0,0,0,0,0,0,0,0,0,0,0,0,0,0,0,0,0,0,0,0,0,0,0,0,0,0,0,0,0,0,0,0,0,0,0,0,0,0,0,0,0,0,0,0,0,0,0,0,0,0,0,0,0,0,0,0,0,0,0,0,0,0,0,0,0,0,0,0,0,0],"sum_hessian":[4.927E3,2.732E3,2.195E3,1.886E3,8.46E2,1.208E3,9.87E2,1.46E2,1.74E3,4.44E2,4.02E2,6.64E2,5.44E2,7.79E2,2.08E2,1.4E2,6E0,1.228E3,5.12E2,7E1,3.74E2,3.36E2,6.6E1,5.75E2,8.9E1,2.23E2,3.21E2,7.61E2,1.8E1,4.1E1,1.67E2,5.6E1,8.4E1,5E0,1E0,1.211E3,1.7E1,5E1,4.62E2,7E0,6.3E1,3.16E2,5.8E1,2.2E1,3.14E2,6.1E1,5E0,5.2E1,5.23E2,7.7E1,1.2E1,2.9E1,1.94E2,2.85E2,3.6E1,3.52E2,4.09E2,6E0,1.2E1,3.7E1,4E0,5E0,1.62E2,4.9E1,7E0,8.3E1,1E0,3E0,2E0,6.03E2,6.08E2,8E0,9E0,7E0,4.3E1,4.58E2,4E0,3E0,4E0,6E1,3E0,6E0,3.1E2,3.6E1,2.2E1,1.1E1,1.1E1,3.1E2,4E0,2.3E1,3.8E1,3E0,2E0,4.3E1,9E0,3.14E2,2.09E2,7.1E1,6E0,2E0,1E1,4E0,2.5E1,1.92E2,2E0,2.67E2,1.8E1,2.5E1,1.1E1,2.68E2,8.4E1,5.4E1,3.55E2,5E0,1E0,1.1E1,1E0,2.6E1,1.1E1,3E0,1E0,3E0,2E0,1.58E2,4E0],"tree_param":{"num_deleted":"0","num_feature":"78","num_nodes":"125","size_leaf_vector":"1"}},{"base_weights":[5.6727096E-3,-2.0141323E0,2.5119367E0,-2.6481016E0,-1.0932329E0,1.0227089E0,3.6833584E0,-1.0421093E0,-2.8029993E0,-1.1665521E0,2.3361073E0,6.818923E-1,2.7883232E0,2.9650931E0,5.947648E0,1.5421244E0,-1.8717517E0,-3.3956833E0,-2.2816017E0,-1.1906365E0,8.076142E0,5.9031873E0,-1.12859E0,8.604046E-3,1.4852638E0,1.2169322E0,5.6550436E0,1.908268E0,3.863497E0,-1.0051178E-1,6.4036045E0,8.925114E-1,9.6714306E-1,-2.0014942E0,4.9199662E-1,-2.950098E0,-3.8947866E0,-3.0722969E0,-1.8370095E0,4.47658E0,-1.2256773E0,1.0673445E0,-9.420747E-2,7.9920926E0,-2.9942272E0,4.4626665E0,-4.120556E0,1.3796949E0,-6.789153E-1,1.1925502E0,6.3859086E0,3.024262E0,-3.844266E-1,4.4494777E0,1.344408E1,6.7799134E0,1.7434528E0,3.6031246E0,8.797842E0,3.4953406E0,-4.0232134E0,5.6541405E0,9.285325E0,5.8247185E-1,5.035765E-3,-1.4258596E-1,-4.9820724E-1,-2.504153E-1,8.728639E-1,1.6539553E-1,-3.1955266E-1,-2.554055E-1,4.944003E-1,-1.15518354E-1,-2.587137E-1,5.7791847E-1,-1.2490257E-1,-8.558668E-2,-1.829662E-1,7.508622E-1,2.8240967E-1,-3.1013605E-1,-4.517118E-2,-2.3958068E-1,5.68057E-1,-6.350272E-2,-3.5397434E-1,7.021829E-1,5.417508E-2,-1.6895194E-1,4.243347E-2,-0E0,1.645472E-1,7.517159E-1,2.6693058E-1,-2.3727044E-2,4.112549E-1,6.1905724E-1,-1.0675637E-1,7.8095514E-1,2.0098665E-1,5.8886122E-2,1.2338188E0,1.1309563E0,1.9307216E-1,-1.559978E-2,1.7651062E-1,4.5082846E-1,2.4580356E-1,1.1341995E0,2.8409216E-1,3.800413E-1,-1.4211166E-2,-4.1374376E-1,-1.2724426E-1,7.346961E-1,3.8691115E-1,-2.4451017E-1,8.034773E-1],"categories":[],"categories_nodes":[],"categories_segments":[],"categories_sizes":[],"default_left":[0,0,0,0,0,0,0,0,0,0,0,0,0,0,0,0,0,0,0,0,0,0,0,0,0,0,0,0,0,0,0,0,0,0,0,0,0,0,0,0,0,0,0,0,0,0,0,0,0,0,0,0,0,0,0,0,0,0,0,0,0,0,0,0,0,0,0,0,0,0,0,0,0,0,0,0,0,0,0,0,0,0,0,0,0,0,0,0,0,0,0,0,0,0,0,0,0,0,0,0,0,0,0,0,0,0,0,0,0,0,0,0,0,0,0,0,0,0,0],"id":7,"left_children":[1,3,5,7,9,11,13,15,17,19,21,23,25,27,29,31,33,35,37,39,41,43,45,47,49,51,53,55,57,59,61,63,-1,65,-1,67,69,71,73,75,77,-1,-1,79,81,83,85,87,89,91,93,95,97,99,101,103,105,107,109,111,113,115,117,-1,-1,-1,-1,-1,-1,-1,-1,-1,-1,-1,-1,-1,-1,-1,-1,-1,-1,-1,-1,-1,-1,-1,-1,-1,-1,-1,-1,-1,-1,-1,-1,-1,-1,-1,-1,-1,-1,-1,-1,-1,-1,-1,-1,-1,-1,-1,-1,-1,-1,-1,-1,-1,-1,-1,-1],"loss_changes":[2.534124E4,1.615085E3,3.8930068E3,4.04917E2,2.8723425E2,5.904761E2,2.0144238E3,3.1594196E2,4.5398438E2,2.5579675E2,3.0375217E2,4.4716266E2,7.0868445E2,8.949834E2,8.28583E2,2.345687E2,1.2741815E2,1.4305518E2,2.7474316E2,2.2499377E2,1.6310886E2,2.4746024E2,2.3582948E2,4.2614258E2,5.3242786E2,3.0242163E2,4.642428E2,3.398098E2,6.26145E2,3.2443533E2,5.485752E2,1.8429256E2,0E0,8.9984955E1,0E0,9.644773E2,2.0208496E2,3.376892E2,2.770631E2,1.2796394E2,1.7933679E2,0E0,0E0,2.7761353E1,3.7990685E0,1.2004067E2,5.0716553E0,7.778358E2,5.2289813E2,3.6801566E2,1.6015363E2,3.4639713E2,4.4182324E2,4.8879755E2,1.6304504E2,4.1397113E2,3.8290942E2,5.0908398E2,6.535149E2,5.6623993E1,2.1833008E1,6.0071387E2,5.5537354E2,0E0,0E0,0E0,0E0,0E0,0E0,0E0,0E0,0E0,0E0,0E0,0E0,0E0,0E0,0E0,0E0,0E0,0E0,0E0,0E0,0E0,0E0,0E0,0E0,0E0,0E0,0E0,0E0,0E0,0E0,0E0,0E0,0E0,0E0,0E0,0E0,0E0,0E0,0E0,0E0,0E0,0E0,0E0,0E0,0E0,0E0,0E0,0E0,0E0,0E0,0E0,0E0,0E0,0E0,0E0,0E0],"parents":[2147483647,0,0,1,1,2,2,3,3,4,4,5,5,6,6,7,7,8,8,9,9,10,10,11,11,12,12,13,13,14,14,15,15,16,16,17,17,18,18,19,19,20,20,21,21,22,22,23,23,24,24,25,25,26,26,27,27,28,28,29,29,30,30,31,31,33,33,35,35,36,36,37,37,38,38,39,39,40,40,43,43,44,44,45,45,46,46,47,47,48,48,49,49,50,50,51,51,52,52,53,53,54,54,55,55,56,56,57,57,58,58,59,59,60,60,61,61,62,62],"right_children":[2,4,6,8,10,12,14,16,18,20,22,24,26,28,30,32,34,36,38,40,42,44,46,48,50,52,54,56,58,60,62,64,-1,66,-1,68,70,72,74,76,78,-1,-1,80,82,84,86,88,90,92,94,96,98,100,102,104,106,108,110,112,114,116,118,-1,-1,-1,-1,-1,-1,-1,-1,-1,-1,-1,-1,-1,-1,-1,-1,-1,-1,-1,-1,-1,-1,-1,-1,-1,-1,-1,-1,-1,-1,-1,-1,-1,-1,-1,-1,-1,-1,-1,-1,-1,-1,-1,-1,-1,-1,-1,-1,-1,-1,-1,-1,-1,-1,-1,-1],"split_conditions":[1.7285501E1,1.6972635E1,1.6E1,2E0,7.1E1,1.605E1,4.05E-1,1E0,3E0,4E0,6.046289E-1,4.5E0,8.25E-1,3.375E0,4.6E0,1.44E0,1.1196428E1,2E0,1.9444445E-1,2.7E0,1.1375E1,5.6603775E0,6E-1,1E1,1.5069295E0,-1.989317E-1,1.55E1,1E0,1.1777778E0,4.4583335E0,2.9411766E-1,1.5E0,9.6714306E-1,1E1,4.9199662E-1,1.85E0,1.3333334E-2,7.6E1,2.023E3,3.7291667E0,1E0,1.0673445E0,-9.420747E-2,2.9411764E0,7.125E0,3.65E0,8.2222223E-1,6.666667E-1,6.4166665E0,1.2333333E1,6.5E0,2.83E1,1.635E1,1.738418E1,3.6576495E-1,1.4E1,1.03E1,1.6875E1,4.2941175E0,5.6E0,1.2E1,4.942029E0,9.444444E-1,5.8247185E-1,5.035765E-3,-1.4258596E-1,-4.9820724E-1,-2.504153E-1,8.728639E-1,1.6539553E-1,-3.1955266E-1,-2.554055E-1,4.944003E-1,-1.15518354E-1,-2.587137E-1,5.7791847E-1,-1.2490257E-1,-8.558668E-2,-1.829662E-1,7.508622E-1,2.8240967E-1,-3.1013605E-1,-4.517118E-2,-2.3958068E-1,5.68057E-1,-6.350272E-2,-3.5397434E-1,7.021829E-1,5.417508E-2,-1.6895194E-1,4.243347E-2,-0E0,1.645472E-1,7.517159E-1,2.6693058E-1,-2.3727044E-2,4.112549E-1,6.1905724E-1,-1.0675637E-1,7.8095514E-1,2.0098665E-1,5.8886122E-2,1.2338188E0,1.1309563E0,1.9307216E-1,-1.559978E-2,1.7651062E-1,4.5082846E-1,2.4580356E-1,1.1341995E0,2.8409216E-1,3.800413E-1,-1.4211166E-2,-4.1374376E-1,-1.2724426E-1,7.346961E-1,3.8691115E-1,-2.4451017E-1,8.034773E-1],"split_indices":[77,77,44,70,34,0,12,36,44,46,16,60,35,10,73,26,76,41,48,41,0,51,6,0,27,27,44,60,25,73,48,60,0,60,0,0,12,61,52,74,38,0,0,51,0,0,25,45,76,44,60,41,0,77,16,70,0,5,73,6,70,73,26,0,0,0,0,0,0,0,0,0,0,0,0,0,0,0,0,0,0,0,0,0,0,0,0,0,0,0,0,0,0,0,0,0,0,0,0,0,0,0,0,0,0,0,0,0,0,0,0,0,0,0,0,0,0,0,0],"split_type":[0,0,0,0,0,0,0,0,0,0,0,0,0,0,0,0,0,0,0,0,0,0,0,0,0,0,0,0,0,0,0,0,0,0,0,0,0,0,0,0,0,0,0,0,0,0,0,0,0,0,0,0,0,0,0,0,0,0,0,0,0,0,0,0,0,0,0,0,0,0,0,0,0,0,0,0,0,0,0,0,0,0,0,0,0,0,0,0,0,0,0,0,0,0,0,0,0,0,0,0,0,0,0,0,0,0,0,0,0,0,0,0,0,0,0,0,0,0,0],"sum_hessian":[5.004E3,2.771E3,2.233E3,1.64E3,1.131E3,9.84E2,1.249E3,1.45E2,1.495E3,1.108E3,2.3E1,8.26E2,1.58E2,9.5E2,2.99E2,3.5E1,1.1E2,6.97E2,7.98E2,1.106E3,2E0,1.1E1,1.2E1,4.5E2,3.76E2,1.03E2,5.5E1,4.38E2,5.12E2,2.1E1,2.78E2,3.4E1,1E0,1.09E2,1E0,3.72E2,3.25E2,2.85E2,5.13E2,6E0,1.1E3,1E0,1E0,9E0,2E0,4E0,8E0,1.5E2,3E2,3.56E2,2E1,4.8E1,5.5E1,4.9E1,6E0,1.3E1,4.25E2,4.88E2,2.4E1,1.1E1,1E1,2.23E2,5.5E1,3E0,3.1E1,1.05E2,4E0,3.68E2,4E0,5E0,3.2E2,2.82E2,3E0,4.02E2,1.11E2,4E0,2E0,9.61E2,1.39E2,6E0,3E0,1E0,1E0,1E0,3E0,1E0,7E0,1.2E1,1.38E2,1.37E2,1.63E2,1.5E2,2.06E2,9E0,1.1E1,1.9E1,2.9E1,5E0,5E1,1.2E1,3.7E1,1E0,5E0,4E0,9E0,8.2E1,3.43E2,9.9E1,3.89E2,1.1E1,1.3E1,8E0,3E0,6E0,4E0,4E1,1.83E2,3E0,5.2E1],"tree_param":{"num_deleted":"0","num_feature":"78","num_nodes":"119","size_leaf_vector":"1"}},{"base_weights":[3.4933325E-2,-1.7440764E0,2.1921306E0,-2.4472377E0,-8.586395E-1,1.4779377E0,3.8604834E0,-2.789255E0,-1.8146994E0,-9.5307535E-1,5.4215183E0,-6.0340846E-1,1.747389E0,2.0668008E0,4.7584963E0,-3.4026763E0,-2.5783463E0,1.770128E0,-1.9793892E0,-6.5304196E-1,-2.3645163E0,4.4300944E-1,7.294559E0,-2.8343525E0,-8.614152E-2,1.672164E0,7.395289E0,1.0788915E0,3.9261816E0,4.1911135E0,8.08688E0,5.745532E-1,-3.5183313E0,-6.8811107E-1,-2.703401E0,-2.3290412E0,4.391566E0,-2.831524E0,-1.3476574E0,-1.3031181E0,3.1606647E-1,-1.3616596E0,-3.4539075E0,1.3689214E0,-1.6346201E-1,9.2585125E0,5.360366E-1,5.977005E-1,-3.749985E0,-6.2976146E-1,2.369702E0,2.3803594E0,1.0999436E0,4.6940475E0,1.0955234E1,2.2974446E0,-1.3057288E0,5.252288E0,-4.6290094E-1,4.85617E0,1.6813164E0,9.962773E0,4.305383E0,4.409032E-1,-2.8624722E-1,-1.8799305E-1,3.4770435E-1,-1.9299659E-1,-2.600975E-1,-3.885151E-1,2.1209322E-1,6.704836E-1,-1.0748762E-2,-3.0766508E-1,-1.7390586E-1,-1.7381077E-1,-1.7324485E-2,3.2220565E-2,-1.4193255E-1,1.0316129E0,1.7518733E-2,-1.5048866E-1,1.637538E-1,-2.1666121E-1,-4.636536E-1,-1.474752E-2,1.462659E-1,8.0047566E-1,9.726419E-2,-1.5555936E-1,1.6355014E-1,4.1617122E-1,-1.4299756E-1,1.7612219E-1,-3.2539275E-1,1.745077E-1,-1.016815E-1,2.869441E-1,-2.9463157E-1,5.956346E-1,1.785777E-1,-7.619343E-2,1.09801136E-1,4.8587406E-1,1.22258596E-1,9.446287E-1,2.2957894E-1,3.342958E-1,1.6757904E-2,-2.1126106E-1,3.0239362E-1,7.92136E-1,2.895857E-1,-1.6280463E-1,6.853565E-1,6.402344E-1,3.156534E-1,-1.761787E-1,2.2476298E-1,8.935626E-1,-9.4492175E-2,-1.194491E-1,5.156499E-1],"categories":[],"categories_nodes":[],"categories_segments":[],"categories_sizes":[],"default_left":[0,0,0,0,0,0,0,0,0,0,0,0,0,0,0,0,0,0,0,0,0,0,0,0,0,0,0,0,0,0,0,0,0,0,0,0,0,0,0,0,0,0,0,0,0,0,0,0,0,0,0,0,0,0,0,0,0,0,0,0,0,0,0,0,0,0,0,0,0,0,0,0,0,0,0,0,0,0,0,0,0,0,0,0,0,0,0,0,0,0,0,0,0,0,0,0,0,0,0,0,0,0,0,0,0,0,0,0,0,0,0,0,0,0,0,0,0,0,0,0,0,0,0],"id":8,"left_children":[1,3,5,7,9,11,13,15,17,19,21,23,25,27,29,31,33,35,37,39,41,43,45,47,49,51,53,55,57,59,61,-1,63,65,67,69,71,73,75,77,79,81,83,85,-1,87,89,91,93,95,97,99,101,103,105,107,109,111,113,115,117,119,121,-1,-1,-1,-1,-1,-1,-1,-1,-1,-1,-1,-1,-1,-1,-1,-1,-1,-1,-1,-1,-1,-1,-1,-1,-1,-1,-1,-1,-1,-1,-1,-1,-1,-1,-1,-1,-1,-1,-1,-1,-1,-1,-1,-1,-1,-1,-1,-1,-1,-1,-1,-1,-1,-1,-1,-1,-1,-1,-1,-1],"loss_changes":[1.9054084E4,1.6916768E3,2.667544E3,3.2244727E2,7.19965E2,8.833413E2,1.0719062E3,1.1767627E2,3.1938037E2,5.0167114E2,1.6384381E2,2.0833664E2,5.785615E2,4.1040283E2,8.090244E2,3.2849365E2,1.7154199E2,2.6833157E2,2.713861E2,6.19165E2,2.2205615E2,1.654213E1,1.6661212E2,1.0940152E2,1.989051E2,5.546492E2,1.2010358E2,4.360612E2,4.5690063E2,6.321382E2,4.096753E2,0E0,1.5226807E2,4.0322525E2,1.0140576E2,1.389654E2,2.7279205E2,1.3579858E2,2.7549786E2,4.7332935E2,4.7824182E2,1.9859807E2,1.5631897E2,4.0693073E0,0E0,4.6826538E1,1.8951187E1,9.749911E1,6.0148346E1,2.2260396E2,2.1209868E2,4.4311523E2,4.2818176E2,4.2360504E1,1.2904053E1,3.8755792E2,3.561333E2,4.1820605E2,2.865118E2,8.353633E2,3.655312E2,5.790093E2,2.9555344E2,0E0,0E0,0E0,0E0,0E0,0E0,0E0,0E0,0E0,0E0,0E0,0E0,0E0,0E0,0E0,0E0,0E0,0E0,0E0,0E0,0E0,0E0,0E0,0E0,0E0,0E0,0E0,0E0,0E0,0E0,0E0,0E0,0E0,0E0,0E0,0E0,0E0,0E0,0E0,0E0,0E0,0E0,0E0,0E0,0E0,0E0,0E0,0E0,0E0,0E0,0E0,0E0,0E0,0E0,0E0,0E0,0E0,0E0,0E0,0E0],"parents":[2147483647,0,0,1,1,2,2,3,3,4,4,5,5,6,6,7,7,8,8,9,9,10,10,11,11,12,12,13,13,14,14,15,15,16,16,17,17,18,18,19,19,20,20,21,21,22,22,23,23,24,24,25,25,26,26,27,27,28,28,29,29,30,30,32,32,33,33,34,34,35,35,36,36,37,37,38,38,39,39,40,40,41,41,42,42,43,43,45,45,46,46,47,47,48,48,49,49,50,50,51,51,52,52,53,53,54,54,55,55,56,56,57,57,58,58,59,59,60,60,61,61,62,62],"right_children":[2,4,6,8,10,12,14,16,18,20,22,24,26,28,30,32,34,36,38,40,42,44,46,48,50,52,54,56,58,60,62,-1,64,66,68,70,72,74,76,78,80,82,84,86,-1,88,90,92,94,96,98,100,102,104,106,108,110,112,114,116,118,120,122,-1,-1,-1,-1,-1,-1,-1,-1,-1,-1,-1,-1,-1,-1,-1,-1,-1,-1,-1,-1,-1,-1,-1,-1,-1,-1,-1,-1,-1,-1,-1,-1,-1,-1,-1,-1,-1,-1,-1,-1,-1,-1,-1,-1,-1,-1,-1,-1,-1,-1,-1,-1,-1,-1,-1,-1,-1,-1,-1,-1],"split_conditions":[1.0333333E1,3.3333334E-1,1.62E1,1.3333334E0,6.125E0,1.6E-1,7.083333E-1,1E-1,1.25E0,2.023E3,6.125E0,6.0833335E-1,1.6E1,4.1833332E-1,1E0,-1.6666667E-1,1.125E0,8E-1,6.3333335E0,1.2666667E1,1.744186E-1,7.25E0,6E0,3.000001E-1,4E0,1E0,2.125E0,5E0,5.1458335E-1,8.522917E-1,1.5875E1,5.745532E-1,8E-1,4.6666665E0,1E0,4.5E-2,1.5840082E-1,1.125E1,6.15625E0,2E0,4.3E0,1.67E1,8.333333E0,6.6666665E0,-1.6346201E-1,2.5E-1,2.1166666E1,1.125E1,3E0,2.5E0,1.0888889E0,2.4444444E0,7.5E-1,1.2333333E1,1.48E1,7.5E-1,1.6E1,5.6122816E-1,5.6E0,7E0,5.6E1,1.2E1,1.825E1,4.409032E-1,-2.8624722E-1,-1.8799305E-1,3.4770435E-1,-1.9299659E-1,-2.600975E-1,-3.885151E-1,2.1209322E-1,6.704836E-1,-1.0748762E-2,-3.0766508E-1,-1.7390586E-1,-1.7381077E-1,-1.7324485E-2,3.2220565E-2,-1.4193255E-1,1.0316129E0,1.7518733E-2,-1.5048866E-1,1.637538E-1,-2.1666121E-1,-4.636536E-1,-1.474752E-2,1.462659E-1,8.0047566E-1,9.726419E-2,-1.5555936E-1,1.6355014E-1,4.1617122E-1,-1.4299756E-1,1.7612219E-1,-3.2539275E-1,1.745077E-1,-1.016815E-1,2.869441E-1,-2.9463157E-1,5.956346E-1,1.785777E-1,-7.619343E-2,1.09801136E-1,4.8587406E-1,1.22258596E-1,9.446287E-1,2.2957894E-1,3.342958E-1,1.6757904E-2,-2.1126106E-1,3.0239362E-1,7.92136E-1,2.895857E-1,-1.6280463E-1,6.853565E-1,6.402344E-1,3.156534E-1,-1.761787E-1,2.2476298E-1,8.935626E-1,-9.4492175E-2,-1.194491E-1,5.156499E-1],"split_indices":[44,63,0,45,6,12,35,63,76,52,7,35,18,12,69,18,7,6,9,5,49,6,59,16,59,36,6,73,12,16,7,0,25,9,31,12,58,5,76,53,41,41,7,6,0,17,0,44,53,73,25,75,6,5,0,8,53,16,6,53,9,76,7,0,0,0,0,0,0,0,0,0,0,0,0,0,0,0,0,0,0,0,0,0,0,0,0,0,0,0,0,0,0,0,0,0,0,0,0,0,0,0,0,0,0,0,0,0,0,0,0,0,0,0,0,0,0,0,0,0,0,0,0],"split_type":[0,0,0,0,0,0,0,0,0,0,0,0,0,0,0,0,0,0,0,0,0,0,0,0,0,0,0,0,0,0,0,0,0,0,0,0,0,0,0,0,0,0,0,0,0,0,0,0,0,0,0,0,0,0,0,0,0,0,0,0,0,0,0,0,0,0,0,0,0,0,0,0,0,0,0,0,0,0,0,0,0,0,0,0,0,0,0,0,0,0,0,0,0,0,0,0,0,0,0,0,0,0,0,0,0,0,0,0,0,0,0,0,0,0,0,0,0,0,0,0,0,0,0],"sum_hessian":[4.963E3,2.72E3,2.243E3,1.515E3,1.205E3,1.572E3,6.71E2,9.81E2,5.34E2,1.188E3,1.7E1,1.8E2,1.392E3,2.25E2,4.46E2,2.47E2,7.34E2,2.3E1,5.11E2,9.81E2,2.07E2,5E0,1.2E1,3.3E1,1.47E2,1.375E3,1.7E1,1.48E2,7.7E1,3.83E2,6.3E1,2E0,2.45E2,4.6E1,6.88E2,9E0,1.4E1,2.16E2,2.95E2,5.87E2,3.94E2,1.09E2,9.8E1,4E0,1E0,9E0,3E0,7E0,2.6E1,1.21E2,2.6E1,6.13E2,7.62E2,1.1E1,6E0,9.8E1,5E1,5.9E1,1.8E1,3.02E2,8.1E1,4.1E1,2.2E1,1E0,2.44E2,3.5E1,1.1E1,4.53E2,2.35E2,6E0,3E0,7E0,7E0,8.3E1,1.33E2,1.7E2,1.25E2,1.27E2,4.6E2,2E0,3.92E2,9.5E1,1.4E1,7.6E1,2.2E1,1E0,3E0,8E0,1E0,1E0,2E0,2E0,5E0,1E0,2.5E1,2.2E1,9.9E1,2.2E1,4E0,1.6E1,5.97E2,8.9E1,6.73E2,7E0,4E0,5E0,1E0,5.1E1,4.7E1,4E1,1E1,1.4E1,4.5E1,1.6E1,2E0,6.6E1,2.36E2,1.8E1,6.3E1,3.7E1,4E0,6E0,1.6E1],"tree_param":{"num_deleted":"0","num_feature":"78","num_nodes":"123","size_leaf_vector":"1"}},{"base_weights":[-6.2233796E-3,-1.4094487E0,2.2365396E0,-2.2323012E0,-5.4419297E-1,1.4874964E0,3.8481946E0,-2.852806E0,-1.8137192E0,-1.0420473E0,4.3851614E-1,8.609341E-1,2.4159837E0,4.7614126E0,2.4352813E0,-3.094922E0,-1.6141042E0,4.0042744E0,-1.8808358E0,-1.4312136E0,-9.278483E-2,1.7236598E0,-2.1857971E-1,8.487017E-2,1.4860182E0,1.8040662E0,4.7943883E0,6.2924495E0,2.9496088E0,1.8486177E0,5.8157783E0,-3.1556542E0,2.6676834E0,1.8888901E0,-2.0451875E0,-5.6181836E-1,7.919655E0,-1.9297324E0,4.8139634E0,-7.8037965E-1,-2.057705E0,8.827277E0,-2.8126225E-1,-1.6591135E0,2.5513287E0,5.2658806E0,-4.7609797E-1,-1.5012841E0,5.9178084E-1,1.7794286E0,-1.7962974E0,1.3443865E0,3.47351E0,2.4899738E0,7.0934153E0,-3.109555E-2,6.9255323E0,1.8506114E0,6.986138E0,4.8433123E0,1.0515416E0,2.5715063E0,1.1100584E1,-1.5956413E-2,-2.5894836E-1,5.894895E-1,-1.19995125E-1,6.831409E-1,-1.9929622E-1,-2.8613546E-1,-9.865833E-2,-2.4892259E-1,2.3933919E-1,5.8320474E-2,9.046182E-1,-1.7422147E-1,-5.5776887E-2,-9.910765E-2,7.7506244E-1,-8.900657E-2,2.2020586E-1,-3.1337112E-2,-2.2459468E-1,-3.122403E-1,9.739147E-1,5.3090614E-1,-3.6383532E-2,-2.0488627E-1,1.1202292E0,6.030875E-2,3.1862393E-1,7.147367E-1,-1.367184E-1,7.909079E-2,-1.1304805E-1,2.7161115E-1,-1.760594E-1,2.2107005E-1,-2.3269994E-2,1.5735348E-1,-2.5058195E-1,4.3643442E-1,-2.0991135E-1,1.5036654E-1,-4.307053E-2,3.2520503E-1,-2.4684304E-1,4.0281072E-1,1.5826816E-2,7.150725E-1,5.770038E-2,-2.3159647E-1,5.3118086E-1,6.9108486E-1,3.528622E-1,2.1141414E-1,-2.0562015E-1,6.4821005E-1,-3.15714E-1,6.1688536E-1,9.238728E-2,5.5015728E-2,4.4756815E-1,1.1497177E0,6.2350323E-3,3.2155925E-1,1.1032012E0],"categories":[],"categories_nodes":[],"categories_segments":[],"categories_sizes":[],"default_left":[0,0,0,0,0,0,0,0,0,0,0,0,0,0,0,0,0,0,0,0,0,0,0,0,0,0,0,0,0,0,0,0,0,0,0,0,0,0,0,0,0,0,0,0,0,0,0,0,0,0,0,0,0,0,0,0,0,0,0,0,0,0,0,0,0,0,0,0,0,0,0,0,0,0,0,0,0,0,0,0,0,0,0,0,0,0,0,0,0,0,0,0,0,0,0,0,0,0,0,0,0,0,0,0,0,0,0,0,0,0,0,0,0,0,0,0,0,0,0,0,0,0,0,0,0,0,0],"id":9,"left_children":[1,3,5,7,9,11,13,15,17,19,21,23,25,27,29,31,33,35,37,39,41,43,45,47,49,51,53,55,57,59,61,63,65,67,69,71,73,75,77,79,81,83,85,87,89,91,93,95,97,99,101,103,105,107,109,111,113,115,117,119,121,123,125,-1,-1,-1,-1,-1,-1,-1,-1,-1,-1,-1,-1,-1,-1,-1,-1,-1,-1,-1,-1,-1,-1,-1,-1,-1,-1,-1,-1,-1,-1,-1,-1,-1,-1,-1,-1,-1,-1,-1,-1,-1,-1,-1,-1,-1,-1,-1,-1,-1,-1,-1,-1,-1,-1,-1,-1,-1,-1,-1,-1,-1,-1,-1,-1],"loss_changes":[1.5634724E4,2.174312E3,2.3019082E3,4.011006E2,7.299831E2,7.579463E2,7.6960547E2,1.8317676E2,3.7359326E2,3.6544165E2,4.2444748E2,3.790691E2,7.562246E2,9.985508E2,4.6445374E2,1.9220361E2,1.6243741E2,2.0184306E2,3.127854E2,2.8434497E2,4.8750372E2,4.8029083E2,4.723402E2,2.8221097E2,4.202021E2,3.1716052E2,5.482556E2,7.9356396E2,7.403308E2,4.8603955E2,5.701747E2,1.23833984E2,1.291897E2,3.7142877E2,1.119989E2,6.3684216E1,1.3672763E2,2.8005835E2,2.1937042E2,4.0898346E2,4.4448828E2,3.039653E2,3.4331998E2,5.1502124E2,3.490282E2,3.9978214E2,4.3925375E2,2.9846414E2,5.1091205E2,3.7256042E2,2.3008493E2,3.3467786E2,3.6184302E2,3.193429E2,6.156863E2,3.8183093E2,7.360049E2,4.795174E2,4.7181104E2,4.450465E2,2.666114E2,6.741874E2,1.9036365E2,0E0,0E0,0E0,0E0,0E0,0E0,0E0,0E0,0E0,0E0,0E0,0E0,0E0,0E0,0E0,0E0,0E0,0E0,0E0,0E0,0E0,0E0,0E0,0E0,0E0,0E0,0E0,0E0,0E0,0E0,0E0,0E0,0E0,0E0,0E0,0E0,0E0,0E0,0E0,0E0,0E0,0E0,0E0,0E0,0E0,0E0,0E0,0E0,0E0,0E0,0E0,0E0,0E0,0E0,0E0,0E0,0E0,0E0,0E0,0E0,0E0,0E0,0E0,0E0],"parents":[2147483647,0,0,1,1,2,2,3,3,4,4,5,5,6,6,7,7,8,8,9,9,10,10,11,11,12,12,13,13,14,14,15,15,16,16,17,17,18,18,19,19,20,20,21,21,22,22,23,23,24,24,25,25,26,26,27,27,28,28,29,29,30,30,31,31,32,32,33,33,34,34,35,35,36,36,37,37,38,38,39,39,40,40,41,41,42,42,43,43,44,44,45,45,46,46,47,47,48,48,49,49,50,50,51,51,52,52,53,53,54,54,55,55,56,56,57,57,58,58,59,59,60,60,61,61,62,62],"right_children":[2,4,6,8,10,12,14,16,18,20,22,24,26,28,30,32,34,36,38,40,42,44,46,48,50,52,54,56,58,60,62,64,66,68,70,72,74,76,78,80,82,84,86,88,90,92,94,96,98,100,102,104,106,108,110,112,114,116,118,120,122,124,126,-1,-1,-1,-1,-1,-1,-1,-1,-1,-1,-1,-1,-1,-1,-1,-1,-1,-1,-1,-1,-1,-1,-1,-1,-1,-1,-1,-1,-1,-1,-1,-1,-1,-1,-1,-1,-1,-1,-1,-1,-1,-1,-1,-1,-1,-1,-1,-1,-1,-1,-1,-1,-1,-1,-1,-1,-1,-1,-1,-1,-1,-1,-1,-1],"split_conditions":[1.225E1,3.5E-1,1.67E1,2.6E0,1.4E1,1.0222223E0,1E0,8.880041E-1,1.9E0,1.25E1,2.021E3,1.6E1,1.9E1,2.022E3,1.08E2,1.25E-1,1E0,2.022E3,8.9E1,2.955975E-1,4.3333335E0,1.7E0,1.44E1,3.2666667E0,4.7619047E0,4.428571E0,7.5E-1,1.6E1,8.25E-1,4.8875E1,8.472222E-1,4.75E-1,1E0,1.0666667E0,2.021E3,1.6E0,1.2E0,1.3495935E0,2.025E1,8.666667E0,2E0,3.95E0,3.75E-1,4.4E-1,5.375E-1,1.7623055E-3,5E0,4E0,3.9047618E0,8.196721E-3,2.019E3,8.9E0,6E0,1E0,8.767857E-1,1E0,8.5E-1,2.3066668E1,6.785714E0,8.1666666E-1,8.333333E0,-5.5E0,-7.261797E-1,-1.5956413E-2,-2.5894836E-1,5.894895E-1,-1.19995125E-1,6.831409E-1,-1.9929622E-1,-2.8613546E-1,-9.865833E-2,-2.4892259E-1,2.3933919E-1,5.8320474E-2,9.046182E-1,-1.7422147E-1,-5.5776887E-2,-9.910765E-2,7.7506244E-1,-8.900657E-2,2.2020586E-1,-3.1337112E-2,-2.2459468E-1,-3.122403E-1,9.739147E-1,5.3090614E-1,-3.6383532E-2,-2.0488627E-1,1.1202292E0,6.030875E-2,3.1862393E-1,7.147367E-1,-1.367184E-1,7.909079E-2,-1.1304805E-1,2.7161115E-1,-1.760594E-1,2.2107005E-1,-2.3269994E-2,1.5735348E-1,-2.5058195E-1,4.3643442E-1,-2.0991135E-1,1.5036654E-1,-4.307053E-2,3.2520503E-1,-2.4684304E-1,4.0281072E-1,1.5826816E-2,7.150725E-1,5.770038E-2,-2.3159647E-1,5.3118086E-1,6.9108486E-1,3.528622E-1,2.1141414E-1,-2.0562015E-1,6.4821005E-1,-3.15714E-1,6.1688536E-1,9.238728E-2,5.5015728E-2,4.4756815E-1,1.1497177E0,6.2350323E-3,3.2155925E-1,1.1032012E0],"split_indices":[44,63,0,74,41,26,36,58,73,5,52,44,44,52,9,1,36,52,34,24,0,42,41,74,51,10,11,5,35,9,11,35,31,26,52,0,0,24,9,5,53,0,11,48,63,27,53,53,74,20,52,42,51,36,11,23,11,0,73,11,10,59,58,0,0,0,0,0,0,0,0,0,0,0,0,0,0,0,0,0,0,0,0,0,0,0,0,0,0,0,0,0,0,0,0,0,0,0,0,0,0,0,0,0,0,0,0,0,0,0,0,0,0,0,0,0,0,0,0,0,0,0,0,0,0,0,0],"split_type":[0,0,0,0,0,0,0,0,0,0,0,0,0,0,0,0,0,0,0,0,0,0,0,0,0,0,0,0,0,0,0,0,0,0,0,0,0,0,0,0,0,0,0,0,0,0,0,0,0,0,0,0,0,0,0,0,0,0,0,0,0,0,0,0,0,0,0,0,0,0,0,0,0,0,0,0,0,0,0,0,0,0,0,0,0,0,0,0,0,0,0,0,0,0,0,0,0,0,0,0,0,0,0,0,0,0,0,0,0,0,0,0,0,0,0,0,0,0,0,0,0,0,0,0,0,0,0],"sum_hessian":[4.966E3,3.055E3,1.911E3,1.565E3,1.49E3,1.306E3,6.05E2,6.28E2,9.37E2,9.89E2,5.01E2,7.81E2,5.25E2,3.66E2,2.39E2,5.24E2,1.04E2,1E1,9.27E2,7.01E2,2.88E2,1.69E2,3.32E2,3.49E2,4.32E2,4.19E2,1.06E2,1.97E2,1.69E2,2.05E2,3.4E1,5.19E2,5E0,1.1E1,9.3E1,5E0,5E0,9.21E2,6E0,3.45E2,3.56E2,5E0,2.83E2,3.3E1,1.36E2,1.4E1,3.18E2,8.4E1,2.65E2,3.97E2,3.5E1,3.3E2,8.9E1,5.4E1,5.2E1,1.8E1,1.79E2,1.34E2,3.5E1,4.2E1,1.63E2,2.2E1,1.2E1,1.4E1,5.05E2,2E0,3E0,4E0,7E0,3.1E1,6.2E1,3E0,2E0,2E0,3E0,7.66E2,1.55E2,3E0,3E0,3.16E2,2.9E1,1.11E2,2.45E2,1E0,4E0,6E0,2.77E2,3.2E1,1E0,6.1E1,7.5E1,9E0,5E0,1.24E2,1.94E2,1E1,7.4E1,7.6E1,1.89E2,3.83E2,1.4E1,3E0,3.2E1,2.57E2,7.3E1,8.2E1,7E0,2.5E1,2.9E1,4E1,1.2E1,1.3E1,5E0,1.05E2,7.4E1,1.14E2,2E1,3.2E1,3E0,2.3E1,1.9E1,1.52E2,1.1E1,3E0,1.9E1,4E0,8E0],"tree_param":{"num_deleted":"0","num_feature":"78","num_nodes":"127","size_leaf_vector":"1"}},{"base_weights":[8.031159E-2,-1.4681644E0,2.0325296E0,-1.8491886E0,-2.093977E-1,1.7077644E0,4.9575715E0,-2.3959093E0,-1.5578573E0,-3.0052784E-1,6.1616163E0,9.997679E-1,2.4412181E0,5.5244635E-3,5.4346447E0,-2.5287306E0,-5.838313E-1,-1.1100409E0,-2.1468365E0,-1.4064016E0,1.12801746E-1,-3.684717E-1,1.1479381E1,1.8792186E0,3.9774454E-1,1.7745905E0,3.1990976E0,5.749214E0,-1.3403746E0,3.9789732E0,7.384856E0,1.807765E0,-2.5834389E0,4.7040218E-1,-9.697037E-1,4.5059326E-1,-1.4139417E0,-2.5399444E0,-1.393765E0,3.3948696E0,-1.790742E0,1.3144447E0,-6.208778E-1,-8.255098E-1,5.438722E-2,1.6480364E-1,1.0635363E0,4.029351E0,1.54279E0,2.871237E-1,6.7971654E0,1.4526982E0,4.173633E0,5.0808625E0,2.5084314E0,5.3723085E-1,1.1002801E-1,-3.7141104E0,1.7818419E0,1.3603884E1,3.323438E0,8.604235E0,7.5333023E-1,-4.0667005E-2,3.883982E-1,-2.9236716E-1,-1.9161828E-1,-2.579368E-1,4.4983257E-2,2.5488937E-1,-8.1523165E-2,-1.3454998E-1,6.8980744E-3,-2.1268024E-1,3.4092727E-1,3.353179E-1,-1.3138886E-1,3.8782072E-1,-2.4245462E-1,-2.8365967E-1,-7.617977E-2,4.5871597E-2,4.563332E-1,8.659655E-1,-5.5971637E-2,-1.04952775E-1,-1.54191945E-2,-1.6031953E-2,4.7846952E-1,2.1522346E-1,3.6953606E-2,5.766366E-2,-1.217711E-1,7.530404E-1,3.9612357E-2,-6.03181E-2,1.565876E-1,8.780796E-1,2.0733128E-1,2.9411367E-1,1.4821293E0,2.6587566E-2,2.6311657E-1,-3.798974E-1,1.9963566E-2,-4.5677405E-2,4.7414774E-1,1.2642999E0,1.2187515E-2,-4.3971032E-2,3.635614E-1,7.2594804E-1,-1.11700214E-1,6.8144506E-1,-1.7036822E-1],"categories":[],"categories_nodes":[],"categories_segments":[],"categories_sizes":[],"default_left":[0,0,0,0,0,0,0,0,0,0,0,0,0,0,0,0,0,0,0,0,0,0,0,0,0,0,0,0,0,0,0,0,0,0,0,0,0,0,0,0,0,0,0,0,0,0,0,0,0,0,0,0,0,0,0,0,0,0,0,0,0,0,0,0,0,0,0,0,0,0,0,0,0,0,0,0,0,0,0,0,0,0,0,0,0,0,0,0,0,0,0,0,0,0,0,0,0,0,0,0,0,0,0,0,0,0,0,0,0,0,0,0,0,0,0],"id":10,"left_children":[1,3,5,7,9,11,13,15,17,19,21,23,25,27,29,31,33,35,37,39,41,43,45,47,49,51,53,55,57,59,61,63,65,-1,67,69,71,73,75,77,79,81,83,85,-1,-1,-1,87,89,91,93,95,97,99,101,-1,-1,103,105,107,109,111,113,-1,-1,-1,-1,-1,-1,-1,-1,-1,-1,-1,-1,-1,-1,-1,-1,-1,-1,-1,-1,-1,-1,-1,-1,-1,-1,-1,-1,-1,-1,-1,-1,-1,-1,-1,-1,-1,-1,-1,-1,-1,-1,-1,-1,-1,-1,-1,-1,-1,-1,-1,-1],"loss_changes":[1.4809512E4,1.3097295E3,2.049413E3,3.2987598E2,3.7052173E2,1.010855E3,5.0972314E2,1.7318896E2,3.5889893E2,2.8734076E2,3.1787015E2,5.258274E2,4.778296E2,1.6275551E2,5.2873584E2,1.6535986E2,1.3241628E2,3.711446E2,1.7102515E2,3.2146912E2,4.046678E2,2.971374E0,5.6549988E1,2.854662E2,4.1642224E2,3.8875757E2,5.674487E2,6.8585205E0,1.3280357E2,6.786843E2,6.63749E2,6.642155E1,1.2551318E2,0E0,1.7131981E2,5.180511E2,2.6317627E2,3.2323828E2,2.9126477E2,1.3623679E2,2.3015213E2,5.6212366E2,2.634972E2,8.2779455E-1,0E0,0E0,0E0,4.4751617E2,4.3378796E2,4.5845425E2,1.5919876E2,5.0605286E2,6.158745E2,2.1768381E3,5.5734863E2,0E0,0E0,4.2643173E1,8.193889E1,2.031377E2,5.183948E2,3.4253467E2,3.3217184E2,0E0,0E0,0E0,0E0,0E0,0E0,0E0,0E0,0E0,0E0,0E0,0E0,0E0,0E0,0E0,0E0,0E0,0E0,0E0,0E0,0E0,0E0,0E0,0E0,0E0,0E0,0E0,0E0,0E0,0E0,0E0,0E0,0E0,0E0,0E0,0E0,0E0,0E0,0E0,0E0,0E0,0E0,0E0,0E0,0E0,0E0,0E0,0E0,0E0,0E0,0E0,0E0],"parents":[2147483647,0,0,1,1,2,2,3,3,4,4,5,5,6,6,7,7,8,8,9,9,10,10,11,11,12,12,13,13,14,14,15,15,16,16,17,17,18,18,19,19,20,20,21,21,22,22,23,23,24,24,25,25,26,26,27,27,28,28,29,29,30,30,31,31,32,32,34,34,35,35,36,36,37,37,38,38,39,39,40,40,41,41,42,42,43,43,47,47,48,48,49,49,50,50,51,51,52,52,53,53,54,54,57,57,58,58,59,59,60,60,61,61,62,62],"right_children":[2,4,6,8,10,12,14,16,18,20,22,24,26,28,30,32,34,36,38,40,42,44,46,48,50,52,54,56,58,60,62,64,66,-1,68,70,72,74,76,78,80,82,84,86,-1,-1,-1,88,90,92,94,96,98,100,102,-1,-1,104,106,108,110,112,114,-1,-1,-1,-1,-1,-1,-1,-1,-1,-1,-1,-1,-1,-1,-1,-1,-1,-1,-1,-1,-1,-1,-1,-1,-1,-1,-1,-1,-1,-1,-1,-1,-1,-1,-1,-1,-1,-1,-1,-1,-1,-1,-1,-1,-1,-1,-1,-1,-1,-1,-1,-1],"split_conditions":[1.7285501E1,1.7166325E1,1.7428375E1,1.8333334E-1,1.18E1,1.736932E1,4.5454545E0,1.4630914E0,2.022E3,-3E0,3.9833647E-1,1E0,1.0222223E0,9.111111E-1,4.5E0,5E1,8.888889E-1,1E0,3.7916667E0,1.0666667E-1,1.525E-1,7.9583335E-1,7.3E0,4.7083333E-1,7.5E1,3.03E1,5.949248E-2,3.625E0,1E0,3.8235295E0,1.2E1,1.009901E0,1.3333315E-6,4.7040218E-1,4.214286E0,2.2E0,1E0,6.6666665E0,3.3472223E0,-3.5E0,1.01E1,9.027778E-1,-3.2363066E-1,7.5E0,5.438722E-2,1.6480364E-1,1.0635363E0,2.0833333E-1,4.5E1,4.8988094E0,9.404762E0,1.1290322E-1,2.3333333E0,0E0,8.25E-1,5.3723085E-1,1.1002801E-1,3.75E-1,1E0,1.6333334E1,4.7E-1,1.6E1,9.6666664E-1,-4.0667005E-2,3.883982E-1,-2.9236716E-1,-1.9161828E-1,-2.579368E-1,4.4983257E-2,2.5488937E-1,-8.1523165E-2,-1.3454998E-1,6.8980744E-3,-2.1268024E-1,3.4092727E-1,3.353179E-1,-1.3138886E-1,3.8782072E-1,-2.4245462E-1,-2.8365967E-1,-7.617977E-2,4.5871597E-2,4.563332E-1,8.659655E-1,-5.5971637E-2,-1.04952775E-1,-1.54191945E-2,-1.6031953E-2,4.7846952E-1,2.1522346E-1,3.6953606E-2,5.766366E-2,-1.217711E-1,7.530404E-1,3.9612357E-2,-6.03181E-2,1.565876E-1,8.780796E-1,2.0733128E-1,2.9411367E-1,1.4821293E0,2.6587566E-2,2.6311657E-1,-3.798974E-1,1.9963566E-2,-4.5677405E-2,4.7414774E-1,1.2642999E0,1.2187515E-2,-4.3971032E-2,3.635614E-1,7.2594804E-1,-1.11700214E-1,6.8144506E-1,-1.7036822E-1],"split_indices":[77,77,77,63,18,77,73,58,52,59,16,36,26,25,60,34,25,36,74,12,12,11,0,11,34,41,58,6,23,75,76,24,16,0,73,74,46,73,73,59,41,11,16,0,0,0,0,11,9,74,76,48,56,58,35,0,0,4,21,7,12,21,63,0,0,0,0,0,0,0,0,0,0,0,0,0,0,0,0,0,0,0,0,0,0,0,0,0,0,0,0,0,0,0,0,0,0,0,0,0,0,0,0,0,0,0,0,0,0,0,0,0,0,0,0],"split_type":[0,0,0,0,0,0,0,0,0,0,0,0,0,0,0,0,0,0,0,0,0,0,0,0,0,0,0,0,0,0,0,0,0,0,0,0,0,0,0,0,0,0,0,0,0,0,0,0,0,0,0,0,0,0,0,0,0,0,0,0,0,0,0,0,0,0,0,0,0,0,0,0,0,0,0,0,0,0,0,0,0,0,0,0,0,0,0,0,0,0,0,0,0,0,0,0,0,0,0,0,0,0,0,0,0,0,0,0,0,0,0,0,0,0,0],"sum_hessian":[4.897E3,2.731E3,2.166E3,2.096E3,6.35E2,1.951E3,2.15E2,7.26E2,1.37E3,6.27E2,8E0,9.94E2,9.57E2,1.9E1,1.96E2,6.76E2,5E1,7.8E2,5.9E2,1.7E2,4.57E2,4E0,4E0,4.03E2,5.91E2,5.11E2,4.46E2,3E0,1.6E1,1.14E2,8.2E1,8E0,6.68E2,2E0,4.8E1,1.27E2,6.53E2,3.86E2,2.04E2,1.2E1,1.58E2,1.73E2,2.84E2,3E0,1E0,1E0,3E0,5.3E1,3.5E2,5.82E2,9E0,4.52E2,5.9E1,1.18E2,3.28E2,2E0,1E0,9E0,7E0,6E0,1.08E2,6.9E1,1.3E1,5E0,3E0,9.7E1,5.71E2,1.9E1,2.9E1,4.4E1,8.3E1,5.54E2,9.9E1,3.8E2,6E0,8E0,1.96E2,1E1,2E0,5E1,1.08E2,1.49E2,2.4E1,1E0,2.83E2,1E0,2E0,1.7E1,3.6E1,1.69E2,1.81E2,4.7E2,1.12E2,6E0,3E0,8.4E1,3.68E2,1E1,4.9E1,1.08E2,1E1,8.7E1,2.41E2,7E0,2E0,5E0,2E0,5E0,1E0,2.6E1,8.2E1,6.6E1,3E0,3E0,1E1],"tree_param":{"num_deleted":"0","num_feature":"78","num_nodes":"115","size_leaf_vector":"1"}},{"base_weights":[9.599439E-2,-1.3529285E0,1.6979611E0,-1.808018E0,-6.728502E-1,7.165151E-1,2.83419E0,-1.9710001E0,-5.554169E-1,-5.101582E-1,-3.8624256E0,6.016242E-1,5.071215E0,2.3808787E0,4.8019824E0,-1.9970198E0,5.4805408E0,1.8881147E0,-1.4917334E0,-5.995392E-1,3.827452E0,-3.996176E0,1.0365377E-1,-6.700521E-1,9.2196345E-1,-7.601861E-1,7.760951E0,3.0755727E0,1.1927154E0,4.3581243E0,1.0008617E1,-9.3749654E-1,-2.1629553E0,4.2075646E-1,6.944116E-1,-1.3145231E-2,4.1249475E0,-1.6667455E0,6.4393587E0,-6.617555E-1,5.4045124E0,8.683786E-1,2.4380467E0,-4.114509E0,6.3352406E-2,1.1717377E0,-1.4852916E0,8.208472E-1,4.8903255E0,2.5353512E-1,-2.6423504E0,1.2136429E1,3.790511E0,1.1673018E1,2.8797257E0,-2.394677E0,1.5781522E0,4.0306325E0,9.7514015E-1,1.1203365E0,1.6645321E0,2.8870542E-2,-1.2002745E-1,2.360008E-1,-1.74993E-1,-0E0,4.6614278E-2,4.059917E-1,-1.3088124E-1,4.574602E-1,-1.0606331E-1,-2.8978664E-1,-9.4373144E-2,1.4517292E-1,6.235501E-1,8.4275685E-2,-6.65947E-2,6.479397E-1,-2.8396925E-1,4.9651682E-1,4.0283564E-2,-1.3657671E-1,-3.5851467E-1,-2.209831E-2,3.1766072E-1,-2.4245245E-2,-2.5157773E-1,9.584195E-2,-1.3300689E-2,5.829929E-1,6.365314E-2,-3.529723E-1,1.395765E-1,2.8914997E-1,1.2206489E0,2.4748191E-2,5.3727055E-1,1.125216E0,-1.2687692E-2,1.6055478E-1,3.2538217E-1,3.6930434E-2,-4.5354137E-1,2.3702739E-1,3.3794556E-2,3.4750658E-1,-1.9412068E-1,-2.2749394E-2,4.6036115E-1],"categories":[],"categories_nodes":[],"categories_segments":[],"categories_sizes":[],"default_left":[0,0,0,0,0,0,0,0,0,0,0,0,0,0,0,0,0,0,0,0,0,0,0,0,0,0,0,0,0,0,0,0,0,0,0,0,0,0,0,0,0,0,0,0,0,0,0,0,0,0,0,0,0,0,0,0,0,0,0,0,0,0,0,0,0,0,0,0,0,0,0,0,0,0,0,0,0,0,0,0,0,0,0,0,0,0,0,0,0,0,0,0,0,0,0,0,0,0,0,0,0,0,0,0,0,0,0,0,0],"id":11,"left_children":[1,3,5,7,9,11,13,15,17,19,21,23,25,27,29,31,33,35,37,39,41,43,-1,45,47,49,51,53,55,57,59,61,63,65,-1,67,69,71,73,75,77,-1,79,81,-1,83,85,87,89,-1,91,93,95,97,99,101,103,105,-1,-1,107,-1,-1,-1,-1,-1,-1,-1,-1,-1,-1,-1,-1,-1,-1,-1,-1,-1,-1,-1,-1,-1,-1,-1,-1,-1,-1,-1,-1,-1,-1,-1,-1,-1,-1,-1,-1,-1,-1,-1,-1,-1,-1,-1,-1,-1,-1,-1,-1],"loss_changes":[1.1382813E4,7.954888E2,2.5947915E3,3.134546E2,5.3415393E2,6.222764E2,9.503418E2,2.7505713E2,4.1231445E2,3.8385638E2,3.9942627E1,4.976317E2,5.0851764E2,7.2143945E2,4.1945703E2,2.3676758E2,7.638422E1,2.131055E2,1.9070029E2,3.6395117E2,1.6748123E2,3.1353394E1,0E0,3.711407E2,3.8664874E2,8.967446E1,3.346006E2,8.977461E2,4.5446185E2,4.2883325E2,4.7521582E2,1.3658192E2,1.533086E2,1.4792049E-1,0E0,2.3916121E2,2.0776831E2,1.1717044E2,3.6945877E0,2.8101428E2,2.7049408E2,0E0,1.2742386E2,3.4128662E1,0E0,3.0948587E2,3.3417368E2,3.5474518E2,2.2895947E2,0E0,7.0078476E1,2.0899585E2,1.2960773E2,3.4326172E2,5.54041E2,3.0244144E2,4.705027E2,3.767827E2,0E0,0E0,5.000921E1,0E0,0E0,0E0,0E0,0E0,0E0,0E0,0E0,0E0,0E0,0E0,0E0,0E0,0E0,0E0,0E0,0E0,0E0,0E0,0E0,0E0,0E0,0E0,0E0,0E0,0E0,0E0,0E0,0E0,0E0,0E0,0E0,0E0,0E0,0E0,0E0,0E0,0E0,0E0,0E0,0E0,0E0,0E0,0E0,0E0,0E0,0E0,0E0],"parents":[2147483647,0,0,1,1,2,2,3,3,4,4,5,5,6,6,7,7,8,8,9,9,10,10,11,11,12,12,13,13,14,14,15,15,16,16,17,17,18,18,19,19,20,20,21,21,23,23,24,24,25,25,26,26,27,27,28,28,29,29,30,30,31,31,32,32,33,33,35,35,36,36,37,37,38,38,39,39,40,40,42,42,43,43,45,45,46,46,47,47,48,48,50,50,51,51,52,52,53,53,54,54,55,55,56,56,57,57,60,60],"right_children":[2,4,6,8,10,12,14,16,18,20,22,24,26,28,30,32,34,36,38,40,42,44,-1,46,48,50,52,54,56,58,60,62,64,66,-1,68,70,72,74,76,78,-1,80,82,-1,84,86,88,90,-1,92,94,96,98,100,102,104,106,-1,-1,108,-1,-1,-1,-1,-1,-1,-1,-1,-1,-1,-1,-1,-1,-1,-1,-1,-1,-1,-1,-1,-1,-1,-1,-1,-1,-1,-1,-1,-1,-1,-1,-1,-1,-1,-1,-1,-1,-1,-1,-1,-1,-1,-1,-1,-1,-1,-1,-1],"split_conditions":[9.666667E0,1.8E0,1.6666666E1,2E0,1.0333333E1,2.0851247E0,3.03E1,5.8333332E1,6.666667E-1,5.75E0,1.3333334E0,1.02E1,7.047619E-1,1.3E1,4E-1,2E0,1E0,1E0,1.3E1,3E-1,-1.2881515E0,3.0333334E1,1.0365377E-1,1E0,9.285714E0,9E0,1.25E-1,4.6E1,4.7E0,6.225806E0,7.5E0,1E0,4.6E1,9.266666E0,6.944116E-1,5.25E0,9E-1,2E-1,8.425E0,2E0,9.033334E0,8.683786E-1,9.444444E-1,4.8333332E-2,6.3352406E-2,1.325E1,6.6666665E0,8.333333E0,1.3E1,2.5353512E-1,4.5172415E0,1E0,5.785714E0,5.0663314E0,4.25E0,4.1836734E0,2.5641026E0,5.368421E0,9.7514015E-1,1.1203365E0,1.05E1,2.8870542E-2,-1.2002745E-1,2.360008E-1,-1.74993E-1,-0E0,4.6614278E-2,4.059917E-1,-1.3088124E-1,4.574602E-1,-1.0606331E-1,-2.8978664E-1,-9.4373144E-2,1.4517292E-1,6.235501E-1,8.4275685E-2,-6.65947E-2,6.479397E-1,-2.8396925E-1,4.9651682E-1,4.0283564E-2,-1.3657671E-1,-3.5851467E-1,-2.209831E-2,3.1766072E-1,-2.4245245E-2,-2.5157773E-1,9.584195E-2,-1.3300689E-2,5.829929E-1,6.365314E-2,-3.529723E-1,1.395765E-1,2.8914997E-1,1.2206489E0,2.4748191E-2,5.3727055E-1,1.125216E0,-1.2687692E-2,1.6055478E-1,3.2538217E-1,3.6930434E-2,-4.5354137E-1,2.3702739E-1,3.3794556E-2,3.4750658E-1,-1.9412068E-1,-2.2749394E-2,4.6036115E-1],"split_indices":[44,42,44,45,73,58,41,9,24,6,8,41,11,53,48,53,36,39,69,29,58,74,0,36,17,53,8,61,42,17,60,36,34,0,0,5,35,42,0,53,0,0,26,12,0,44,5,76,17,0,73,23,73,74,74,75,51,18,0,0,60,0,0,0,0,0,0,0,0,0,0,0,0,0,0,0,0,0,0,0,0,0,0,0,0,0,0,0,0,0,0,0,0,0,0,0,0,0,0,0,0,0,0,0,0,0,0,0,0],"split_type":[0,0,0,0,0,0,0,0,0,0,0,0,0,0,0,0,0,0,0,0,0,0,0,0,0,0,0,0,0,0,0,0,0,0,0,0,0,0,0,0,0,0,0,0,0,0,0,0,0,0,0,0,0,0,0,0,0,0,0,0,0,0,0,0,0,0,0,0,0,0,0,0,0,0,0,0,0,0,0,0,0,0,0,0,0,0,0,0,0,0,0,0,0,0,0,0,0,0,0,0,0,0,0,0,0,0,0,0,0],"sum_hessian":[4.902E3,2.574E3,2.328E3,1.541E3,1.033E3,1.25E3,1.078E3,1.363E3,1.78E2,9.84E2,4.9E1,1.219E3,3.1E1,8.78E2,2E2,1.359E3,4E0,4.9E1,1.29E2,9.65E2,1.9E1,4.8E1,1E0,2.45E2,9.74E2,1E1,2.1E1,5.53E2,3.25E2,1.86E2,1.4E1,1.85E2,1.174E3,2E0,2E0,2.7E1,2.2E1,1.27E2,2E0,9.56E2,9E0,2E0,1.7E1,4.7E1,1E0,7.5E1,1.7E2,9.51E2,2.3E1,3E0,7E0,9E0,1.2E1,1.1E1,5.42E2,3.1E1,2.94E2,1.8E2,6E0,9E0,5E0,5.6E1,1.29E2,5E0,1.169E3,1E0,1E0,6E0,2.1E1,1.7E1,5E0,2.4E1,1.03E2,1E0,1E0,8.6E1,8.7E2,7E0,2E0,5E0,1.2E1,7E0,4E1,5E1,2.5E1,1E2,7E1,6.88E2,2.63E2,1.4E1,9E0,5E0,2E0,3E0,6E0,6E0,6E0,9E0,2E0,3.14E2,2.28E2,1.7E1,1.4E1,1.33E2,1.61E2,1.72E2,8E0,4E0,1E0],"tree_param":{"num_deleted":"0","num_feature":"78","num_nodes":"109","size_leaf_vector":"1"}},{"base_weights":[-6.1861042E-2,-1.3075732E0,1.4496157E0,3.3692896E-1,-1.4989903E0,6.997949E-1,2.33906E0,-2.0103993E-1,4.0363555E0,-2.0875072E0,-8.792732E-1,-5.855808E-1,9.9191E-1,1.4803163E0,3.2360158E0,-4.4258803E-1,4.5779557E0,5.111371E0,-3.6310163E0,-6.7444485E-1,-2.1801584E0,-1.5689455E0,-5.0303763E-1,-4.4240937E-2,-3.085672E0,-1.4782487E0,1.2291738E0,7.536706E-1,2.5255492E0,4.121413E0,1.7907888E0,5.8806695E-2,-2.5854013E0,2.4288878E0,8.145756E-1,2.577103E0,6.9337406E0,-4.0209228E-1,7.39813E-2,-1.5627047E0,1.6530669E0,-2.5259137E0,-1.8552086E0,-1.7890604E0,1.673048E0,-1.035788E0,1.0503468E-1,1.991611E0,-9.6001744E-1,1.9874403E0,-3.8700433E0,6.7424744E-1,-3.243282E0,1.403567E0,-1.036529E0,9.806436E-1,-4.956212E0,1.7240093E0,5.4132595E0,6.0615087E0,3.0429537E0,1.3634628E0,1.5386815E0,4.2738906E-1,-1.824954E-2,1.4654492E-1,-2.5486785E-1,3.703811E-1,-3.3731276E-1,-3.898193E-1,3.2846013E-1,6.944859E-1,5.0756738E-2,2.3020975E-1,-1.9658397E-1,-4.412517E-2,3.4910247E-1,3.7672332E-1,-2.0482723E-1,-1.1534883E-1,-2.2110789E-1,-2.01914E-1,-8.046645E-2,8.1027955E-1,-1.8678866E-2,6.248997E-2,-1.1154475E-1,2.3682746E-1,-2.6740776E-2,-2.2614121E-1,2.2568691E-1,5.630327E-1,-1.1265535E-1,-1.565678E-1,3.5791868E-1,-3.33188E-1,2.4213563E-1,-5.342521E-2,5.688641E-1,-3.4953097E-1,2.3357095E-1,2.3870611E-1,8.808582E-2,5.803483E-1,-1.6034557E-1,2.555649E-1,2.5173232E-2,1.5769757E-1,-4.6194172E-1,3.2645583E-1,6.469253E-2,2.3587629E-1,9.148462E-1,1.0054457E0,4.1007796E-1,2.1027027E-1,7.0372695E-1,8.65291E-2,5.4095143E-1],"categories":[],"categories_nodes":[],"categories_segments":[],"categories_sizes":[],"default_left":[0,0,0,0,0,0,0,0,0,0,0,0,0,0,0,0,0,0,0,0,0,0,0,0,0,0,0,0,0,0,0,0,0,0,0,0,0,0,0,0,0,0,0,0,0,0,0,0,0,0,0,0,0,0,0,0,0,0,0,0,0,0,0,0,0,0,0,0,0,0,0,0,0,0,0,0,0,0,0,0,0,0,0,0,0,0,0,0,0,0,0,0,0,0,0,0,0,0,0,0,0,0,0,0,0,0,0,0,0,0,0,0,0,0,0,0,0,0,0],"id":12,"left_children":[1,3,5,7,9,11,13,15,17,19,21,23,25,27,29,31,33,35,37,39,41,43,45,47,49,51,53,55,57,59,61,63,65,67,-1,69,71,-1,-1,73,75,77,79,81,83,85,87,89,91,93,95,97,99,101,103,105,107,109,111,113,115,-1,117,-1,-1,-1,-1,-1,-1,-1,-1,-1,-1,-1,-1,-1,-1,-1,-1,-1,-1,-1,-1,-1,-1,-1,-1,-1,-1,-1,-1,-1,-1,-1,-1,-1,-1,-1,-1,-1,-1,-1,-1,-1,-1,-1,-1,-1,-1,-1,-1,-1,-1,-1,-1,-1,-1,-1,-1],"loss_changes":[9.297586E3,8.527466E2,1.4859668E3,5.644149E2,8.822993E2,4.5570038E2,7.803989E2,2.8789325E2,3.1543915E2,1.6098047E2,3.0596747E2,3.0406525E2,5.8083844E2,3.949944E2,6.2926855E2,2.5503639E2,1.1853418E2,1.289679E2,3.6837868E1,1.6383417E2,1.25879395E2,3.0058044E2,2.4867215E2,3.485845E2,1.6704794E2,3.3297644E2,3.5789246E2,4.0621936E2,4.8528137E2,6.2507715E2,7.063634E2,2.943161E2,1.2532489E2,1.6581705E2,0E0,1.9075244E2,1.9168567E2,0E0,0E0,2.3344992E2,1.3426291E2,1.5182227E2,2.2282324E2,2.221554E2,4.386104E2,2.6757382E2,4.515534E2,2.3978403E2,4.7174393E2,6.785729E1,8.3881775E1,3.5092334E2,3.4595187E2,3.9688623E2,5.355646E2,4.3949564E2,7.976727E1,3.6077832E2,6.4766113E2,5.9730225E2,4.527998E2,0E0,4.4311316E2,0E0,0E0,0E0,0E0,0E0,0E0,0E0,0E0,0E0,0E0,0E0,0E0,0E0,0E0,0E0,0E0,0E0,0E0,0E0,0E0,0E0,0E0,0E0,0E0,0E0,0E0,0E0,0E0,0E0,0E0,0E0,0E0,0E0,0E0,0E0,0E0,0E0,0E0,0E0,0E0,0E0,0E0,0E0,0E0,0E0,0E0,0E0,0E0,0E0,0E0,0E0,0E0,0E0,0E0,0E0,0E0],"parents":[2147483647,0,0,1,1,2,2,3,3,4,4,5,5,6,6,7,7,8,8,9,9,10,10,11,11,12,12,13,13,14,14,15,15,16,16,17,17,18,18,19,19,20,20,21,21,22,22,23,23,24,24,25,25,26,26,27,27,28,28,29,29,30,30,31,31,32,32,33,33,35,35,36,36,39,39,40,40,41,41,42,42,43,43,44,44,45,45,46,46,47,47,48,48,49,49,50,50,51,51,52,52,53,53,54,54,55,55,56,56,57,57,58,58,59,59,60,60,62,62],"right_children":[2,4,6,8,10,12,14,16,18,20,22,24,26,28,30,32,34,36,38,40,42,44,46,48,50,52,54,56,58,60,62,64,66,68,-1,70,72,-1,-1,74,76,78,80,82,84,86,88,90,92,94,96,98,100,102,104,106,108,110,112,114,116,-1,118,-1,-1,-1,-1,-1,-1,-1,-1,-1,-1,-1,-1,-1,-1,-1,-1,-1,-1,-1,-1,-1,-1,-1,-1,-1,-1,-1,-1,-1,-1,-1,-1,-1,-1,-1,-1,-1,-1,-1,-1,-1,-1,-1,-1,-1,-1,-1,-1,-1,-1,-1,-1,-1,-1,-1,-1],"split_conditions":[1.05E1,2E0,1.7375282E1,2.85E1,4.6666665E0,1.02E1,4.25E0,1.2E0,1.742596E1,4.5E1,1.9444445E-1,9.6E0,2.500001E-1,2.5E1,1E0,6.5E0,9.333333E0,1.7376596E1,1E0,8.333333E-1,2E0,1.57E1,4.3333335E0,1E0,1.7231125E1,1.0666667E1,1.8E1,1.2E1,8.833333E-1,2.021E3,2.4583334E-1,9.222222E-1,1.6129032E0,5E-1,8.145756E-1,4.642857E0,3.75E-1,-4.0209228E-1,7.39813E-2,1.3333334E-2,3.2777777E0,8E-1,1E0,1.1E1,2.2222222E-1,-5.5E0,2.3548643E-1,3.3E0,1E0,8.666667E-1,6.462963E0,2.023E3,9.5E0,1.2E1,6E-1,1.738418E1,9.666667E0,4.3699074E0,1.25E1,8.1E0,1.1625E2,1.3634628E0,2.46E1,4.2738906E-1,-1.824954E-2,1.4654492E-1,-2.5486785E-1,3.703811E-1,-3.3731276E-1,-3.898193E-1,3.2846013E-1,6.944859E-1,5.0756738E-2,2.3020975E-1,-1.9658397E-1,-4.412517E-2,3.4910247E-1,3.7672332E-1,-2.0482723E-1,-1.1534883E-1,-2.2110789E-1,-2.01914E-1,-8.046645E-2,8.1027955E-1,-1.8678866E-2,6.248997E-2,-1.1154475E-1,2.3682746E-1,-2.6740776E-2,-2.2614121E-1,2.2568691E-1,5.630327E-1,-1.1265535E-1,-1.565678E-1,3.5791868E-1,-3.33188E-1,2.4213563E-1,-5.342521E-2,5.688641E-1,-3.4953097E-1,2.3357095E-1,2.3870611E-1,8.808582E-2,5.803483E-1,-1.6034557E-1,2.555649E-1,2.5173232E-2,1.5769757E-1,-4.6194172E-1,3.2645583E-1,6.469253E-2,2.3587629E-1,9.148462E-1,1.0054457E0,4.1007796E-1,2.1027027E-1,7.0372695E-1,8.65291E-2,5.4095143E-1],"split_indices":[44,53,77,5,44,41,45,13,77,68,48,41,16,41,36,60,5,77,23,35,44,41,7,36,77,5,53,21,35,52,12,25,51,5,0,73,49,0,0,12,76,25,23,53,49,59,16,42,60,25,74,52,59,44,6,77,7,74,42,42,9,0,42,0,0,0,0,0,0,0,0,0,0,0,0,0,0,0,0,0,0,0,0,0,0,0,0,0,0,0,0,0,0,0,0,0,0,0,0,0,0,0,0,0,0,0,0,0,0,0,0,0,0,0,0,0,0,0,0],"split_type":[0,0,0,0,0,0,0,0,0,0,0,0,0,0,0,0,0,0,0,0,0,0,0,0,0,0,0,0,0,0,0,0,0,0,0,0,0,0,0,0,0,0,0,0,0,0,0,0,0,0,0,0,0,0,0,0,0,0,0,0,0,0,0,0,0,0,0,0,0,0,0,0,0,0,0,0,0,0,0,0,0,0,0,0,0,0,0,0,0,0,0,0,0,0,0,0,0,0,0,0,0,0,0,0,0,0,0,0,0,0,0,0,0,0,0,0,0,0,0],"sum_hessian":[4.936E3,2.706E3,2.23E3,2.82E2,2.424E3,1.211E3,1.019E3,2.47E2,3.5E1,1.242E3,1.182E3,2.24E2,9.87E2,5.22E2,4.97E2,2.36E2,1.1E1,3.1E1,4E0,7.7E1,1.165E3,4.16E2,7.66E2,1.85E2,3.9E1,8.6E1,9.01E2,3.09E2,2.13E2,3.07E2,1.9E2,1.92E2,4.4E1,9E0,2E0,1.4E1,1.7E1,3E0,1E0,5.6E1,2.1E1,5.61E2,6.04E2,3.9E2,2.6E1,4.08E2,3.58E2,5.7E1,1.28E2,5E0,3.4E1,3.9E1,4.7E1,8.37E2,6.4E1,2.98E2,1.1E1,1.68E2,4.5E1,1.08E2,1.99E2,2E0,1.88E2,9E0,1.83E2,5E0,3.9E1,7E0,2E0,2E0,1.2E1,1.3E1,4E0,9E0,4.7E1,1.2E1,9E0,2E0,5.59E2,4.17E2,1.87E2,2E2,1.9E2,4E0,2.2E1,6.7E1,3.41E2,4.7E1,3.11E2,8E0,4.9E1,6E0,1.22E2,2E0,3E0,3.3E1,1E0,3.3E1,6E0,4E1,7E0,1.33E2,7.04E2,6E0,5.8E1,6.8E1,2.3E2,1E0,1E1,4.6E1,1.22E2,3.3E1,1.2E1,1.2E1,9.6E1,1.87E2,1.2E1,1.74E2,1.4E1],"tree_param":{"num_deleted":"0","num_feature":"78","num_nodes":"119","size_leaf_vector":"1"}},{"base_weights":[4.5447676E-3,-1.208131E0,1.2972949E0,-1.5047104E0,-5.9994966E-2,7.2945744E-1,3.047842E0,-1.5274094E0,5.2527175E0,2.311524E0,-4.544604E-1,-1.6049466E-1,1.1411899E0,4.0884175E0,1.7360592E0,-2.4479902E0,-1.3943088E0,6.1774936E0,-7.83754E-3,1.22829914E-1,5.410869E0,-1.3712522E0,2.2391829E-1,-1.5119818E0,4.3729994E-1,1.268637E0,-2.2607088E0,2.5069818E0,5.1510077E0,4.452282E0,1.0547274E0,4.099011E0,-2.5166132E0,-4.252355E-1,-1.5337512E0,6.71728E-1,1.1261857E0,2.550763E0,-2.7686536E0,-2.641583E-1,6.516227E0,-1.5239712E0,4.9300292E-1,5.5377035E0,-1.0383927E-2,-1.774305E0,5.060436E0,9.1842926E-1,3.2411116E-1,1.1601574E0,5.165027E0,-3.2952862E0,6.654968E0,2.1449158E0,1.0897901E0,-1.2919392E-1,5.8625503E0,-1.1055838E0,6.1497817E0,7.570026E0,7.9227865E-1,8.275673E-2,4.0512457E-1,4.332205E-1,-2.05615E-1,-5.7363577E-2,4.2250773E-1,-1.700014E-1,-1.01491295E-1,-0E0,1.3686639E-1,-2.4854231E-1,2.7744067E-1,-4.3481693E-1,5.584651E-2,-2.3981012E-1,5.321273E-1,6.114357E-1,1.1760021E-1,1.2858686E-1,-1.523714E-1,1.3408183E-1,1.2194808E0,-2.9329099E-2,1.5872157E-1,-1.5981235E-1,2.95811E-1,7.623261E-1,1.0777311E-1,5.105084E-2,-1.9202773E-1,1.20642565E-1,1.4193166E-2,1.7547908E-1,7.057405E-1,-4.0403733E-1,-6.131346E-2,7.4927807E-1,-1.6356267E-1,3.8077402E-1,5.2413642E-2,1.1859562E-1,-3.4153908E-1,5.2146214E-1,4.6471927E-2,5.854931E-2,-3.3695018E-1,5.2875215E-1,-1.3509397E-1,7.991198E-1,1.4032628E-2,3.3111267E-2,4.146054E-1],"categories":[],"categories_nodes":[],"categories_segments":[],"categories_sizes":[],"default_left":[0,0,0,0,0,0,0,0,0,0,0,0,0,0,0,0,0,0,0,0,0,0,0,0,0,0,0,0,0,0,0,0,0,0,0,0,0,0,0,0,0,0,0,0,0,0,0,0,0,0,0,0,0,0,0,0,0,0,0,0,0,0,0,0,0,0,0,0,0,0,0,0,0,0,0,0,0,0,0,0,0,0,0,0,0,0,0,0,0,0,0,0,0,0,0,0,0,0,0,0,0,0,0,0,0,0,0,0,0,0,0,0,0],"id":13,"left_children":[1,3,5,7,9,11,13,15,17,19,21,23,25,27,29,31,33,35,-1,37,39,41,43,45,47,49,51,53,55,57,59,61,63,65,67,-1,69,71,73,75,77,79,-1,81,83,85,87,-1,89,91,93,95,97,99,-1,101,103,105,107,109,111,-1,-1,-1,-1,-1,-1,-1,-1,-1,-1,-1,-1,-1,-1,-1,-1,-1,-1,-1,-1,-1,-1,-1,-1,-1,-1,-1,-1,-1,-1,-1,-1,-1,-1,-1,-1,-1,-1,-1,-1,-1,-1,-1,-1,-1,-1,-1,-1,-1,-1,-1,-1],"loss_changes":[7.753787E3,8.6874365E2,2.3770977E3,3.1871826E2,4.91993E2,6.63139E2,7.9221533E2,2.4395801E2,3.5850464E1,5.075459E2,2.809131E2,4.637021E2,5.3908484E2,5.341367E2,4.7777264E2,1.2427319E2,2.3819702E2,5.6847946E1,0E0,3.2295517E2,1.9680743E2,2.2983392E2,3.2431845E2,3.120913E2,4.925791E2,4.9763025E2,4.3667215E2,5.044635E2,7.3020605E2,4.9789624E2,3.52252E2,3.0238914E0,1.2071973E2,3.7634277E2,2.3930127E2,0E0,2.0489953E0,1.4054434E2,1.9839719E2,1.329975E2,1.3568127E2,2.28379E2,0E0,3.8504755E2,1.7818213E2,2.1498291E2,1.0222809E2,0E0,3.392963E2,3.9681836E2,3.272636E2,1.7753094E2,1.3780331E2,5.0273248E2,0E0,1.6674179E2,5.8773193E2,7.763011E1,1.5576184E2,1.4033032E2,3.345254E2,0E0,0E0,0E0,0E0,0E0,0E0,0E0,0E0,0E0,0E0,0E0,0E0,0E0,0E0,0E0,0E0,0E0,0E0,0E0,0E0,0E0,0E0,0E0,0E0,0E0,0E0,0E0,0E0,0E0,0E0,0E0,0E0,0E0,0E0,0E0,0E0,0E0,0E0,0E0,0E0,0E0,0E0,0E0,0E0,0E0,0E0,0E0,0E0,0E0,0E0,0E0,0E0],"parents":[2147483647,0,0,1,1,2,2,3,3,4,4,5,5,6,6,7,7,8,8,9,9,10,10,11,11,12,12,13,13,14,14,15,15,16,16,17,17,19,19,20,20,21,21,22,22,23,23,24,24,25,25,26,26,27,27,28,28,29,29,30,30,31,31,32,32,33,33,34,34,36,36,37,37,38,38,39,39,40,40,41,41,43,43,44,44,45,45,46,46,48,48,49,49,50,50,51,51,52,52,53,53,55,55,56,56,57,57,58,58,59,59,60,60],"right_children":[2,4,6,8,10,12,14,16,18,20,22,24,26,28,30,32,34,36,-1,38,40,42,44,46,48,50,52,54,56,58,60,62,64,66,68,-1,70,72,74,76,78,80,-1,82,84,86,88,-1,90,92,94,96,98,100,-1,102,104,106,108,110,112,-1,-1,-1,-1,-1,-1,-1,-1,-1,-1,-1,-1,-1,-1,-1,-1,-1,-1,-1,-1,-1,-1,-1,-1,-1,-1,-1,-1,-1,-1,-1,-1,-1,-1,-1,-1,-1,-1,-1,-1,-1,-1,-1,-1,-1,-1,-1,-1,-1,-1,-1,-1],"split_conditions":[9.5E0,3.3E0,2.5E1,2E1,2E0,4.8E0,1E0,1E-1,4.125E0,2.85E1,6.5E0,3.22E0,4.75E0,-4.2648174E-2,7E0,4.6E1,2E0,3.6363637E-1,-7.83754E-3,4.7272725E0,4.642857E0,5.2E1,7.5E-2,4.125E0,-3.5471987E-2,3.4615386E0,2.2E1,9.25E-1,6.2E0,1.5714285E0,3.8333333E0,5E-1,8E-1,1.2E0,2.5E-1,6.71728E-1,1.25E-1,1.4E1,2.631579E-1,1E0,1.125E0,4.7796845E-1,4.9300292E-1,9.777778E-1,1.2709705E0,1.3548499E0,4.3333335E0,9.1842926E-1,6.3813233E-1,9.2561316E-1,1.1375E1,8.122222E0,1.625E1,-9.250696E-1,1.0897901E0,1.5E1,1.2E1,1E0,5E0,1E0,2.35E1,8.275673E-2,4.0512457E-1,4.332205E-1,-2.05615E-1,-5.7363577E-2,4.2250773E-1,-1.700014E-1,-1.01491295E-1,-0E0,1.3686639E-1,-2.4854231E-1,2.7744067E-1,-4.3481693E-1,5.584651E-2,-2.3981012E-1,5.321273E-1,6.114357E-1,1.1760021E-1,1.2858686E-1,-1.523714E-1,1.3408183E-1,1.2194808E0,-2.9329099E-2,1.5872157E-1,-1.5981235E-1,2.95811E-1,7.623261E-1,1.0777311E-1,5.105084E-2,-1.9202773E-1,1.20642565E-1,1.4193166E-2,1.7547908E-1,7.057405E-1,-4.0403733E-1,-6.131346E-2,7.4927807E-1,-1.6356267E-1,3.8077402E-1,5.2413642E-2,1.1859562E-1,-3.4153908E-1,5.2146214E-1,4.6471927E-2,5.854931E-2,-3.3695018E-1,5.2875215E-1,-1.3509397E-1,7.991198E-1,1.4032628E-2,3.3111267E-2,4.146054E-1],"split_indices":[44,42,41,69,53,42,36,63,7,5,44,75,19,27,53,34,53,24,0,73,73,5,12,6,16,19,44,35,42,6,73,5,25,13,45,0,4,41,49,25,8,16,0,25,27,58,6,0,16,16,7,76,7,27,0,53,76,65,46,22,7,0,0,0,0,0,0,0,0,0,0,0,0,0,0,0,0,0,0,0,0,0,0,0,0,0,0,0,0,0,0,0,0,0,0,0,0,0,0,0,0,0,0,0,0,0,0,0,0,0,0,0,0],"split_type":[0,0,0,0,0,0,0,0,0,0,0,0,0,0,0,0,0,0,0,0,0,0,0,0,0,0,0,0,0,0,0,0,0,0,0,0,0,0,0,0,0,0,0,0,0,0,0,0,0,0,0,0,0,0,0,0,0,0,0,0,0,0,0,0,0,0,0,0,0,0,0,0,0,0,0,0,0,0,0,0,0,0,0,0,0,0,0,0,0,0,0,0,0,0,0,0,0,0,0,0,0,0,0,0,0,0,0,0,0,0,0,0,0],"sum_hessian":[4.944E3,2.551E3,2.393E3,2.027E3,5.24E2,1.808E3,5.85E2,2.021E3,6E0,7.4E1,4.5E2,5.72E2,1.236E3,3.25E2,2.6E2,2.53E2,1.768E3,5E0,1E0,4.4E1,3E1,1.91E2,2.59E2,1.75E2,3.97E2,1.192E3,4.4E1,1.32E2,1.93E2,5.1E1,2.09E2,2E0,2.51E2,2.23E2,1.545E3,3E0,2E0,2.4E1,2E1,5E0,2.5E1,1.88E2,3E0,1E1,2.49E2,1.69E2,6E0,3E0,3.94E2,1.161E3,3.1E1,4E1,4E0,1.29E2,3E0,2.3E1,1.7E2,1.2E1,3.9E1,7E0,2.02E2,1E0,1E0,1E0,2.5E2,2.13E2,1E1,4.76E2,1.069E3,1E0,1E0,3E0,2.1E1,1.1E1,9E0,4E0,1E0,2E1,5E0,2E1,1.68E2,8E0,2E0,2.12E2,3.7E1,1.63E2,6E0,2E0,4E0,3.54E2,4E1,8.57E2,3.04E2,1.8E1,1.3E1,2.3E1,1.7E1,3E0,1E0,4.6E1,8.3E1,1.7E1,6E0,1.51E2,1.9E1,8E0,4E0,3.7E1,2E0,5E0,2E0,1.87E2,1.5E1],"tree_param":{"num_deleted":"0","num_feature":"78","num_nodes":"113","size_leaf_vector":"1"}},{"base_weights":[3.970018E-2,-1.1660558E0,1.3194662E0,3.421768E-1,-1.3649486E0,9.170153E-1,2.5522506E0,7.098774E-1,-2.7448838E0,-1.8715242E0,-7.4175495E-1,6.7579E-1,1.9497849E0,1.8098733E0,4.012486E0,3.0014363E-1,3.3392687E0,1.4536177E0,-3.400156E0,-1.8908647E0,4.5862327E0,-8.061406E-1,2.3425243E0,-9.84923E-1,8.08906E-1,8.817573E-1,4.4050236E0,1.5538718E0,4.5680165E0,4.9183936E0,1.2125131E0,5.096756E-1,-5.2186173E-1,8.648121E0,9.6093637E-1,-1.8577491E0,3.451023E-1,-3.5892978E0,6.426698E-2,-1.8226055E0,-3.5163174E0,4.9310037E-1,-1.8533858E-3,-1.0824044E0,-2.2685923E-1,5.4374707E-1,7.969862E0,-1.5150555E0,5.1215696E0,3.916567E-1,1.5603153E0,1.0180344E1,5.183709E-1,8.201688E-1,6.289356E0,2.1246848E0,-5.4792333E-2,1.9346949E0,7.5923557E0,5.752559E0,1.0747947E0,-4.0833658E-1,1.8749281E0,7.208969E-1,2.8411256E-2,-2.699475E-1,8.158241E-1,-1.5995559E-1,3.6717346E-1,4.408416E-4,-2.2737074E-1,-3.1638092E-1,-9.362437E-2,-1.6836917E-1,-1.0814963E-1,8.8343754E-2,-3.1630406E-1,1.2630668E-3,-1.0780472E-1,-2.6036767E-2,8.292533E-1,-1.0714539E-1,4.2807722E-1,7.2201765E-1,1.459371E-1,-1.3919577E-1,8.439601E-1,5.558948E-1,-6.524438E-2,6.4779714E-2,-3.845016E-2,-1.478443E-1,1.4819697E-1,2.0800503E-1,1.5184542E0,4.1846249E-1,4.0691155E-3,4.5341456E-1,-1.6300435E-1,5.581548E-1,-2.9996192E-1,-7.780805E-2,2.217037E-1,-1.6685615E-1,2.0829245E-1,9.019462E-1,-1.7592433E-1,-5.778606E-2,7.147835E-1,4.22259E-1,1.2696711E0,-3.246086E-1,1.89704E-1,2.0949154E-1,-2.1027513E-1],"categories":[],"categories_nodes":[],"categories_segments":[],"categories_sizes":[],"default_left":[0,0,0,0,0,0,0,0,0,0,0,0,0,0,0,0,0,0,0,0,0,0,0,0,0,0,0,0,0,0,0,0,0,0,0,0,0,0,0,0,0,0,0,0,0,0,0,0,0,0,0,0,0,0,0,0,0,0,0,0,0,0,0,0,0,0,0,0,0,0,0,0,0,0,0,0,0,0,0,0,0,0,0,0,0,0,0,0,0,0,0,0,0,0,0,0,0,0,0,0,0,0,0,0,0,0,0,0,0,0,0,0,0,0,0],"id":14,"left_children":[1,3,5,7,9,11,13,15,17,19,21,23,25,27,29,31,33,35,37,39,41,43,45,47,49,51,53,55,57,59,61,63,-1,65,67,69,-1,71,-1,73,75,-1,-1,77,79,81,83,85,87,89,91,93,95,97,99,101,103,105,107,109,111,-1,113,-1,-1,-1,-1,-1,-1,-1,-1,-1,-1,-1,-1,-1,-1,-1,-1,-1,-1,-1,-1,-1,-1,-1,-1,-1,-1,-1,-1,-1,-1,-1,-1,-1,-1,-1,-1,-1,-1,-1,-1,-1,-1,-1,-1,-1,-1,-1,-1,-1,-1,-1,-1],"loss_changes":[7.6722324E3,7.685093E2,1.1939907E3,3.4114413E2,7.1245166E2,4.5183655E2,6.349944E2,2.873637E2,9.317435E1,1.6414795E2,2.0349548E2,3.2729572E2,8.976456E2,2.7119482E2,4.9819043E2,3.3584906E2,4.4527258E2,5.561473E1,2.5423615E1,1.3108154E2,2.9842583E1,1.5901782E2,2.0738391E2,3.6349634E2,4.280959E2,8.07987E2,6.9665686E2,3.3364685E2,2.4717236E2,4.740642E2,2.1846161E2,2.9409207E2,0E0,2.40034E2,2.8873898E2,5.801818E0,0E0,1.8728668E1,0E0,1.5558032E2,1.0370178E2,0E0,0E0,1.9641718E2,3.3971948E2,1.6145695E2,1.4880463E1,2.9422293E2,1.0391063E2,3.217165E2,4.8934705E2,5.4887213E2,5.125245E2,5.2446674E2,4.958545E2,5.396095E2,5.236892E2,7.592467E2,1.7470428E2,5.044331E2,1.957704E2,0E0,1.609464E2,0E0,0E0,0E0,0E0,0E0,0E0,0E0,0E0,0E0,0E0,0E0,0E0,0E0,0E0,0E0,0E0,0E0,0E0,0E0,0E0,0E0,0E0,0E0,0E0,0E0,0E0,0E0,0E0,0E0,0E0,0E0,0E0,0E0,0E0,0E0,0E0,0E0,0E0,0E0,0E0,0E0,0E0,0E0,0E0,0E0,0E0,0E0,0E0,0E0,0E0,0E0,0E0],"parents":[2147483647,0,0,1,1,2,2,3,3,4,4,5,5,6,6,7,7,8,8,9,9,10,10,11,11,12,12,13,13,14,14,15,15,16,16,17,17,18,18,19,19,20,20,21,21,22,22,23,23,24,24,25,25,26,26,27,27,28,28,29,29,30,30,31,31,33,33,34,34,35,35,37,37,39,39,40,40,43,43,44,44,45,45,46,46,47,47,48,48,49,49,50,50,51,51,52,52,53,53,54,54,55,55,56,56,57,57,58,58,59,59,60,60,62,62],"right_children":[2,4,6,8,10,12,14,16,18,20,22,24,26,28,30,32,34,36,38,40,42,44,46,48,50,52,54,56,58,60,62,64,-1,66,68,70,-1,72,-1,74,76,-1,-1,78,80,82,84,86,88,90,92,94,96,98,100,102,104,106,108,110,112,-1,114,-1,-1,-1,-1,-1,-1,-1,-1,-1,-1,-1,-1,-1,-1,-1,-1,-1,-1,-1,-1,-1,-1,-1,-1,-1,-1,-1,-1,-1,-1,-1,-1,-1,-1,-1,-1,-1,-1,-1,-1,-1,-1,-1,-1,-1,-1,-1,-1,-1,-1,-1,-1],"split_conditions":[9.5E0,2E0,2.5E1,7E0,4.6666665E0,4.75E0,6.5964913E-1,2.86E1,1.1111112E0,6.25E0,7.1E1,2.5E-1,1E0,6.7272725E0,6.142857E0,7.15E1,2.2E1,1E0,8.472222E-1,3.25E0,6.5E0,1.3E-1,1.8E1,1.3933333E0,1.0222223E0,4.875E0,3.3846154E0,5.7138616E-1,8.541667E-1,2.1333334E1,1.425E1,-8.5E0,-5.2186173E-1,5E1,2.525E1,6.666667E-1,3.451023E-1,2.3809524E-1,6.426698E-2,6.1538464E-1,1.25E-1,4.9310037E-1,-1.8533858E-3,-5E0,1.4666667E1,4E0,4.375E0,8.4E1,1.575E1,8.1666666E-1,1.5E0,1.3625E1,-1.4130362E0,2.021E3,1.875E1,1.4333333E1,2.857143E-1,1.7021276E-1,1.1111111E-1,1.1625E2,9.6525095E-2,-4.0833658E-1,1.4352233E0,7.208969E-1,2.8411256E-2,-2.699475E-1,8.158241E-1,-1.5995559E-1,3.6717346E-1,4.408416E-4,-2.2737074E-1,-3.1638092E-1,-9.362437E-2,-1.6836917E-1,-1.0814963E-1,8.8343754E-2,-3.1630406E-1,1.2630668E-3,-1.0780472E-1,-2.6036767E-2,8.292533E-1,-1.0714539E-1,4.2807722E-1,7.2201765E-1,1.459371E-1,-1.3919577E-1,8.439601E-1,5.558948E-1,-6.524438E-2,6.4779714E-2,-3.845016E-2,-1.478443E-1,1.4819697E-1,2.0800503E-1,1.5184542E0,4.1846249E-1,4.0691155E-3,4.5341456E-1,-1.6300435E-1,5.581548E-1,-2.9996192E-1,-7.780805E-2,2.217037E-1,-1.6685615E-1,2.0829245E-1,9.019462E-1,-1.7592433E-1,-5.778606E-2,7.147835E-1,4.22259E-1,1.2696711E0,-3.246086E-1,1.89704E-1,2.0949154E-1,-2.1027513E-1],"split_indices":[44,53,41,59,44,10,16,41,51,6,64,11,23,73,73,9,57,6,11,10,6,12,53,26,25,10,74,16,11,7,44,59,0,9,57,6,0,49,0,24,7,0,0,59,18,28,7,21,7,11,60,7,58,52,7,44,4,24,24,9,24,0,58,0,0,0,0,0,0,0,0,0,0,0,0,0,0,0,0,0,0,0,0,0,0,0,0,0,0,0,0,0,0,0,0,0,0,0,0,0,0,0,0,0,0,0,0,0,0,0,0,0,0,0,0],"split_type":[0,0,0,0,0,0,0,0,0,0,0,0,0,0,0,0,0,0,0,0,0,0,0,0,0,0,0,0,0,0,0,0,0,0,0,0,0,0,0,0,0,0,0,0,0,0,0,0,0,0,0,0,0,0,0,0,0,0,0,0,0,0,0,0,0,0,0,0,0,0,0,0,0,0,0,0,0,0,0,0,0,0,0,0,0,0,0,0,0,0,0,0,0,0,0,0,0,0,0,0,0,0,0,0,0,0,0,0,0,0,0,0,0,0,0],"sum_hessian":[4.97E3,2.559E3,2.411E3,2.98E2,2.261E3,1.819E3,5.92E2,2.67E2,3.1E1,1.246E3,1.015E3,1.476E3,3.43E2,3.94E2,1.98E2,2.32E2,3.5E1,4E0,2.7E1,1.243E3,3E0,9.95E2,2E1,1.09E2,1.367E3,2.4E2,1.03E2,3.62E2,3.2E1,1.49E2,4.9E1,2.26E2,6E0,1E1,2.5E1,2E0,2E0,2.6E1,1E0,1.195E3,4.8E1,2E0,1E0,6.73E2,3.22E2,1.6E1,4E0,1.01E2,8E0,8.8E2,4.87E2,8E0,2.32E2,3.6E1,6.7E1,2.67E2,9.5E1,1.8E1,1.4E1,1.22E2,2.7E1,4E0,4.5E1,3E0,2.23E2,1E0,9E0,1.4E1,1.1E1,1E0,1E0,2.2E1,4E0,7.45E2,4.5E2,4E0,4.4E1,1.31E2,5.42E2,3.2E2,2E0,1.2E1,4E0,3E0,1E0,1E2,1E0,6E0,2E0,5.95E2,2.85E2,3.8E1,4.49E2,5E0,3E0,2E1,2.12E2,1.3E1,2.3E1,6.3E1,4E0,4.6E1,2.21E2,5.4E1,4.1E1,5E0,1.3E1,2E0,1.2E1,1.18E2,4E0,5E0,2.2E1,3.9E1,6E0],"tree_param":{"num_deleted":"0","num_feature":"78","num_nodes":"115","size_leaf_vector":"1"}},{"base_weights":[1.1683907E-2,-8.640215E-1,1.43359E0,-1.3445766E0,-1.4729217E-1,2.1744246E0,6.981767E-1,-2.5209242E-1,-1.4912413E0,-4.5165887E-1,6.4957154E-1,6.334755E-1,2.7864962E0,1.346974E0,-3.080207E-1,-5.0873345E-1,3.0135465E0,-1.5625012E0,9.1571003E-1,7.2310576E0,-4.9461815E-1,1.2308964E0,-1.7359893E0,5.510307E0,1.9613227E-1,2.7828702E-1,3.1109974E0,8.2487667E-1,3.0790358E0,-5.586177E-1,4.371946E0,-1.5532184E0,2.559652E-1,-2.5593892E-1,4.1367464E0,-1.5910634E0,3.036596E0,-1.8418406E0,3.2176487E0,4.234607E-2,6.999327E-1,-1.9654366E0,-3.44057E-1,5.1909237E0,8.812857E-1,6.428034E0,-2.3579595E0,1.3751968E0,1.5419714E0,9.490278E0,3.6760492E-3,5.5131483E0,-9.5141935E-1,3.545877E0,9.2623407E-1,1.2035066E0,-1.9301082E0,4.2138896E0,-9.5442575E-1,-7.0662886E-2,-2.3412595E0,-2.2622705E0,6.9100423E0,-1.3688663E-1,4.7061077E-1,2.3017447E-1,-4.7230534E-2,6.040804E-1,1.6047542E-1,1.2349627E-1,-1.2964264E-1,-1.3632679E-1,4.2608342E-1,-2.2509164E-1,4.1739783E-1,5.50221E-1,6.9558784E-2,2.1152735E-2,-2.3598659E-1,2.2292222E-1,-3.8191076E-2,-3.877993E-2,6.7807466E-1,-1.313607E-1,1.1603466E-1,1.543325E-2,