{"learner":{"attributes":{"best_iteration":"31","best_score":"5.418250846441824"},"feature_names":[],"feature_types":[],"gradient_booster":{"model":{"gbtree_model_param":{"num_parallel_tree":"1","num_trees":"82"},"iteration_indptr":[0,1,2,3,4,5,6,7,8,9,10,11,12,13,14,15,16,17,18,19,20,21,22,23,24,25,26,27,28,29,30,31,32,33,34,35,36,37,38,39,40,41,42,43,44,45,46,47,48,49,50,51,52,53,54,55,56,57,58,59,60,61,62,63,64,65,66,67,68,69,70,71,72,73,74,75,76,77,78,79,80,81,82],"tree_info":[0,0,0,0,0,0,0,0,0,0,0,0,0,0,0,0,0,0,0,0,0,0,0,0,0,0,0,0,0,0,0,0,0,0,0,0,0,0,0,0,0,0,0,0,0,0,0,0,0,0,0,0,0,0,0,0,0,0,0,0,0,0,0,0,0,0,0,0,0,0,0,0,0,0,0,0,0,0,0,0,0,0],"trees":[{"base_weights":[-2.5087627E-2,-1.6312548E0,3.6703157E0,-2.28423E0,-4.213974E-2,1.8747704E0,6.0477157E0,-2.826362E0,-1.8783726E0,-1.0978862E0,5.021644E-1,1.0887592E0,3.2792635E0,5.2773905E0,8.772927E0,-3.0403626E0,-1.1090862E0,-4.59513E-1,-2.0739782E0,2.927752E0,-1.2621347E0,-4.8579466E-1,1.4427062E0,-1.3788804E0,1.3806993E0,4.154533E0,-1.1155313E0,8.553358E0,4.4247746E0,5.917732E0,1.0972229E1,-3.439895E-1,-2.3754068E-1,-1.7614312E-1,3.352002E-1,-9.8372824E-2,3.8145477E-1,-2.635256E-1,-1.7133205E-1,6.384502E-1,-4.0319834E-2,-2.8179785E-2,-1.8180144E-1,4.2527333E-2,-2.0160837E-1,-2.463123E-1,1.7805547E-1,6.8233535E-2,-3.4861156E-1,1.5513478E-1,-2.2883058E-1,7.7277917E-1,3.595258E-1,5.597335E-1,-1.798498E-1,1.0375384E0,3.8212243E-1,4.695115E-1,-5.0369024E-2,3.6690855E-1,9.3427163E-1,8.3944684E-1,1.5389602E0],"categories":[],"categories_nodes":[],"categories_segments":[],"categories_sizes":[],"default_left":[0,0,0,0,0,0,0,0,0,0,0,0,0,0,0,0,0,0,0,0,0,0,0,0,0,0,0,0,0,0,0,0,0,0,0,0,0,0,0,0,0,0,0,0,0,0,0,0,0,0,0,0,0,0,0,0,0,0,0,0,0,0,0],"id":0,"left_children":[1,3,5,7,9,11,13,15,17,19,21,23,25,27,29,31,33,35,37,39,41,43,45,47,49,51,53,55,57,59,61,-1,-1,-1,-1,-1,-1,-1,-1,-1,-1,-1,-1,-1,-1,-1,-1,-1,-1,-1,-1,-1,-1,-1,-1,-1,-1,-1,-1,-1,-1,-1,-1],"loss_changes":[1.6868355E4,2.0552617E3,3.663245E3,3.0313965E2,3.3275696E2,5.39135E2,7.2903613E2,2.1634473E2,2.2248804E2,1.3378606E2,3.557574E2,2.3027173E2,6.8194507E2,7.7365967E2,4.3573535E2,1.3258398E2,2.0363675E2,2.2528163E2,1.3836987E2,9.528646E1,1.02818115E2,2.6173138E2,2.6295477E2,1.5033693E2,1.8129144E2,2.64854E2,1.4722682E2,4.6763574E2,3.132251E2,2.4937805E2,3.6945898E2,0E0,0E0,0E0,0E0,0E0,0E0,0E0,0E0,0E0,0E0,0E0,0E0,0E0,0E0,0E0,0E0,0E0,0E0,0E0,0E0,0E0,0E0,0E0,0E0,0E0,0E0,0E0,0E0,0E0,0E0,0E0,0E0],"parents":[2147483647,0,0,1,1,2,2,3,3,4,4,5,5,6,6,7,7,8,8,9,9,10,10,11,11,12,12,13,13,14,14,15,15,16,16,17,17,18,18,19,19,20,20,21,21,22,22,23,23,24,24,25,25,26,26,27,27,28,28,29,29,30,30],"right_children":[2,4,6,8,10,12,14,16,18,20,22,24,26,28,30,32,34,36,38,40,42,44,46,48,50,52,54,56,58,60,62,-1,-1,-1,-1,-1,-1,-1,-1,-1,-1,-1,-1,-1,-1,-1,-1,-1,-1,-1,-1,-1,-1,-1,-1,-1,-1,-1,-1,-1,-1,-1,-1],"split_conditions":[4.125E0,2.75E0,1.240094E1,1.0666667E-1,5.744681E-1,3.0864197E-1,1.7325E1,1.1E0,2E0,-9.5E0,3.4E0,1.2294117E1,7.9473686E0,6.5E0,1.2E0,1.2230646E1,2.8991597E0,7E0,6.0555553E0,9.6666664E-1,-5.3066534E-1,1.08328395E-1,1.2268377E1,4.714286E0,1.21E1,3.188406E-1,7.2E0,3.8666666E-1,1.29E1,9E0,2.5396826E0,-3.439895E-1,-2.3754068E-1,-1.7614312E-1,3.352002E-1,-9.8372824E-2,3.8145477E-1,-2.635256E-1,-1.7133205E-1,6.384502E-1,-4.0319834E-2,-2.8179785E-2,-1.8180144E-1,4.2527333E-2,-2.0160837E-1,-2.463123E-1,1.7805547E-1,6.8233535E-2,-3.4861156E-1,1.5513478E-1,-2.2883058E-1,7.7277917E-1,3.595258E-1,5.597335E-1,-1.798498E-1,1.0375384E0,3.8212243E-1,4.695115E-1,-5.0369024E-2,3.6690855E-1,9.3427163E-1,8.3944684E-1,1.5389602E0],"split_indices":[10,10,72,49,69,50,0,22,44,53,10,72,40,40,21,72,47,54,71,22,24,24,72,10,0,50,0,50,37,54,47,0,0,0,0,0,0,0,0,0,0,0,0,0,0,0,0,0,0,0,0,0,0,0,0,0,0,0,0,0,0,0,0],"split_type":[0,0,0,0,0,0,0,0,0,0,0,0,0,0,0,0,0,0,0,0,0,0,0,0,0,0,0,0,0,0,0,0,0,0,0,0,0,0,0,0,0,0,0,0,0,0,0,0,0,0,0,0,0,0,0,0,0,0,0,0,0,0,0],"sum_hessian":[2.84E3,1.98E3,8.6E2,1.403E3,5.77E2,4.91E2,3.69E2,5.98E2,8.05E2,1.96E2,3.81E2,3.16E2,1.75E2,2.9E2,7.9E1,5.31E2,6.7E1,9.8E1,7.07E2,7E0,1.89E2,1.86E2,1.95E2,3.3E1,2.83E2,1.46E2,2.9E1,5.8E1,2.32E2,3.6E1,4.3E1,3.29E2,2.02E2,5.9E1,8E0,8.8E1,1E1,2.74E2,4.33E2,3E0,4E0,6.9E1,1.2E2,1.17E2,6.9E1,1.5E1,1.8E2,1.7E1,1.6E1,2.71E2,1.2E1,1.8E1,1.28E2,2E0,2.7E1,4.1E1,1.7E1,2.2E2,1.2E1,2.3E1,1.3E1,2.9E1,1.4E1],"tree_param":{"num_deleted":"0","num_feature":"73","num_nodes":"63","size_leaf_vector":"1"}},{"base_weights":[-1.2089239E-2,-1.4802407E0,3.3285334E0,-2.0976639E0,-5.388002E-2,1.7952255E0,5.399811E0,-2.6582592E0,-1.6799384E0,-5.7398045E-1,1.1870066E0,1.7946157E-1,2.407636E0,1.0028077E1,5.0024834E0,-2.8238027E0,-1.1909949E0,-1.4477503E0,-2.3559935E0,-1.7694612E0,-2.329631E-1,1.6910912E0,-1.9213074E0,-1.1328528E0,1.2662555E0,5.353598E-1,2.7787364E0,8.160356E0,2.2838976E0,4.357338E0,7.427225E0,3.444996E-1,-2.8425673E-1,2.619377E-1,-1.7352909E-1,-1.7888181E-1,-8.570807E-2,-2.602609E-1,-3.4062024E-2,-2.792117E-2,-2.83873E-1,-9.778952E-2,6.568756E-2,2.215836E-1,-9.332813E-2,3.8708895E-2,-3.4927112E-1,-1.4988677E-1,3.392694E-1,2.4162152E-1,-1.1723109E-1,-2.9441405E-2,2.7062106E-1,7.133075E-2,3.065129E-1,5.5517524E-1,1.3323244E0,4.8886773E-1,1.718856E-1,8.80832E-1,3.5290727E-1],"categories":[],"categories_nodes":[],"categories_segments":[],"categories_sizes":[],"default_left":[0,0,0,0,0,0,0,0,0,0,0,0,0,0,0,0,0,0,0,0,0,0,0,0,0,0,0,0,0,0,0,0,0,0,0,0,0,0,0,0,0,0,0,0,0,0,0,0,0,0,0,0,0,0,0,0,0,0,0,0,0],"id":1,"left_children":[1,3,5,7,9,11,13,15,17,19,21,23,25,27,29,31,33,35,37,39,41,43,45,47,49,51,53,55,-1,57,59,-1,-1,-1,-1,-1,-1,-1,-1,-1,-1,-1,-1,-1,-1,-1,-1,-1,-1,-1,-1,-1,-1,-1,-1,-1,-1,-1,-1,-1,-1],"loss_changes":[1.3879687E4,1.7310654E3,2.7335693E3,3.1638818E2,3.8462448E2,4.920857E2,6.232217E2,1.3808643E2,1.2005957E2,1.7061298E2,2.789922E2,1.9826553E2,2.490044E2,4.804873E2,4.9832422E2,7.137109E1,1.3096916E2,1.17062744E2,9.822363E1,1.4708899E2,2.1809564E2,2.1151944E2,9.2348114E1,1.0925013E2,2.1608018E2,1.1091817E2,1.7548438E2,2.7431128E2,0E0,3.708589E2,3.445415E2,0E0,0E0,0E0,0E0,0E0,0E0,0E0,0E0,0E0,0E0,0E0,0E0,0E0,0E0,0E0,0E0,0E0,0E0,0E0,0E0,0E0,0E0,0E0,0E0,0E0,0E0,0E0,0E0,0E0,0E0],"parents":[2147483647,0,0,1,1,2,2,3,3,4,4,5,5,6,6,7,7,8,8,9,9,10,10,11,11,12,12,13,13,14,14,15,15,16,16,17,17,18,18,19,19,20,20,21,21,22,22,23,23,24,24,25,25,26,26,27,27,29,29,30,30],"right_children":[2,4,6,8,10,12,14,16,18,20,22,24,26,28,30,32,34,36,38,40,42,44,46,48,50,52,54,56,-1,58,60,-1,-1,-1,-1,-1,-1,-1,-1,-1,-1,-1,-1,-1,-1,-1,-1,-1,-1,-1,-1,-1,-1,-1,-1,-1,-1,-1,-1,-1,-1],"split_conditions":[4.25E0,2.75E0,1.240094E1,1.0666667E-1,1E0,1.5789474E0,5.873016E-1,1.1E0,8.387446E-1,6.4E0,1.0666667E0,3.8E0,8.888889E-1,5.833333E-1,1.7325E1,-2E0,1.1959711E1,7.583333E-1,7.6666665E0,7.0833335E0,2.0769231E0,2.7586207E0,9.4E0,8.387446E-1,8.8372093E-1,6.125E0,1.2319256E1,8E0,2.2838976E0,5.121951E-1,1.4302083E1,3.444996E-1,-2.8425673E-1,2.619377E-1,-1.7352909E-1,-1.7888181E-1,-8.570807E-2,-2.602609E-1,-3.4062024E-2,-2.792117E-2,-2.83873E-1,-9.778952E-2,6.568756E-2,2.215836E-1,-9.332813E-2,3.8708895E-2,-3.4927112E-1,-1.4988677E-1,3.392694E-1,2.4162152E-1,-1.1723109E-1,-2.9441405E-2,2.7062106E-1,7.133075E-2,3.065129E-1,5.5517524E-1,1.3323244E0,4.8886773E-1,1.718856E-1,8.80832E-1,3.5290727E-1],"split_indices":[10,10,72,49,35,47,11,22,11,36,22,37,22,11,0,9,72,31,0,71,47,47,36,11,16,10,72,39,0,17,71,0,0,0,0,0,0,0,0,0,0,0,0,0,0,0,0,0,0,0,0,0,0,0,0,0,0,0,0,0,0],"split_type":[0,0,0,0,0,0,0,0,0,0,0,0,0,0,0,0,0,0,0,0,0,0,0,0,0,0,0,0,0,0,0,0,0,0,0,0,0,0,0,0,0,0,0,0,0,0,0,0,0,0,0,0,0,0,0,0,0,0,0,0,0],"sum_hessian":[2.828E3,1.965E3,8.63E2,1.371E3,5.94E2,4.97E2,3.66E2,5.83E2,7.88E2,4.19E2,1.75E2,1.37E2,3.6E2,2.7E1,3.39E2,5.23E2,6E1,5.89E2,1.99E2,9.2E1,3.27E2,1.51E2,2.4E1,6.2E1,7.5E1,6E1,3E2,2.5E1,2E0,2.7E2,6.9E1,1E0,5.22E2,7E0,5.3E1,3.72E2,2.17E2,1.77E2,2.2E1,3.9E1,5.3E1,1.78E2,1.49E2,1.26E2,2.5E1,1E1,1.4E1,5.8E1,4E0,5.1E1,2.4E1,4.4E1,1.6E1,3.7E1,2.63E2,1.8E1,7E0,2.24E2,4.6E1,5E1,1.9E1],"tree_param":{"num_deleted":"0","num_feature":"73","num_nodes":"61","size_leaf_vector":"1"}},{"base_weights":[5.5959713E-2,-1.6818665E0,2.524685E0,-1.978298E0,-5.802315E-1,1.4168669E0,4.7392774E0,-7.276217E-1,-2.0915928E0,-1.0676787E0,1.9680601E-1,-4.525582E-2,1.953655E0,4.3871417E0,1.1416093E1,-1.1041927E0,5.010604E0,-2.5073402E0,-1.5935457E0,4.4369355E-2,-1.4882275E0,4.5105724E0,-2.4903344E-1,-1.4054023E0,5.922285E-1,1.1438019E1,1.8164568E0,4.0488567E0,8.127846E0,6.398731E0,1.6268858E1,-1.3165735E-1,3.3867356E-1,6.555133E-1,-2.0782857E-1,-2.8741893E-1,-1.5054978E-1,-2.8607136E-1,-1.494104E-1,-9.759922E-2,6.938764E-1,-3.6237216E-1,-1.02321185E-1,9.703542E-1,3.9524306E-3,1.3787826E-2,-3.3613184E-1,1.6170518E-1,-1.9561194E-1,3.024257E-1,8.402227E-3,1.9342041E0,2.8071985E-1,7.316577E-2,2.749147E-1,2.7927175E-1,5.2386004E-1,5.4848504E-1,1.4697977E0,8.9772934E-1,2.7370474E-1,2.2272923E0,6.991021E-1],"categories":[],"categories_nodes":[],"categories_segments":[],"categories_sizes":[],"default_left":[0,0,0,0,0,0,0,0,0,0,0,0,0,0,0,0,0,0,0,0,0,0,0,0,0,0,0,0,0,0,0,0,0,0,0,0,0,0,0,0,0,0,0,0,0,0,0,0,0,0,0,0,0,0,0,0,0,0,0,0,0,0,0],"id":2,"left_children":[1,3,5,7,9,11,13,15,17,19,21,23,25,27,29,31,33,35,37,39,41,43,45,47,49,51,53,55,57,59,61,-1,-1,-1,-1,-1,-1,-1,-1,-1,-1,-1,-1,-1,-1,-1,-1,-1,-1,-1,-1,-1,-1,-1,-1,-1,-1,-1,-1,-1,-1,-1,-1],"loss_changes":[1.2222864E4,5.446035E2,2.8802808E3,1.848081E2,1.3513747E2,6.171714E2,8.6998535E2,2.449963E2,2.4551855E2,1.0263025E2,2.669576E2,1.8473291E2,7.2610913E2,4.391421E2,3.5624634E2,1.04399445E2,9.071411E1,2.3633105E2,6.4847534E1,4.3648975E2,1.5372052E2,3.0047638E2,1.525124E2,1.1638425E2,1.78651E2,4.8923376E2,5.723325E2,5.0016406E2,4.3831042E2,7.811795E1,3.427058E2,0E0,0E0,0E0,0E0,0E0,0E0,0E0,0E0,0E0,0E0,0E0,0E0,0E0,0E0,0E0,0E0,0E0,0E0,0E0,0E0,0E0,0E0,0E0,0E0,0E0,0E0,0E0,0E0,0E0,0E0,0E0,0E0],"parents":[2147483647,0,0,1,1,2,2,3,3,4,4,5,5,6,6,7,7,8,8,9,9,10,10,11,11,12,12,13,13,14,14,15,15,16,16,17,17,18,18,19,19,20,20,21,21,22,22,23,23,24,24,25,25,26,26,27,27,28,28,29,29,30,30],"right_children":[2,4,6,8,10,12,14,16,18,20,22,24,26,28,30,32,34,36,38,40,42,44,46,48,50,52,54,56,58,60,62,-1,-1,-1,-1,-1,-1,-1,-1,-1,-1,-1,-1,-1,-1,-1,-1,-1,-1,-1,-1,-1,-1,-1,-1,-1,-1,-1,-1,-1,-1,-1,-1],"split_conditions":[3.5E0,2.6666667E0,6.25E0,2E0,6E0,1.4583333E-1,1.9130261E0,7.5E0,1.6666666E0,6.293651E-1,4E0,5.75E0,1.5151516E-1,1.9E1,9.4166666E-1,1.51E1,5E-1,4.5928586E-1,5.416667E-1,5.873016E-1,4.0666666E0,1.2261924E1,2.75E0,1.2875E1,6.0833335E-1,2.2666666E1,-2.490875E-2,7.3333335E0,7E0,8E0,1.0083333E0,-1.3165735E-1,3.3867356E-1,6.555133E-1,-2.0782857E-1,-2.8741893E-1,-1.5054978E-1,-2.8607136E-1,-1.494104E-1,-9.759922E-2,6.938764E-1,-3.6237216E-1,-1.02321185E-1,9.703542E-1,3.9524306E-3,1.3787826E-2,-3.3613184E-1,1.6170518E-1,-1.9561194E-1,3.024257E-1,8.402227E-3,1.9342041E0,2.8071985E-1,7.316577E-2,2.749147E-1,2.7927175E-1,5.2386004E-1,5.4848504E-1,1.4697977E0,8.9772934E-1,2.7370474E-1,2.2272923E0,6.991021E-1],"split_indices":[10,10,10,44,39,50,24,54,10,11,44,0,50,44,31,36,0,52,31,11,0,72,6,5,11,5,52,10,39,44,31,0,0,0,0,0,0,0,0,0,0,0,0,0,0,0,0,0,0,0,0,0,0,0,0,0,0,0,0,0,0,0,0],"split_type":[0,0,0,0,0,0,0,0,0,0,0,0,0,0,0,0,0,0,0,0,0,0,0,0,0,0,0,0,0,0,0,0,0,0,0,0,0,0,0,0,0,0,0,0,0,0,0,0,0,0,0,0,0,0,0,0,0,0,0,0,0,0,0],"sum_hessian":[2.847E3,1.671E3,1.176E3,1.316E3,3.55E2,7.85E2,3.91E2,1.1E2,1.206E3,2.18E2,1.37E2,2.11E2,5.74E2,3.73E2,1.8E1,1.04E2,6E0,6.55E2,5.51E2,6E1,1.58E2,1.2E1,1.25E2,6.7E1,1.44E2,7E0,5.67E2,3.44E2,2.9E1,1E1,8E0,1E2,4E0,5E0,1E0,4.78E2,1.77E2,3.8E1,5.13E2,5.3E1,7E0,2.7E1,1.31E2,5E0,7E0,1.12E2,1.3E1,1E1,5.7E1,2.4E1,1.2E2,3E0,4E0,2.63E2,3.04E2,1.69E2,1.75E2,2.2E1,7E0,5E0,5E0,4E0,4E0],"tree_param":{"num_deleted":"0","num_feature":"73","num_nodes":"63","size_leaf_vector":"1"}},{"base_weights":[8.1322454E-2,-1.1234908E0,2.7500114E0,-1.6129137E0,1.4041641E-1,1.5349334E0,4.495124E0,-2.1545367E0,-1.357614E0,-8.8793546E-1,8.383267E-1,1.7321671E0,-8.4762746E-1,3.3035278E0,5.7762175E0,-2.271788E0,3.7207207E-1,-1.6270154E0,-7.181012E-1,2.3816795E0,-1.0684398E0,-1.0094112E0,1.2614547E0,2.0576642E0,4.636023E-1,6.1813855E-1,-2.0259721E0,9.581951E-1,3.9936388E0,6.065611E0,-2.0214632E0,-2.662646E-1,-1.5550445E-1,1.7769764E-1,-1.3410203E-1,-1.941394E-1,-1.1644689E-1,3.2228243E-2,-1.434308E-1,-2.2058351E-1,4.963666E-1,-3.168874E-1,-7.459636E-2,-3.9985108E-1,-2.8434044E-2,7.1587466E-2,3.8210905E-1,2.3083425E-1,2.3185354E-2,7.341313E-1,1.7712839E-2,-5.535681E-2,3.2657644E-1,-2.9001454E-1,2.8263864E-1,-4.8888486E-2,6.811947E-1,6.1725825E-1,2.1138632E-1,1.338618E0,5.713405E-1,1.3946894E-1,-3.686862E-1],"categories":[],"categories_nodes":[],"categories_segments":[],"categories_sizes":[],"default_left":[0,0,0,0,0,0,0,0,0,0,0,0,0,0,0,0,0,0,0,0,0,0,0,0,0,0,0,0,0,0,0,0,0,0,0,0,0,0,0,0,0,0,0,0,0,0,0,0,0,0,0,0,0,0,0,0,0,0,0,0,0,0,0],"id":3,"left_children":[1,3,5,7,9,11,13,15,17,19,21,23,25,27,29,31,33,35,37,39,41,43,45,47,49,51,53,55,57,59,61,-1,-1,-1,-1,-1,-1,-1,-1,-1,-1,-1,-1,-1,-1,-1,-1,-1,-1,-1,-1,-1,-1,-1,-1,-1,-1,-1,-1,-1,-1,-1,-1],"loss_changes":[9.231082E3,1.2239353E3,1.8860571E3,1.9390576E2,3.9762604E2,2.4967542E2,5.387261E2,1.3582788E2,1.660586E2,1.346137E2,2.5930228E2,2.0029602E2,7.22074E1,3.064375E2,4.075713E2,1.1730078E2,5.296791E1,9.674719E1,2.1666106E2,1.5336362E2,1.4151811E2,1.3280792E2,3.7246567E2,1.767948E2,1.9694653E2,6.102162E1,1.0576575E2,3.851507E2,5.9232056E2,3.573501E2,4.519604E1,0E0,0E0,0E0,0E0,0E0,0E0,0E0,0E0,0E0,0E0,0E0,0E0,0E0,0E0,0E0,0E0,0E0,0E0,0E0,0E0,0E0,0E0,0E0,0E0,0E0,0E0,0E0,0E0,0E0,0E0,0E0,0E0],"parents":[2147483647,0,0,1,1,2,2,3,3,4,4,5,5,6,6,7,7,8,8,9,9,10,10,11,11,12,12,13,13,14,14,15,15,16,16,17,17,18,18,19,19,20,20,21,21,22,22,23,23,24,24,25,25,26,26,27,27,28,28,29,29,30,30],"right_children":[2,4,6,8,10,12,14,16,18,20,22,24,26,28,30,32,34,36,38,40,42,44,46,48,50,52,54,56,58,60,62,-1,-1,-1,-1,-1,-1,-1,-1,-1,-1,-1,-1,-1,-1,-1,-1,-1,-1,-1,-1,-1,-1,-1,-1,-1,-1,-1,-1,-1,-1,-1,-1],"split_conditions":[4.125E0,3E0,1.240094E1,1E-1,6.1538464E-1,6E0,7.3333335E0,9.361702E-1,1E0,8.5E0,-9.4696015E-1,7.692308E-1,2.15E1,6.625E-1,2.024E3,3.356386E-1,2E0,1.2E0,8E0,1.8333334E0,1.1E-1,5.1428574E-1,1.32E1,3.529412E-1,4.3333335E0,4E-1,1E0,2.625E1,1.01394586E-1,4.375E0,5.575E1,-2.662646E-1,-1.5550445E-1,1.7769764E-1,-1.3410203E-1,-1.941394E-1,-1.1644689E-1,3.2228243E-2,-1.434308E-1,-2.2058351E-1,4.963666E-1,-3.168874E-1,-7.459636E-2,-3.9985108E-1,-2.8434044E-2,7.1587466E-2,3.8210905E-1,2.3083425E-1,2.3185354E-2,7.341313E-1,1.7712839E-2,-5.535681E-2,3.2657644E-1,-2.9001454E-1,2.8263864E-1,-4.8888486E-2,6.811947E-1,6.1725825E-1,2.1138632E-1,1.338618E0,5.713405E-1,1.3946894E-1,-3.686862E-1],"split_indices":[10,10,72,49,69,25,10,69,20,5,24,69,51,11,43,24,25,21,44,71,12,11,36,41,10,4,20,51,24,6,5,0,0,0,0,0,0,0,0,0,0,0,0,0,0,0,0,0,0,0,0,0,0,0,0,0,0,0,0,0,0,0,0],"split_type":[0,0,0,0,0,0,0,0,0,0,0,0,0,0,0,0,0,0,0,0,0,0,0,0,0,0,0,0,0,0,0,0,0,0,0,0,0,0,0,0,0,0,0,0,0,0,0,0,0,0,0,0,0,0,0,0,0,0,0,0,0,0,0],"sum_hessian":[2.869E3,1.977E3,8.92E2,1.425E3,5.52E2,5.27E2,3.65E2,4.54E2,9.71E2,2.23E2,3.29E2,4.87E2,4E1,1.91E2,1.74E2,4.34E2,2E1,6.82E2,2.89E2,1.1E1,2.12E2,6.1E1,2.68E2,3.87E2,1E2,1.8E1,2.2E1,4.4E1,1.47E2,1.68E2,6E0,2.79E2,1.55E2,1.1E1,9E0,4.04E2,2.78E2,1.18E2,1.71E2,4E0,7E0,2.7E1,1.85E2,1.1E1,5E1,2.22E2,4.6E1,3.4E2,4.7E1,3E0,9.7E1,1.3E1,5E0,1.9E1,3E0,3.6E1,8E0,6.7E1,8E1,6E0,1.62E2,2E0,4E0],"tree_param":{"num_deleted":"0","num_feature":"73","num_nodes":"63","size_leaf_vector":"1"}},{"base_weights":[3.963908E-2,-1.0177054E0,2.8381724E0,-1.5871159E0,8.617122E-2,1.7223761E0,4.14727E0,-1.3459039E0,-2.2466528E0,-3.3140743E-1,1.0900326E0,4.8301272E0,1.3777201E0,3.7578206E0,7.166424E0,-2.33763E-1,-1.4794351E0,-2.370539E0,4.22931E-1,7.3984915E-1,-9.007262E-1,8.173809E-1,5.4668946E0,-3.6079834E0,5.8159275E0,1.933371E0,2.2382085E-1,2.7852597E0,4.820173E0,1.0058022E0,9.46508E0,-6.75423E-2,7.443971E-1,-1.9295695E-1,-1.0859102E-1,-5.296294E-2,-2.5480187E-1,1.9488154E-1,-3.6089548E-1,-8.734664E-3,3.7052694E-1,-1.6098057E-1,-3.1570687E-3,1.6688608E-1,2.3128802E-3,9.4316024E-1,-1.9500175E-1,-3.9667064E-1,-1.03654556E-1,8.4097856E-1,1.7175119E-1,8.073115E-2,3.7441003E-1,8.1127614E-1,-1.005113E-2,1.12819195E-1,3.9901647E-1,5.85917E-1,2.0478494E-1,2.986598E-1,-2.344632E-1,1.1283835E0,4.1585323E-1],"categories":[],"categories_nodes":[],"categories_segments":[],"categories_sizes":[],"default_left":[0,0,0,0,0,0,0,0,0,0,0,0,0,0,0,0,0,0,0,0,0,0,0,0,0,0,0,0,0,0,0,0,0,0,0,0,0,0,0,0,0,0,0,0,0,0,0,0,0,0,0,0,0,0,0,0,0,0,0,0,0,0,0],"id":4,"left_children":[1,3,5,7,9,11,13,15,17,19,21,23,25,27,29,31,33,35,37,39,41,43,45,47,49,51,53,55,57,59,61,-1,-1,-1,-1,-1,-1,-1,-1,-1,-1,-1,-1,-1,-1,-1,-1,-1,-1,-1,-1,-1,-1,-1,-1,-1,-1,-1,-1,-1,-1,-1,-1],"loss_changes":[8.459932E3,1.3045469E3,1.1374482E3,2.1440869E2,2.9680518E2,4.4794434E2,3.9526904E2,1.4873083E2,1.2191174E2,3.056257E2,2.4312161E2,3.70573E2,2.4555902E2,3.1747168E2,5.558789E2,3.739643E2,1.5649695E2,1.1236975E2,1.1145443E2,4.2750452E2,2.0131525E2,1.3302126E2,3.7201065E2,1.7547607E-4,3.8851013E2,5.2462024E2,3.240049E2,3.3441003E2,4.250371E2,8.670498E1,2.3141943E2,0E0,0E0,0E0,0E0,0E0,0E0,0E0,0E0,0E0,0E0,0E0,0E0,0E0,0E0,0E0,0E0,0E0,0E0,0E0,0E0,0E0,0E0,0E0,0E0,0E0,0E0,0E0,0E0,0E0,0E0,0E0,0E0],"parents":[2147483647,0,0,1,1,2,2,3,3,4,4,5,5,6,6,7,7,8,8,9,9,10,10,11,11,12,12,13,13,14,14,15,15,16,16,17,17,18,18,19,19,20,20,21,21,22,22,23,23,24,24,25,25,26,26,27,27,28,28,29,29,30,30],"right_children":[2,4,6,8,10,12,14,16,18,20,22,24,26,28,30,32,34,36,38,40,42,44,46,48,50,52,54,56,58,60,62,-1,-1,-1,-1,-1,-1,-1,-1,-1,-1,-1,-1,-1,-1,-1,-1,-1,-1,-1,-1,-1,-1,-1,-1,-1,-1,-1,-1,-1,-1,-1,-1],"split_conditions":[3.25E0,2.75E0,1.2402972E1,9.4117653E-1,1E0,4.965517E0,1.25E-1,2E0,9.361702E-1,1.7E0,7.5E-1,3.16406E-1,7.9473686E0,7.5E0,7.416667E-1,9.25E-1,1.2252441E1,-1.2586608E0,1.2277724E1,2.6666667E0,7.416667E-1,2.023E3,3.75E0,3.375E0,4.375E0,9.375E0,-9.5E0,6.597938E-1,7.7108437E-1,8.0833334E-1,7.6785713E-1,-6.75423E-2,7.443971E-1,-1.9295695E-1,-1.0859102E-1,-5.296294E-2,-2.5480187E-1,1.9488154E-1,-3.6089548E-1,-8.734664E-3,3.7052694E-1,-1.6098057E-1,-3.1570687E-3,1.6688608E-1,2.3128802E-3,9.4316024E-1,-1.9500175E-1,-3.9667064E-1,-1.03654556E-1,8.4097856E-1,1.7175119E-1,8.073115E-2,3.7441003E-1,8.1127614E-1,-1.005113E-2,1.12819195E-1,3.9901647E-1,5.85917E-1,2.0478494E-1,2.986598E-1,-2.344632E-1,1.1283835E0,4.1585323E-1],"split_indices":[6,10,72,16,28,40,7,44,69,37,4,16,40,10,31,31,72,24,72,6,31,43,10,6,6,71,53,69,16,11,11,0,0,0,0,0,0,0,0,0,0,0,0,0,0,0,0,0,0,0,0,0,0,0,0,0,0,0,0,0,0,0,0],"split_type":[0,0,0,0,0,0,0,0,0,0,0,0,0,0,0,0,0,0,0,0,0,0,0,0,0,0,0,0,0,0,0,0,0,0,0,0,0,0,0,0,0,0,0,0,0,0,0,0,0,0,0,0,0,0,0,0,0,0,0,0,0,0,0],"sum_hessian":[2.857E3,2.074E3,7.83E2,1.368E3,7.06E2,4.24E2,3.59E2,1.004E3,3.64E2,4.99E2,2.07E2,4.1E1,3.83E2,3.2E2,3.9E1,1.08E2,8.96E2,3.48E2,1.6E1,1.73E2,3.26E2,1.96E2,1.1E1,4E0,3.7E1,2.58E2,1.25E2,1.69E2,1.51E2,1.1E1,2.8E1,1.03E2,5E0,4.16E2,4.8E2,3.1E1,3.17E2,1.2E1,4E0,1.36E2,3.7E1,1.79E2,1.47E2,9.4E1,1.02E2,7E0,4E0,3E0,1E0,2.2E1,1.5E1,1.6E2,9.8E1,4E0,1.21E2,7.2E1,9.7E1,1.09E2,4.2E1,7E0,4E0,2E1,8E0],"tree_param":{"num_deleted":"0","num_feature":"73","num_nodes":"63","size_leaf_vector":"1"}},{"base_weights":[-3.3728346E-2,-9.594946E-1,2.2220573E0,-1.3906983E0,-1.3248329E-1,1.0811291E0,3.7190206E0,-4.1848597E-1,-1.486619E0,-8.499666E-1,3.8763967E-1,-1.9513279E-1,1.8695182E0,2.3221365E-1,4.103048E0,-7.7194875E-1,4.7023525E0,-1.7063059E0,-9.7842455E-1,-4.4639084E-1,-1.7930777E0,-1.4817374E-2,1.8478512E0,1.3351063E0,-1.0706104E0,9.597534E-1,2.7659755E0,-1.7784206E0,5.1553874E0,3.6451097E0,7.029823E0,-1.13341294E-1,3.6001202E-1,5.915126E-1,-1.8435307E-1,-2.1113096E-1,-1.3779704E-1,-1.1863463E-1,1.5110783E-1,-1.7337296E-2,-2.7422068E-1,-1.9923317E-1,2.8643382E-1,-1.4174794E-2,6.63484E-1,4.2221785E-1,7.82453E-2,-1.13154136E-1,4.4183564E-1,-1.5418854E-1,2.2301845E-1,1.9927977E-1,-1.2318554E-1,1.9534099E-1,4.5802164E-1,3.850817E-2,-3.0796033E-1,9.621402E-2,8.4727365E-1,3.210609E-1,6.289778E-1,8.48981E-1,-4.0634673E-2],"categories":[],"categories_nodes":[],"categories_segments":[],"categories_sizes":[],"default_left":[0,0,0,0,0,0,0,0,0,0,0,0,0,0,0,0,0,0,0,0,0,0,0,0,0,0,0,0,0,0,0,0,0,0,0,0,0,0,0,0,0,0,0,0,0,0,0,0,0,0,0,0,0,0,0,0,0,0,0,0,0,0,0],"id":5,"left_children":[1,3,5,7,9,11,13,15,17,19,21,23,25,27,29,31,33,35,37,39,41,43,45,47,49,51,53,55,57,59,61,-1,-1,-1,-1,-1,-1,-1,-1,-1,-1,-1,-1,-1,-1,-1,-1,-1,-1,-1,-1,-1,-1,-1,-1,-1,-1,-1,-1,-1,-1,-1,-1],"loss_changes":[6.0143076E3,7.278616E2,1.4267427E3,1.2433618E2,2.6197455E2,4.804854E2,4.833418E2,2.240601E2,1.343789E2,1.112576E2,2.3939334E2,2.4656621E2,2.3756445E2,3.7575812E2,4.1024023E2,1.8557361E2,7.482127E1,1.0990552E2,1.9379785E2,1.2960718E2,8.728427E1,2.7038547E2,2.1880106E2,5.1488275E2,1.8537294E2,3.3760724E2,2.0857959E2,7.7463356E1,1.4391968E2,3.0520312E2,4.7109668E2,0E0,0E0,0E0,0E0,0E0,0E0,0E0,0E0,0E0,0E0,0E0,0E0,0E0,0E0,0E0,0E0,0E0,0E0,0E0,0E0,0E0,0E0,0E0,0E0,0E0,0E0,0E0,0E0,0E0,0E0,0E0,0E0],"parents":[2147483647,0,0,1,1,2,2,3,3,4,4,5,5,6,6,7,7,8,8,9,9,10,10,11,11,12,12,13,13,14,14,15,15,16,16,17,17,18,18,19,19,20,20,21,21,22,22,23,23,24,24,25,25,26,26,27,27,28,28,29,29,30,30],"right_children":[2,4,6,8,10,12,14,16,18,20,22,24,26,28,30,32,34,36,38,40,42,44,46,48,50,52,54,56,58,60,62,-1,-1,-1,-1,-1,-1,-1,-1,-1,-1,-1,-1,-1,-1,-1,-1,-1,-1,-1,-1,-1,-1,-1,-1,-1,-1,-1,-1,-1,-1,-1,-1],"split_conditions":[4.5E0,2.6666667E0,1.2404212E1,2E0,6.1333334E-1,2.2727273E-1,3.4042552E-1,7.5E0,7.714286E-1,2.4E1,1.24E1,7.2375E0,6.7083335E-1,1.0888889E0,9.25E0,2.725E1,5E-1,1.5E0,3.2E0,5.4545456E-1,1.3E1,3.809524E-1,3.2E-1,1.2E0,4.2105265E0,6.226686E-1,1E0,7.37931E0,1.4833333E1,1.25E-1,8.571429E-1,-1.13341294E-1,3.6001202E-1,5.915126E-1,-1.8435307E-1,-2.1113096E-1,-1.3779704E-1,-1.1863463E-1,1.5110783E-1,-1.7337296E-2,-2.7422068E-1,-1.9923317E-1,2.8643382E-1,-1.4174794E-2,6.63484E-1,4.2221785E-1,7.82453E-2,-1.13154136E-1,4.4183564E-1,-1.5418854E-1,2.2301845E-1,1.9927977E-1,-1.2318554E-1,1.9534099E-1,4.5802164E-1,3.850817E-2,-3.0796033E-1,9.621402E-2,8.4727365E-1,3.210609E-1,6.289778E-1,8.48981E-1,-4.0634673E-2],"split_indices":[10,10,72,44,69,50,69,54,69,51,36,0,11,22,10,51,0,10,47,17,40,50,41,21,18,11,20,40,0,7,16,0,0,0,0,0,0,0,0,0,0,0,0,0,0,0,0,0,0,0,0,0,0,0,0,0,0,0,0,0,0,0,0],"split_type":[0,0,0,0,0,0,0,0,0,0,0,0,0,0,0,0,0,0,0,0,0,0,0,0,0,0,0,0,0,0,0,0,0,0,0,0,0,0,0,0,0,0,0,0,0,0,0,0,0,0,0,0,0,0,0,0,0,0,0,0,0,0,0],"sum_hessian":[2.878E3,2.041E3,8.37E2,1.341E3,7E2,4.76E2,3.61E2,1.21E2,1.22E3,2.94E2,4.06E2,1.82E2,2.94E2,3.6E1,3.25E2,1.14E2,7E0,8.5E2,3.7E2,2.07E2,8.7E1,3.19E2,8.7E1,6.6E1,1.16E2,1.47E2,1.47E2,2.6E1,1E1,2.83E2,4.2E1,1.06E2,8E0,6E0,1E0,3.78E2,4.72E2,3.42E2,2.8E1,1.86E2,2.1E1,8.4E1,3E0,3.14E2,5E0,2.6E1,6.1E1,3.7E1,2.9E1,1.02E2,1.4E1,1E2,4.7E1,1.03E2,4.4E1,1E1,1.6E1,5E0,5E0,2.45E2,3.8E1,3.5E1,7E0],"tree_param":{"num_deleted":"0","num_feature":"73","num_nodes":"63","size_leaf_vector":"1"}},{"base_weights":[6.0755648E-2,-1.0903764E0,1.7066629E0,-9.092003E-1,-1.6349574E0,9.02013E-1,3.4477315E0,-2.3153439E0,-8.1713444E-1,2.0149978E-1,-1.8518174E0,-1.031387E-1,1.3068792E0,2.965928E0,6.3444495E0,-7.9205763E-1,-3.1200771E0,-6.808646E-1,-1.9096543E0,-1.096913E0,4.3235855E0,-2.0751848E0,-6.2239426E-1,1.9067875E0,-5.196875E-1,1.4575604E0,-1.9212316E0,1.4015636E0,4.0422783E0,8.054932E0,-7.541603E-1,-2.8136012E-1,1.522397E-2,-3.2629353E-1,1.8899837E-1,-9.3705095E-2,-9.548414E-3,-2.6535302E-1,-9.835092E-2,-1.8762855E-1,2.9661015E-1,9.046449E-1,3.1817116E-2,4.1091582E-1,-2.1081804E-1,-6.305665E-3,-2.589046E-1,2.686523E-1,-2.9428008E-1,-7.198327E-2,2.848155E-1,1.626805E-1,-8.585135E-2,1.0599154E-1,-3.0805972E-1,4.1435963E-1,3.2909732E-2,4.3705294E-1,-3.918213E-1,8.556394E-1,-1.2828688E-1,-2.0902024E-1,6.2531304E-1],"categories":[],"categories_nodes":[],"categories_segments":[],"categories_sizes":[],"default_left":[0,0,0,0,0,0,0,0,0,0,0,0,0,0,0,0,0,0,0,0,0,0,0,0,0,0,0,0,0,0,0,0,0,0,0,0,0,0,0,0,0,0,0,0,0,0,0,0,0,0,0,0,0,0,0,0,0,0,0,0,0,0,0],"id":6,"left_children":[1,3,5,7,9,11,13,15,17,19,21,23,25,27,29,31,33,35,37,39,41,43,45,47,49,51,53,55,57,59,61,-1,-1,-1,-1,-1,-1,-1,-1,-1,-1,-1,-1,-1,-1,-1,-1,-1,-1,-1,-1,-1,-1,-1,-1,-1,-1,-1,-1,-1,-1,-1,-1],"loss_changes":[5.409272E3,1.6401636E2,1.6425725E3,1.6130017E2,1.6700842E2,3.2785144E2,4.980371E2,9.152713E1,1.7515833E2,2.4591286E2,1.0114404E2,1.950901E2,2.8195654E2,5.3260767E2,6.3819116E2,5.4144745E1,4.2090546E1,1.583219E2,8.727725E1,1.1628732E2,2.0427248E2,7.2943726E1,6.4472855E1,1.5913612E2,1.3193048E2,2.1667212E2,9.332945E1,3.8636642E2,5.1103394E2,2.083711E2,1.1563641E2,0E0,0E0,0E0,0E0,0E0,0E0,0E0,0E0,0E0,0E0,0E0,0E0,0E0,0E0,0E0,0E0,0E0,0E0,0E0,0E0,0E0,0E0,0E0,0E0,0E0,0E0,0E0,0E0,0E0,0E0,0E0,0E0],"parents":[2147483647,0,0,1,1,2,2,3,3,4,4,5,5,6,6,7,7,8,8,9,9,10,10,11,11,12,12,13,13,14,14,15,15,16,16,17,17,18,18,19,19,20,20,21,21,22,22,23,23,24,24,25,25,26,26,27,27,28,28,29,29,30,30],"right_children":[2,4,6,8,10,12,14,16,18,20,22,24,26,28,30,32,34,36,38,40,42,44,46,48,50,52,54,56,58,60,62,-1,-1,-1,-1,-1,-1,-1,-1,-1,-1,-1,-1,-1,-1,-1,-1,-1,-1,-1,-1,-1,-1,-1,-1,-1,-1,-1,-1,-1,-1,-1,-1],"split_conditions":[3.4E0,9.633035E-1,1.2402972E1,-1.5310397E0,-1.2384683E0,1.2318457E1,1.5942091E0,9.287985E-2,6E0,3.452381E-1,8.5E-1,2E0,1.25E1,3.0508474E-1,3.6363637E-1,6.0833335E-1,5.222222E-1,7.5247526E-1,3.9E0,7.25E-1,3.773585E-1,7.888889E-1,1.2277724E1,4.0625E-1,2.9545455E0,6E0,3.8333333E-1,3.8333333E-1,2.024E3,1.2517669E1,9.15E1,-2.8136012E-1,1.522397E-2,-3.2629353E-1,1.8899837E-1,-9.3705095E-2,-9.548414E-3,-2.6535302E-1,-9.835092E-2,-1.8762855E-1,2.9661015E-1,9.046449E-1,3.1817116E-2,4.1091582E-1,-2.1081804E-1,-6.305665E-3,-2.589046E-1,2.686523E-1,-2.9428008E-1,-7.198327E-2,2.848155E-1,1.626805E-1,-8.585135E-2,1.0599154E-1,-3.0805972E-1,4.1435963E-1,3.2909732E-2,4.3705294E-1,-3.918213E-1,8.556394E-1,-1.2828688E-1,-2.0902024E-1,6.2531304E-1],"split_indices":[10,16,72,24,24,72,52,16,25,50,69,54,0,50,50,31,50,69,0,31,50,22,72,17,47,25,12,12,43,72,5,0,0,0,0,0,0,0,0,0,0,0,0,0,0,0,0,0,0,0,0,0,0,0,0,0,0,0,0,0,0,0,0],"split_type":[0,0,0,0,0,0,0,0,0,0,0,0,0,0,0,0,0,0,0,0,0,0,0,0,0,0,0,0,0,0,0,0,0,0,0,0,0,0,0,0,0,0,0,0,0,0,0,0,0,0,0,0,0,0,0,0,0,0,0,0,0,0,0],"sum_hessian":[2.853E3,1.679E3,1.174E3,1.262E3,4.17E2,8.04E2,3.7E2,7.6E1,1.186E3,4.4E1,3.73E2,2.31E2,5.73E2,3.19E2,5.1E1,2.7E1,4.9E1,1.056E3,1.3E2,3.4E1,1E1,3.15E2,5.8E1,3.9E1,1.92E2,5.48E2,2.5E1,1.31E2,1.88E2,4.1E1,1E1,8E0,1.9E1,4.8E1,1E0,7.34E2,3.22E2,7.1E1,5.9E1,2.9E1,5E0,4E0,6E0,1E0,3.14E2,4.6E1,1.2E1,3.4E1,5E0,1.82E2,1E1,5.11E2,3.7E1,7E0,1.8E1,3.6E1,9.5E1,1.81E2,7E0,3.9E1,2E0,9E0,1E0],"tree_param":{"num_deleted":"0","num_feature":"73","num_nodes":"63","size_leaf_vector":"1"}},{"base_weights":[-2.2876699E-2,-8.2282907E-1,1.8531679E0,-1.1700583E0,-1.7747575E-2,1.015792E0,3.0200686E0,-1.580923E0,-9.6042913E-1,2.6925498E-1,-1.0324326E0,2.5416136E-2,1.5800081E0,2.5429332E0,6.0663877E0,-1.8557898E0,-8.018817E-1,-9.073612E-1,-3.1266088E0,-1.6642751E-1,1.5822026E0,-3.7011874E0,-3.609756E-1,6.022404E-1,-1.6666511E0,8.714792E-1,2.930264E0,4.348889E0,1.8391399E0,2.5010386E0,9.242468E0,3.2926363E-1,-1.8801929E-1,-1.5534405E-1,1.1173886E-1,-7.9915576E-2,-1.803579E-1,-3.338691E-1,6.1355896E-2,-2.1865305E-2,9.215156E-1,1.1697543E-1,6.4821535E-1,-2.1319993E-1,-4.1388035E-1,3.0139017E-1,-9.7508244E-2,-3.1686462E-2,2.3906536E-1,-2.2594991E-1,7.428363E-2,4.2471256E-2,4.0473983E-1,-1.0966281E-3,4.6125522E-1,3.3029935E-1,1.0040679E0,2.8213456E-1,-0E0,6.4338845E-1,1.2624792E-2,1.0861955E0,2.2871001E-1],"categories":[],"categories_nodes":[],"categories_segments":[],"categories_sizes":[],"default_left":[0,0,0,0,0,0,0,0,0,0,0,0,0,0,0,0,0,0,0,0,0,0,0,0,0,0,0,0,0,0,0,0,0,0,0,0,0,0,0,0,0,0,0,0,0,0,0,0,0,0,0,0,0,0,0,0,0,0,0,0,0,0,0],"id":7,"left_children":[1,3,5,7,9,11,13,15,17,19,21,23,25,27,29,31,33,35,37,39,41,43,45,47,49,51,53,55,57,59,61,-1,-1,-1,-1,-1,-1,-1,-1,-1,-1,-1,-1,-1,-1,-1,-1,-1,-1,-1,-1,-1,-1,-1,-1,-1,-1,-1,-1,-1,-1,-1,-1],"loss_changes":[4.3325757E3,5.6566516E2,8.397954E2,1.2001416E2,1.7828802E2,2.814275E2,5.069751E2,1.0017322E2,1.0470209E2,2.7326242E2,2.4017157E2,1.8048595E2,3.0416534E2,3.8921216E2,5.19254E2,5.014807E1,1.8352737E2,8.732208E1,1.9771912E1,1.7701025E2,2.321485E2,9.089935E0,2.2864128E2,2.2780093E2,6.896771E1,2.986395E2,5.4479034E2,4.834137E2,4.102657E2,2.2268416E2,2.5544604E2,0E0,0E0,0E0,0E0,0E0,0E0,0E0,0E0,0E0,0E0,0E0,0E0,0E0,0E0,0E0,0E0,0E0,0E0,0E0,0E0,0E0,0E0,0E0,0E0,0E0,0E0,0E0,0E0,0E0,0E0,0E0,0E0],"parents":[2147483647,0,0,1,1,2,2,3,3,4,4,5,5,6,6,7,7,8,8,9,9,10,10,11,11,12,12,13,13,14,14,15,15,16,16,17,17,18,18,19,19,20,20,21,21,22,22,23,23,24,24,25,25,26,26,27,27,28,28,29,29,30,30],"right_children":[2,4,6,8,10,12,14,16,18,20,22,24,26,28,30,32,34,36,38,40,42,44,46,48,50,52,54,56,58,60,62,-1,-1,-1,-1,-1,-1,-1,-1,-1,-1,-1,-1,-1,-1,-1,-1,-1,-1,-1,-1,-1,-1,-1,-1,-1,-1,-1,-1,-1,-1,-1,-1],"split_conditions":[4.25E0,2.75E0,1.2402972E1,1E-1,9.133333E0,-5.0217336E-1,1.5115219E0,4.5928586E-1,1.85E1,1.2319256E1,2.2444445E-1,7.6E0,3.139535E-1,1.1725E1,1.4833333E1,-2E0,7.794118E-1,6E0,6.6E0,9.066667E0,9E0,1.6153846E0,6.3E0,2.7555555E-1,1.375E1,1.3208333E1,4.35E1,2.08E1,1.21875E1,1E1,1.4302083E1,3.2926363E-1,-1.8801929E-1,-1.5534405E-1,1.1173886E-1,-7.9915576E-2,-1.803579E-1,-3.338691E-1,6.1355896E-2,-2.1865305E-2,9.215156E-1,1.1697543E-1,6.4821535E-1,-2.1319993E-1,-4.1388035E-1,3.0139017E-1,-9.7508244E-2,-3.1686462E-2,2.3906536E-1,-2.2594991E-1,7.428363E-2,4.2471256E-2,4.0473983E-1,-1.0966281E-3,4.6125522E-1,3.3029935E-1,1.0040679E0,2.8213456E-1,-0E0,6.4338845E-1,1.2624792E-2,1.0861955E0,2.2871001E-1],"split_indices":[48,48,72,49,40,52,24,52,18,72,12,40,50,0,0,9,69,25,0,40,39,47,0,12,71,71,56,36,71,44,71,0,0,0,0,0,0,0,0,0,0,0,0,0,0,0,0,0,0,0,0,0,0,0,0,0,0,0,0,0,0,0,0],"split_type":[0,0,0,0,0,0,0,0,0,0,0,0,0,0,0,0,0,0,0,0,0,0,0,0,0,0,0,0,0,0,0,0,0,0,0,0,0,0,0,0,0,0,0,0,0,0,0,0,0,0,0,0,0,0,0,0,0,0,0,0,0,0,0],"sum_hessian":[2.885E3,2.023E3,8.62E2,1.413E3,6.1E2,5.03E2,3.59E2,4.75E2,9.38E2,4.76E2,1.34E2,1.83E2,3.2E2,3.12E2,4.7E1,3.5E2,1.25E2,9.17E2,2.1E1,3.58E2,1.18E2,2.6E1,1.08E2,1.37E2,4.6E1,2.11E2,1.09E2,8.6E1,2.26E2,2.3E1,2.4E1,1E0,3.49E2,9E1,3.5E1,8.2E2,9.7E1,2E1,1E0,3.57E2,1E0,1.1E2,8E0,7E0,1.9E1,1.6E1,9.2E1,9.1E1,4.6E1,3.7E1,9E0,1.86E2,2.5E1,4E1,6.9E1,7.4E1,1.2E1,1.47E2,7.9E1,8E0,1.5E1,1.9E1,5E0],"tree_param":{"num_deleted":"0","num_feature":"73","num_nodes":"63","size_leaf_vector":"1"}},{"base_weights":[-5.796124E-2,-7.7562577E-1,1.5502417E0,-9.4211805E-1,1.6009317E-1,1.2864244E0,4.5516086E0,-1.8485429E0,-8.321946E-1,-3.0290097E-1,1.5062048E0,-2.9206878E-1,1.634896E0,3.6867256E0,1.5210716E1,-1.1988032E0,-2.6000574E0,-5.727378E-1,-1.1499357E0,-4.715227E-1,5.885609E0,-5.4307556E-1,2.6903462E0,-1.0886836E0,1.8835083E0,1.3731364E0,3.9961746E0,6.3701477E0,1.594265E0,1.7429255E0,3.1182846E-1,-1.3826533E-1,2.514107E-1,-1.1920096E-1,-2.891656E-1,-8.8758074E-2,2.0778487E-2,-2.6518703E-1,-1.0583762E-1,-2.1556461E-2,-3.3121902E-1,2.194743E-1,8.8115615E-1,2.7547598E-1,-1.5275005E-1,3.8213548E-1,-1.2136355E-2,-2.1642104E-1,2.806482E-1,5.352601E-1,-1.8648757E-2,1.1889499E-1,3.9989847E-1,1.5752347E0,2.982029E-1,5.080402E-1,1.3135959E0,3.0589008E-1,-2.9490694E-1],"categories":[],"categories_nodes":[],"categories_segments":[],"categories_sizes":[],"default_left":[0,0,0,0,0,0,0,0,0,0,0,0,0,0,0,0,0,0,0,0,0,0,0,0,0,0,0,0,0,0,0,0,0,0,0,0,0,0,0,0,0,0,0,0,0,0,0,0,0,0,0,0,0,0,0,0,0,0,0],"id":8,"left_children":[1,3,5,7,9,11,13,15,17,19,21,23,25,27,29,31,33,35,37,39,41,43,45,47,49,51,53,55,57,-1,-1,-1,-1,-1,-1,-1,-1,-1,-1,-1,-1,-1,-1,-1,-1,-1,-1,-1,-1,-1,-1,-1,-1,-1,-1,-1,-1,-1,-1],"loss_changes":[3.3066113E3,3.0884912E2,6.935232E2,1.6578357E2,1.8754909E2,4.4836072E2,5.965729E2,8.488342E1,1.2299402E2,2.3598167E2,1.885269E2,2.584694E2,4.062401E2,3.6524988E2,7.77334E1,7.0942215E1,3.0223267E1,2.039726E2,8.950842E1,1.5816632E2,4.435605E1,9.823283E1,1.566571E2,4.6264917E2,2.8875507E2,2.8588135E2,7.380354E2,1.8450134E2,2.6855078E2,0E0,0E0,0E0,0E0,0E0,0E0,0E0,0E0,0E0,0E0,0E0,0E0,0E0,0E0,0E0,0E0,0E0,0E0,0E0,0E0,0E0,0E0,0E0,0E0,0E0,0E0,0E0,0E0,0E0,0E0],"parents":[2147483647,0,0,1,1,2,2,3,3,4,4,5,5,6,6,7,7,8,8,9,9,10,10,11,11,12,12,13,13,14,14,15,15,16,16,17,17,18,18,19,19,20,20,21,21,22,22,23,23,24,24,25,25,26,26,27,27,28,28],"right_children":[2,4,6,8,10,12,14,16,18,20,22,24,26,28,30,32,34,36,38,40,42,44,46,48,50,52,54,56,58,-1,-1,-1,-1,-1,-1,-1,-1,-1,-1,-1,-1,-1,-1,-1,-1,-1,-1,-1,-1,-1,-1,-1,-1,-1,-1,-1,-1,-1,-1],"split_conditions":[4.25E0,3.5E0,1.7325E1,2.3333333E-2,7.966102E-1,4E0,2.0161066E0,1.891892E-1,7.5416666E-1,1.926819E0,6.375E0,1E0,1.4078262E0,4.4018906E-1,2.0533333E1,1.25E1,2.0851064E0,1E0,1.2E0,1.295075E0,6.6666665E0,2.2330571E-2,7.425743E-1,9.5E0,5.625E0,1.9E1,1.477615E0,5.2E1,7.25E0,1.7429255E0,3.1182846E-1,-1.3826533E-1,2.514107E-1,-1.1920096E-1,-2.891656E-1,-8.8758074E-2,2.0778487E-2,-2.6518703E-1,-1.0583762E-1,-2.1556461E-2,-3.3121902E-1,2.194743E-1,8.8115615E-1,2.7547598E-1,-1.5275005E-1,3.8213548E-1,-1.2136355E-2,-2.1642104E-1,2.806482E-1,5.352601E-1,-1.8648757E-2,1.1889499E-1,3.9989847E-1,1.5752347E0,2.982029E-1,5.080402E-1,1.3135959E0,3.0589008E-1,-2.9490694E-1],"split_indices":[10,10,0,12,69,44,52,50,11,52,40,61,52,52,0,18,47,61,37,52,0,16,16,37,10,44,52,30,6,0,0,0,0,0,0,0,0,0,0,0,0,0,0,0,0,0,0,0,0,0,0,0,0,0,0,0,0,0,0],"split_type":[0,0,0,0,0,0,0,0,0,0,0,0,0,0,0,0,0,0,0,0,0,0,0,0,0,0,0,0,0,0,0,0,0,0,0,0,0,0,0,0,0,0,0,0,0,0,0,0,0,0,0,0,0,0,0,0,0,0,0],"sum_hessian":[2.863E3,1.98E3,8.83E2,1.681E3,2.99E2,8.13E2,7E1,1.8E2,1.501E3,2.23E2,7.6E1,1.47E2,6.66E2,6.6E1,4E0,9.8E1,8.2E1,8.28E2,6.73E2,2.18E2,5E0,2.8E1,4.8E1,1.08E2,3.9E1,6.01E2,6.5E1,2.8E1,3.8E1,3E0,1E0,9.4E1,4E0,1.5E1,6.7E1,5.9E2,2.38E2,3.7E1,6.36E2,2.01E2,1.7E1,3E0,2E0,6E0,2.2E1,3.4E1,1.4E1,8.5E1,2.3E1,1.4E1,2.5E1,5.63E2,3.8E1,4E0,6.1E1,2.5E1,3E0,2.9E1,9E0],"tree_param":{"num_deleted":"0","num_feature":"73","num_nodes":"59","size_leaf_vector":"1"}},{"base_weights":[-7.5077517E-3,-6.422233E-1,1.6016932E0,-9.5304656E-1,2.0362495E-2,1.237304E0,3.1044014E0,2.0948213E-2,-1.0387675E0,-6.448994E-1,4.907823E-1,7.6967406E-1,2.4576879E0,1.5808389E0,4.390302E0,1.0876983E0,-2.0284674E0,-1.5208895E0,-8.3889127E-1,-1.0707177E-1,-1.4017718E0,1.2068455E0,-5.536865E-1,-8.1230575E-1,1.1675954E0,2.94859E0,-6.802125E-1,2.4459987E0,-2.2327633E0,6.913981E0,2.2543428E0,6.4840734E-2,8.6980116E-1,-2.2336462E-1,2.8341627E-1,-5.3869337E-2,-1.7002802E-1,-2.2575133E-1,-7.704064E-2,-3.396007E-2,3.795033E-1,-1.6261451E-1,1.7058496E-1,8.9721555E-1,8.817559E-2,-3.939702E-1,-2.9409846E-2,-1.3224952E-1,2.818379E-1,1.251474E-1,-5.286497E-1,4.469634E-2,3.7007883E-1,6.1858875E-1,-1.550564E-1,-5.968011E-2,4.102296E-1,-3.0010415E-3,-3.8685766E-1,1.258838E0,3.8070127E-1,7.443238E-1,-1.6952896E-2],"categories":[],"categories_nodes":[],"categories_segments":[],"categories_sizes":[],"default_left":[0,0,0,0,0,0,0,0,0,0,0,0,0,0,0,0,0,0,0,0,0,0,0,0,0,0,0,0,0,0,0,0,0,0,0,0,0,0,0,0,0,0,0,0,0,0,0,0,0,0,0,0,0,0,0,0,0,0,0,0,0,0,0],"id":9,"left_children":[1,3,5,7,9,11,13,15,17,19,21,23,25,27,29,31,33,35,37,39,41,43,45,47,49,51,53,55,57,59,61,-1,-1,-1,-1,-1,-1,-1,-1,-1,-1,-1,-1,-1,-1,-1,-1,-1,-1,-1,-1,-1,-1,-1,-1,-1,-1,-1,-1,-1,-1,-1,-1],"loss_changes":[2.8996228E3,4.1942096E2,4.3542407E2,1.1584302E2,2.0403308E2,3.6759143E2,2.9808997E2,2.4915448E2,1.21256714E2,1.0960708E2,2.8643353E2,2.9685062E2,2.7796448E2,2.4633707E2,4.362965E2,2.4416116E2,4.518109E1,6.4405334E1,8.568817E1,1.4521228E2,8.085994E1,5.641471E2,1.3553716E2,1.7954973E2,2.0976404E2,2.8959766E2,1.585261E2,3.051857E2,4.9940132E1,6.2038293E2,5.9311835E2,0E0,0E0,0E0,0E0,0E0,0E0,0E0,0E0,0E0,0E0,0E0,0E0,0E0,0E0,0E0,0E0,0E0,0E0,0E0,0E0,0E0,0E0,0E0,0E0,0E0,0E0,0E0,0E0,0E0,0E0,0E0,0E0],"parents":[2147483647,0,0,1,1,2,2,3,3,4,4,5,5,6,6,7,7,8,8,9,9,10,10,11,11,12,12,13,13,14,14,15,15,16,16,17,17,18,18,19,19,20,20,21,21,22,22,23,23,24,24,25,25,26,26,27,27,28,28,29,29,30,30],"right_children":[2,4,6,8,10,12,14,16,18,20,22,24,26,28,30,32,34,36,38,40,42,44,46,48,50,52,54,56,58,60,62,-1,-1,-1,-1,-1,-1,-1,-1,-1,-1,-1,-1,-1,-1,-1,-1,-1,-1,-1,-1,-1,-1,-1,-1,-1,-1,-1,-1,-1,-1,-1,-1],"split_conditions":[4.5E0,2.75E0,1.2436926E1,2E0,6.1333334E-1,1E0,6.055046E-1,6.36963E-1,1.2161281E1,1.0671242E-1,5.8303547E-1,4E0,5.375E0,5.7831323E-1,6.8E-1,9.25E-1,6.1E0,3E0,-1.437425E0,6.666667E-1,7.5E-1,6.27907E-1,6.454545E-1,7.625E0,6.6666665E0,5.192308E-1,6.25E0,1.58E1,1.2338308E-1,1.5375E1,8E0,6.4840734E-2,8.6980116E-1,-2.2336462E-1,2.8341627E-1,-5.3869337E-2,-1.7002802E-1,-2.2575133E-1,-7.704064E-2,-3.396007E-2,3.795033E-1,-1.6261451E-1,1.7058496E-1,8.9721555E-1,8.817559E-2,-3.939702E-1,-2.9409846E-2,-1.3224952E-1,2.818379E-1,1.251474E-1,-5.286497E-1,4.469634E-2,3.7007883E-1,6.1858875E-1,-1.550564E-1,-5.968011E-2,4.102296E-1,-3.0010415E-3,-3.8685766E-1,1.258838E0,3.8070127E-1,7.443238E-1,-1.6952896E-2],"split_indices":[10,10,72,44,69,20,69,11,72,52,16,44,6,69,69,31,0,44,24,4,9,69,69,10,6,69,71,0,24,0,44,0,0,0,0,0,0,0,0,0,0,0,0,0,0,0,0,0,0,0,0,0,0,0,0,0,0,0,0,0,0,0,0],"split_type":[0,0,0,0,0,0,0,0,0,0,0,0,0,0,0,0,0,0,0,0,0,0,0,0,0,0,0,0,0,0,0,0,0,0,0,0,0,0,0,0,0,0,0,0,0,0,0,0,0,0,0,0,0,0,0,0,0,0,0,0,0,0,0],"sum_hessian":[2.837E3,2.035E3,8.02E2,1.385E3,6.5E2,6.47E2,1.55E2,1.12E2,1.273E3,2.69E2,3.81E2,4.69E2,1.78E2,7.2E1,8.3E1,7.4E1,3.8E1,3.71E2,9.02E2,1.58E2,1.11E2,2.26E2,1.55E2,9.4E1,3.75E2,1.54E2,2.4E1,5.9E1,1.3E1,3.7E1,4.6E1,7.1E1,3E0,3.7E1,1E0,5.8E1,3.13E2,4E1,8.62E2,1.5E2,8E0,1.04E2,7E0,8E0,2.18E2,1E1,1.45E2,8.3E1,1.1E1,3.71E2,4E0,3.6E1,1.18E2,2E0,2.2E1,2.1E1,3.8E1,6E0,7E0,1.2E1,2.5E1,1.4E1,3.2E1],"tree_param":{"num_deleted":"0","num_feature":"73","num_nodes":"63","size_leaf_vector":"1"}},{"base_weights":[6.2409756E-3,-5.896535E-1,1.3529606E0,-9.6406114E-1,-9.051366E-2,8.85427E-1,2.8948731E0,-8.777669E-1,-2.2041452E0,-7.5829804E-1,3.671472E-1,-3.6540914E-1,1.3496573E0,8.915638E0,2.3254251E0,-8.016945E-1,-1.9107941E0,-2.3180552E0,2.891732E-1,-6.0695684E-1,-1.9159756E0,6.836938E-1,-7.31846E-1,-6.759001E-1,3.37944E0,9.9411335E0,1.2213448E0,3.6062622E0,1.3223277E1,2.9772077E0,2.2927447E-1,3.786999E-2,-9.060708E-2,6.778055E-2,-2.2518514E-1,-1.3900581E-1,-2.7900088E-1,-9.310428E-2,1.8528493E-2,8.779601E-2,-2.6685384E-1,-1.4783345E-1,8.891171E-2,-8.777277E-2,4.827766E-1,-1.0385448E-1,2.6004466E-1,-4.111099E-2,7.2430056E-1,-2.587449E-1,1.5490056E0,1.16635025E-1,1.3731862E0,1.3798444E-1,7.5658166E-1,1.4480366E0,1.533285E-1,5.296371E-2,4.535193E-1,1.721645E-1,-2.577E-1],"categories":[],"categories_nodes":[],"categories_segments":[],"categories_sizes":[],"default_left":[0,0,0,0,0,0,0,0,0,0,0,0,0,0,0,0,0,0,0,0,0,0,0,0,0,0,0,0,0,0,0,0,0,0,0,0,0,0,0,0,0,0,0,0,0,0,0,0,0,0,0,0,0,0,0,0,0,0,0,0,0],"id":10,"left_children":[1,3,5,7,9,11,13,15,17,19,21,23,25,27,29,31,33,35,-1,37,39,41,43,45,47,49,51,53,55,57,59,-1,-1,-1,-1,-1,-1,-1,-1,-1,-1,-1,-1,-1,-1,-1,-1,-1,-1,-1,-1,-1,-1,-1,-1,-1,-1,-1,-1,-1,-1],"loss_changes":[2.2655369E3,3.6553485E2,6.213545E2,1.1739673E2,2.570373E2,3.8732178E2,6.672744E2,8.047522E1,4.843976E1,5.850464E1,1.7408896E2,2.124701E2,5.2250543E2,3.394353E2,2.5175018E2,1.2076721E2,6.436685E1,2.6799713E1,0E0,7.830044E1,8.45238E1,1.7357831E2,9.4679596E1,2.0215366E2,2.0869139E2,5.2801105E2,3.1273877E2,6.800638E1,1.0845422E2,5.347638E2,1.928112E2,0E0,0E0,0E0,0E0,0E0,0E0,0E0,0E0,0E0,0E0,0E0,0E0,0E0,0E0,0E0,0E0,0E0,0E0,0E0,0E0,0E0,0E0,0E0,0E0,0E0,0E0,0E0,0E0,0E0,0E0],"parents":[2147483647,0,0,1,1,2,2,3,3,4,4,5,5,6,6,7,7,8,8,9,9,10,10,11,11,12,12,13,13,14,14,15,15,16,16,17,17,19,19,20,20,21,21,22,22,23,23,24,24,25,25,26,26,27,27,28,28,29,29,30,30],"right_children":[2,4,6,8,10,12,14,16,18,20,22,24,26,28,30,32,34,36,-1,38,40,42,44,46,48,50,52,54,56,58,60,-1,-1,-1,-1,-1,-1,-1,-1,-1,-1,-1,-1,-1,-1,-1,-1,-1,-1,-1,-1,-1,-1,-1,-1,-1,-1,-1,-1,-1,-1],"split_conditions":[4.25E0,2.142857E0,7.3333335E0,5.825E0,6.111111E-1,5.5E-1,5.873016E-1,6E0,2.1E1,3.25E0,4E0,5.1E1,5.5714285E-1,5.71875E0,8.928572E0,2E0,5.5E0,4.25E1,2.891732E-1,8.25E0,7.25E0,-1.5310397E0,9.625E0,3.3333334E-1,6.48E0,-4.1299143E-1,1.25E-1,9E0,9.75E0,9.375E0,8.666667E0,3.786999E-2,-9.060708E-2,6.778055E-2,-2.2518514E-1,-1.3900581E-1,-2.7900088E-1,-9.310428E-2,1.8528493E-2,8.779601E-2,-2.6685384E-1,-1.4783345E-1,8.891171E-2,-8.777277E-2,4.827766E-1,-1.0385448E-1,2.6004466E-1,-4.111099E-2,7.2430056E-1,-2.587449E-1,1.5490056E0,1.16635025E-1,1.3731862E0,1.3798444E-1,7.5658166E-1,1.4480366E0,1.533285E-1,5.296371E-2,4.535193E-1,1.721645E-1,-2.577E-1],"split_indices":[10,10,10,0,69,69,11,25,44,18,53,56,69,40,40,44,5,56,0,40,71,24,18,9,40,24,8,39,10,71,10,0,0,0,0,0,0,0,0,0,0,0,0,0,0,0,0,0,0,0,0,0,0,0,0,0,0,0,0,0,0],"split_type":[0,0,0,0,0,0,0,0,0,0,0,0,0,0,0,0,0,0,0,0,0,0,0,0,0,0,0,0,0,0,0,0,0,0,0,0,0,0,0,0,0,0,0,0,0,0,0,0,0,0,0,0,0,0,0,0,0,0,0,0,0],"sum_hessian":[2.821E3,1.956E3,8.65E2,1.117E3,8.39E2,6.65E2,2E2,1.046E3,7.1E1,3.41E2,4.98E2,1.8E2,4.85E2,1.6E1,1.84E2,9.76E2,7E1,7E1,1E0,3.03E2,3.8E1,3.87E2,1.11E2,1.67E2,1.3E1,6E0,4.79E2,8E0,8E0,1.4E2,4.4E1,7.9E1,8.97E2,8E0,6.2E1,2.5E1,4.5E1,2.15E2,8.8E1,8E0,3E1,3.3E1,3.54E2,1.09E2,2E0,1.51E2,1.6E1,7E0,6E0,2E0,4E0,4.78E2,1E0,6E0,2E0,7E0,1E0,5.5E1,8.5E1,2.9E1,1.5E1],"tree_param":{"num_deleted":"0","num_feature":"73","num_nodes":"61","size_leaf_vector":"1"}},{"base_weights":[7.209103E-2,-4.6809852E-1,1.4891757E0,-6.4454436E-1,3.056239E-1,-2.954909E-1,1.878365E0,-5.0004894E-1,-1.0543956E0,-5.703148E-1,1.041603E0,1.2005379E0,-1.1317763E0,1.1021854E0,2.912663E0,-6.515555E-1,4.8326246E-2,-6.6034484E-1,-1.629957E0,8.852357E-2,-2.2211812E0,1.7764313E0,-4.6299952E-1,-1.980268E0,1.7538542E0,-1.4154935E0,4.0112557E0,3.8348691E0,6.6153E-1,6.1866183E0,2.2618377E0,-6.795409E-2,8.5715955E-1,5.8148736E-1,-6.0281525E-3,-9.496921E-2,6.69031E-2,-2.0188113E-1,-6.875439E-2,-3.6344655E-2,4.0528366E-1,2.2833355E-1,-2.774646E-1,1.456038E-1,6.2670404E-1,8.542543E-2,-2.547404E-1,1.956021E-1,-2.8363124E-1,5.193483E-1,8.424508E-2,-1.7434816E-1,4.2922077E-1,7.7364033E-1,-1.0176437E-1,2.5348163E-1,1.0493301E0,8.825926E-2,-2.5127187E-1,8.3187103E-1,8.6422265E-2,1.4078228E-1,3.4260663E-1],"categories":[],"categories_nodes":[],"categories_segments":[],"categories_sizes":[],"default_left":[0,0,0,0,0,0,0,0,0,0,0,0,0,0,0,0,0,0,0,0,0,0,0,0,0,0,0,0,0,0,0,0,0,0,0,0,0,0,0,0,0,0,0,0,0,0,0,0,0,0,0,0,0,0,0,0,0,0,0,0,0,0,0],"id":11,"left_children":[1,3,5,7,9,11,13,15,17,19,21,23,25,27,29,31,33,35,37,39,41,43,45,47,49,51,53,55,57,59,61,-1,-1,-1,-1,-1,-1,-1,-1,-1,-1,-1,-1,-1,-1,-1,-1,-1,-1,-1,-1,-1,-1,-1,-1,-1,-1,-1,-1,-1,-1,-1,-1],"loss_changes":[2.1717412E3,2.8064316E2,5.445641E2,9.839508E1,2.4690608E2,1.77758E2,5.1258936E2,1.03030945E2,9.7352844E1,1.9074936E2,2.3092374E2,9.321E1,1.3820244E2,4.413529E2,5.711245E2,2.5566425E2,1.6939848E2,1.0067277E2,6.28385E1,2.2760252E2,1.3103918E2,1.9152924E2,1.9179802E2,3.2593025E1,1.329563E2,1.7009756E2,1.0221174E2,4.1357056E2,2.2589938E2,5.0254504E2,2.2436938E2,0E0,0E0,0E0,0E0,0E0,0E0,0E0,0E0,0E0,0E0,0E0,0E0,0E0,0E0,0E0,0E0,0E0,0E0,0E0,0E0,0E0,0E0,0E0,0E0,0E0,0E0,0E0,0E0,0E0,0E0,0E0,0E0],"parents":[2147483647,0,0,1,1,2,2,3,3,4,4,5,5,6,6,7,7,8,8,9,9,10,10,11,11,12,12,13,13,14,14,15,15,16,16,17,17,18,18,19,19,20,20,21,21,22,22,23,23,24,24,25,25,26,26,27,27,28,28,29,29,30,30],"right_children":[2,4,6,8,10,12,14,16,18,20,22,24,26,28,30,32,34,36,38,40,42,44,46,48,50,52,54,56,58,60,62,-1,-1,-1,-1,-1,-1,-1,-1,-1,-1,-1,-1,-1,-1,-1,-1,-1,-1,-1,-1,-1,-1,-1,-1,-1,-1,-1,-1,-1,-1,-1,-1],"split_conditions":[3.125E0,3.4E0,3.8181818E-1,9.4117653E-1,8E0,1.2359611E1,1.74E1,2E0,2.1290324E0,2.875E-1,5.5E0,7.0833335E0,1.863695E0,6.142857E-1,1.3793103E-1,1.005E1,2.6E0,1.945946E0,1E0,8.6E0,1.6E0,1.0333333E1,5.465315E-1,5.4E0,2.022E3,1.6444445E1,6E-1,2.7716537E0,4.1833332E-1,2.410959E0,7.3333335E0,-6.795409E-2,8.5715955E-1,5.8148736E-1,-6.0281525E-3,-9.496921E-2,6.69031E-2,-2.0188113E-1,-6.875439E-2,-3.6344655E-2,4.0528366E-1,2.2833355E-1,-2.774646E-1,1.456038E-1,6.2670404E-1,8.542543E-2,-2.547404E-1,1.956021E-1,-2.8363124E-1,5.193483E-1,8.424508E-2,-1.7434816E-1,4.2922077E-1,7.7364033E-1,-1.0176437E-1,2.5348163E-1,1.0493301E0,8.825926E-2,-2.5127187E-1,8.3187103E-1,8.6422265E-2,1.4078228E-1,3.4260663E-1],"split_indices":[6,10,69,16,44,72,36,37,47,50,54,71,24,11,41,0,0,47,28,0,47,18,16,0,43,71,4,47,12,47,10,0,0,0,0,0,0,0,0,0,0,0,0,0,0,0,0,0,0,0,0,0,0,0,0,0,0,0,0,0,0,0,0],"split_type":[0,0,0,0,0,0,0,0,0,0,0,0,0,0,0,0,0,0,0,0,0,0,0,0,0,0,0,0,0,0,0,0,0,0,0,0,0,0,0,0,0,0,0,0,0,0,0,0,0,0,0,0,0,0,0,0,0,0,0,0,0,0,0],"sum_hessian":[2.835E3,2.053E3,7.82E2,1.672E3,3.81E2,1.4E2,6.42E2,1.238E3,4.34E2,1.74E2,2.07E2,5E1,9E1,3.68E2,2.74E2,9.7E2,2.68E2,2.59E2,1.75E2,1.25E2,4.9E1,1.39E2,6.8E1,7E0,4.3E1,8.6E1,4E0,5E1,3.18E2,4.4E1,2.3E2,9.68E2,2E0,4E0,2.64E2,2.13E2,4.6E1,1.23E2,5.2E1,1.13E2,1.2E1,5E0,4.4E1,1.31E2,8E0,4.2E1,2.6E1,1E0,6E0,8E0,3.5E1,8.2E1,4E0,2E0,2E0,4.3E1,7E0,2.98E2,2E1,3.1E1,1.3E1,1.34E2,9.6E1],"tree_param":{"num_deleted":"0","num_feature":"73","num_nodes":"63","size_leaf_vector":"1"}},{"base_weights":[-3.1421252E-4,-4.396644E-1,1.2024703E0,-7.738883E-1,-1.6963713E-1,-3.5794985E-1,1.5041033E0,-1.0647944E0,-3.2416007E-1,2.4117373E-1,-6.8720335E-1,-5.030913E-1,5.678832E-1,8.4551847E-1,2.322877E0,4.5540914E-1,-1.0928224E0,3.4074154E0,-4.917123E-1,-3.569353E-2,1.3265985E0,-7.4910074E-1,2.503524E0,-2.1615337E-1,-3.3958998E0,1.088368E-1,2.5716705E0,6.7294186E-1,3.2194743E0,-9.9326976E-2,-2.670636E-1,6.8890655E-1,-3.5268453E-1,1.5095206E-2,-9.797252E-2,-5.8286723E-2,8.088918E-2,2.5058725E-1,3.3778977E-2,-9.390797E-2,3.060447E-3,1.5978168E0,-7.5789936E-2,-5.2726205E-2,3.920556E-1,-4.7699028E-1,1.760811E-2,1.02552764E-1,-1.44183E-1,1.1030244E0,2.1351217E-1,3.516272E-1,-7.989624E-2,7.347812E-2,4.2642695E-1],"categories":[],"categories_nodes":[],"categories_segments":[],"categories_sizes":[],"default_left":[0,0,0,0,0,0,0,0,0,0,0,0,0,0,0,0,0,0,0,0,0,0,0,0,0,0,0,0,0,0,0,0,0,0,0,0,0,0,0,0,0,0,0,0,0,0,0,0,0,0,0,0,0,0,0],"id":12,"left_children":[1,3,5,7,9,11,13,15,17,19,21,23,-1,25,27,-1,29,31,33,35,37,39,41,43,45,47,49,51,53,-1,-1,-1,-1,-1,-1,-1,-1,-1,-1,-1,-1,-1,-1,-1,-1,-1,-1,-1,-1,-1,-1,-1,-1,-1,-1],"loss_changes":[1.5149718E3,1.8929843E2,3.6166016E2,1.2223328E2,2.4748953E2,1.1186277E2,3.444452E2,9.424017E1,2.3272041E2,1.95213E2,1.0341124E2,1.0100172E2,0E0,4.5469363E2,4.2053186E2,0E0,8.6042786E1,4.1091556E2,1.1156887E2,2.3983472E2,1.5279124E2,7.507211E1,4.5309705E2,1.47155E2,5.528631E1,3.5965045E2,3.7023877E2,4.2996228E2,4.7662585E2,0E0,0E0,0E0,0E0,0E0,0E0,0E0,0E0,0E0,0E0,0E0,0E0,0E0,0E0,0E0,0E0,0E0,0E0,0E0,0E0,0E0,0E0,0E0,0E0,0E0,0E0],"parents":[2147483647,0,0,1,1,2,2,3,3,4,4,5,5,6,6,7,7,8,8,9,9,10,10,11,11,13,13,14,14,16,16,17,17,18,18,19,19,20,20,21,21,22,22,23,23,24,24,25,25,26,26,27,27,28,28],"right_children":[2,4,6,8,10,12,14,16,18,20,22,24,-1,26,28,-1,30,32,34,36,38,40,42,44,46,48,50,52,54,-1,-1,-1,-1,-1,-1,-1,-1,-1,-1,-1,-1,-1,-1,-1,-1,-1,-1,-1,-1,-1,-1,-1,-1,-1,-1],"split_conditions":[3.25E0,1.3333334E0,3.8181818E-1,1.2E0,7.5714284E-1,2.892857E0,4.625E0,-1.5E0,-4E0,7.222222E-1,3.875E0,6.666667E-1,5.678832E-1,8E-1,9.333333E0,4.5540914E-1,2.3333333E0,2.2950819E-1,6E0,1.2E1,9E0,2.716418E0,1.6333334E1,1.475E1,1.15E1,4.25E1,2.3374736E-1,5.5E0,9.6666664E-1,-9.9326976E-2,-2.670636E-1,6.8890655E-1,-3.5268453E-1,1.5095206E-2,-9.797252E-2,-5.8286723E-2,8.088918E-2,2.5058725E-1,3.3778977E-2,-9.390797E-2,3.060447E-3,1.5978168E0,-7.5789936E-2,-5.2726205E-2,3.920556E-1,-4.7699028E-1,1.760811E-2,1.02552764E-1,-1.44183E-1,1.1030244E0,2.1351217E-1,3.516272E-1,-7.989624E-2,7.347812E-2,4.2642695E-1],"split_indices":[6,6,69,21,11,47,6,70,53,11,10,4,0,31,71,0,10,50,66,66,66,47,5,71,37,5,52,37,22,0,0,0,0,0,0,0,0,0,0,0,0,0,0,0,0,0,0,0,0,0,0,0,0,0,0],"split_type":[0,0,0,0,0,0,0,0,0,0,0,0,0,0,0,0,0,0,0,0,0,0,0,0,0,0,0,0,0,0,0,0,0,0,0,0,0,0,0,0,0,0,0,0,0,0,0,0,0,0,0,0,0,0,0],"sum_hessian":[2.865E3,2.099E3,7.66E2,9.37E2,1.162E3,1.24E2,6.42E2,5.68E2,3.69E2,6.48E2,5.14E2,1.22E2,2E0,3.57E2,2.85E2,2E0,5.66E2,1.5E1,3.54E2,5.17E2,1.31E2,5.05E2,9E0,1.12E2,1E1,2.51E2,1.06E2,1.01E2,1.84E2,5.34E2,3.2E1,1E1,5E0,1.53E2,2.01E2,3.14E2,2.03E2,5.9E1,7.2E1,4.06E2,9.9E1,1E0,8E0,1.05E2,7E0,7E0,3E0,1.58E2,9.3E1,4E0,1.02E2,3.4E1,6.7E1,5.5E1,1.29E2],"tree_param":{"num_deleted":"0","num_feature":"73","num_nodes":"55","size_leaf_vector":"1"}},{"base_weights":[2.5632144E-3,-2.395242E-1,1.9549426E0,-5.767962E-1,3.5793406E-1,1.6695546E0,5.86611E0,-3.877057E-1,-9.5971173E-1,1.7087203E-1,2.2852547E0,2.6104245E0,6.6412544E-1,9.092268E-2,1.018159E1,-6.8903035E-1,6.667434E-2,-1.0005423E-2,-1.1163806E0,-8.911327E-1,4.0231076E-1,1.4738846E0,7.3054395E0,1.6183367E0,5.2544103E0,-4.0222522E-2,4.1917076E0,-1.3984842E0,4.0657005E-1,5.065162E0,1.3098302E1,-5.859613E-2,-1.7381041E-1,1.486237E-3,7.48931E-1,-2.4352054E-1,5.6599468E-2,-2.5751606E-1,-9.9737614E-2,-4.4559244E-2,-2.731298E-1,1.77316E-1,1.4100554E-2,6.878995E-1,7.736539E-2,1.2848145E0,5.2849483E-2,1.2944986E-1,1.291962E0,2.6129314E-1,8.478915E-1,-4.5406025E-2,5.8494925E-1,6.6329116E-1,1.0073083E-2,6.19892E-2,-3.5968336E-1,5.928229E-1,3.2491416E-2,3.2196137E-1,1.4191481E0],"categories":[],"categories_nodes":[],"categories_segments":[],"categories_sizes":[],"default_left":[0,0,0,0,0,0,0,0,0,0,0,0,0,0,0,0,0,0,0,0,0,0,0,0,0,0,0,0,0,0,0,0,0,0,0,0,0,0,0,0,0,0,0,0,0,0,0,0,0,0,0,0,0,0,0,0,0,0,0,0,0],"id":13,"left_children":[1,3,5,7,9,11,13,15,17,19,21,23,25,27,29,31,33,35,37,39,41,43,45,47,49,51,53,55,-1,57,59,-1,-1,-1,-1,-1,-1,-1,-1,-1,-1,-1,-1,-1,-1,-1,-1,-1,-1,-1,-1,-1,-1,-1,-1,-1,-1,-1,-1,-1,-1],"loss_changes":[1.3495728E3,5.120534E2,3.410558E2,1.1708002E2,3.2996857E2,2.770025E2,5.214239E2,1.4920958E2,7.962732E1,2.0603505E2,3.182862E2,3.8951538E2,3.5837268E2,6.515315E1,1.1091638E2,6.957233E1,1.6643115E2,1.0912773E2,7.693091E1,1.2144542E2,2.4600703E2,2.6263525E2,4.0506085E2,3.9175024E2,3.259519E2,2.9704016E2,2.383443E2,3.802411E1,0E0,2.1995422E1,2.8161987E1,0E0,0E0,0E0,0E0,0E0,0E0,0E0,0E0,0E0,0E0,0E0,0E0,0E0,0E0,0E0,0E0,0E0,0E0,0E0,0E0,0E0,0E0,0E0,0E0,0E0,0E0,0E0,0E0,0E0,0E0],"parents":[2147483647,0,0,1,1,2,2,3,3,4,4,5,5,6,6,7,7,8,8,9,9,10,10,11,11,12,12,13,13,14,14,15,15,16,16,17,17,18,18,19,19,20,20,21,21,22,22,23,23,24,24,25,25,26,26,27,27,29,29,30,30],"right_children":[2,4,6,8,10,12,14,16,18,20,22,24,26,28,30,32,34,36,38,40,42,44,46,48,50,52,54,56,-1,58,60,-1,-1,-1,-1,-1,-1,-1,-1,-1,-1,-1,-1,-1,-1,-1,-1,-1,-1,-1,-1,-1,-1,-1,-1,-1,-1,-1,-1,-1,-1],"split_conditions":[6.6666665E0,3.25E0,1.9803114E0,3.5E0,1.6666667E-1,7.4E0,1.25E-1,1.5E-1,3E0,-8.9101326E-1,5.5172414E-1,2.6086956E-1,4.915254E-1,1.6866667E1,8.333333E0,6E0,2.525284E0,1.0047325E1,6.666667E-1,8.229167E-1,-4.744186E-1,5.3333336E-1,3.773585E-1,1.3333334E0,2.4210527E0,2.4775E1,8.571429E-1,1.58E1,4.0657005E-1,1.2333333E0,1.26625E1,-5.859613E-2,-1.7381041E-1,1.486237E-3,7.48931E-1,-2.4352054E-1,5.6599468E-2,-2.5751606E-1,-9.9737614E-2,-4.4559244E-2,-2.731298E-1,1.77316E-1,1.4100554E-2,6.878995E-1,7.736539E-2,1.2848145E0,5.2849483E-2,1.2944986E-1,1.291962E0,2.6129314E-1,8.478915E-1,-4.5406025E-2,5.8494925E-1,6.6329116E-1,1.0073083E-2,6.19892E-2,-3.5968336E-1,5.928229E-1,3.2491416E-2,3.2196137E-1,1.4191481E0],"split_indices":[48,48,52,53,7,37,41,49,44,24,41,17,50,0,48,25,52,72,48,11,24,11,50,9,47,0,16,0,0,22,0,0,0,0,0,0,0,0,0,0,0,0,0,0,0,0,0,0,0,0,0,0,0,0,0,0,0,0,0,0,0],"split_type":[0,0,0,0,0,0,0,0,0,0,0,0,0,0,0,0,0,0,0,0,0,0,0,0,0,0,0,0,0,0,0,0,0,0,0,0,0,0,0,0,0,0,0,0,0,0,0,0,0,0,0,0,0,0,0,0,0,0,0,0,0],"sum_hessian":[2.853E3,2.539E3,3.14E2,1.623E3,9.16E2,2.94E2,2E1,1.088E3,5.35E2,8.36E2,8E1,1.51E2,1.43E2,9E0,1.1E1,6.54E2,4.34E2,7.6E1,4.59E2,1.49E2,6.87E2,7E1,1E1,1.11E2,4E1,1.2E2,2.3E1,7E0,2E0,5E0,6E0,5.97E2,5.7E1,4.32E2,2E0,1.4E1,6.2E1,3.3E1,4.26E2,1.21E2,2.8E1,1.09E2,5.78E2,7E0,6.3E1,5E0,5E0,1.09E2,2E0,2.3E1,1.7E1,1.13E2,7E0,1.4E1,9E0,4E0,3E0,4E0,1E0,1E0,5E0],"tree_param":{"num_deleted":"0","num_feature":"73","num_nodes":"61","size_leaf_vector":"1"}},{"base_weights":[3.5162356E-2,-4.6775702E-1,7.737863E-1,-5.318213E-1,3.8202402E-1,5.095987E-1,1.6067752E0,-7.9094315E-1,-3.307664E-1,-9.211603E-2,2.912564E0,-2.4256063E-1,7.8448606E-1,1.0975927E0,3.6130264E0,-8.745487E-1,4.889297E-1,-4.7593076E-2,-7.141524E-1,-1.0033039E0,8.7358546E-1,3.724558E-1,9.930376E0,-4.3290034E-1,3.3540509E0,9.401924E0,7.025716E-1,-2.0583518E0,1.434702E0,6.4734097E0,1.5688548E0,-9.135102E-2,1.0971413E-1,8.909368E-2,-2.7245116E-1,-9.213565E-3,5.6518894E-1,-3.9829414E-2,-1.446784E-1,-1.9613329E-1,4.3125194E-2,1.6316673E-1,-1.1851724E-1,-6.558757E-2,3.3893365E-1,1.3127246E-1,1.1731608E0,-7.0635974E-2,1.893981E-1,-1.5088062E-1,7.0573497E-1,1.5331164E-1,1.6726359E0,8.776939E-2,-1.04105584E-1,1.3461767E-1,-2.895257E-1,2.6899007E-1,4.6925228E-2,1.1731061E0,3.4337458E-1,-1.1738922E-1,5.578057E-1],"categories":[],"categories_nodes":[],"categories_segments":[],"categories_sizes":[],"default_left":[0,0,0,0,0,0,0,0,0,0,0,0,0,0,0,0,0,0,0,0,0,0,0,0,0,0,0,0,0,0,0,0,0,0,0,0,0,0,0,0,0,0,0,0,0,0,0,0,0,0,0,0,0,0,0,0,0,0,0,0,0,0,0],"id":14,"left_children":[1,3,5,7,9,11,13,15,17,19,21,23,25,27,29,31,33,35,37,39,41,43,45,47,49,51,53,55,57,59,61,-1,-1,-1,-1,-1,-1,-1,-1,-1,-1,-1,-1,-1,-1,-1,-1,-1,-1,-1,-1,-1,-1,-1,-1,-1,-1,-1,-1,-1,-1,-1,-1],"loss_changes":[1.0646492E3,9.30394E1,2.5446545E2,8.2253235E1,1.4452998E2,1.8281277E2,2.805752E2,7.4513214E1,9.705522E1,9.064286E1,3.3396512E2,1.6340486E2,4.490969E2,2.4120392E2,3.1647833E2,5.09169E1,5.7792538E1,1.3096147E2,8.7174194E1,7.383918E1,8.0013794E1,4.903163E1,6.0907104E1,1.4502458E2,2.2730635E2,3.1833807E2,1.9693085E2,6.6736305E1,2.4442355E2,3.257763E2,3.8086014E2,0E0,0E0,0E0,0E0,0E0,0E0,0E0,0E0,0E0,0E0,0E0,0E0,0E0,0E0,0E0,0E0,0E0,0E0,0E0,0E0,0E0,0E0,0E0,0E0,0E0,0E0,0E0,0E0,0E0,0E0,0E0,0E0],"parents":[2147483647,0,0,1,1,2,2,3,3,4,4,5,5,6,6,7,7,8,8,9,9,10,10,11,11,12,12,13,13,14,14,15,15,16,16,17,17,18,18,19,19,20,20,21,21,22,22,23,23,24,24,25,25,26,26,27,27,28,28,29,29,30,30],"right_children":[2,4,6,8,10,12,14,16,18,20,22,24,26,28,30,32,34,36,38,40,42,44,46,48,50,52,54,56,58,60,62,-1,-1,-1,-1,-1,-1,-1,-1,-1,-1,-1,-1,-1,-1,-1,-1,-1,-1,-1,-1,-1,-1,-1,-1,-1,-1,-1,-1,-1,-1,-1,-1],"split_conditions":[3.5E0,3.2E0,6.875E0,1.6E0,8.072289E-1,5.5E-1,8E0,9.268293E-1,7.5416666E-1,1.2E0,9.444444E-1,1.7947713E0,5.5714285E-1,4E1,4.7922474E-3,9.3E0,5.121951E-1,2.01E1,1.2310398E1,1.5E1,9E0,8.125E-1,-1.1460724E0,2.5E-1,4.75E0,6.125E0,1E0,1.2351091E1,4.7922474E-3,9E0,2.7E1,-9.135102E-2,1.0971413E-1,8.909368E-2,-2.7245116E-1,-9.213565E-3,5.6518894E-1,-3.9829414E-2,-1.446784E-1,-1.9613329E-1,4.3125194E-2,1.6316673E-1,-1.1851724E-1,-6.558757E-2,3.3893365E-1,1.3127246E-1,1.1731608E0,-7.0635974E-2,1.893981E-1,-1.5088062E-1,7.0573497E-1,1.5331164E-1,1.6726359E0,8.776939E-2,-1.04105584E-1,1.3461767E-1,-2.895257E-1,2.6899007E-1,4.6925228E-2,1.1731061E0,3.4337458E-1,-1.1738922E-1,5.578057E-1],"split_indices":[10,47,10,10,69,69,39,69,11,21,11,24,69,56,24,36,17,36,72,5,39,17,24,9,40,10,33,72,24,39,51,0,0,0,0,0,0,0,0,0,0,0,0,0,0,0,0,0,0,0,0,0,0,0,0,0,0,0,0,0,0,0,0],"split_type":[0,0,0,0,0,0,0,0,0,0,0,0,0,0,0,0,0,0,0,0,0,0,0,0,0,0,0,0,0,0,0,0,0,0,0,0,0,0,0,0,0,0,0,0,0,0,0,0,0,0,0,0,0,0,0,0,0,0,0,0,0,0,0],"sum_hessian":[2.864E3,1.704E3,1.16E3,1.585E3,1.19E2,8.82E2,2.78E2,6.91E2,8.94E2,1.01E2,1.8E1,2.36E2,6.46E2,2.23E2,5.5E1,6.49E2,4.2E1,5.15E2,3.79E2,5.2E1,4.9E1,1.4E1,4E0,2.25E2,1.1E1,5E0,6.41E2,2.1E1,2.02E2,2.2E1,3.3E1,6.37E2,1.2E1,3.8E1,4E0,5.12E2,3E0,2.66E2,1.13E2,3.1E1,2.1E1,3.6E1,1.3E1,1.1E1,3E0,1E0,3E0,2.02E2,2.3E1,5E0,6E0,3E0,2E0,5.83E2,5.8E1,4E0,1.7E1,8.7E1,1.15E2,7E0,1.5E1,2E1,1.3E1],"tree_param":{"num_deleted":"0","num_feature":"73","num_nodes":"63","size_leaf_vector":"1"}},{"base_weights":[-5.237258E-2,-5.949604E-1,6.4476925E-1,-7.2778404E-2,-7.208433E-1,-4.563814E-1,8.569375E-1,-1.2747163E-1,8.473099E-1,-8.427299E-1,-1.8010642E-1,-4.901865E-2,-2.5504012E0,7.3967953E0,7.995879E-1,7.589246E-1,-4.2031667E-1,-8.658084E-1,2.731739E0,-2.8312147E-1,3.8680003E0,-3.8188487E-1,2.7960045E0,-1.7144955E0,-4.577872E-1,7.637352E-1,1.2530496E0,9.4315624E-1,-9.629824E-1,4.0247303E-2,4.9525976E-1,-5.2896913E-2,3.1954512E-1,-1.00846685E-1,-3.4537412E-2,-6.313655E-2,4.2232537E-1,5.4520606E-3,-1.3651295E-1,7.177885E-1,3.935865E-2,-4.713032E-2,6.599559E-1,5.0269717E-1,-0E0,-2.4283214E-1,2.61517E-1,-1.5809304E-1,2.8871557E-1,5.8952212E-2,1.7024875E-1,-5.5046823E-2,-4.099152E-1],"categories":[],"categories_nodes":[],"categories_segments":[],"categories_sizes":[],"default_left":[0,0,0,0,0,0,0,0,0,0,0,0,0,0,0,0,0,0,0,0,0,0,0,0,0,0,0,0,0,0,0,0,0,0,0,0,0,0,0,0,0,0,0,0,0,0,0,0,0,0,0,0,0],"id":15,"left_children":[1,3,5,7,9,11,13,15,-1,17,19,21,23,25,27,29,31,33,35,37,39,41,43,45,-1,47,-1,49,51,-1,-1,-1,-1,-1,-1,-1,-1,-1,-1,-1,-1,-1,-1,-1,-1,-1,-1,-1,-1,-1,-1,-1,-1],"loss_changes":[1.0829607E3,1.05699585E2,2.9316852E2,1.4700958E2,8.522943E1,1.7277925E2,3.8745227E2,8.153265E1,0E0,8.945642E1,1.00820435E2,1.6276541E2,4.744957E1,2.955699E2,2.6483673E2,1.1406882E2,9.413908E1,7.76214E1,3.813845E1,8.605837E1,6.541719E1,9.8634995E1,1.1198685E2,8.3597466E1,0E0,2.958857E1,0E0,2.578941E2,9.948204E1,0E0,0E0,0E0,0E0,0E0,0E0,0E0,0E0,0E0,0E0,0E0,0E0,0E0,0E0,0E0,0E0,0E0,0E0,0E0,0E0,0E0,0E0,0E0,0E0],"parents":[2147483647,0,0,1,1,2,2,3,3,4,4,5,5,6,6,7,7,9,9,10,10,11,11,12,12,13,13,14,14,15,15,16,16,17,17,18,18,19,19,20,20,21,21,22,22,23,23,25,25,27,27,28,28],"right_children":[2,4,6,8,10,12,14,16,-1,18,20,22,24,26,28,30,32,34,36,38,40,42,44,46,-1,48,-1,50,52,-1,-1,-1,-1,-1,-1,-1,-1,-1,-1,-1,-1,-1,-1,-1,-1,-1,-1,-1,-1,-1,-1,-1,-1],"split_conditions":[3.25E0,9.090901E-7,-8.9101326E-1,8.666667E0,8.145161E-1,8.229167E-1,8.4444445E-1,2E0,8.473099E-1,2.574751E0,1.32E1,7.7592593E-1,-1.1188096E0,9.4E0,5E0,7E0,2.3076923E-1,3.5454544E-1,6.6785717E-1,7.7E0,7.7125E0,3.15E1,5.9574467E-1,9.3333334E-1,-4.577872E-1,-8.3017516E-1,1.2530496E0,4.725E1,1.7518248E-1,4.0247303E-2,4.9525976E-1,-5.2896913E-2,3.1954512E-1,-1.00846685E-1,-3.4537412E-2,-6.313655E-2,4.2232537E-1,5.4520606E-3,-1.3651295E-1,7.177885E-1,3.935865E-2,-4.713032E-2,6.599559E-1,5.0269717E-1,-0E0,-2.4283214E-1,2.61517E-1,-1.5809304E-1,2.8871557E-1,5.8952212E-2,1.7024875E-1,-5.5046823E-2,-4.099152E-1],"split_indices":[10,16,24,0,69,11,22,66,0,24,36,11,24,0,25,54,19,50,11,36,0,36,69,22,0,24,0,5,50,0,0,0,0,0,0,0,0,0,0,0,0,0,0,0,0,0,0,0,0,0,0,0,0],"split_type":[0,0,0,0,0,0,0,0,0,0,0,0,0,0,0,0,0,0,0,0,0,0,0,0,0,0,0,0,0,0,0,0,0,0,0,0,0,0,0,0,0,0,0,0,0,0,0,0,0,0,0,0,0],"sum_hessian":[2.861E3,1.609E3,1.252E3,3.13E2,1.296E3,2.02E2,1.05E3,3.12E2,1E0,1.057E3,2.39E2,1.7E2,3.2E1,8E0,1.042E3,7.7E1,2.35E2,1.051E3,6E0,2.34E2,5E0,1.53E2,1.7E1,2.4E1,8E0,4E0,4E0,9.64E2,7.8E1,7.2E1,5E0,2.29E2,6E0,8.24E2,2.27E2,2E0,4E0,1.79E2,5.5E1,2E0,3E0,1.52E2,1E0,9E0,8E0,2.1E1,3E0,2E0,2E0,6.59E2,3.05E2,7E1,8E0],"tree_param":{"num_deleted":"0","num_feature":"73","num_nodes":"53","size_leaf_vector":"1"}},{"base_weights":[7.9370074E-2,-3.465595E-1,6.315692E-1,7.682453E-2,-4.6864814E-1,-5.171015E-1,8.623557E-1,2.4806295E-1,-2.0215733E0,-4.898133E-1,4.820181E0,-1.4436944E-1,-2.3955E0,6.969196E-1,2.3483334E0,1.4785728E0,6.3772336E-2,6.8346655E-1,-2.5260787E0,-7.5690466E-1,-1.9004306E-1,6.478014E-1,-8.555757E-2,3.024664E-1,-1.3508328E0,-1.5166484E0,-4.3430787E-1,5.786104E0,6.5715843E-1,-9.634894E-1,3.6785574E0,-1.5876152E-2,3.767024E-1,4.4015074E-1,-4.339345E-3,-1.2360597E-1,1.4973632E-1,-3.3942032E-1,-1.5895058E-1,-8.0671996E-2,1.1424839E-1,1.8214054E-2,-8.862979E-2,-1.7899154E-2,3.233461E-1,-9.784179E-2,-5.08469E-1,-2.035872E-1,2.9362828E-1,7.48089E-1,-2.1413067E-1,5.4925483E-2,2.5531417E-1,3.7239808E-1,-1.8317148E-1,5.0499076E-1,2.6543224E-2],"categories":[],"categories_nodes":[],"categories_segments":[],"categories_sizes":[],"default_left":[0,0,0,0,0,0,0,0,0,0,0,0,0,0,0,0,0,0,0,0,0,0,0,0,0,0,0,0,0,0,0,0,0,0,0,0,0,0,0,0,0,0,0,0,0,0,0,0,0,0,0,0,0,0,0,0,0],"id":16,"left_children":[1,3,5,7,9,11,13,15,17,19,21,23,25,27,29,31,33,35,37,39,41,-1,-1,43,45,47,-1,49,51,53,55,-1,-1,-1,-1,-1,-1,-1,-1,-1,-1,-1,-1,-1,-1,-1,-1,-1,-1,-1,-1,-1,-1,-1,-1,-1,-1],"loss_changes":[6.632704E2,8.236626E1,3.260204E2,1.2860364E2,1.402846E2,1.4362886E2,2.4954736E2,7.481282E1,3.8757843E1,9.84028E1,5.3151962E1,9.377618E1,5.10226E1,1.821217E2,4.5317328E2,1.6207812E2,1.349704E2,9.688438E0,1.2806961E1,6.248474E1,1.510482E2,0E0,0E0,1.8010034E2,5.9774315E1,6.3689533E1,0E0,1.10599686E2,1.8568585E2,1.2872546E2,3.3981116E2,0E0,0E0,0E0,0E0,0E0,0E0,0E0,0E0,0E0,0E0,0E0,0E0,0E0,0E0,0E0,0E0,0E0,0E0,0E0,0E0,0E0,0E0,0E0,0E0,0E0,0E0],"parents":[2147483647,0,0,1,1,2,2,3,3,4,4,5,5,6,6,7,7,8,8,9,9,10,10,11,11,12,12,13,13,14,14,15,15,16,16,17,17,18,18,19,19,20,20,23,23,24,24,25,25,27,27,28,28,29,29,30,30],"right_children":[2,4,6,8,10,12,14,16,18,20,22,24,26,28,30,32,34,36,38,40,42,-1,-1,44,46,48,-1,50,52,54,56,-1,-1,-1,-1,-1,-1,-1,-1,-1,-1,-1,-1,-1,-1,-1,-1,-1,-1,-1,-1,-1,-1,-1,-1,-1,-1],"split_conditions":[3.25E0,4E0,-8.9101326E-1,6.4666667E0,2.57E1,8.229167E-1,1.6666667E-1,8.888889E-1,-1.3747895E0,3E0,3.1666666E1,7.294137E-1,-1.1188096E0,8.4444445E-1,9.071428E0,2.1929824E-1,-1.4048494E-1,6.666667E-1,2.125E0,2.3076923E-1,2.023E3,6.478014E-1,-8.555757E-2,6.4911014E-1,5.263158E-1,9.5555556E-1,-4.3430787E-1,1.7E1,1.9E1,5.05E0,1.6E1,-1.5876152E-2,3.767024E-1,4.4015074E-1,-4.339345E-3,-1.2360597E-1,1.4973632E-1,-3.3942032E-1,-1.5895058E-1,-8.0671996E-2,1.1424839E-1,1.8214054E-2,-8.862979E-2,-1.7899154E-2,3.233461E-1,-9.784179E-2,-5.08469E-1,-2.035872E-1,2.9362828E-1,7.48089E-1,-2.1413067E-1,5.4925483E-2,2.5531417E-1,3.7239808E-1,-1.8317148E-1,5.0499076E-1,2.6543224E-2],"split_indices":[10,44,24,0,36,11,7,22,24,25,5,16,24,22,71,50,16,4,6,19,43,0,0,16,50,22,0,44,44,0,44,0,0,0,0,0,0,0,0,0,0,0,0,0,0,0,0,0,0,0,0,0,0,0,0,0,0],"split_type":[0,0,0,0,0,0,0,0,0,0,0,0,0,0,0,0,0,0,0,0,0,0,0,0,0,0,0,0,0,0,0,0,0,0,0,0,0,0,0,0,0,0,0,0,0,0,0,0,0,0,0,0,0,0,0,0,0],"sum_hessian":[2.818E3,1.591E3,1.227E3,3.56E2,1.235E3,2.05E2,1.022E3,3.3E2,2.6E1,1.231E3,4E0,1.72E2,3.3E1,9.21E2,1.01E2,4.2E1,2.88E2,4E0,2.2E1,6.5E2,5.81E2,3E0,1E0,1.26E2,4.6E1,2.4E1,9E0,6E0,9.15E2,2.9E1,7.2E1,2.5E1,1.7E1,6E0,2.82E2,1E0,3E0,1E1,1.2E1,6.34E2,1.6E1,3.79E2,2.02E2,1.09E2,1.7E1,4.3E1,3E0,2.2E1,2E0,5E0,1E0,8.67E2,4.8E1,4E0,2.5E1,5.1E1,2.1E1],"tree_param":{"num_deleted":"0","num_feature":"73","num_nodes":"57","size_leaf_vector":"1"}},{"base_weights":[-4.2170882E-2,-2.2450474E-1,1.115452E0,4.679459E0,-2.445355E-1,6.755973E-1,3.6936035E0,-2.0491457E-1,5.665876E0,-2.7467325E-1,2.932764E0,1.676804E0,-1.6284357E-1,5.4827952E0,-7.391766E-2,6.600148E-1,2.8229994E-1,-6.774902E-1,-1.2317516E-1,1.0419529E1,8.029436E-1,6.4392674E-1,3.9464912E0,-5.410198E-1,3.2862532E0,2.5568624E0,8.268893E0,4.549919E0,-2.057425E0,-6.9713436E-2,3.8301748E-1,-7.211602E-3,-1.7644174E-1,1.3053942E0,-9.06105E-4,2.6398835E-1,-2.7089366E-1,2.3747155E-2,8.705536E-1,5.5958676E-1,-3.3388626E-2,-1.33695E-1,8.592086E-2,8.447332E-2,8.011837E-1,4.895792E-1,-8.346954E-2,9.755641E-1,-2.8789708E-1,5.646479E-1,-4.1643973E-2,-2.956833E-2,-2.992206E-1],"categories":[],"categories_nodes":[],"categories_segments":[],"categories_sizes":[],"default_left":[0,0,0,0,0,0,0,0,0,0,0,0,0,0,0,0,0,0,0,0,0,0,0,0,0,0,0,0,0,0,0,0,0,0,0,0,0,0,0,0,0,0,0,0,0,0,0,0,0,0,0,0,0],"id":17,"left_children":[1,3,5,7,9,11,13,-1,15,17,19,21,23,25,27,-1,-1,29,31,33,35,37,39,41,43,45,47,49,51,-1,-1,-1,-1,-1,-1,-1,-1,-1,-1,-1,-1,-1,-1,-1,-1,-1,-1,-1,-1,-1,-1,-1,-1],"loss_changes":[5.987668E2,2.4146292E2,4.3479642E2,7.834396E1,2.3437752E2,2.7828326E2,3.78432E2,0E0,4.329651E0,1.4751942E2,3.5725714E2,3.5099026E2,2.375937E2,2.8754858E2,1.8336876E2,0E0,0E0,6.088791E1,1.4717784E2,1.3878888E2,1.2971553E2,3.4109012E2,3.3421234E2,1.8397191E2,2.0002342E2,1.6314491E2,3.436808E2,3.554989E1,2.1842262E1,0E0,0E0,0E0,0E0,0E0,0E0,0E0,0E0,0E0,0E0,0E0,0E0,0E0,0E0,0E0,0E0,0E0,0E0,0E0,0E0,0E0,0E0,0E0,0E0],"parents":[2147483647,0,0,1,1,2,2,3,3,4,4,5,5,6,6,8,8,9,9,10,10,11,11,12,12,13,13,14,14,17,17,18,18,19,19,20,20,21,21,22,22,23,23,24,24,25,25,26,26,27,27,28,28],"right_children":[2,4,6,8,10,12,14,-1,16,18,20,22,24,26,28,-1,-1,30,32,34,36,38,40,42,44,46,48,50,52,-1,-1,-1,-1,-1,-1,-1,-1,-1,-1,-1,-1,-1,-1,-1,-1,-1,-1,-1,-1,-1,-1,-1,-1],"split_conditions":[6.25E0,-3.75E-1,2.7E1,-8.3708304E-1,1.42E1,3.8333333E-1,3.3333334E-1,-2.0491457E-1,6E0,1.2232323E1,3E0,7.1031743E-1,1.25E-1,-7.5E0,4E0,6.600148E-1,2.8229994E-1,1.6E1,1.3166667E1,1.2E0,8.387446E-1,3.8E-1,2.4E1,8.25E0,2.525E1,1.0666667E0,7.3333335E-1,1.00666664E2,3.3846727E-1,-6.9713436E-2,3.8301748E-1,-7.211602E-3,-1.7644174E-1,1.3053942E0,-9.06105E-4,2.6398835E-1,-2.7089366E-1,2.3747155E-2,8.705536E-1,5.5958676E-1,-3.3388626E-2,-1.33695E-1,8.592086E-2,8.447332E-2,8.011837E-1,4.895792E-1,-8.346954E-2,9.755641E-1,-2.8789708E-1,5.646479E-1,-4.1643973E-2,-2.956833E-2,-2.992206E-1],"split_indices":[10,70,51,24,0,12,41,0,39,72,37,11,7,53,66,0,0,53,18,21,11,12,51,10,51,22,69,5,16,0,0,0,0,0,0,0,0,0,0,0,0,0,0,0,0,0,0,0,0,0,0,0,0],"split_type":[0,0,0,0,0,0,0,0,0,0,0,0,0,0,0,0,0,0,0,0,0,0,0,0,0,0,0,0,0,0,0,0,0,0,0,0,0,0,0,0,0,0,0,0,0,0,0,0,0,0,0,0,0],"sum_hessian":[2.835E3,2.45E3,3.85E2,9E0,2.441E3,3.3E2,5.5E1,1E0,8E0,2.419E3,2.2E1,1.5E2,1.8E2,3.7E1,1.8E1,5E0,3E0,6.6E2,1.759E3,4E0,1.8E1,1.04E2,4.6E1,1.63E2,1.7E1,1.9E1,1.8E1,5E0,1.3E1,6.58E2,2E0,1.707E3,5.2E1,3E0,1E0,1.2E1,6E0,1E2,4E0,3.3E1,1.3E1,1.04E2,5.9E1,1.2E1,5E0,1.1E1,8E0,1.6E1,2E0,4E0,1E0,5E0,8E0],"tree_param":{"num_deleted":"0","num_feature":"73","num_nodes":"53","size_leaf_vector":"1"}},{"base_weights":[4.5109164E-2,-3.0797312E-1,4.8264307E-1,7.523828E-2,-4.7945926E-1,3.7939733E-1,2.7734907E0,4.093518E-2,8.391879E-1,-4.2296153E-1,-2.2288017E0,-1.3526359E-1,8.1822515E-1,3.7665527E0,-7.169056E-1,-2.8950208E-1,6.326784E-1,-2.1899848E-1,-7.784138E-1,-2.4090695E0,1.810017E-1,8.314472E-1,-5.329494E-1,9.498684E-1,-2.5700393E0,2.3366683E0,6.87885E0,-2.4887326E0,2.5957642E0,5.9886843E-2,-7.76306E-2,-7.735122E-2,1.2622505E-1,3.1027189E-2,-4.324327E-2,-7.038286E-2,-3.254795E-1,3.6969967E-2,-2.5105843E-1,-7.5073384E-2,2.0062199E-1,-9.357035E-2,1.6118908E-2,3.1704673E-1,7.430954E-2,7.3471814E-3,-4.0678564E-1,3.3387396E-1,-1.5616815E-1,9.234316E-1,2.5750867E-1,-7.823037E-2,-3.1948966E-1,7.996465E-2,3.4932935E-1],"categories":[],"categories_nodes":[],"categories_segments":[],"categories_sizes":[],"default_left":[0,0,0,0,0,0,0,0,0,0,0,0,0,0,0,0,0,0,0,0,0,0,0,0,0,0,0,0,0,0,0,0,0,0,0,0,0,0,0,0,0,0,0,0,0,0,0,0,0,0,0,0,0,0,0],"id":18,"left_children":[1,3,5,7,9,11,13,15,-1,17,19,21,23,25,27,29,31,33,35,37,-1,39,41,43,45,47,49,51,53,-1,-1,-1,-1,-1,-1,-1,-1,-1,-1,-1,-1,-1,-1,-1,-1,-1,-1,-1,-1,-1,-1,-1,-1,-1,-1],"loss_changes":[4.4276697E2,1.0430119E2,3.013784E2,1.3888892E2,1.0711406E2,2.7706805E2,1.9364514E2,9.6029144E1,0E0,7.679637E1,2.9174683E1,2.1762592E2,2.9755908E2,1.743645E2,8.275267E1,1.3670825E2,1.5683777E2,7.662329E1,6.8792725E1,1.0451096E1,0E0,3.0831766E2,1.12334694E2,2.9019666E2,9.96857E1,1.2649089E2,1.06825745E2,7.9480667E0,4.8376503E0,0E0,0E0,0E0,0E0,0E0,0E0,0E0,0E0,0E0,0E0,0E0,0E0,0E0,0E0,0E0,0E0,0E0,0E0,0E0,0E0,0E0,0E0,0E0,0E0,0E0,0E0],"parents":[2147483647,0,0,1,1,2,2,3,3,4,4,5,5,6,6,7,7,9,9,10,10,11,11,12,12,13,13,14,14,15,15,16,16,17,17,18,18,19,19,21,21,22,22,23,23,24,24,25,25,26,26,27,27,28,28],"right_children":[2,4,6,8,10,12,14,16,-1,18,20,22,24,26,28,30,32,34,36,38,-1,40,42,44,46,48,50,52,54,-1,-1,-1,-1,-1,-1,-1,-1,-1,-1,-1,-1,-1,-1,-1,-1,-1,-1,-1,-1,-1,-1,-1,-1,-1,-1],"split_conditions":[9E0,5E0,1.1666666E0,2.3937087E0,2.094547E0,2.074074E0,2E-1,2.2058824E-1,8.391879E-1,7.15625E0,3.625E0,1.25E-1,6E0,1.1E1,3.75E-1,2.022E3,5.4166665E0,2.626241E-1,3.3333334E-1,1.1555556E0,1.810017E-1,9.4375E0,3E0,4.965517E0,1.17E1,7E0,-2.5E0,5.259975E-1,6.125E0,5.9886843E-2,-7.76306E-2,-7.735122E-2,1.2622505E-1,3.1027189E-2,-4.324327E-2,-7.038286E-2,-3.254795E-1,3.6969967E-2,-2.5105843E-1,-7.5073384E-2,2.0062199E-1,-9.357035E-2,1.6118908E-2,3.1704673E-1,7.430954E-2,7.3471814E-3,-4.0678564E-1,3.3387396E-1,-1.5616815E-1,9.234316E-1,2.5750867E-1,-7.823037E-2,-3.1948966E-1,7.996465E-2,3.4932935E-1],"split_indices":[36,44,22,52,24,47,17,50,0,40,10,4,65,44,4,43,71,16,9,22,0,71,53,40,36,44,53,16,10,0,0,0,0,0,0,0,0,0,0,0,0,0,0,0,0,0,0,0,0,0,0,0,0,0,0],"split_type":[0,0,0,0,0,0,0,0,0,0,0,0,0,0,0,0,0,0,0,0,0,0,0,0,0,0,0,0,0,0,0,0,0,0,0,0,0,0,0,0,0,0,0,0,0,0,0,0,0,0,0,0,0,0,0],"sum_hessian":[2.864E3,1.585E3,1.279E3,4.9E2,1.095E3,1.225E3,5.4E1,4.89E2,1E0,1.062E3,3.3E1,5.64E2,6.61E2,4.2E1,1.2E1,3.14E2,1.75E2,6.76E2,3.86E2,3.2E1,1E0,1.64E2,4E2,6.37E2,2.4E1,3E1,1.2E1,8E0,4E0,1.11E2,2.03E2,5.4E1,1.21E2,1.94E2,4.82E2,3.76E2,1E1,1E0,3.1E1,7E1,9.4E1,2.53E2,1.47E2,5.3E1,5.84E2,9E0,1.5E1,2.4E1,6E0,7E0,5E0,3E0,5E0,2E0,2E0],"tree_param":{"num_deleted":"0","num_feature":"73","num_nodes":"55","size_leaf_vector":"1"}},{"base_weights":[4.9006276E-2,-1.2300772E-1,1.1224686E0,-4.760173E-1,7.8079835E-2,2.1100965E0,4.8097414E-1,5.014247E0,-5.0664544E-1,2.5636983E-1,-6.407608E-1,9.84476E-1,4.899501E0,1.1293142E-2,3.7493753E0,1.9841015E-1,8.125335E-1,-7.896299E-2,-8.3024E-1,-1.3373758E0,3.7535566E-1,-3.5261253E-1,-1.3625369E0,2.712871E0,-1.2557969E0,6.2381625E0,-9.884233E-1,-4.2123336E-1,2.7288287E0,-2.5438945E0,5.1137853E0,1.3666931E-1,-1.0190778E-1,-1.7187547E-2,4.9087587E-1,-3.294904E-1,-7.630896E-2,-2.0624065E-1,-5.0907105E-2,3.1594526E-2,3.5891712E-1,-6.8408206E-2,1.7993109E-1,-7.52102E-2,-2.5750735E-1,1.2350259E-1,7.78997E-1,-2.571518E-1,1.1474744E-1,2.3912716E-1,8.0578053E-1,2.6613152E-1,-4.4604775E-1,-1.6473153E-1,4.3318678E-2,-4.6860244E-2,9.8974097E-1,-2.99453E-1,-9.535904E-3,7.2193336E-1,-2.5042236E-2],"categories":[],"categories_nodes":[],"categories_segments":[],"categories_sizes":[],"default_left":[0,0,0,0,0,0,0,0,0,0,0,0,0,0,0,0,0,0,0,0,0,0,0,0,0,0,0,0,0,0,0,0,0,0,0,0,0,0,0,0,0,0,0,0,0,0,0,0,0,0,0,0,0,0,0,0,0,0,0,0,0],"id":19,"left_children":[1,3,5,7,9,11,13,15,17,19,21,23,25,27,29,31,-1,33,35,37,39,41,43,45,47,49,51,53,55,57,59,-1,-1,-1,-1,-1,-1,-1,-1,-1,-1,-1,-1,-1,-1,-1,-1,-1,-1,-1,-1,-1,-1,-1,-1,-1,-1,-1,-1,-1,-1],"loss_changes":[5.240916E2,1.7370831E2,2.4708066E2,1.5141287E2,1.9993053E2,4.7811902E2,3.6647192E2,7.2467926E1,1.2218535E2,2.374472E2,6.382138E1,4.3335306E2,3.5349634E2,2.4821553E2,2.7086386E2,5.6946387E0,0E0,1.7739703E2,8.032803E1,5.0940506E1,2.2072272E2,1.601846E2,6.2865936E1,4.6217612E2,1.580329E2,2.316853E2,1.2609945E2,1.9149622E2,6.702911E2,6.025833E0,2.8486975E2,0E0,0E0,0E0,0E0,0E0,0E0,0E0,0E0,0E0,0E0,0E0,0E0,0E0,0E0,0E0,0E0,0E0,0E0,0E0,0E0,0E0,0E0,0E0,0E0,0E0,0E0,0E0,0E0,0E0,0E0],"parents":[2147483647,0,0,1,1,2,2,3,3,4,4,5,5,6,6,7,7,8,8,9,9,10,10,11,11,12,12,13,13,14,14,15,15,17,17,18,18,19,19,20,20,21,21,22,22,23,23,24,24,25,25,26,26,27,27,28,28,29,29,30,30],"right_children":[2,4,6,8,10,12,14,16,18,20,22,24,26,28,30,32,-1,34,36,38,40,42,44,46,48,50,52,54,56,58,60,-1,-1,-1,-1,-1,-1,-1,-1,-1,-1,-1,-1,-1,-1,-1,-1,-1,-1,-1,-1,-1,-1,-1,-1,-1,-1,-1,-1,-1,-1],"split_conditions":[6.25E0,5.671642E-1,1.1833333E1,4.75E-1,1E0,7.1031743E-1,1.25E-1,1.4285715E-1,2.022E3,8.333333E-1,5.05E0,6.226686E-1,4.5454547E-2,9.666667E0,7.416667E-1,4.4E0,8.125335E-1,2.1054611E0,1.0425156E1,1E0,4.625E0,3.3333333E0,7E0,7.496547E-1,1E0,1.01E1,1E0,6.0714287E-1,3E0,2E-1,1.6E1,1.3666931E-1,-1.0190778E-1,-1.7187547E-2,4.9087587E-1,-3.294904E-1,-7.630896E-2,-2.0624065E-1,-5.0907105E-2,3.1594526E-2,3.5891712E-1,-6.8408206E-2,1.7993109E-1,-7.52102E-2,-2.5750735E-1,1.2350259E-1,7.78997E-1,-2.571518E-1,1.1474744E-1,2.3912716E-1,8.0578053E-1,2.6613152E-1,-4.4604775E-1,-1.6473153E-1,4.3318678E-2,-4.6860244E-2,9.8974097E-1,-2.99453E-1,-9.535904E-3,7.2193336E-1,-2.5042236E-2],"split_indices":[48,69,0,31,16,11,42,4,43,22,0,11,19,48,31,0,0,52,72,13,6,0,39,52,20,0,22,69,53,17,66,0,0,0,0,0,0,0,0,0,0,0,0,0,0,0,0,0,0,0,0,0,0,0,0,0,0,0,0,0,0],"split_type":[0,0,0,0,0,0,0,0,0,0,0,0,0,0,0,0,0,0,0,0,0,0,0,0,0,0,0,0,0,0,0,0,0,0,0,0,0,0,0,0,0,0,0,0,0,0,0,0,0,0,0,0,0,0,0,0,0,0,0,0,0],"sum_hessian":[2.836E3,2.445E3,3.91E2,8.87E2,1.558E3,1.53E2,2.38E2,4E0,8.83E2,1.249E3,3.09E2,1.1E2,4.3E1,2.09E2,2.9E1,2E0,2E0,3.81E2,5.02E2,8.6E1,1.163E3,2.22E2,8.7E1,6.2E1,4.8E1,3.5E1,8E0,1.81E2,2.8E1,5E0,2.4E1,1E0,1E0,3.75E2,6E0,1.2E1,4.9E2,4.5E1,4.1E1,1.143E3,2E1,1.93E2,2.9E1,5.9E1,2.8E1,4.9E1,1.3E1,3.1E1,1.7E1,1.2E1,2.3E1,4E0,4E0,7.4E1,1.07E2,2E1,8E0,4E0,1E0,1.7E1,7E0],"tree_param":{"num_deleted":"0","num_feature":"73","num_nodes":"61","size_leaf_vector":"1"}},{"base_weights":[-3.0189462E-2,-1.5697509E-1,8.0178237E-1,-1.305271E-1,-2.7460058E0,6.116726E-1,4.5644407E0,-1.4926504E-1,4.9716687E0,-4.2882743E0,-9.848137E-1,1.7574435E-1,1.8649307E0,6.6987014E0,-2.3043764E0,-3.0657345E-1,2.819073E-1,8.968096E-1,1.4621063E0,-9.484243E-2,-4.4792266E0,-2.2031677E0,2.2822745E-1,-1.1520381E0,7.443932E-1,6.8011456E0,1.2538941E0,7.938469E0,-4.5993626E-1,5.6202956E-2,-3.1864852E-1,-4.995491E-2,1.8445645E-2,8.628264E-3,3.13266E-1,2.8990218E-1,-2.8112358E-1,-4.6708417E-1,-1.1357281E-1,-3.8410997E-1,1.1890055E-1,5.2456886E-2,-2.150524E-1,1.4438759E-1,-9.408756E-2,1.3151664E0,2.1864004E-1,-3.193531E-2,2.626694E-1,1.0319313E0,2.5214264E-1,-8.735382E-2,1.3363381E-2],"categories":[],"categories_nodes":[],"categories_segments":[],"categories_sizes":[],"default_left":[0,0,0,0,0,0,0,0,0,0,0,0,0,0,0,0,0,0,0,0,0,0,0,0,0,0,0,0,0,0,0,0,0,0,0,0,0,0,0,0,0,0,0,0,0,0,0,0,0,0,0,0,0],"id":20,"left_children":[1,3,5,7,9,11,13,15,17,19,21,23,25,27,29,31,33,-1,35,-1,37,39,-1,41,43,45,47,49,51,-1,-1,-1,-1,-1,-1,-1,-1,-1,-1,-1,-1,-1,-1,-1,-1,-1,-1,-1,-1,-1,-1,-1,-1],"loss_changes":[3.0152914E2,1.6923962E2,2.6708072E2,2.3516057E2,6.315532E1,1.9669354E2,2.7975293E2,1.6619728E2,1.1207608E2,3.4998016E0,5.6766434E1,2.039231E2,2.7117395E2,1.2864972E2,1.4695755E1,1.7021211E2,3.6468658E2,0E0,4.5001198E1,0E0,1.8025055E0,6.039379E1,0E0,1.3689021E2,2.2420505E2,2.6277158E2,1.824889E2,1.27462036E2,9.2722976E-1,0E0,0E0,0E0,0E0,0E0,0E0,0E0,0E0,0E0,0E0,0E0,0E0,0E0,0E0,0E0,0E0,0E0,0E0,0E0,0E0,0E0,0E0,0E0,0E0],"parents":[2147483647,0,0,1,1,2,2,3,3,4,4,5,5,6,6,7,7,8,8,9,9,10,10,11,11,12,12,13,13,14,14,15,15,16,16,18,18,20,20,21,21,23,23,24,24,25,25,26,26,27,27,28,28],"right_children":[2,4,6,8,10,12,14,16,18,20,22,24,26,28,30,32,34,-1,36,-1,38,40,-1,42,44,46,48,50,52,-1,-1,-1,-1,-1,-1,-1,-1,-1,-1,-1,-1,-1,-1,-1,-1,-1,-1,-1,-1,-1,-1,-1,-1],"split_conditions":[1.74E1,6E0,1.1777778E0,8.666667E0,3.602941E-1,1.25E0,1.4302083E1,1E0,7.6056343E-1,8.4444445E-1,1.0111111E0,9.6666664E-1,2.4285715E0,2.22895E0,5.4814816E-1,1E0,4.725E1,8.968096E-1,5.25E0,-9.484243E-2,4E0,6.785714E0,2.2822745E-1,2.844545E-1,1E0,2.289308E0,2.2413793E0,1E0,7.3E1,5.6202956E-2,-3.1864852E-1,-4.995491E-2,1.8445645E-2,8.628264E-3,3.13266E-1,2.8990218E-1,-2.8112358E-1,-4.6708417E-1,-1.1357281E-1,-3.8410997E-1,1.1890055E-1,5.2456886E-2,-2.150524E-1,1.4438759E-1,-9.408756E-2,1.3151664E0,2.1864004E-1,-3.193531E-2,2.626694E-1,1.0319313E0,2.5214264E-1,-8.735382E-2,1.3363381E-2],"split_indices":[36,6,22,10,50,18,71,28,16,22,22,22,18,52,11,20,5,0,6,0,25,40,0,16,20,47,47,28,5,0,0,0,0,0,0,0,0,0,0,0,0,0,0,0,0,0,0,0,0,0,0,0,0],"split_type":[0,0,0,0,0,0,0,0,0,0,0,0,0,0,0,0,0,0,0,0,0,0,0,0,0,0,0,0,0,0,0,0,0,0,0,0,0,0,0,0,0,0,0,0,0,0,0,0,0,0,0,0,0],"sum_hessian":[2.857E3,2.48E3,3.77E2,2.456E3,2.4E1,3.6E2,1.7E1,2.448E3,8E0,1.2E1,1.2E1,2.68E2,9.2E1,1.3E1,4E0,1.794E3,6.54E2,3E0,5E0,1E0,1.1E1,9E0,3E0,8E1,1.88E2,9E0,8.3E1,1.1E1,2E0,1E0,3E0,1.288E3,5.06E2,6.13E2,4.1E1,4E0,1E0,1E1,1E0,6E0,3E0,3E1,5E1,1.33E2,5.5E1,3E0,6E0,3.9E1,4.4E1,7E0,4E0,1E0,1E0],"tree_param":{"num_deleted":"0","num_feature":"73","num_nodes":"53","size_leaf_vector":"1"}},{"base_weights":[2.1515906E-2,-2.4008602E-1,6.666837E-1,-1.0591469E0,-1.8412037E-1,6.216709E-1,6.6531434E0,-4.4116756E-1,-2.0907128E0,1.5782954E0,-2.1050684E-1,3.849507E-2,9.926111E-1,1.7940252E-1,8.6091965E-1,-5.9861755E-1,2.7537618E0,-2.7553437E0,2.1814604E0,3.1951058E0,-5.253401E-1,-1.7713815E-1,-1.4692671E0,3.0713573E-1,-1.2786951E0,7.272515E-1,3.0311432E0,-9.088921E-2,1.03884496E-1,7.232124E-2,3.1562075E-1,1.7351625E-2,-2.987654E-1,-1.2851954E-1,3.8451618E-1,1.5770977E-2,5.5288905E-1,-3.085604E-1,5.4129954E-2,-1.9222965E-2,3.7447342E-1,3.6829433E-1,-1.7755143E-1,1.4752026E-1,-4.8880368E-3,-1.852314E-1,1.4204597E-1,2.5278273E-1,4.2101383E-2,6.56462E-1,2.5938341E-2],"categories":[],"categories_nodes":[],"categories_segments":[],"categories_sizes":[],"default_left":[0,0,0,0,0,0,0,0,0,0,0,0,0,0,0,0,0,0,0,0,0,0,0,0,0,0,0,0,0,0,0,0,0,0,0,0,0,0,0,0,0,0,0,0,0,0,0,0,0,0,0],"id":21,"left_children":[1,3,5,7,9,11,13,15,17,19,21,23,25,-1,-1,27,29,31,33,35,37,39,41,43,45,47,49,-1,-1,-1,-1,-1,-1,-1,-1,-1,-1,-1,-1,-1,-1,-1,-1,-1,-1,-1,-1,-1,-1,-1,-1],"loss_changes":[4.796986E2,9.236769E1,2.1609967E2,8.1060196E1,8.827389E1,1.761622E2,4.0542725E1,4.2682343E1,1.4236014E2,9.717851E1,7.799502E1,1.12820145E2,2.6680994E2,0E0,0E0,4.106818E1,5.981922E-1,2.937677E1,4.557014E1,1.1197742E2,3.7426094E1,1.0808477E2,8.2085144E1,1.10415146E2,8.6281784E1,2.4236148E2,5.5586993E2,0E0,0E0,0E0,0E0,0E0,0E0,0E0,0E0,0E0,0E0,0E0,0E0,0E0,0E0,0E0,0E0,0E0,0E0,0E0,0E0,0E0,0E0,0E0,0E0],"parents":[2147483647,0,0,1,1,2,2,3,3,4,4,5,5,6,6,7,7,8,8,9,9,10,10,11,11,12,12,15,15,16,16,17,17,18,18,19,19,20,20,21,21,22,22,23,23,24,24,25,25,26,26],"right_children":[2,4,6,8,10,12,14,16,18,20,22,24,26,-1,-1,28,30,32,34,36,38,40,42,44,46,48,50,-1,-1,-1,-1,-1,-1,-1,-1,-1,-1,-1,-1,-1,-1,-1,-1,-1,-1,-1,-1,-1,-1,-1,-1],"split_conditions":[4.5E0,-1.437425E0,1.1E1,7.5E0,-1.3747895E0,-8.291901E-2,4.7875E1,4.925E0,6.511628E-1,1.2270098E1,2.094547E0,8.7179494E-1,1.6666667E-1,1.7940252E-1,8.6091965E-1,3.7878788E-1,4.975E0,-1.4048494E-1,9.5E0,1.6E0,1.775E1,2.525284E0,1.5E0,1.08E1,7.375E0,5.873016E-1,6E0,-9.088921E-2,1.03884496E-1,7.232124E-2,3.1562075E-1,1.7351625E-2,-2.987654E-1,-1.2851954E-1,3.8451618E-1,1.5770977E-2,5.5288905E-1,-3.085604E-1,5.4129954E-2,-1.9222965E-2,3.7447342E-1,3.6829433E-1,-1.7755143E-1,1.4752026E-1,-4.8880368E-3,-1.852314E-1,1.4204597E-1,2.5278273E-1,4.2101383E-2,6.56462E-1,2.5938341E-2],"split_indices":[10,24,39,36,24,52,5,0,17,72,24,16,42,0,0,50,0,16,36,10,5,52,54,36,10,11,39,0,0,0,0,0,0,0,0,0,0,0,0,0,0,0,0,0,0,0,0,0,0,0,0],"split_type":[0,0,0,0,0,0,0,0,0,0,0,0,0,0,0,0,0,0,0,0,0,0,0,0,0,0,0,0,0,0,0,0,0,0,0,0,0,0,0,0,0,0,0,0,0,0,0,0,0,0,0],"sum_hessian":[2.84E3,2.021E3,8.19E2,1.28E2,1.893E3,8.14E2,5E0,8.1E1,4.7E1,2.7E1,1.866E3,3.17E2,4.97E2,2E0,3E0,7.8E1,3E0,4.1E1,6E0,1.5E1,1.2E1,1.819E3,4.7E1,2.64E2,5.3E1,4.41E2,5.6E1,6.6E1,1.2E1,1E0,2E0,3E0,3.8E1,2E0,4E0,7E0,8E0,3E0,9E0,1.813E3,6E0,2E0,4.5E1,6.1E1,2.03E2,4.4E1,9E0,6.3E1,3.78E2,2.4E1,3.2E1],"tree_param":{"num_deleted":"0","num_feature":"73","num_nodes":"51","size_leaf_vector":"1"}},{"base_weights":[3.670454E-2,-8.154687E-2,1.0674567E0,-3.6856422E-1,5.9504304E-2,1.620836E0,-5.465536E-1,-3.87174E-1,7.535297E-1,5.830869E-1,-1.2582089E-1,3.5059907E0,9.741836E-1,6.993523E0,-1.0712554E0,-2.1194349E-1,-9.072079E-1,5.1916635E-1,7.475537E0,-2.0627496E0,-1.4949486E-2,1.7511673E0,6.4843736E0,5.9166306E-1,5.729929E0,1.6892316E0,9.9333066E-1,-1.6608151E0,3.1635792E0,-2.5266817E-2,2.953121E-1,-6.389075E-2,-1.9026388E-1,-1.9361146E-2,1.1258087E-1,2.0464437E-1,8.569754E-1,-6.266388E-2,-3.3960357E-1,1.1103566E-2,-9.690605E-2,6.351982E-2,8.5231364E-1,1.0166974E0,-2.9789835E-2,-7.5823455E-3,3.8331679E-1,1.2879728E0,1.9044706E-1,3.4401435E-2,2.1398333E-1,-2.1018396E-1,2.1533576E-1,6.700748E-1,2.6153704E-2],"categories":[],"categories_nodes":[],"categories_segments":[],"categories_sizes":[],"default_left":[0,0,0,0,0,0,0,0,0,0,0,0,0,0,0,0,0,0,0,0,0,0,0,0,0,0,0,0,0,0,0,0,0,0,0,0,0,0,0,0,0,0,0,0,0,0,0,0,0,0,0,0,0,0,0],"id":22,"left_children":[1,3,5,7,9,11,13,15,-1,17,19,21,23,25,27,29,31,33,35,37,39,41,43,45,47,49,-1,51,53,-1,-1,-1,-1,-1,-1,-1,-1,-1,-1,-1,-1,-1,-1,-1,-1,-1,-1,-1,-1,-1,-1,-1,-1,-1,-1],"loss_changes":[3.4464087E2,1.0272061E2,2.6090283E2,1.2516908E2,1.6517232E2,2.606682E2,3.0362155E2,7.578585E1,0E0,1.913728E2,2.6970218E2,2.7528076E2,2.9250244E2,6.002545E1,1.8236865E2,8.1165146E1,5.461589E1,1.9143253E2,5.1632843E0,1.2767239E2,1.4323595E2,2.657334E2,5.0354352E2,3.2954282E2,3.022076E2,8.3395195E-1,0E0,1.1049588E2,8.993639E1,0E0,0E0,0E0,0E0,0E0,0E0,0E0,0E0,0E0,0E0,0E0,0E0,0E0,0E0,0E0,0E0,0E0,0E0,0E0,0E0,0E0,0E0,0E0,0E0,0E0,0E0],"parents":[2147483647,0,0,1,1,2,2,3,3,4,4,5,5,6,6,7,7,9,9,10,10,11,11,12,12,13,13,14,14,15,15,16,16,17,17,18,18,19,19,20,20,21,21,22,22,23,23,24,24,25,25,27,27,28,28],"right_children":[2,4,6,8,10,12,14,16,-1,18,20,22,24,26,28,30,32,34,36,38,40,42,44,46,48,50,-1,52,54,-1,-1,-1,-1,-1,-1,-1,-1,-1,-1,-1,-1,-1,-1,-1,-1,-1,-1,-1,-1,-1,-1,-1,-1,-1,-1],"split_conditions":[1.2413557E1,1.2252441E1,7.6056343E-1,2.525284E0,6.226686E-1,1.3333334E-1,3.5333332E-1,3.5E0,7.535297E-1,5.576923E-1,6.4285713E-1,8.1666666E-1,5.222222E-1,1E0,6.25E-1,3.4E0,1.2244475E1,5.1428574E-1,3.4E0,1.07E1,1.2670211E0,9.6E0,1.6541145E0,1.4787757E0,6.9166666E-1,7.525E0,9.9333066E-1,1.05E1,3E0,-2.5266817E-2,2.953121E-1,-6.389075E-2,-1.9026388E-1,-1.9361146E-2,1.1258087E-1,2.0464437E-1,8.569754E-1,-6.266388E-2,-3.3960357E-1,1.1103566E-2,-9.690605E-2,6.351982E-2,8.5231364E-1,1.0166974E0,-2.9789835E-2,-7.5823455E-3,3.8331679E-1,1.2879728E0,1.9044706E-1,3.4401435E-2,2.1398333E-1,-2.1018396E-1,2.1533576E-1,6.700748E-1,2.6153704E-2],"split_indices":[72,72,16,52,11,41,12,36,0,50,11,31,50,13,41,36,72,11,0,36,52,37,52,24,31,0,0,10,44,0,0,0,0,0,0,0,0,0,0,0,0,0,0,0,0,0,0,0,0,0,0,0,0,0,0],"split_type":[0,0,0,0,0,0,0,0,0,0,0,0,0,0,0,0,0,0,0,0,0,0,0,0,0,0,0,0,0,0,0,0,0,0,0,0,0,0,0,0,0,0,0,0,0,0,0,0,0,0,0,0,0,0,0],"sum_hessian":[2.825E3,2.535E3,2.9E2,8.35E2,1.7E3,2.16E2,7.4E1,8.34E2,1E0,4.44E2,1.256E3,5.4E1,1.62E2,4E0,7E1,6.25E2,2.09E2,4.41E2,3E0,6.7E1,1.189E3,3.5E1,1.9E1,1.51E2,1.1E1,2E0,2E0,6.2E1,8E0,6.18E2,7E0,1.66E2,4.3E1,2.03E2,2.38E2,1E0,2E0,3.3E1,3.4E1,1.051E3,1.38E2,3.1E1,4E0,1.2E1,7E0,1.26E2,2.5E1,3E0,8E0,1E0,1E0,5.6E1,6E0,3E0,5E0],"tree_param":{"num_deleted":"0","num_feature":"73","num_nodes":"55","size_leaf_vector":"1"}},{"base_weights":[-7.675233E-3,-1.587518E-1,1.0253884E0,-1.1071432E-1,-1.2387482E0,8.83309E-1,5.5471168E0,-2.7469772E-1,2.831848E-1,-1.588167E0,3.2713292E0,-5.8817733E-2,1.489073E0,-3.347719E-1,7.906827E0,-4.7135317E-1,3.9737627E-2,1.9336486E-1,4.7211485E0,-2.3326492E0,2.2337997E-1,-1.7182964E0,6.6287637E0,-1.3047872E0,1.5029347E0,8.933176E-2,2.6519725E0,8.7887365E-1,3.7577696E-2,-4.935197E-2,4.231287E-1,-8.10766E-3,1.5076277E-1,1.3100281E-2,3.2147866E-1,2.3985855E-1,9.9029094E-1,-3.908372E-2,-2.9828715E-1,-1.1199623E-1,2.6546043E-1,-5.0181907E-2,-2.6338643E-1,7.8483117E-1,8.25287E-2,-6.5228425E-2,-4.0386477E-1,2.0677891E-1,-4.191146E-1,1.24861754E-1,-2.6539555E-1,7.890553E-1,2.3031051E-1],"categories":[],"categories_nodes":[],"categories_segments":[],"categories_sizes":[],"default_left":[0,0,0,0,0,0,0,0,0,0,0,0,0,0,0,0,0,0,0,0,0,0,0,0,0,0,0,0,0,0,0,0,0,0,0,0,0,0,0,0,0,0,0,0,0,0,0,0,0,0,0,0,0],"id":23,"left_children":[1,3,5,7,9,11,13,15,17,19,21,23,25,-1,27,29,31,33,35,37,39,41,43,45,47,49,51,-1,-1,-1,-1,-1,-1,-1,-1,-1,-1,-1,-1,-1,-1,-1,-1,-1,-1,-1,-1,-1,-1,-1,-1,-1,-1],"loss_changes":[4.5018692E2,1.3031067E2,2.3087653E2,1.5581047E2,1.7364897E2,2.0454355E2,2.5780734E2,1.05367615E2,2.812155E2,1.3559845E2,1.4589996E2,2.7631253E2,3.543403E2,0E0,5.5556213E1,1.1095918E2,1.1660123E2,1.3038599E2,1.4350638E2,8.814206E1,1.01105515E2,2.8197775E0,2.804361E1,1.3782088E2,2.110826E2,3.2119864E2,1.9828888E2,0E0,0E0,0E0,0E0,0E0,0E0,0E0,0E0,0E0,0E0,0E0,0E0,0E0,0E0,0E0,0E0,0E0,0E0,0E0,0E0,0E0,0E0,0E0,0E0,0E0,0E0],"parents":[2147483647,0,0,1,1,2,2,3,3,4,4,5,5,6,6,7,7,8,8,9,9,10,10,11,11,12,12,14,14,15,15,16,16,17,17,18,18,19,19,20,20,21,21,22,22,23,23,24,24,25,25,26,26],"right_children":[2,4,6,8,10,12,14,16,18,20,22,24,26,-1,28,30,32,34,36,38,40,42,44,46,48,50,52,-1,-1,-1,-1,-1,-1,-1,-1,-1,-1,-1,-1,-1,-1,-1,-1,-1,-1,-1,-1,-1,-1,-1,-1,-1,-1],"split_conditions":[1.2402972E1,1.2389158E1,1E0,3.5E0,1E1,6.25E-1,1.71E1,1.2E0,1.9E1,3.690476E-1,4.0666668E1,4.2168674E-1,2.1971831E0,-3.347719E-1,1.1666666E0,2.57E1,3.2195122E0,5.1E1,2.9E-1,5E0,8.1666666E-1,6E-1,5.375E1,4.0860215E-1,8.75E-1,9.578947E0,1.2406125E1,8.7887365E-1,3.7577696E-2,-4.935197E-2,4.231287E-1,-8.10766E-3,1.5076277E-1,1.3100281E-2,3.2147866E-1,2.3985855E-1,9.9029094E-1,-3.908372E-2,-2.9828715E-1,-1.1199623E-1,2.6546043E-1,-5.0181907E-2,-2.6338643E-1,7.8483117E-1,8.25287E-2,-6.5228425E-2,-4.0386477E-1,2.0677891E-1,-4.191146E-1,1.24861754E-1,-2.6539555E-1,7.890553E-1,2.3031051E-1],"split_indices":[72,72,33,10,54,69,36,21,44,50,5,50,47,0,22,36,47,5,50,44,31,4,5,50,9,40,72,0,0,0,0,0,0,0,0,0,0,0,0,0,0,0,0,0,0,0,0,0,0,0,0,0,0],"split_type":[0,0,0,0,0,0,0,0,0,0,0,0,0,0,0,0,0,0,0,0,0,0,0,0,0,0,0,0,0,0,0,0,0,0,0,0,0,0,0,0,0,0,0,0,0,0,0,0,0,0,0,0,0],"sum_hessian":[2.883E3,2.516E3,3.67E2,2.41E3,1.06E2,3.57E2,1E1,1.702E3,7.08E2,9.9E1,7E0,1.4E2,2.17E2,2E0,8E0,1.047E3,6.55E2,6.95E2,1.3E1,7E1,2.9E1,3E0,4E0,7.8E1,6.2E1,9.9E1,1.18E2,7E0,1E0,1.043E3,4E0,6.06E2,4.9E1,6.82E2,1.3E1,1E1,3E0,1.8E1,5.2E1,1.9E1,1E1,2E0,1E0,3E0,1E0,6.4E1,1.4E1,5.7E1,5E0,7E1,2.9E1,6E0,1.12E2],"tree_param":{"num_deleted":"0","num_feature":"73","num_nodes":"53","size_leaf_vector":"1"}},{"base_weights":[-5.7556484E-2,-1.6884935E-1,8.8977534E-1,-1.5182935E-1,-3.4762347E0,6.515466E-1,4.187401E0,-9.101477E-2,-8.5917217E-1,-5.591625E-1,-5.967516E-2,1.6100368E0,-6.100106E-1,8.224653E-1,7.460089E0,-4.7397146E-1,5.5384602E-2,-1.0637301E0,2.4429274E0,-1.4111995E0,1.7289157E-1,4.6431974E-1,3.319795E0,2.609593E-1,-3.415568E0,-9.352989E-1,4.1573772E-1,9.087213E0,6.0106415E-1,2.239484E-1,-5.5078324E-2,2.6908282E-2,-3.546479E-2,-1.16029456E-1,2.074291E-1,4.9473253E-1,-8.693581E-2,-1.7760353E-1,-1.08346185E-2,7.970925E-1,5.4670847E-3,-2.8896955E-1,4.2602524E-1,-5.312663E-2,5.727107E-1,-5.112057E-1,-1.2256117E-1,-3.929822E-1,1.6273795E-1,9.6554345E-1,2.5048313E-1,4.694195E-3,8.046543E-2],"categories":[],"categories_nodes":[],"categories_segments":[],"categories_sizes":[],"default_left":[0,0,0,0,0,0,0,0,0,0,0,0,0,0,0,0,0,0,0,0,0,0,0,0,0,0,0,0,0,0,0,0,0,0,0,0,0,0,0,0,0,0,0,0,0,0,0,0,0,0,0,0,0],"id":24,"left_children":[1,3,5,7,9,11,13,15,17,-1,19,21,23,25,27,29,31,33,35,37,-1,39,41,43,45,47,-1,49,51,-1,-1,-1,-1,-1,-1,-1,-1,-1,-1,-1,-1,-1,-1,-1,-1,-1,-1,-1,-1,-1,-1,-1,-1],"loss_changes":[3.008736E2,1.4287846E2,2.3246455E2,1.0917536E2,9.305681E1,3.4086462E2,2.1328381E2,1.3137146E2,1.3823035E2,0E0,1.6912018E1,3.1150394E2,2.9932062E2,6.869248E1,1.0517401E2,1.361242E2,1.4860822E2,5.9889343E1,1.0425215E2,1.5204444E0,0E0,2.9704367E2,3.8619263E2,4.1062183E2,1.0084268E2,6.801755E1,0E0,4.520691E0,2.1550977E-1,0E0,0E0,0E0,0E0,0E0,0E0,0E0,0E0,0E0,0E0,0E0,0E0,0E0,0E0,0E0,0E0,0E0,0E0,0E0,0E0,0E0,0E0,0E0,0E0],"parents":[2147483647,0,0,1,1,2,2,3,3,4,4,5,5,6,6,7,7,8,8,10,10,11,11,12,12,13,13,14,14,15,15,16,16,17,17,18,18,19,19,21,21,22,22,23,23,24,24,25,25,27,27,28,28],"right_children":[2,4,6,8,10,12,14,16,18,-1,20,22,24,26,28,30,32,34,36,38,-1,40,42,44,46,48,-1,50,52,-1,-1,-1,-1,-1,-1,-1,-1,-1,-1,-1,-1,-1,-1,-1,-1,-1,-1,-1,-1,-1,-1,-1,-1],"split_conditions":[1.95E1,6.6666665E0,1.9803114E0,5E0,7.285714E0,3.767369E-1,1.6266666E1,2E0,3.452381E-1,-5.591625E-1,8.666667E0,1.3E1,8.666667E0,5.125E0,2.22895E0,3.75E1,1.025E1,1.15E1,6.5E0,1.25E-1,1.7289157E-1,2.625E0,3.75E1,2.5E-1,8.0671185E-1,1.2916667E1,4.1573772E-1,2.0533333E1,2.0533333E1,2.239484E-1,-5.5078324E-2,2.6908282E-2,-3.546479E-2,-1.16029456E-1,2.074291E-1,4.9473253E-1,-8.693581E-2,-1.7760353E-1,-1.08346185E-2,7.970925E-1,5.4670847E-3,-2.8896955E-1,4.2602524E-1,-5.312663E-2,5.727107E-1,-5.112057E-1,-1.2256117E-1,-3.929822E-1,1.6273795E-1,9.6554345E-1,2.5048313E-1,4.694195E-3,8.046543E-2],"split_indices":[36,6,52,25,40,52,0,25,50,0,10,44,10,18,52,56,71,54,54,4,0,6,5,9,24,71,0,0,0,0,0,0,0,0,0,0,0,0,0,0,0,0,0,0,0,0,0,0,0,0,0,0,0],"split_type":[0,0,0,0,0,0,0,0,0,0,0,0,0,0,0,0,0,0,0,0,0,0,0,0,0,0,0,0,0,0,0,0,0,0,0,0,0,0,0,0,0,0,0,0,0,0,0,0,0,0,0,0,0],"sum_hessian":[2.852E3,2.553E3,2.99E2,2.541E3,1.2E1,2.8E2,1.9E1,2.341E3,2E2,7E0,5E0,1.59E2,1.21E2,1E1,9E0,6.47E2,1.694E3,1.89E2,1.1E1,3E0,2E0,9.6E1,6.3E1,9.3E1,2.8E1,7E0,3E0,7E0,2E0,1.7E1,6.3E2,1.114E3,5.8E2,1.84E2,5E0,6E0,5E0,2E0,1E0,4E0,9.2E1,8E0,5.5E1,8.2E1,1.1E1,1.5E1,1.3E1,3E0,4E0,6E0,1E0,1E0,1E0],"tree_param":{"num_deleted":"0","num_feature":"73","num_nodes":"53","size_leaf_vector":"1"}},{"base_weights":[4.8994742E-2,-7.451206E-2,8.763625E-1,-8.231689E-2,9.684394E-1,7.363621E-1,4.6997304E0,-2.91875E-1,1.5335435E-1,8.2617915E-1,-5.821813E0,6.499261E0,-3.4317926E-1,-4.642702E-2,-6.931817E-1,1.0139983E-1,3.1540484E0,2.7483404E-1,1.7902703E0,-6.621546E-1,-1.261441E-1,7.163763E0,-2.287836E-3,-1.776634E-2,2.281801E-1,-3.447347E-2,-1.6691598E-1,3.5566907E-2,-4.853793E-2,5.193063E-1,-1.3602725E-1,9.262633E-2,-1.0474678E-1,5.6106335E-1,1.08488716E-1,1.9755304E-1,7.509619E-1],"categories":[],"categories_nodes":[],"categories_segments":[],"categories_sizes":[],"default_left":[0,0,0,0,0,0,0,0,0,0,0,0,0,0,0,0,0,0,0,0,0,0,0,0,0,0,0,0,0,0,0,0,0,0,0,0,0],"id":25,"left_children":[1,3,5,7,-1,9,11,13,15,17,19,21,-1,23,25,27,29,31,33,-1,-1,35,-1,-1,-1,-1,-1,-1,-1,-1,-1,-1,-1,-1,-1,-1,-1],"loss_changes":[2.9423547E2,1.9063438E2,1.9618777E2,1.2372321E2,0E0,2.1754138E2,2.128389E2,1.3050476E2,1.8316026E2,1.8959528E2,9.094406E0,4.8551636E1,0E0,2.5196667E2,1.7028175E2,1.732315E2,1.9154256E2,1.9821556E2,3.4357007E2,0E0,0E0,2.159851E0,0E0,0E0,0E0,0E0,0E0,0E0,0E0,0E0,0E0,0E0,0E0,0E0,0E0,0E0,0E0],"parents":[2147483647,0,0,1,1,2,2,3,3,5,5,6,6,7,7,8,8,9,9,10,10,11,11,13,13,14,14,15,15,16,16,17,17,18,18,21,21],"right_children":[2,4,6,8,-1,10,12,14,16,18,20,22,-1,24,26,28,30,32,34,-1,-1,36,-1,-1,-1,-1,-1,-1,-1,-1,-1,-1,-1,-1,-1,-1,-1],"split_conditions":[6.3333335E0,3.71E1,1.25E1,6.769231E-1,9.684394E-1,1.0592592E1,2.4788733E0,1.925926E0,1.3266666E1,1E0,6E-1,1.5012662E0,-3.4317926E-1,5.692308E-1,3.3E0,3.5E0,7E0,9.3E0,1.3E1,-6.621546E-1,-1.261441E-1,7.1E0,-2.287836E-3,-1.776634E-2,2.281801E-1,-3.447347E-2,-1.6691598E-1,3.5566907E-2,-4.853793E-2,5.193063E-1,-1.3602725E-1,9.262633E-2,-1.0474678E-1,5.6106335E-1,1.08488716E-1,1.9755304E-1,7.509619E-1],"split_indices":[10,36,18,69,0,18,47,47,0,28,4,24,0,69,37,53,39,37,36,0,0,0,0,0,0,0,0,0,0,0,0,0,0,0,0,0,0],"split_type":[0,0,0,0,0,0,0,0,0,0,0,0,0,0,0,0,0,0,0,0,0,0,0,0,0,0,0,0,0,0,0,0,0,0,0,0,0],"sum_hessian":[2.877E3,2.504E3,3.73E2,2.503E3,1E0,3.61E2,1.2E1,1.325E3,1.178E3,3.57E2,4E0,1E1,2E0,8.23E2,5.02E2,1.159E3,1.9E1,2.28E2,1.29E2,3E0,1E0,9E0,1E0,7.8E2,4.3E1,3.71E2,1.31E2,8.09E2,3.5E2,1.3E1,6E0,1.53E2,7.5E1,1.9E1,1.1E2,1E0,8E0],"tree_param":{"num_deleted":"0","num_feature":"73","num_nodes":"37","size_leaf_vector":"1"}},{"base_weights":[1.200863E-2,-3.2613733E-1,2.3895596E-1,-2.5562856E-1,-1.240102E0,2.8335E-1,-1.9997549E0,-1.840203E-1,-1.308413E0,3.2440293E-1,-1.6021017E0,4.2682534E-1,-2.0785382E-1,1.358417E0,-2.6515148E0,-2.8305823E-1,7.401773E-1,-4.6464264E-2,-2.0560858E0,-8.4423256E-1,3.0842476E0,6.6552263E-1,-1.9735779E0,3.8191682E-1,4.787336E0,-1.5211673E0,1.9242103E-1,-1.871829E-1,5.24594E-1,-3.321071E0,-1.5412226E-1,-3.6037404E-2,8.799477E-2,4.6809416E-2,6.8560666E-1,-1.1448039E-1,1.5462539E-1,-2.2369702E-1,-2.5014652E-2,1.1759156E-1,-1.6593836E-1,2.7282828E-2,3.6938953E-1,-5.620494E-2,2.672393E-1,-2.0735906E-1,-1.0501204E-2,2.9978422E-2,2.0665157E-1,1.2454336E-1,1.61452E0,-2.0104063E-1,4.8756212E-2,1.647962E-1,-3.721303E-2,-1.7029408E-1,-4.7752976E-1,-1.1478412E-1,4.5293357E-2],"categories":[],"categories_nodes":[],"categories_segments":[],"categories_sizes":[],"default_left":[0,0,0,0,0,0,0,0,0,0,0,0,0,0,0,0,0,0,0,0,0,0,0,0,0,0,0,0,0,0,0,0,0,0,0,0,0,0,0,0,0,0,0,0,0,0,0,0,0,0,0,0,0,0,0,0,0,0,0],"id":26,"left_children":[1,3,5,7,9,11,13,15,17,19,21,23,25,27,29,31,33,35,37,39,41,43,45,47,49,51,53,-1,-1,55,57,-1,-1,-1,-1,-1,-1,-1,-1,-1,-1,-1,-1,-1,-1,-1,-1,-1,-1,-1,-1,-1,-1,-1,-1,-1,-1,-1,-1],"loss_changes":[2.1709367E2,7.274015E1,1.686545E2,7.921978E1,4.6521866E1,1.1717064E2,7.5959E1,9.0779106E1,6.2910378E1,5.4431866E1,5.704059E1,2.4948451E2,1.9808365E2,8.550284E1,4.5960663E1,8.074242E1,1.558052E2,4.7212994E1,1.2911713E1,2.1760353E1,7.1654053E0,2.634883E1,1.0216553E1,1.7541515E2,5.0112296E2,8.761435E1,2.3822011E2,0E0,0E0,4.2988953E1,4.8120875E0,0E0,0E0,0E0,0E0,0E0,0E0,0E0,0E0,0E0,0E0,0E0,0E0,0E0,0E0,0E0,0E0,0E0,0E0,0E0,0E0,0E0,0E0,0E0,0E0,0E0,0E0,0E0,0E0],"parents":[2147483647,0,0,1,1,2,2,3,3,4,4,5,5,6,6,7,7,8,8,9,9,10,10,11,11,12,12,13,13,14,14,15,15,16,16,17,17,18,18,19,19,20,20,21,21,22,22,23,23,24,24,25,25,26,26,29,29,30,30],"right_children":[2,4,6,8,10,12,14,16,18,20,22,24,26,28,30,32,34,36,38,40,42,44,46,48,50,52,54,-1,-1,56,58,-1,-1,-1,-1,-1,-1,-1,-1,-1,-1,-1,-1,-1,-1,-1,-1,-1,-1,-1,-1,-1,-1,-1,-1,-1,-1,-1,-1],"split_conditions":[2.25E0,6E0,1E0,5.825E0,5.555556E-1,1.2120833E1,1.5E0,7.2E0,5.531915E-1,2.024E3,6.333333E-1,1.2027778E1,-6.044238E-1,1.1E0,6.625E0,5.4054055E-2,1.761111E1,7.3E0,4.1E1,7.428571E0,1.65E0,8.052083E-1,1.0388889E1,1.9E1,2.35E1,8.181818E-1,-2.4717517E-1,-1.871829E-1,5.24594E-1,1.16E1,3.1E1,-3.6037404E-2,8.799477E-2,4.6809416E-2,6.8560666E-1,-1.1448039E-1,1.5462539E-1,-2.2369702E-1,-2.5014652E-2,1.1759156E-1,-1.6593836E-1,2.7282828E-2,3.6938953E-1,-5.620494E-2,2.672393E-1,-2.0735906E-1,-1.0501204E-2,2.9978422E-2,2.0665157E-1,1.2454336E-1,1.61452E0,-2.0104063E-1,4.8756212E-2,1.647962E-1,-3.721303E-2,-1.7029408E-1,-4.7752976E-1,-1.1478412E-1,4.5293357E-2],"split_indices":[10,25,14,0,11,71,37,36,69,43,31,71,52,21,10,19,71,37,5,5,0,11,40,44,36,11,24,0,0,36,55,0,0,0,0,0,0,0,0,0,0,0,0,0,0,0,0,0,0,0,0,0,0,0,0,0,0,0,0],"split_type":[0,0,0,0,0,0,0,0,0,0,0,0,0,0,0,0,0,0,0,0,0,0,0,0,0,0,0,0,0,0,0,0,0,0,0,0,0,0,0,0,0,0,0,0,0,0,0,0,0,0,0,0,0,0,0,0,0,0,0],"sum_hessian":[2.827E3,1.135E3,1.692E3,1.055E3,8E1,1.66E3,3.2E1,9.89E2,6.6E1,1.5E1,6.5E1,1.285E3,3.75E2,5E0,2.7E1,8.94E2,9.5E1,2.5E1,4.1E1,1.1E1,4E0,9E0,5.6E1,1.273E3,1.2E1,8.7E1,2.88E2,3E0,2E0,2.1E1,6E0,8.39E2,5.5E1,9.2E1,3E0,1.5E1,1E1,3.7E1,4E0,3E0,8E0,1E0,3E0,6E0,3E0,5.3E1,3E0,1.215E3,5.8E1,1E1,2E0,7E1,1.7E1,8E1,2.08E2,1.1E1,1E1,2E0,4E0],"tree_param":{"num_deleted":"0","num_feature":"73","num_nodes":"59","size_leaf_vector":"1"}},{"base_weights":[9.045466E-3,-1.9910465E-1,2.6217592E-1,1.577524E-1,-3.655904E-1,2.106213E-1,2.7902849E0,3.8159424E-1,-8.3932585E-1,-1.6091965E-2,-5.6419647E-1,-2.234326E-1,5.072505E-1,3.4249E0,-3.1833987E0,-9.855439E-2,1.0068905E0,-2.0081084E0,-2.4930072E-1,-3.5820636E-1,1.6574843E0,-1.8178744E0,-4.6552342E-1,1.7442212E-2,-1.4779533E0,5.9653556E-1,-2.8300507E0,4.8717823E0,4.610094E-1,-3.9618385E-1,-7.632596E-2,-2.77154E-2,2.3571002E-1,8.361512E-2,5.802308E-1,-1.9468999E-2,-2.5247434E-1,3.421667E-1,-1.0083827E-1,-5.8495976E-2,9.74625E-2,3.5899705E-1,4.1933857E-2,-8.5236564E-2,-3.0034146E-1,-4.9658958E-2,3.5716227E-1,-4.816672E-2,8.0015495E-2,-1.9347464E-1,1.7202875E-1,-1.4180368E-1,7.3475815E-2,-1.13437764E-1,-4.7653872E-1,5.897697E-1,2.9461298E-2,-2.4326508E-1,4.7112474E-1],"categories":[],"categories_nodes":[],"categories_segments":[],"categories_sizes":[],"default_left":[0,0,0,0,0,0,0,0,0,0,0,0,0,0,0,0,0,0,0,0,0,0,0,0,0,0,0,0,0,0,0,0,0,0,0,0,0,0,0,0,0,0,0,0,0,0,0,0,0,0,0,0,0,0,0,0,0,0,0],"id":27,"left_children":[1,3,5,7,9,11,13,15,17,19,21,23,25,27,29,31,33,35,37,39,41,43,45,47,49,51,53,55,57,-1,-1,-1,-1,-1,-1,-1,-1,-1,-1,-1,-1,-1,-1,-1,-1,-1,-1,-1,-1,-1,-1,-1,-1,-1,-1,-1,-1,-1,-1],"loss_changes":[1.5259354E2,9.4483505E1,1.694609E2,1.13207565E2,7.5176056E1,1.6520314E2,1.0949271E2,1.2448743E2,6.3407455E1,2.260503E2,8.4405045E1,1.5760887E2,2.285188E2,1.00142426E2,2.1553745E0,1.03511345E2,1.4186253E2,2.8279648E1,1.7876265E2,9.9660614E1,1.5840454E2,5.4286896E1,8.198486E1,1.7152602E2,1.2606827E2,2.0786899E2,5.963823E1,7.277582E1,1.2237737E2,0E0,0E0,0E0,0E0,0E0,0E0,0E0,0E0,0E0,0E0,0E0,0E0,0E0,0E0,0E0,0E0,0E0,0E0,0E0,0E0,0E0,0E0,0E0,0E0,0E0,0E0,0E0,0E0,0E0,0E0],"parents":[2147483647,0,0,1,1,2,2,3,3,4,4,5,5,6,6,7,7,8,8,9,9,10,10,11,11,12,12,13,13,14,14,15,15,16,16,17,17,18,18,19,19,20,20,21,21,22,22,23,23,24,24,25,25,26,26,27,27,28,28],"right_children":[2,4,6,8,10,12,14,16,18,20,22,24,26,28,30,32,34,36,38,40,42,44,46,48,50,52,54,56,58,-1,-1,-1,-1,-1,-1,-1,-1,-1,-1,-1,-1,-1,-1,-1,-1,-1,-1,-1,-1,-1,-1,-1,-1,-1,-1,-1,-1,-1,-1],"split_conditions":[9E0,5E0,1.2E0,2.4492753E0,5.7272726E-1,2.0145986E0,1.0416666E0,6.2616825E-1,2.6666667E0,1.3666667E1,6.4880955E-1,4.1333333E-1,4E0,8.2E0,4.0666668E1,9.0833336E-1,1.2338566E1,3E0,2.75E0,1.7E1,9.3333334E-1,8.444445E0,5.375E0,3.5E0,1.1444445E0,1.5E0,8.25E-1,1.2459917E1,1.25E0,-3.9618385E-1,-7.632596E-2,-2.77154E-2,2.3571002E-1,8.361512E-2,5.802308E-1,-1.9468999E-2,-2.5247434E-1,3.421667E-1,-1.0083827E-1,-5.8495976E-2,9.74625E-2,3.5899705E-1,4.1933857E-2,-8.5236564E-2,-3.0034146E-1,-4.9658958E-2,3.5716227E-1,-4.816672E-2,8.0015495E-2,-1.9347464E-1,1.7202875E-1,-1.4180368E-1,7.3475815E-2,-1.13437764E-1,-4.7653872E-1,5.897697E-1,2.9461298E-2,-2.4326508E-1,4.7112474E-1],"split_indices":[36,66,22,47,11,47,31,69,47,5,11,12,65,37,5,31,72,66,47,66,22,71,10,37,22,6,31,72,4,0,0,0,0,0,0,0,0,0,0,0,0,0,0,0,0,0,0,0,0,0,0,0,0,0,0,0,0,0,0],"split_type":[0,0,0,0,0,0,0,0,0,0,0,0,0,0,0,0,0,0,0,0,0,0,0,0,0,0,0,0,0,0,0,0,0,0,0,0,0,0,0,0,0,0,0,0,0,0,0,0,0,0,0,0,0,0,0,0,0,0,0],"sum_hessian":[2.894E3,1.588E3,1.306E3,5.05E2,1.083E3,1.281E3,2.5E1,4.13E2,9.2E1,3.93E2,6.9E2,5.2E2,7.61E2,2.3E1,2E0,2.34E2,1.79E2,3E1,6.2E1,3.27E2,6.6E1,4.9E1,6.41E2,4.37E2,8.3E1,7.42E2,1.9E1,1.5E1,8E0,1E0,1E0,2.19E2,1.5E1,1.74E2,5E0,7E0,2.3E1,1E1,5.2E1,2.8E2,4.7E1,2.5E1,4.1E1,2.8E1,2.1E1,6.37E2,4E0,2.67E2,1.7E2,7.3E1,1E1,4.7E1,6.95E2,1.1E1,8E0,1.2E1,3E0,5E0,3E0],"tree_param":{"num_deleted":"0","num_feature":"73","num_nodes":"59","size_leaf_vector":"1"}},{"base_weights":[-9.648943E-3,-8.277241E-2,6.5096754E-1,-8.9975074E-2,9.182043E-1,1.3051974E0,-5.5282927E-1,-5.753639E-2,-1.7590072E0,7.9446757E-1,5.0485826E0,-1.1699684E0,4.113449E0,-8.139418E-2,1.9968827E0,-4.1745058E-1,-1.1086574E0,6.041422E0,4.8602492E-1,1.8508102E0,8.690828E0,-1.5183053E0,5.035421E-1,8.870186E0,6.138076E-1,-9.076938E-4,-6.49544E-2,9.861288E-2,8.0425626E-1,1.3028282E-1,-1.7553672E-1,7.459595E-1,-2.6019824E-1,1.0606513E-3,3.2303748E-1,6.1652E-1,-5.0026644E-3,3.497705E-1,1.0402496E0,-3.0363759E-2,-3.1941316E-1,5.2289028E-2,1.0801288E0,-4.865119E-2,1.8607551E-1],"categories":[],"categories_nodes":[],"categories_segments":[],"categories_sizes":[],"default_left":[0,0,0,0,0,0,0,0,0,0,0,0,0,0,0,0,0,0,0,0,0,0,0,0,0,0,0,0,0,0,0,0,0,0,0,0,0,0,0,0,0,0,0,0,0],"id":28,"left_children":[1,3,5,7,-1,9,11,13,15,17,19,21,23,25,27,-1,29,31,33,35,37,39,-1,41,43,-1,-1,-1,-1,-1,-1,-1,-1,-1,-1,-1,-1,-1,-1,-1,-1,-1,-1,-1,-1],"loss_changes":[1.3815384E2,1.7181691E2,2.2525131E2,1.3913074E2,0E0,3.490985E2,2.9537225E2,1.2382911E2,7.1818634E1,2.6182605E2,2.3909637E2,2.0183453E2,1.9336949E2,1.0260472E2,1.6837625E2,0E0,6.471345E1,1.302161E2,2.0317708E2,1.075323E2,5.1114075E1,1.7373958E2,0E0,7.381705E1,1.2019029E1,0E0,0E0,0E0,0E0,0E0,0E0,0E0,0E0,0E0,0E0,0E0,0E0,0E0,0E0,0E0,0E0,0E0,0E0,0E0,0E0],"parents":[2147483647,0,0,1,1,2,2,3,3,5,5,6,6,7,7,8,8,9,9,10,10,11,11,12,12,13,13,14,14,16,16,17,17,18,18,19,19,20,20,21,21,23,23,24,24],"right_children":[2,4,6,8,-1,10,12,14,16,18,20,22,24,26,28,-1,30,32,34,36,38,40,-1,42,44,-1,-1,-1,-1,-1,-1,-1,-1,-1,-1,-1,-1,-1,-1,-1,-1,-1,-1,-1,-1],"split_conditions":[7E0,1.2473141E1,7.6056343E-1,1E1,9.182043E-1,7.106599E-1,6.393443E-1,6.15E1,1.904762E-1,8.4444445E-1,1E0,5.925926E-1,3.2333332E-1,3.9E1,4.2857143E-1,-4.1745058E-1,3E0,8.181818E-1,4.6666667E-1,4.7368422E-1,7E0,8E-1,5.035421E-1,1.1333333E1,4.4444445E-1,-9.076938E-4,-6.49544E-2,9.861288E-2,8.0425626E-1,1.3028282E-1,-1.7553672E-1,7.459595E-1,-2.6019824E-1,1.0606513E-3,3.2303748E-1,6.1652E-1,-5.0026644E-3,3.497705E-1,1.0402496E0,-3.0363759E-2,-3.1941316E-1,5.2289028E-2,1.0801288E0,-4.865119E-2,1.8607551E-1],"split_indices":[10,72,16,37,0,16,17,5,41,22,28,41,12,5,50,0,44,11,50,69,44,31,0,5,12,0,0,0,0,0,0,0,0,0,0,0,0,0,0,0,0,0,0,0,0],"split_type":[0,0,0,0,0,0,0,0,0,0,0,0,0,0,0,0,0,0,0,0,0,0,0,0,0,0,0,0,0,0,0,0,0,0,0,0,0,0,0,0,0,0,0,0,0],"sum_hessian":[2.859E3,2.575E3,2.84E2,2.574E3,1E0,1.84E2,1E2,2.526E3,4.8E1,1.63E2,2.1E1,8.9E1,1.1E1,2.498E3,2.8E1,9E0,3.9E1,8E0,1.55E2,1.2E1,9E0,8.5E1,4E0,4E0,7E0,2.217E3,2.81E2,2.5E1,3E0,8E0,3.1E1,7E0,1E0,1.33E2,2.2E1,3E0,9E0,3E0,6E0,5E1,3.5E1,1E0,3E0,4E0,3E0],"tree_param":{"num_deleted":"0","num_feature":"73","num_nodes":"45","size_leaf_vector":"1"}},{"base_weights":[3.9022755E-2,-3.589133E-2,1.0920837E0,-4.6768695E-2,5.751098E0,-1.6833732E0,1.4475155E0,2.4180384E0,-6.4474344E-2,3.7589848E-1,9.175931E-1,-3.7658505E0,4.033042E-2,3.7177923E0,8.260418E-1,9.7595567E-1,7.556859E-1,-3.1683363E-2,-1.1724576E0,-3.1960793E-2,9.334557E-2,-4.5783534E0,-3.105594E-1,-3.1745234E-1,9.225332E-1,4.5066934E0,-9.611616E-1,4.179192E-1,5.8349705E0,1.8392314E-1,-3.3446497E-1,-5.252284E-3,2.3825906E-1,-1.6969733E-1,1.7580405E-1,-1.0712981E-1,-4.912033E-1,-0E0,-5.129344E-2,1.7888223E-1,-1.9505118E-1,8.380874E-1,3.0233544E-1,-3.534905E-1,2.7575502E-1,5.83432E-1,4.631644E-3,-2.6876476E-1,7.091667E-1],"categories":[],"categories_nodes":[],"categories_segments":[],"categories_sizes":[],"default_left":[0,0,0,0,0,0,0,0,0,0,0,0,0,0,0,0,0,0,0,0,0,0,0,0,0,0,0,0,0,0,0,0,0,0,0,0,0,0,0,0,0,0,0,0,0,0,0,0,0],"id":29,"left_children":[1,3,5,7,9,11,13,15,17,19,-1,21,23,25,27,29,-1,31,33,-1,-1,