{"learner":{"attributes":{"best_iteration":"36","best_score":"5.160358097983191"},"feature_names":[],"feature_types":[],"gradient_booster":{"model":{"gbtree_model_param":{"num_parallel_tree":"1","num_trees":"87"},"iteration_indptr":[0,1,2,3,4,5,6,7,8,9,10,11,12,13,14,15,16,17,18,19,20,21,22,23,24,25,26,27,28,29,30,31,32,33,34,35,36,37,38,39,40,41,42,43,44,45,46,47,48,49,50,51,52,53,54,55,56,57,58,59,60,61,62,63,64,65,66,67,68,69,70,71,72,73,74,75,76,77,78,79,80,81,82,83,84,85,86,87],"tree_info":[0,0,0,0,0,0,0,0,0,0,0,0,0,0,0,0,0,0,0,0,0,0,0,0,0,0,0,0,0,0,0,0,0,0,0,0,0,0,0,0,0,0,0,0,0,0,0,0,0,0,0,0,0,0,0,0,0,0,0,0,0,0,0,0,0,0,0,0,0,0,0,0,0,0,0,0,0,0,0,0,0,0,0,0,0,0,0],"trees":[{"base_weights":[3.6869258E-2,-1.4695191E0,4.0951834E0,-2.3065317E0,-3.440833E-1,7.149887E0,3.3024166E0,-2.3926773E0,2.6055996E0,-5.5481744E-1,1.3177724E0,1.1595763E0,7.6135406E0,2.126036E0,4.43301E0,-2.846433E0,-2.0802548E0,5.034906E-1,8.0482E0,-1.7380941E0,-3.488799E-1,2.1391125E0,-3.3944764E0,-5.13543E-1,6.7506E0,8.898555E0,5.0796614E0,5.221498E-1,3.4610584E0,6.2105756E0,3.1363697E0,-2.8714624E-1,3.5671997E-1,-2.1204694E-1,3.7292567E-1,3.3467197E-1,-1.7146465E-1,-2.4996002E-1,9.9263996E-1,-1.8650438E-1,9.300399E-1,-8.642018E-2,2.9742433E-2,5.132698E-1,1.8106276E-2,-3.5942402E-1,2.5039976E-2,-1.9356366E-1,3.5006E-1,1.7004001E-1,7.8338665E-1,1.0098618E0,6.121711E-1,3.4668225E-1,9.306021E-1,-1.3768002E-1,1.3348679E-1,3.3074042E-1,1.3900534E0,4.11369E-1,7.232859E-1,-6.801906E-2,3.46732E-1],"categories":[],"categories_nodes":[],"categories_segments":[],"categories_sizes":[],"default_left":[0,0,0,0,0,0,0,0,0,0,0,0,0,0,0,0,0,0,0,0,0,0,0,0,0,0,0,0,0,0,0,0,0,0,0,0,0,0,0,0,0,0,0,0,0,0,0,0,0,0,0,0,0,0,0,0,0,0,0,0,0,0,0],"id":0,"left_children":[1,3,5,7,9,11,13,15,17,19,21,23,25,27,29,31,33,35,37,39,41,43,45,47,49,51,53,55,57,59,61,-1,-1,-1,-1,-1,-1,-1,-1,-1,-1,-1,-1,-1,-1,-1,-1,-1,-1,-1,-1,-1,-1,-1,-1,-1,-1,-1,-1,-1,-1,-1,-1],"loss_changes":[2.4209219E4,2.7194487E3,2.571371E3,7.0696484E2,4.3246344E2,6.013291E2,1.124416E3,2.2437695E2,3.2687985E2,2.6601562E2,5.451155E2,1.6311607E2,6.176387E2,8.971084E2,9.798965E2,1.1628418E2,2.3389697E2,1.4464844E2,1.8404169E2,2.436181E2,3.113868E2,6.960683E2,1.652481E1,8.653821E1,7.608719E0,3.8309766E2,4.504276E2,2.9814938E2,3.1963647E2,3.5924902E2,3.2219946E2,0E0,0E0,0E0,0E0,0E0,0E0,0E0,0E0,0E0,0E0,0E0,0E0,0E0,0E0,0E0,0E0,0E0,0E0,0E0,0E0,0E0,0E0,0E0,0E0,0E0,0E0,0E0,0E0,0E0,0E0,0E0,0E0],"parents":[2147483647,0,0,1,1,2,2,3,3,4,4,5,5,6,6,7,7,8,8,9,9,10,10,11,11,12,12,13,13,14,14,15,15,16,16,17,17,18,18,19,19,20,20,21,21,22,22,23,23,24,24,25,25,26,26,27,27,28,28,29,29,30,30],"right_children":[2,4,6,8,10,12,14,16,18,20,22,24,26,28,30,32,34,36,38,40,42,44,46,48,50,52,54,56,58,60,62,-1,-1,-1,-1,-1,-1,-1,-1,-1,-1,-1,-1,-1,-1,-1,-1,-1,-1,-1,-1,-1,-1,-1,-1,-1,-1,-1,-1,-1,-1,-1,-1],"split_conditions":[4.5E0,2.2E0,1.2276714E1,4.25E0,8.75E0,1.2152043E1,-1.4666866E-3,9.52381E-2,4E0,-1.1355261E0,4.5833334E-1,1.25E0,1E0,5.6666665E0,1E0,8.9E1,1E0,2E-1,7.5E-1,1E0,3.125E0,7.986111E-1,5.75E1,2.51E1,1.5E0,2.79E1,9E0,3E0,5.9E1,1E0,7.3E0,-2.8714624E-1,3.5671997E-1,-2.1204694E-1,3.7292567E-1,3.3467197E-1,-1.7146465E-1,-2.4996002E-1,9.9263996E-1,-1.8650438E-1,9.300399E-1,-8.642018E-2,2.9742433E-2,5.132698E-1,1.8106276E-2,-3.5942402E-1,2.5039976E-2,-1.9356366E-1,3.5006E-1,1.7004001E-1,7.8338665E-1,1.0098618E0,6.121711E-1,3.4668225E-1,9.306021E-1,-1.3768002E-1,1.3348679E-1,3.3074042E-1,1.3900534E0,4.11369E-1,7.232859E-1,-6.801906E-2,3.46732E-1],"split_indices":[10,10,77,3,0,77,58,55,5,29,56,4,38,10,38,61,56,11,7,74,10,11,5,44,4,43,10,30,24,27,43,0,0,0,0,0,0,0,0,0,0,0,0,0,0,0,0,0,0,0,0,0,0,0,0,0,0,0,0,0,0,0,0],"split_type":[0,0,0,0,0,0,0,0,0,0,0,0,0,0,0,0,0,0,0,0,0,0,0,0,0,0,0,0,0,0,0,0,0,0,0,0,0,0,0,0,0,0,0,0,0,0,0,0,0,0,0,0,0,0,0,0,0,0,0,0,0,0,0],"sum_hessian":[3.958E3,2.887E3,1.071E3,1.655E3,1.232E3,2.19E2,8.52E2,1.627E3,2.8E1,1.094E3,1.38E2,1.6E1,2.03E2,4.19E2,4.33E2,6.6E2,9.67E2,2.1E1,7E0,1.61E2,9.33E2,1.18E2,2E1,1.3E1,3E0,1.33E2,7E1,1.91E2,2.28E2,1.81E2,2.52E2,6.58E2,2E0,9.61E2,6E0,9E0,1.2E1,1E0,6E0,1.6E2,1E0,5.19E2,4.14E2,4.6E1,7.2E1,1.9E1,1E0,1E1,3E0,1E0,2E0,9.1E1,4.2E1,5.2E1,1.8E1,5.7E1,1.34E2,2.26E2,2E0,6.1E1,1.2E2,2E1,2.32E2],"tree_param":{"num_deleted":"0","num_feature":"78","num_nodes":"63","size_leaf_vector":"1"}},{"base_weights":[-7.225774E-2,-1.5055145E0,3.3890522E0,-2.2169144E0,-4.8492038E-1,7.3754005E0,2.7890246E0,-2.2997928E0,2.0397704E0,4.4695368E-1,-8.585621E-1,3.7644134E0,9.124757E0,1.7110685E0,3.8236105E0,-2.7025807E0,-1.8666756E0,-9.152007E-1,7.049322E0,2.9793662E-1,7.2661786E0,-2.3940542E0,-6.87349E-1,2.3793983E0,7.6221957E0,6.2528884E-1,1.0050794E1,1.6180072E0,1.2728108E0,4.975793E0,2.4232395E0,-1.5139699E-1,-2.884225E-1,-1.889028E-1,7.7564234E-1,1.1542045E-1,-3.8137636E-1,5.3612996E-2,9.149705E-1,-9.9738374E-2,7.780643E-2,8.6377E-1,2.5249168E-1,-3.2590982E-1,-6.972802E-2,-1.0285151E-1,5.1198113E-3,-1.6675901E-1,3.6524147E-1,8.3661824E-1,-6.0281843E-2,-2.673282E-1,3.8363114E-1,1.6786318E0,9.0107745E-1,9.71576E-2,2.7762297E-1,7.670824E-1,4.4562253E-1,2.0743096E-1,6.749324E-1],"categories":[],"categories_nodes":[],"categories_segments":[],"categories_sizes":[],"default_left":[0,0,0,0,0,0,0,0,0,0,0,0,0,0,0,0,0,0,0,0,0,0,0,0,0,0,0,0,0,0,0,0,0,0,0,0,0,0,0,0,0,0,0,0,0,0,0,0,0,0,0,0,0,0,0,0,0,0,0,0,0],"id":1,"left_children":[1,3,5,7,9,11,13,15,17,19,21,23,25,27,29,31,33,35,37,39,41,43,45,47,49,51,53,55,-1,57,59,-1,-1,-1,-1,-1,-1,-1,-1,-1,-1,-1,-1,-1,-1,-1,-1,-1,-1,-1,-1,-1,-1,-1,-1,-1,-1,-1,-1,-1,-1],"loss_changes":[1.9635375E4,2.0308701E3,2.7506475E3,5.864624E2,4.0118817E2,9.182129E2,1.1181792E3,2.7676562E2,4.8076355E2,3.324184E2,2.141471E2,2.5336108E2,7.8760156E2,4.8650024E2,8.165327E2,1.7568945E2,1.8248755E2,1.3063214E2,1.5828833E2,2.0225587E2,2.2593445E1,1.17690186E2,1.868581E2,2.072126E2,8.537048E1,1.2688148E2,4.8362402E2,3.6604236E2,0E0,3.580747E2,3.3834033E2,0E0,0E0,0E0,0E0,0E0,0E0,0E0,0E0,0E0,0E0,0E0,0E0,0E0,0E0,0E0,0E0,0E0,0E0,0E0,0E0,0E0,0E0,0E0,0E0,0E0,0E0,0E0,0E0,0E0,0E0],"parents":[2147483647,0,0,1,1,2,2,3,3,4,4,5,5,6,6,7,7,8,8,9,9,10,10,11,11,12,12,13,13,14,14,15,15,16,16,17,17,18,18,19,19,20,20,21,21,22,22,23,23,24,24,25,25,26,26,27,27,29,29,30,30],"right_children":[2,4,6,8,10,12,14,16,18,20,22,24,26,28,30,32,34,36,38,40,42,44,46,48,50,52,54,56,-1,58,60,-1,-1,-1,-1,-1,-1,-1,-1,-1,-1,-1,-1,-1,-1,-1,-1,-1,-1,-1,-1,-1,-1,-1,-1,-1,-1,-1,-1,-1,-1],"split_conditions":[4.125E0,2.2E0,1.2252631E1,4.3333335E0,1E0,1.2191324E1,-1.4666866E-3,1.375E0,1.3E1,5E-1,5.5E1,1.0666667E1,1.63E1,7.1E1,1.2392543E1,1.7622378E0,1.9E1,9E0,6.666667E-1,-7.2061604E-1,4.3333335E0,9.5E0,1.240223E1,9.5625E0,8.5714287E-1,1.0888889E0,5.5E1,6.25E0,1.2728108E0,6.041667E-1,1.25E-1,-1.5139699E-1,-2.884225E-1,-1.889028E-1,7.7564234E-1,1.1542045E-1,-3.8137636E-1,5.3612996E-2,9.149705E-1,-9.9738374E-2,7.780643E-2,8.6377E-1,2.5249168E-1,-3.2590982E-1,-6.972802E-2,-1.0285151E-1,5.1198113E-3,-1.6675901E-1,3.6524147E-1,8.3661824E-1,-6.0281843E-2,-2.673282E-1,3.8363114E-1,1.6786318E0,9.0107745E-1,9.71576E-2,2.7762297E-1,7.670824E-1,4.4562253E-1,2.0743096E-1,6.749324E-1],"split_indices":[54,54,77,3,38,77,58,54,71,7,69,54,43,24,77,53,43,71,5,58,3,46,77,46,11,27,69,54,0,11,7,0,0,0,0,0,0,0,0,0,0,0,0,0,0,0,0,0,0,0,0,0,0,0,0,0,0,0,0,0,0],"split_type":[0,0,0,0,0,0,0,0,0,0,0,0,0,0,0,0,0,0,0,0,0,0,0,0,0,0,0,0,0,0,0,0,0,0,0,0,0,0,0,0,0,0,0,0,0,0,0,0,0,0,0,0,0,0,0,0,0,0,0,0,0],"sum_hessian":[3.956E3,2.798E3,1.158E3,1.648E3,1.15E3,1.5E2,1.008E3,1.617E3,3.1E1,3.29E2,8.21E2,5E1,1E2,4.95E2,5.13E2,8.35E2,7.82E2,2E1,1.1E1,3.23E2,6E0,8.1E1,7.4E2,3.8E1,1.2E1,1E1,9E1,4.92E2,3E0,2.8E2,2.33E2,1.12E2,7.23E2,7.81E2,1E0,1.2E1,8E0,3E0,8E0,8.7E1,2.36E2,4E0,2E0,5.3E1,2.8E1,5.06E2,2.34E2,9E0,2.9E1,1.1E1,1E0,5E0,5E0,1E1,8E1,3.17E2,1.75E2,4.3E1,2.37E2,2.17E2,1.6E1],"tree_param":{"num_deleted":"0","num_feature":"78","num_nodes":"61","size_leaf_vector":"1"}},{"base_weights":[4.695871E-2,-1.1566147E0,3.5410278E0,-1.7553844E0,8.354843E-2,2.5953329E0,5.8592625E0,-1.8353149E0,3.0591145E0,2.7836567E-2,5.396818E0,1.992922E0,4.7170453E0,6.96312E0,4.2135243E0,-2.2207832E0,-1.3877743E0,-6.433514E-1,7.0394435E0,3.4729147E-1,-8.205163E-1,8.174094E0,-7.876189E-1,7.495502E0,1.809366E0,2.647969E0,5.8353887E0,6.369682E0,1.1238781E1,9.055196E0,3.1641319E0,-1.5778585E-1,-2.4142094E-1,-7.225793E-2,-1.8134077E-1,-3.1535074E-1,2.8760323E-1,1.0912603E0,4.8643883E-2,2.5278373E-2,6.795244E-1,-1.3026671E-1,2.1550143E-2,8.99727E-1,1.5675195E-1,1.5950356E-1,-2.1468489E-1,4.1877994E-1,1.3396274E0,2.1295147E-1,-6.584769E-2,4.0657455E-1,7.4279256E-2,7.4050045E-1,3.0671737E-1,2.5393394E-1,7.150922E-1,1.2364577E0,7.0441596E-2,3.2388195E-1,1.1724898E0,7.2927034E-1,2.1173568E-1],"categories":[],"categories_nodes":[],"categories_segments":[],"categories_sizes":[],"default_left":[0,0,0,0,0,0,0,0,0,0,0,0,0,0,0,0,0,0,0,0,0,0,0,0,0,0,0,0,0,0,0,0,0,0,0,0,0,0,0,0,0,0,0,0,0,0,0,0,0,0,0,0,0,0,0,0,0,0,0,0,0,0,0],"id":2,"left_children":[1,3,5,7,9,11,13,15,17,19,21,23,25,27,29,31,33,35,37,39,41,43,45,47,49,51,53,55,57,59,61,-1,-1,-1,-1,-1,-1,-1,-1,-1,-1,-1,-1,-1,-1,-1,-1,-1,-1,-1,-1,-1,-1,-1,-1,-1,-1,-1,-1,-1,-1,-1,-1],"loss_changes":[1.6758521E4,2.2012986E3,2.222329E3,7.7475635E2,2.85255E2,9.191387E2,5.05458E2,3.3588965E2,4.9149054E2,2.595947E2,1.7893561E2,5.592051E2,3.539297E2,3.7068652E2,5.849048E2,1.26989746E2,2.5693298E2,1.6811298E2,3.9964508E2,4.2170697E2,1.3126282E2,2.2908752E1,1.643378E1,2.9346466E2,4.3688147E2,1.5316379E2,4.237788E2,4.4768896E2,2.2717407E2,2.8661658E2,4.201079E2,0E0,0E0,0E0,0E0,0E0,0E0,0E0,0E0,0E0,0E0,0E0,0E0,0E0,0E0,0E0,0E0,0E0,0E0,0E0,0E0,0E0,0E0,0E0,0E0,0E0,0E0,0E0,0E0,0E0,0E0,0E0,0E0],"parents":[2147483647,0,0,1,1,2,2,3,3,4,4,5,5,6,6,7,7,8,8,9,9,10,10,11,11,12,12,13,13,14,14,15,15,16,16,17,17,18,18,19,19,20,20,21,21,22,22,23,23,24,24,25,25,26,26,27,27,28,28,29,29,30,30],"right_children":[2,4,6,8,10,12,14,16,18,20,22,24,26,28,30,32,34,36,38,40,42,44,46,48,50,52,54,56,58,60,62,-1,-1,-1,-1,-1,-1,-1,-1,-1,-1,-1,-1,-1,-1,-1,-1,-1,-1,-1,-1,-1,-1,-1,-1,-1,-1,-1,-1,-1,-1,-1,-1],"split_conditions":[4.6666665E0,2.75E0,7.3333335E0,1.3E1,7.25E0,8.378495E-1,1.2276714E1,1.1852964E1,4.5E0,8.2323235E-1,1E0,0E0,7.1875E0,1.7344184E0,4.428571E0,1.2605043E-1,2.0588236E-1,2.4375E0,5.296002E-1,2.5E1,3.3333333E0,1.2666667E1,2.875E0,-5E-1,8.082192E-1,8E0,9.25E-1,2.0512822E0,1.0583333E0,4E0,2.5E0,-1.5778585E-1,-2.4142094E-1,-7.225793E-2,-1.8134077E-1,-3.1535074E-1,2.8760323E-1,1.0912603E0,4.8643883E-2,2.5278373E-2,6.795244E-1,-1.3026671E-1,2.1550143E-2,8.99727E-1,1.5675195E-1,1.5950356E-1,-2.1468489E-1,4.1877994E-1,1.3396274E0,2.1295147E-1,-6.584769E-2,4.0657455E-1,7.4279256E-2,7.4050045E-1,3.0671737E-1,2.5393394E-1,7.150922E-1,1.2364577E0,7.0441596E-2,3.2388195E-1,1.1724898E0,7.2927034E-1,2.1173568E-1],"split_indices":[10,10,10,9,9,58,77,77,60,11,38,9,46,58,6,56,56,53,16,43,6,3,10,9,74,45,37,53,37,60,60,0,0,0,0,0,0,0,0,0,0,0,0,0,0,0,0,0,0,0,0,0,0,0,0,0,0,0,0,0,0,0,0],"split_type":[0,0,0,0,0,0,0,0,0,0,0,0,0,0,0,0,0,0,0,0,0,0,0,0,0,0,0,0,0,0,0,0,0,0,0,0,0,0,0,0,0,0,0,0,0,0,0,0,0,0,0,0,0,0,0,0,0,0,0,0,0,0,0],"sum_hessian":[3.983E3,2.963E3,1.02E3,1.998E3,9.65E2,7.26E2,2.94E2,1.966E3,3.2E1,9.56E2,9E0,5.67E2,1.59E2,1.74E2,1.2E2,1.054E3,9.12E2,1.7E1,1.5E1,6.95E2,2.61E2,6E0,3E0,1.7E1,5.5E2,5.7E1,1.02E2,1.55E2,1.9E1,2E1,1E2,2.46E2,8.08E2,3.57E2,5.55E2,1E1,7E0,9E0,6E0,6.86E2,9E0,1.78E2,8.3E1,5E0,1E0,1E0,2E0,1.2E1,5E0,4.87E2,6.3E1,3.2E1,2.5E1,6.4E1,3.8E1,2.7E1,1.28E2,1.7E1,2E0,7E0,1.3E1,1.9E1,8.1E1],"tree_param":{"num_deleted":"0","num_feature":"78","num_nodes":"63","size_leaf_vector":"1"}},{"base_weights":[2.790449E-2,-1.2676002E0,2.6034875E0,-1.7281172E0,-4.650263E-1,1.7334858E0,4.612443E0,-1.7722456E0,5.8570976E0,-6.213264E-1,3.0083168E0,1.4775978E0,4.212467E0,3.819809E0,6.0631022E0,-1.8930792E0,-8.870253E-1,8.920701E-1,1.3056622E1,-6.7540205E-1,4.982359E0,1.0783656E0,8.340146E0,-1.7126182E-1,1.8114849E0,1.376626E0,3.4608183E0,4.1556463E0,-1.6391474E0,1.8814493E-2,6.728466E0,-1.1697339E-1,-2.0245802E-1,-1.2636004E-1,3.068896E-1,1.9928013E-1,-1.2065053E-1,3.7797236E-1,1.4855679E0,-6.3486733E-3,-1.11887805E-1,6.1360157E-1,-2.0734473E-1,4.8085007E-1,-5.8597017E-2,-3.446592E-2,1.165253E0,-3.677391E-2,1.3912493E0,1.9558844E-1,-1.5089923E-1,3.0907524E-1,1.6668075E0,5.0223553E-1,2.877376E-1,-2.3737024E-1,2.3018244E-1,-2.577478E-1,3.368503E-1,8.550876E-1,4.4814372E-1],"categories":[],"categories_nodes":[],"categories_segments":[],"categories_sizes":[],"default_left":[0,0,0,0,0,0,0,0,0,0,0,0,0,0,0,0,0,0,0,0,0,0,0,0,0,0,0,0,0,0,0,0,0,0,0,0,0,0,0,0,0,0,0,0,0,0,0,0,0,0,0,0,0,0,0,0,0,0,0,0,0],"id":3,"left_children":[1,3,5,7,9,11,13,15,17,19,21,23,25,27,29,31,33,35,37,39,41,43,45,47,49,-1,51,53,55,57,59,-1,-1,-1,-1,-1,-1,-1,-1,-1,-1,-1,-1,-1,-1,-1,-1,-1,-1,-1,-1,-1,-1,-1,-1,-1,-1,-1,-1,-1,-1],"loss_changes":[1.3350154E4,9.828491E2,2.331667E3,5.7599023E2,5.2931354E2,5.8695044E2,4.403877E2,1.7795654E2,3.44416E2,2.850488E2,4.2225162E2,4.6842737E2,5.753905E2,4.9106006E2,5.6625146E2,1.379956E2,3.0759644E2,1.8652729E1,8.744812E0,2.50285E2,8.638875E1,2.0190222E2,3.215885E2,4.0222952E2,3.419851E2,0E0,3.4728668E2,2.6062305E2,5.178879E1,1.3921289E2,4.8044238E2,0E0,0E0,0E0,0E0,0E0,0E0,0E0,0E0,0E0,0E0,0E0,0E0,0E0,0E0,0E0,0E0,0E0,0E0,0E0,0E0,0E0,0E0,0E0,0E0,0E0,0E0,0E0,0E0,0E0,0E0],"parents":[2147483647,0,0,1,1,2,2,3,3,4,4,5,5,6,6,7,7,8,8,9,9,10,10,11,11,12,12,13,13,14,14,15,15,16,16,17,17,18,18,19,19,20,20,21,21,22,22,23,23,24,24,26,26,27,27,28,28,29,29,30,30],"right_children":[2,4,6,8,10,12,14,16,18,20,22,24,26,28,30,32,34,36,38,40,42,44,46,48,50,-1,52,54,56,58,60,-1,-1,-1,-1,-1,-1,-1,-1,-1,-1,-1,-1,-1,-1,-1,-1,-1,-1,-1,-1,-1,-1,-1,-1,-1,-1,-1,-1,-1,-1],"split_conditions":[4E0,1.2224074E1,6.75E0,7E0,1.99E1,1.25E-1,1.59E1,2.2E0,1.1921807E1,2.3333333E0,2.962963E-1,-9.433722E-1,1.2290943E1,1.29E1,5.5E0,1.880597E0,8.25E-1,2.5E-1,3.7666667E0,3.5E0,1.175E1,-3.5E0,8.2E0,2.3E1,8.7058824E-1,1.376626E0,1.2E0,2.5E0,1.55E1,8.4166664E-1,1.9166666E1,-1.1697339E-1,-2.0245802E-1,-1.2636004E-1,3.068896E-1,1.9928013E-1,-1.2065053E-1,3.7797236E-1,1.4855679E0,-6.3486733E-3,-1.11887805E-1,6.1360157E-1,-2.0734473E-1,4.8085007E-1,-5.8597017E-2,-3.446592E-2,1.165253E0,-3.677391E-2,1.3912493E0,1.9558844E-1,-1.5089923E-1,3.0907524E-1,1.6668075E0,5.0223553E-1,2.877376E-1,-2.3737024E-1,2.3018244E-1,-2.577478E-1,3.368503E-1,8.550876E-1,4.4814372E-1],"split_indices":[10,77,10,75,43,7,0,10,77,7,56,29,77,44,6,53,37,17,0,60,0,59,0,24,74,0,27,59,0,37,0,0,0,0,0,0,0,0,0,0,0,0,0,0,0,0,0,0,0,0,0,0,0,0,0,0,0,0,0,0,0],"split_type":[0,0,0,0,0,0,0,0,0,0,0,0,0,0,0,0,0,0,0,0,0,0,0,0,0,0,0,0,0,0,0,0,0,0,0,0,0,0,0,0,0,0,0,0,0,0,0,0,0,0,0,0,0,0,0,0,0,0,0,0,0],"sum_hessian":[3.999E3,2.661E3,1.338E3,1.69E3,9.71E2,9.35E2,4.03E2,1.681E3,9E0,9.3E2,4.1E1,8.49E2,8.6E1,2.63E2,1.4E2,1.478E3,2.03E2,6E0,3E0,9.22E2,8E0,3.1E1,1E1,1.43E2,7.06E2,5E0,8.1E1,2.48E2,1.5E1,1.4E1,1.26E2,2.29E2,1.249E3,1.86E2,1.7E1,4E0,2E0,1E0,2E0,3.88E2,5.34E2,7E0,1E0,9E0,2.2E1,3E0,7E0,1.42E2,1E0,6.77E2,2.9E1,8E1,1E0,1.46E2,1.02E2,1.3E1,2E0,8E0,6E0,6.8E1,5.8E1],"tree_param":{"num_deleted":"0","num_feature":"78","num_nodes":"61","size_leaf_vector":"1"}},{"base_weights":[8.588194E-2,-9.895361E-1,2.8868477E0,-1.7409755E0,-4.4176564E-1,5.1245737E0,2.2731218E0,-1.7995776E0,1.233085E0,-5.1153827E-1,4.560321E0,5.583885E-1,5.635982E0,3.2418334E0,1.6381289E0,-1.9842093E0,-1.2823234E0,-1.3567321E0,3.1870067E0,2.0508099E-1,-7.9954576E-1,7.019616E0,-3.4096546E-2,3.6658063E0,-1.113679E0,1.2653204E0,6.132261E0,1.428657E0,3.9608645E0,-3.8126537E-1,1.9232845E0,-2.0908701E-1,-3.851706E-2,-1.387779E-1,2.93869E-1,-2.6389143E-1,1.3490549E-2,4.2623377E-1,1.02617614E-1,8.487042E-2,-9.322247E-2,-8.751558E-2,2.5658318E-1,-1.4456539E-1,7.7346826E-1,-3.3319733E-1,3.2505995E-1,6.0462636E-1,-7.963312E-2,2.2961462E-1,-2.3471752E-1,4.8230848E-1,-1.3591772E-1,6.774861E-1,3.271849E-1,9.582794E-3,4.3459654E-1,5.1699735E-2,4.494028E-1,-1.05078295E-1,6.472374E-1,2.08915E-1,-1.8417968E-1],"categories":[],"categories_nodes":[],"categories_segments":[],"categories_sizes":[],"default_left":[0,0,0,0,0,0,0,0,0,0,0,0,0,0,0,0,0,0,0,0,0,0,0,0,0,0,0,0,0,0,0,0,0,0,0,0,0,0,0,0,0,0,0,0,0,0,0,0,0,0,0,0,0,0,0,0,0,0,0,0,0,0,0],"id":4,"left_children":[1,3,5,7,9,11,13,15,17,19,21,23,25,27,29,31,33,35,37,39,41,43,45,47,49,51,53,55,57,59,61,-1,-1,-1,-1,-1,-1,-1,-1,-1,-1,-1,-1,-1,-1,-1,-1,-1,-1,-1,-1,-1,-1,-1,-1,-1,-1,-1,-1,-1,-1,-1,-1],"loss_changes":[1.1997663E4,1.1836443E3,1.5051631E3,2.1368506E2,5.8337646E2,5.4967334E2,5.287446E2,1.10775635E2,1.2595413E2,3.3953137E2,2.6081555E2,1.3423306E2,4.5351172E2,4.4098193E2,3.0435608E2,1.4818213E2,1.4458405E2,2.1644464E1,2.7627747E1,3.4628506E2,3.005536E2,1.0260895E2,1.0833174E2,1.00937164E2,7.689666E1,2.2166074E2,3.2790625E2,3.8407837E2,4.4703076E2,3.091086E2,2.9238977E2,0E0,0E0,0E0,0E0,0E0,0E0,0E0,0E0,0E0,0E0,0E0,0E0,0E0,0E0,0E0,0E0,0E0,0E0,0E0,0E0,0E0,0E0,0E0,0E0,0E0,0E0,0E0,0E0,0E0,0E0,0E0,0E0],"parents":[2147483647,0,0,1,1,2,2,3,3,4,4,5,5,6,6,7,7,8,8,9,9,10,10,11,11,12,12,13,13,14,14,15,15,16,16,17,17,18,18,19,19,20,20,21,21,22,22,23,23,24,24,25,25,26,26,27,27,28,28,29,29,30,30],"right_children":[2,4,6,8,10,12,14,16,18,20,22,24,26,28,30,32,34,36,38,40,42,44,46,48,50,52,54,56,58,60,62,-1,-1,-1,-1,-1,-1,-1,-1,-1,-1,-1,-1,-1,-1,-1,-1,-1,-1,-1,-1,-1,-1,-1,-1,-1,-1,-1,-1,-1,-1,-1,-1],"split_conditions":[4.5E0,1.1966926E1,1.2276714E1,2.75E0,2E0,-8.1079876E-1,1E0,2.9295948E-1,1.975E1,1E0,2.901099E0,3.95E1,1.2152043E1,3.4E0,2E0,9.415584E-1,5E-1,1.1789289E1,1.6666667E-1,8.2323235E-1,1.175E1,3E-1,1.2311593E1,2.075E1,4.0983605E-1,5.8560516E-3,7.1875E-1,2.375E1,-1.0509623E0,7.6E1,1.2E1,-2.0908701E-1,-3.851706E-2,-1.387779E-1,2.93869E-1,-2.6389143E-1,1.3490549E-2,4.2623377E-1,1.02617614E-1,8.487042E-2,-9.322247E-2,-8.751558E-2,2.5658318E-1,-1.4456539E-1,7.7346826E-1,-3.3319733E-1,3.2505995E-1,6.0462636E-1,-7.963312E-2,2.2961462E-1,-2.3471752E-1,4.8230848E-1,-1.3591772E-1,6.774861E-1,3.271849E-1,9.582794E-3,4.3459654E-1,5.1699735E-2,4.494028E-1,-1.05078295E-1,6.472374E-1,2.08915E-1,-1.8417968E-1],"split_indices":[10,77,77,10,7,29,38,58,57,38,53,62,77,44,30,74,3,77,18,11,0,44,77,57,74,29,74,57,29,69,70,0,0,0,0,0,0,0,0,0,0,0,0,0,0,0,0,0,0,0,0,0,0,0,0,0,0,0,0,0,0,0,0],"split_type":[0,0,0,0,0,0,0,0,0,0,0,0,0,0,0,0,0,0,0,0,0,0,0,0,0,0,0,0,0,0,0,0,0,0,0,0,0,0,0,0,0,0,0,0,0,0,0,0,0,0,0,0,0,0,0,0,0,0,0,0,0,0,0],"sum_hessian":[3.981E3,2.877E3,1.104E3,1.212E3,1.665E3,2.36E2,8.68E2,1.189E3,2.3E1,1.643E3,2.2E1,2.4E1,2.12E2,3.42E2,5.26E2,8.74E2,3.15E2,1E1,1.3E1,4.71E2,1.172E3,1.4E1,8E0,8E0,1.6E1,2.2E1,1.9E2,9.8E1,2.44E2,6.5E1,4.61E2,8.19E2,5.5E1,3.08E2,7E0,5E0,5E0,8E0,5E0,3.01E2,1.7E2,1.147E3,2.5E1,1E0,1.3E1,4E0,4E0,5E0,3E0,4E0,1.2E1,9E0,1.3E1,1.54E2,3.6E1,6.8E1,3E1,3.3E1,2.11E2,6E1,5E0,4.42E2,1.9E1],"tree_param":{"num_deleted":"0","num_feature":"78","num_nodes":"63","size_leaf_vector":"1"}},{"base_weights":[9.054184E-2,-8.871305E-1,2.4616573E0,-1.2700503E0,-7.143161E-2,1.8561699E0,4.1605344E0,-1.3412836E0,1.9463445E0,9.4431114E-1,-4.7714397E-1,1.4520816E0,4.0533137E0,3.0298855E0,5.7636294E0,-1.7658598E0,-1.1046455E0,2.9446223E0,-3.4514184E0,-1.3232172E0,1.4171824E0,-5.7986045E-1,2.325996E0,2.4892387E0,8.3860767E-1,3.43547E0,1.654176E0,6.394064E0,2.2913282E0,6.8109336E0,1.0682682E0,-1.9364735E-1,-9.49031E-2,-1.2235977E-1,5.2406E-2,5.7440572E-3,5.2464956E-1,-4.0336862E-1,-1.2971662E-1,1.6170828E-1,-1.8195988E-1,-6.309872E-2,1.9823419E-1,-1.2185408E-1,-2.456574E-2,3.4020403E-1,-3.610725E-1,3.1826985E-1,-1.5619345E-2,3.16302E-2,1.8804982E-1,4.9458053E-2,4.492871E-1,1.1832441E0,2.5344154E-1,1.8981342E-1,9.0207577E-1,7.9289454E-1,2.1162747E-1,2.4469519E-1,-2.615243E-1],"categories":[],"categories_nodes":[],"categories_segments":[],"categories_sizes":[],"default_left":[0,0,0,0,0,0,0,0,0,0,0,0,0,0,0,0,0,0,0,0,0,0,0,0,0,0,0,0,0,0,0,0,0,0,0,0,0,0,0,0,0,0,0,0,0,0,0,0,0,0,0,0,0,0,0,0,0,0,0,0,0],"id":5,"left_children":[1,3,5,7,9,11,13,15,17,19,21,23,25,27,29,31,33,35,37,39,41,43,45,47,49,51,-1,53,55,57,59,-1,-1,-1,-1,-1,-1,-1,-1,-1,-1,-1,-1,-1,-1,-1,-1,-1,-1,-1,-1,-1,-1,-1,-1,-1,-1,-1,-1,-1,-1],"loss_changes":[9.242582E3,8.815315E2,1.1890225E3,4.426787E2,3.725296E2,7.571062E2,5.3448193E2,1.8664746E2,2.3642802E2,2.7852487E2,1.8717603E2,4.6078345E2,9.673894E2,4.3419995E2,6.066201E2,9.138574E1,2.3513403E2,2.3842157E2,3.015007E0,6.8640686E1,2.491001E2,1.3274635E2,1.5919098E2,4.961151E2,2.4896661E2,3.9532056E2,0E0,6.402621E2,3.7868127E2,5.1758105E2,1.2826407E2,0E0,0E0,0E0,0E0,0E0,0E0,0E0,0E0,0E0,0E0,0E0,0E0,0E0,0E0,0E0,0E0,0E0,0E0,0E0,0E0,0E0,0E0,0E0,0E0,0E0,0E0,0E0,0E0,0E0,0E0],"parents":[2147483647,0,0,1,1,2,2,3,3,4,4,5,5,6,6,7,7,8,8,9,9,10,10,11,11,12,12,13,13,14,14,15,15,16,16,17,17,18,18,19,19,20,20,21,21,22,22,23,23,24,24,25,25,27,27,28,28,29,29,30,30],"right_children":[2,4,6,8,10,12,14,16,18,20,22,24,26,28,30,32,34,36,38,40,42,44,46,48,50,52,-1,54,56,58,60,-1,-1,-1,-1,-1,-1,-1,-1,-1,-1,-1,-1,-1,-1,-1,-1,-1,-1,-1,-1,-1,-1,-1,-1,-1,-1,-1,-1,-1,-1],"split_conditions":[4.125E0,2.6E0,7.3333335E0,2E0,1E0,1.0637144E0,1.2E0,9.52381E-2,1.1E0,6E0,1.175E1,1E0,1.25E-1,6.8E1,1.9166666E1,1.0888889E0,4.8958334E-1,4.611111E0,3.4E0,2E0,-9.433722E-1,2.1839081E-1,1.46E1,7.986111E-1,2.0917912E-1,3.4333332E1,1.654176E0,2.4455445E0,1.4476173E0,2.5E0,1.04E2,-1.9364735E-1,-9.49031E-2,-1.2235977E-1,5.2406E-2,5.7440572E-3,5.2464956E-1,-4.0336862E-1,-1.2971662E-1,1.6170828E-1,-1.8195988E-1,-6.309872E-2,1.9823419E-1,-1.2185408E-1,-2.456574E-2,3.4020403E-1,-3.610725E-1,3.1826985E-1,-1.5619345E-2,3.16302E-2,1.8804982E-1,4.9458053E-2,4.492871E-1,1.1832441E0,2.5344154E-1,1.8981342E-1,9.0207577E-1,7.9289454E-1,2.1162747E-1,2.4469519E-1,-2.615243E-1],"split_indices":[10,10,10,7,38,58,26,55,27,45,0,38,9,61,0,27,56,75,0,60,29,56,44,11,29,5,0,53,29,59,5,0,0,0,0,0,0,0,0,0,0,0,0,0,0,0,0,0,0,0,0,0,0,0,0,0,0,0,0,0,0],"split_type":[0,0,0,0,0,0,0,0,0,0,0,0,0,0,0,0,0,0,0,0,0,0,0,0,0,0,0,0,0,0,0,0,0,0,0,0,0,0,0,0,0,0,0,0,0,0,0,0,0,0,0,0,0,0,0,0,0,0,0,0,0],"sum_hessian":[3.985E3,2.822E3,1.163E3,1.92E3,9.02E2,8.59E2,3.04E2,1.879E3,4.1E1,2.57E2,6.45E2,7.27E2,1.32E2,1.8E2,1.24E2,6.7E2,1.209E3,3.5E1,6E0,4.4E1,2.13E2,6.23E2,2.2E1,2.69E2,4.58E2,1.27E2,5E0,3.1E1,1.49E2,1.01E2,2.3E1,5.53E2,1.17E2,1.127E3,8.2E1,1.6E1,1.9E1,4E0,2E0,6E0,3.8E1,4.6E1,1.67E2,2.13E2,4.1E2,1.9E1,3E0,2.13E2,5.6E1,3.06E2,1.52E2,3.4E1,9.3E1,1.2E1,1.9E1,1.42E2,7E0,8.1E1,2E1,1.7E1,6E0],"tree_param":{"num_deleted":"0","num_feature":"78","num_nodes":"61","size_leaf_vector":"1"}},{"base_weights":[-5.6943566E-2,-8.522336E-1,2.0117826E0,-1.3427602E0,-1.7278428E-1,1.4517716E0,3.488263E0,-1.396277E0,1.2594466E0,-2.1256158E-1,4.5799236E0,1.3292202E0,7.770017E0,2.6258707E0,5.0803146E0,-1.4245846E0,3.3220232E0,-1.2919887E0,4.2168107E0,7.021295E-1,-3.737607E-1,6.714083E-1,2.0214705E0,-4.719313E-1,1.56003E0,-9.2153955E-1,1.0028034E1,-1.9131324E0,2.9036362E0,3.3966281E0,6.79448E0,-1.2196105E-1,-1.925247E-1,-1.8074085E-1,7.0595455E-1,8.6462945E-2,-2.3615532E-1,7.5889784E-1,-1.1886877E-1,5.8484495E-2,7.354538E-1,-7.528087E-2,2.890833E-3,-3.9648812E-2,2.6043603E-1,7.452221E-2,-3.1972432E-1,-1.783841E-1,1.6666943E-1,1.7737547E-1,-2.4445558E-1,1.3680543E0,4.0787694E-1,1.223606E-1,-3.6469525E-1,3.31629E-1,-9.1437094E-2,2.2759862E-1,1.2152541E0,8.113672E-1,3.0808395E-1],"categories":[],"categories_nodes":[],"categories_segments":[],"categories_sizes":[],"default_left":[0,0,0,0,0,0,0,0,0,0,0,0,0,0,0,0,0,0,0,0,0,0,0,0,0,0,0,0,0,0,0,0,0,0,0,0,0,0,0,0,0,0,0,0,0,0,0,0,0,0,0,0,0,0,0,0,0,0,0,0,0],"id":6,"left_children":[1,3,5,7,9,11,13,15,17,19,21,23,25,27,29,31,33,35,37,39,41,-1,43,45,47,49,51,53,55,57,59,-1,-1,-1,-1,-1,-1,-1,-1,-1,-1,-1,-1,-1,-1,-1,-1,-1,-1,-1,-1,-1,-1,-1,-1,-1,-1,-1,-1,-1,-1],"loss_changes":[6.5233193E3,9.541533E2,9.0479834E2,2.3336401E2,2.2777463E2,6.082101E2,4.005271E2,2.2225244E2,2.6228833E2,1.7613435E2,4.0155594E1,3.2760364E2,3.0453717E2,2.5528833E2,2.7894507E2,1.6368896E2,2.0499834E2,4.601776E1,3.013129E2,1.3456494E2,1.5501448E2,0E0,9.709803E0,3.0116888E2,2.5156177E2,2.0823027E1,2.0318115E2,6.9967255E1,2.978938E2,5.1057153E2,2.2373291E2,0E0,0E0,0E0,0E0,0E0,0E0,0E0,0E0,0E0,0E0,0E0,0E0,0E0,0E0,0E0,0E0,0E0,0E0,0E0,0E0,0E0,0E0,0E0,0E0,0E0,0E0,0E0,0E0,0E0,0E0],"parents":[2147483647,0,0,1,1,2,2,3,3,4,4,5,5,6,6,7,7,8,8,9,9,10,10,11,11,12,12,13,13,14,14,15,15,16,16,17,17,18,18,19,19,20,20,22,22,23,23,24,24,25,25,26,26,27,27,28,28,29,29,30,30],"right_children":[2,4,6,8,10,12,14,16,18,20,22,24,26,28,30,32,34,36,38,40,42,-1,44,46,48,50,52,54,56,58,60,-1,-1,-1,-1,-1,-1,-1,-1,-1,-1,-1,-1,-1,-1,-1,-1,-1,-1,-1,-1,-1,-1,-1,-1,-1,-1,-1,-1,-1,-1],"split_conditions":[4.5E0,2.2E0,7.3333335E0,1.3E1,7.25E0,2.1218128E0,9E0,1E0,4.5E0,4E0,1.25E-1,2E0,4.875E0,5.9166664E-1,3.2118458E-1,1E0,1.04761906E-1,6.75E-1,5.296002E-1,1.3E1,3.125E0,6.714083E-1,6.675E0,6.5E0,3.7E1,5E0,2.022E3,6.7E0,5.7575756E-1,1E0,9.277778E0,-1.2196105E-1,-1.925247E-1,-1.8074085E-1,7.0595455E-1,8.6462945E-2,-2.3615532E-1,7.5889784E-1,-1.1886877E-1,5.8484495E-2,7.354538E-1,-7.528087E-2,2.890833E-3,-3.9648812E-2,2.6043603E-1,7.452221E-2,-3.1972432E-1,-1.783841E-1,1.6666943E-1,1.7737547E-1,-2.4445558E-1,1.3680543E0,4.0787694E-1,1.223606E-1,-3.6469525E-1,3.31629E-1,-9.1437094E-2,2.2759862E-1,1.2152541E0,8.113672E-1,3.0808395E-1],"split_indices":[10,10,10,9,9,29,45,56,60,71,4,30,10,37,29,16,55,37,16,45,10,0,0,60,61,0,49,46,18,40,46,0,0,0,0,0,0,0,0,0,0,0,0,0,0,0,0,0,0,0,0,0,0,0,0,0,0,0,0,0,0],"split_type":[0,0,0,0,0,0,0,0,0,0,0,0,0,0,0,0,0,0,0,0,0,0,0,0,0,0,0,0,0,0,0,0,0,0,0,0,0,0,0,0,0,0,0,0,0,0,0,0,0,0,0,0,0,0,0,0,0,0,0,0,0],"sum_hessian":[3.963E3,2.863E3,1.1E3,1.662E3,1.201E3,7.99E2,3.01E2,1.629E3,3.3E1,1.192E3,9E0,7.85E2,1.4E1,1.97E2,1.04E2,1.62E3,9E0,1.8E1,1.5E1,1.78E2,1.014E3,4E0,5E0,8.9E1,6.96E2,3E0,1.1E1,1.1E1,1.86E2,5.4E1,5E1,1.152E3,4.68E2,4E0,5E0,6E0,1.2E1,9E0,6E0,1.76E2,2E0,5.22E2,4.92E2,1E0,4E0,6.2E1,2.7E1,2.1E1,6.75E2,1E0,2E0,6E0,5E0,4E0,7E0,1.68E2,1.8E1,4.9E1,5E0,3.6E1,1.4E1],"tree_param":{"num_deleted":"0","num_feature":"78","num_nodes":"61","size_leaf_vector":"1"}},{"base_weights":[2.5046764E-2,-5.6856483E-1,2.4506836E0,-9.2732245E-1,3.603408E-1,3.4431033E0,1.4840122E0,-9.696103E-1,3.0047064E0,-3.0120787E-1,8.832753E-1,1.8509649E0,4.4781604E0,1.7781477E0,-1.0771047E0,-7.93469E-1,-1.5054411E0,5.013915E-1,6.1360717E0,-9.876247E-2,-2.5343537E0,-9.4182265E-5,1.604364E0,9.69235E-2,2.7092261E0,4.2810526E0,1.1270922E1,1.7105132E0,1.3013262E0,3.7924585E0,-2.7204826E0,-8.2093224E-2,5.2321404E-1,1.5280531E-1,-1.5961535E-1,-1.2241285E-1,2.1767376E-1,7.182904E-1,-2.1161269E-1,1.3402714E-2,-2.239168E-1,-2.835615E-1,1.3901305E-1,1.6732687E-1,-4.707012E-2,2.3182736E-1,4.360048E-3,1.3381241E-1,-1.7942834E-1,1.4456974E-1,4.397091E-1,3.3714065E-1,5.632365E-1,1.2589486E0,2.2890504E-1,1.1583294E-1,2.9872915E-1,6.9013107E-1,-1.2984258E-1,1.3389322E-1,-3.0390745E-1],"categories":[],"categories_nodes":[],"categories_segments":[],"categories_sizes":[],"default_left":[0,0,0,0,0,0,0,0,0,0,0,0,0,0,0,0,0,0,0,0,0,0,0,0,0,0,0,0,0,0,0,0,0,0,0,0,0,0,0,0,0,0,0,0,0,0,0,0,0,0,0,0,0,0,0,0,0,0,0,0,0],"id":7,"left_children":[1,3,5,7,9,11,13,15,17,19,21,23,25,27,29,31,33,35,37,39,41,43,45,47,49,51,53,55,-1,57,59,-1,-1,-1,-1,-1,-1,-1,-1,-1,-1,-1,-1,-1,-1,-1,-1,-1,-1,-1,-1,-1,-1,-1,-1,-1,-1,-1,-1,-1,-1],"loss_changes":[5.7856045E3,1.0761284E3,7.522788E2,3.8996863E2,3.1167624E2,6.321323E2,3.048181E2,2.1612598E2,1.9222954E2,1.7941826E2,3.205654E2,2.3279785E2,2.6483594E2,2.5058496E2,3.463165E2,2.912976E2,1.5902075E2,4.6122517E1,1.10731964E2,1.828753E2,4.3102173E1,1.7942902E2,3.083084E2,1.2441846E2,2.1485608E2,2.6283057E2,4.0753235E1,2.4993091E2,0E0,1.8361601E2,4.5624634E1,0E0,0E0,0E0,0E0,0E0,0E0,0E0,0E0,0E0,0E0,0E0,0E0,0E0,0E0,0E0,0E0,0E0,0E0,0E0,0E0,0E0,0E0,0E0,0E0,0E0,0E0,0E0,0E0,0E0,0E0],"parents":[2147483647,0,0,1,1,2,2,3,3,4,4,5,5,6,6,7,7,8,8,9,9,10,10,11,11,12,12,13,13,14,14,15,15,16,16,17,17,18,18,19,19,20,20,21,21,22,22,23,23,24,24,25,25,26,26,27,27,29,29,30,30],"right_children":[2,4,6,8,10,12,14,16,18,20,22,24,26,28,30,32,34,36,38,40,42,44,46,48,50,52,54,56,-1,58,60,-1,-1,-1,-1,-1,-1,-1,-1,-1,-1,-1,-1,-1,-1,-1,-1,-1,-1,-1,-1,-1,-1,-1,-1,-1,-1,-1,-1,-1,-1],"split_conditions":[5.125E0,3.125E0,1E0,1.99E1,7.25E-1,1E0,1.18E1,1E0,4.5E0,1.025E1,6.857143E0,4.3333335E0,7.8E1,1.24716425E1,1.2213967E1,7.25E0,8.333333E-1,1E0,9.2268753E-1,6E0,7.5E1,2.5E0,9E0,6.7E0,1E0,1E0,1.1666666E0,7.1E0,1.3013262E0,1.4833333E1,5E0,-8.2093224E-2,5.2321404E-1,1.5280531E-1,-1.5961535E-1,-1.2241285E-1,2.1767376E-1,7.182904E-1,-2.1161269E-1,1.3402714E-2,-2.239168E-1,-2.835615E-1,1.3901305E-1,1.6732687E-1,-4.707012E-2,2.3182736E-1,4.360048E-3,1.3381241E-1,-1.7942834E-1,1.4456974E-1,4.397091E-1,3.3714065E-1,5.632365E-1,1.2589486E0,2.2890504E-1,1.1583294E-1,2.9872915E-1,6.9013107E-1,-1.2984258E-1,1.3389322E-1,-3.0390745E-1],"split_indices":[10,10,38,43,37,27,44,16,60,46,46,6,61,77,77,75,27,25,29,70,5,60,45,46,33,33,27,44,0,76,45,0,0,0,0,0,0,0,0,0,0,0,0,0,0,0,0,0,0,0,0,0,0,0,0,0,0,0,0,0,0],"split_type":[0,0,0,0,0,0,0,0,0,0,0,0,0,0,0,0,0,0,0,0,0,0,0,0,0,0,0,0,0,0,0,0,0,0,0,0,0,0,0,0,0,0,0,0,0,0,0,0,0,0,0,0,0,0,0,0,0,0,0,0,0],"sum_hessian":[4.016E3,3.227E3,7.89E2,2.328E3,8.99E2,3.88E2,4.01E2,2.304E3,2.4E1,3.97E2,5.02E2,1.54E2,2.34E2,3.6E2,4.1E1,1.736E3,5.68E2,1.4E1,1E1,3.65E2,3.2E1,2.26E2,2.76E2,5.1E1,1.03E2,2.29E2,5E0,3.59E2,1E0,1E1,3.1E1,1.729E3,7E0,1.6E1,5.52E2,7E0,7E0,9E0,1E0,3.3E2,3.5E1,3E1,2E0,4.9E1,1.77E2,1.89E2,8.7E1,3.1E1,2E1,6E1,4.3E1,1.39E2,9E1,4E0,1E0,2.52E2,1.07E2,6E0,4E0,2E0,2.9E1],"tree_param":{"num_deleted":"0","num_feature":"78","num_nodes":"61","size_leaf_vector":"1"}},{"base_weights":[3.3867367E-2,-6.197942E-1,1.7710557E0,-9.954286E-1,-1.16559856E-1,1.4367388E0,4.1984076E0,-1.0218245E0,5.39208E0,-2.7169657E-1,1.1602806E0,1.1039888E0,3.1790996E0,1.4305674E0,5.220404E0,-1.0444236E0,2.4518492E0,5.9505492E-2,1.2449011E0,2.3763129E-1,-5.327101E-1,1.8814315E0,-2.6247866E0,-5.976539E-1,1.4478718E0,3.7794006E0,-7.980159E-1,2.9003344E0,-2.8178365E0,9.502378E0,3.9672217E0,-1.0702089E-1,1.8308555E-1,-1.7908582E-1,6.302582E-1,-7.023801E-2,8.348893E-2,-1.6074847E-1,6.419224E-2,7.960867E-2,-7.531395E-2,3.5795262E-1,1.7845148E-2,-4.040175E-1,-1.2031692E-2,-8.770678E-2,4.0050277E-1,-1.1604939E-1,1.5711455E-1,1.8838383E-1,5.0341076E-1,-2.2954765E-1,6.1150604E-1,6.394409E-1,-1.1362213E-2,-3.8440257E-1,-2.9254684E-2,5.8039016E-1,1.605592E0,5.579912E-1,8.3012074E-2],"categories":[],"categories_nodes":[],"categories_segments":[],"categories_sizes":[],"default_left":[0,0,0,0,0,0,0,0,0,0,0,0,0,0,0,0,0,0,0,0,0,0,0,0,0,0,0,0,0,0,0,0,0,0,0,0,0,0,0,0,0,0,0,0,0,0,0,0,0,0,0,0,0,0,0,0,0,0,0,0,0],"id":8,"left_children":[1,3,5,7,9,11,13,15,17,19,21,23,25,27,29,31,33,35,-1,37,39,41,43,45,47,49,51,53,55,57,59,-1,-1,-1,-1,-1,-1,-1,-1,-1,-1,-1,-1,-1,-1,-1,-1,-1,-1,-1,-1,-1,-1,-1,-1,-1,-1,-1,-1,-1,-1],"loss_changes":[4.5478877E3,5.498562E2,8.8200244E2,2.8596667E2,2.4684201E2,5.549608E2,3.652583E2,1.3273352E2,2.6142963E2,1.4785406E2,3.733606E2,4.7552008E2,3.70984E2,2.3921497E2,4.7609985E2,1.2421411E2,1.9145103E2,3.5534286E0,0E0,2.8216373E2,2.1588106E2,3.2865308E2,7.7083405E1,1.7938916E2,2.1890552E2,3.0852686E2,2.3104825E2,2.962223E2,2.437603E1,4.136277E2,3.79224E2,0E0,0E0,0E0,0E0,0E0,0E0,0E0,0E0,0E0,0E0,0E0,0E0,0E0,0E0,0E0,0E0,0E0,0E0,0E0,0E0,0E0,0E0,0E0,0E0,0E0,0E0,0E0,0E0,0E0,0E0],"parents":[2147483647,0,0,1,1,2,2,3,3,4,4,5,5,6,6,7,7,8,8,9,9,10,10,11,11,12,12,13,13,14,14,15,15,16,16,17,17,19,19,20,20,21,21,22,22,23,23,24,24,25,25,26,26,27,27,28,28,29,29,30,30],"right_children":[2,4,6,8,10,12,14,16,18,20,22,24,26,28,30,32,34,36,-1,38,40,42,44,46,48,50,52,54,56,58,60,-1,-1,-1,-1,-1,-1,-1,-1,-1,-1,-1,-1,-1,-1,-1,-1,-1,-1,-1,-1,-1,-1,-1,-1,-1,-1,-1,-1,-1,-1],"split_conditions":[4.375E0,2.2E0,6.25E0,8.424242E0,8.75E0,1.1615113E0,2.2881355E0,1E0,3.75E0,2.901096E-1,4.456522E-1,2.0833333E-1,2.4375E0,2.2077923E0,2.440367E0,8.9E1,1.08333334E-1,3.25E0,1.2449011E0,2.0707965E0,4E0,9E0,2.4455445E0,5.125E0,1.9204998E-1,1.45E1,-2E0,9.25E0,4E0,4.2372882E-1,6E0,-1.0702089E-1,1.8308555E-1,-1.7908582E-1,6.302582E-1,-7.023801E-2,8.348893E-2,-1.6074847E-1,6.419224E-2,7.960867E-2,-7.531395E-2,3.5795262E-1,1.7845148E-2,-4.040175E-1,-1.2031692E-2,-8.770678E-2,4.0050277E-1,-1.1604939E-1,1.5711455E-1,1.8838383E-1,5.0341076E-1,-2.2954765E-1,6.1150604E-1,6.394409E-1,-1.1362213E-2,-3.8440257E-1,-2.9254684E-2,5.8039016E-1,1.605592E0,5.579912E-1,8.3012074E-2],"split_indices":[54,54,6,75,0,58,53,56,7,16,56,56,17,53,53,69,12,7,0,53,50,45,53,6,16,43,59,54,59,56,60,0,0,0,0,0,0,0,0,0,0,0,0,0,0,0,0,0,0,0,0,0,0,0,0,0,0,0,0,0,0],"split_type":[0,0,0,0,0,0,0,0,0,0,0,0,0,0,0,0,0,0,0,0,0,0,0,0,0,0,0,0,0,0,0,0,0,0,0,0,0,0,0,0,0,0,0,0,0,0,0,0,0,0,0,0,0,0,0,0,0,0,0,0,0],"sum_hessian":[4.003E3,2.909E3,1.094E3,1.665E3,1.244E3,9.63E2,1.31E2,1.659E3,6E0,1.11E3,1.34E2,8.1E2,1.53E2,3.6E1,9.5E1,1.649E3,1E1,4E0,2E0,3.76E2,7.34E2,1.13E2,2.1E1,1.36E2,6.74E2,1.33E2,2E1,2.7E1,9E0,2E1,7.5E1,1.635E3,1.4E1,5E0,5E0,2E0,2E0,6.7E1,3.09E2,1.04E2,6.3E2,5.6E1,5.7E1,1.3E1,8E0,1.29E2,7E0,3E1,6.44E2,5.4E1,7.9E1,1.7E1,3E0,1.2E1,1.5E1,6E0,3E0,1.4E1,6E0,4.9E1,2.6E1],"tree_param":{"num_deleted":"0","num_feature":"78","num_nodes":"61","size_leaf_vector":"1"}},{"base_weights":[2.4929313E-2,-5.058281E-1,1.7621889E0,-9.208015E-1,1.0522457E-2,1.446144E0,4.0679283E0,-9.5094675E-1,3.0449784E0,-1.9371016E0,1.2551384E-1,1.0368432E0,3.0839024E0,1.1590096E1,3.5318613E0,-5.1709586E-1,-1.1888766E0,8.204486E0,-1.4863488E-1,-2.8407357E0,9.180499E-1,7.453915E-1,-1.4540875E-1,8.792102E-1,4.3144965E0,3.7192674E0,-7.7319616E-1,1.7074282E0,3.1833873E0,3.9287527E0,-1.1711637E0,-5.8718313E-2,4.1238552E-1,3.54867E-1,-1.2185748E-1,2.0217334E-1,1.1619077E0,-2.0165169E-1,1.1047256E-1,-3.059313E-1,8.498847E-2,5.48208E-1,-1.09639525E-1,5.6485027E-2,4.0702158E-1,-1.7348493E-2,6.140968E-1,3.0908633E-2,1.5833382E-1,4.8472844E-2,5.6805605E-1,3.1022242E-1,9.548446E-1,-3.5142988E-1,1.4286128E-1,5.1216718E-2,3.8697383E-1,3.4346557E-1,1.2412026E0,4.316189E-1,-3.3698627E-1],"categories":[],"categories_nodes":[],"categories_segments":[],"categories_sizes":[],"default_left":[0,0,0,0,0,0,0,0,0,0,0,0,0,0,0,0,0,0,0,0,0,0,0,0,0,0,0,0,0,0,0,0,0,0,0,0,0,0,0,0,0,0,0,0,0,0,0,0,0,0,0,0,0,0,0,0,0,0,0,0,0],"id":9,"left_children":[1,3,5,7,9,11,13,15,17,19,21,23,25,27,29,31,33,35,37,39,41,43,45,47,49,51,53,-1,55,57,59,-1,-1,-1,-1,-1,-1,-1,-1,-1,-1,-1,-1,-1,-1,-1,-1,-1,-1,-1,-1,-1,-1,-1,-1,-1,-1,-1,-1,-1,-1],"loss_changes":[3.68005E3,6.5512946E2,6.74188E2,2.053219E2,3.0531946E2,5.480768E2,4.0918042E2,1.7294421E2,2.1623218E2,1.9888113E2,2.1647362E2,3.3668707E2,4.0507947E2,2.6634784E2,2.027356E2,1.9658006E2,1.568872E2,8.0703125E1,2.3389042E1,4.9608734E1,1.8113489E2,2.3254245E2,1.5878682E2,2.5263016E2,1.5358124E2,4.7627014E2,1.5007835E2,0E0,4.913437E0,3.66557E2,1.2303566E2,0E0,0E0,0E0,0E0,0E0,0E0,0E0,0E0,0E0,0E0,0E0,0E0,0E0,0E0,0E0,0E0,0E0,0E0,0E0,0E0,0E0,0E0,0E0,0E0,0E0,0E0,0E0,0E0,0E0,0E0],"parents":[2147483647,0,0,1,1,2,2,3,3,4,4,5,5,6,6,7,7,8,8,9,9,10,10,11,11,12,12,13,13,14,14,15,15,16,16,17,17,18,18,19,19,20,20,21,21,22,22,23,23,24,24,25,25,26,26,28,28,29,29,30,30],"right_children":[2,4,6,8,10,12,14,16,18,20,22,24,26,28,30,32,34,36,38,40,42,44,46,48,50,52,54,-1,56,58,60,-1,-1,-1,-1,-1,-1,-1,-1,-1,-1,-1,-1,-1,-1,-1,-1,-1,-1,-1,-1,-1,-1,-1,-1,-1,-1,-1,-1,-1,-1],"split_conditions":[5E0,2.3333333E0,6.3333335E0,7.7916665E0,-1.6855675E0,1.0637144E0,4.5E1,1.8518518E-1,-4E0,3E0,1E0,1.9E1,2.901099E0,1.7933332E1,5.0526314E0,8.9E1,-1E0,3.8666666E0,2.60177E0,5.8064514E-1,1E0,1.25E-1,1.0833334E0,7.436169E-2,1E0,2.6782608E0,2.4242425E-1,1.7074282E0,7.95E1,3.0833333E0,1.1E0,-5.8718313E-2,4.1238552E-1,3.54867E-1,-1.2185748E-1,2.0217334E-1,1.1619077E0,-2.0165169E-1,1.1047256E-1,-3.059313E-1,8.498847E-2,5.48208E-1,-1.09639525E-1,5.6485027E-2,4.0702158E-1,-1.7348493E-2,6.140968E-1,3.0908633E-2,1.5833382E-1,4.8472844E-2,5.6805605E-1,3.1022242E-1,9.548446E-1,-3.5142988E-1,1.4286128E-1,5.1216718E-2,3.8697383E-1,3.4346557E-1,1.2412026E0,4.316189E-1,-3.3698627E-1],"split_indices":[10,10,6,75,29,58,61,56,59,44,38,50,53,0,21,61,21,0,53,56,38,9,37,29,51,53,47,0,5,21,26,0,0,0,0,0,0,0,0,0,0,0,0,0,0,0,0,0,0,0,0,0,0,0,0,0,0,0,0,0,0],"split_type":[0,0,0,0,0,0,0,0,0,0,0,0,0,0,0,0,0,0,0,0,0,0,0,0,0,0,0,0,0,0,0,0,0,0,0,0,0,0,0,0,0,0,0,0,0,0,0,0,0,0,0,0,0,0,0,0,0,0,0,0,0],"sum_hessian":[3.989E3,3.056E3,9.33E2,1.694E3,1.362E3,8.22E2,1.11E2,1.682E3,1.2E1,7.5E1,1.287E3,6.59E2,1.63E2,6E0,1.05E2,5.97E2,1.085E3,4E0,8E0,5.7E1,1.8E1,3.91E2,8.96E2,6.3E2,2.9E1,1.4E2,2.3E1,3E0,3E0,9.7E1,8E0,5.89E2,8E0,6E0,1.079E3,2E0,2E0,3E0,5E0,5.4E1,3E0,5E0,1.3E1,3.72E2,1.9E1,8.93E2,3E0,3.49E2,2.81E2,8E0,2.1E1,1.28E2,1.2E1,1E1,1.3E1,1E0,2E0,9.3E1,4E0,2E0,6E0],"tree_param":{"num_deleted":"0","num_feature":"78","num_nodes":"61","size_leaf_vector":"1"}},{"base_weights":[8.928154E-2,-3.6648688E-1,1.9998097E0,-7.706842E-1,2.3169346E-1,2.859691E0,1.2680947E0,-5.760661E-1,-1.2437137E0,1.2833522E-1,2.587478E0,1.614255E0,3.7681997E0,1.9668252E0,2.571632E-1,-6.0901445E-1,5.018772E0,-1.1177374E0,-2.4115698E0,2.5719467E-1,-1.1898031E0,4.1892276E0,-2.2810373E0,2.4958591E0,-1.2678577E-1,6.558143E0,3.22028E0,-2.778341E0,2.2031994E0,-5.3879225E-1,4.6148655E-1,-8.221514E-2,-6.389774E-3,9.8188174E-1,1.7656206E-1,-9.664693E-2,-2.4944317E-1,-2.676682E-1,2.8658536E-1,1.7459711E-2,1.9912182E-1,1.0307326E-1,-1.6958192E-1,4.4105068E-2,5.5455244E-1,-2.9892096E-1,3.4126016E-1,-1.04741445E-2,3.9851665E-1,-1.1602087E-1,2.2000901E-1,4.2566228E-1,1.4155482E0,5.3509474E-1,2.0386553E-1,2.9361597E-1,-3.5738558E-1,3.526549E-1,1.2326737E-1,2.300176E-2,4.436946E-1],"categories":[],"categories_nodes":[],"categories_segments":[],"categories_sizes":[],"default_left":[0,0,0,0,0,0,0,0,0,0,0,0,0,0,0,0,0,0,0,0,0,0,0,0,0,0,0,0,0,0,0,0,0,0,0,0,0,0,0,0,0,0,0,0,0,0,0,0,0,0,0,0,0,0,0,0,0,0,0,0,0],"id":10,"left_children":[1,3,5,7,9,11,13,15,17,19,21,23,25,27,29,31,33,35,37,39,41,43,45,47,49,51,53,55,57,-1,59,-1,-1,-1,-1,-1,-1,-1,-1,-1,-1,-1,-1,-1,-1,-1,-1,-1,-1,-1,-1,-1,-1,-1,-1,-1,-1,-1,-1,-1,-1],"loss_changes":[3.4403918E3,7.715198E2,4.7477295E2,1.7438391E2,3.1276758E2,3.882688E2,2.9100208E2,2.516601E2,7.8457275E1,2.0981331E2,4.3084628E2,2.2925476E2,2.851648E2,2.7974255E2,1.9807567E2,1.560108E2,1.0642746E2,1.0178467E2,8.180472E1,1.6056514E2,1.25413376E2,2.053847E2,6.660773E1,3.8424176E2,1.2508557E2,4.97438E2,4.1635278E2,6.51088E1,2.9442944E2,0E0,1.5034494E2,0E0,0E0,0E0,0E0,0E0,0E0,0E0,0E0,0E0,0E0,0E0,0E0,0E0,0E0,0E0,0E0,0E0,0E0,0E0,0E0,0E0,0E0,0E0,0E0,0E0,0E0,0E0,0E0,0E0,0E0],"parents":[2147483647,0,0,1,1,2,2,3,3,4,4,5,5,6,6,7,7,8,8,9,9,10,10,11,11,12,12,13,13,14,14,15,15,16,16,17,17,18,18,19,19,20,20,21,21,22,22,23,23,24,24,25,25,26,26,27,27,28,28,30,30],"right_children":[2,4,6,8,10,12,14,16,18,20,22,24,26,28,30,32,34,36,38,40,42,44,46,48,50,52,54,56,58,-1,60,-1,-1,-1,-1,-1,-1,-1,-1,-1,-1,-1,-1,-1,-1,-1,-1,-1,-1,-1,-1,-1,-1,-1,-1,-1,-1,-1,-1,-1,-1],"split_conditions":[5.3333335E0,1.2301966E1,1E0,8.375E-1,1.22E1,1E0,2.509434E0,5E-1,9E0,1.05E1,1E0,3.75E-1,5.952381E-1,5.85E0,3.4E1,1E0,-5E0,1.7E1,1.25E0,2E1,-1.4E1,8.846515E-3,1.0777777E0,6.3333335E0,1.1180555E1,5.7738096E-1,1.2252631E1,3E-1,4.428571E0,-5.3879225E-1,1.5696956E0,-8.221514E-2,-6.389774E-3,9.8188174E-1,1.7656206E-1,-9.664693E-2,-2.4944317E-1,-2.676682E-1,2.8658536E-1,1.7459711E-2,1.9912182E-1,1.0307326E-1,-1.6958192E-1,4.4105068E-2,5.5455244E-1,-2.9892096E-1,3.4126016E-1,-1.04741445E-2,3.9851665E-1,-1.1602087E-1,2.2000901E-1,4.2566228E-1,1.4155482E0,5.3509474E-1,2.0386553E-1,2.9361597E-1,-3.5738558E-1,3.526549E-1,1.2326737E-1,2.300176E-2,4.436946E-1],"split_indices":[54,77,38,11,0,27,53,8,43,60,11,4,11,0,61,25,59,50,4,76,59,58,27,54,76,11,77,11,6,0,29,0,0,0,0,0,0,0,0,0,0,0,0,0,0,0,0,0,0,0,0,0,0,0,0,0,0,0,0,0,0],"split_type":[0,0,0,0,0,0,0,0,0,0,0,0,0,0,0,0,0,0,0,0,0,0,0,0,0,0,0,0,0,0,0,0,0,0,0,0,0,0,0,0,0,0,0,0,0,0,0,0,0,0,0,0,0,0,0,0,0,0,0,0,0],"sum_hessian":[3.949E3,3.189E3,7.6E2,1.903E3,1.286E3,3.48E2,4.12E2,1.35E3,5.53E2,1.233E3,5.3E1,1.48E2,2E2,2.43E2,1.69E2,1.343E3,7E0,5.01E2,5.2E1,1.124E3,1.09E2,4E1,1.3E1,9.8E1,5E1,3.1E1,1.69E2,1.1E1,2.32E2,5E0,1.64E2,9.65E2,3.78E2,2E0,5E0,4.53E2,4.8E1,5E1,2E0,1.074E3,5E1,2E1,8.9E1,1.1E1,2.9E1,1.2E1,1E0,3.6E1,6.2E1,3.5E1,1.5E1,2.5E1,6E0,5.9E1,1.1E2,1E0,1E1,9.7E1,1.35E2,1.56E2,8E0],"tree_param":{"num_deleted":"0","num_feature":"78","num_nodes":"61","size_leaf_vector":"1"}},{"base_weights":[6.1144892E-2,-5.003007E-1,1.1626966E0,-7.341096E-1,2.0102356E-1,4.7304952E-1,1.6946819E0,-4.9177432E-1,-1.059305E0,3.9264157E-2,2.7648647E0,-8.1738305E-1,1.0260814E0,3.2122606E-1,2.062688E0,3.9729708E-1,-6.8775266E-1,-1.0796112E0,4.9394298E0,-6.2976325E-1,6.218234E-1,4.8941402E0,-5.9560245E-1,-4.657894E-1,-3.8721611E0,1.0090436E1,8.662385E-1,3.2130466E0,-4.4864208E-1,2.4688854E0,3.9547458E-1,-1.8452037E-2,1.9129726E-1,-9.588793E-2,-9.35902E-3,-9.038288E-2,-1.9353612E-1,-1.6778503E-1,9.1369945E-1,6.207518E-4,-1.4533304E-1,1.2750128E-1,-4.554149E-2,8.089947E-1,1.015838E-1,-1.9066717E-1,1.8906249E-1,1.5636756E-1,-9.313137E-2,8.313324E-2,-4.2036214E-1,4.9711066E-1,1.5225838E0,6.278375E-2,6.250554E-1,3.0906612E-2,4.405994E-1,-8.279516E-2,2.9627845E-1,2.9457664E-1,2.5423398E-2,5.3920937E-1,-1.6025844E-3],"categories":[],"categories_nodes":[],"categories_segments":[],"categories_sizes":[],"default_left":[0,0,0,0,0,0,0,0,0,0,0,0,0,0,0,0,0,0,0,0,0,0,0,0,0,0,0,0,0,0,0,0,0,0,0,0,0,0,0,0,0,0,0,0,0,0,0,0,0,0,0,0,0,0,0,0,0,0,0,0,0,0,0],"id":11,"left_children":[1,3,5,7,9,11,13,15,17,19,21,23,25,27,29,31,33,35,37,39,41,43,45,47,49,51,53,55,57,59,61,-1,-1,-1,-1,-1,-1,-1,-1,-1,-1,-1,-1,-1,-1,-1,-1,-1,-1,-1,-1,-1,-1,-1,-1,-1,-1,-1,-1,-1,-1,-1,-1],"loss_changes":[2.4547026E3,4.3129333E2,4.9060352E2,1.547301E2,2.7250034E2,4.183451E2,3.812119E2,1.9754053E2,1.07390076E2,2.420346E2,2.8240387E2,1.8679373E2,5.8420166E2,3.6015552E2,4.023589E2,1.8130435E2,1.4929956E2,1.2417401E2,9.940581E1,1.5152168E2,2.3427132E2,2.8833466E2,5.5760258E1,1.5161072E2,3.1894226E1,1.0631976E2,5.1397284E2,1.1595282E2,1.6786981E2,5.0481543E2,2.432451E2,0E0,0E0,0E0,0E0,0E0,0E0,0E0,0E0,0E0,0E0,0E0,0E0,0E0,0E0,0E0,0E0,0E0,0E0,0E0,0E0,0E0,0E0,0E0,0E0,0E0,0E0,0E0,0E0,0E0,0E0,0E0,0E0],"parents":[2147483647,0,0,1,1,2,2,3,3,4,4,5,5,6,6,7,7,8,8,9,9,10,10,11,11,12,12,13,13,14,14,15,15,16,16,17,17,18,18,19,19,20,20,21,21,22,22,23,23,24,24,25,25,26,26,27,27,28,28,29,29,30,30],"right_children":[2,4,6,8,10,12,14,16,18,20,22,24,26,28,30,32,34,36,38,40,42,44,46,48,50,52,54,56,58,60,62,-1,-1,-1,-1,-1,-1,-1,-1,-1,-1,-1,-1,-1,-1,-1,-1,-1,-1,-1,-1,-1,-1,-1,-1,-1,-1,-1,-1,-1,-1,-1,-1],"split_conditions":[4E0,8.9E0,-4.1345797E-2,5E0,2.18E1,3E0,2.2666667E-1,4E0,1E0,2.4657533E0,1.2336309E1,1E0,1.74E1,2.5E0,7.5E-1,4.3722484E-1,9.5E0,1.8333334E-1,-1.759039E0,7.436169E-2,1.24E1,2.872093E0,9.047619E-1,3E0,1.75E1,7.5E0,9.666667E0,1.7E0,6E0,8.125E-1,2.975E1,-1.8452037E-2,1.9129726E-1,-9.588793E-2,-9.35902E-3,-9.038288E-2,-1.9353612E-1,-1.6778503E-1,9.1369945E-1,6.207518E-4,-1.4533304E-1,1.2750128E-1,-4.554149E-2,8.089947E-1,1.015838E-1,-1.9066717E-1,1.8906249E-1,1.5636756E-1,-9.313137E-2,8.313324E-2,-4.2036214E-1,4.9711066E-1,1.5225838E0,6.278375E-2,6.250554E-1,3.0906612E-2,4.405994E-1,-8.279516E-2,2.9627845E-1,2.9457664E-1,2.5423398E-2,5.3920937E-1,-1.6025844E-3],"split_indices":[10,43,58,60,43,30,12,71,56,53,76,41,5,60,4,29,76,12,29,29,43,53,11,71,57,43,10,44,10,11,5,0,0,0,0,0,0,0,0,0,0,0,0,0,0,0,0,0,0,0,0,0,0,0,0,0,0,0,0,0,0,0,0],"split_type":[0,0,0,0,0,0,0,0,0,0,0,0,0,0,0,0,0,0,0,0,0,0,0,0,0,0,0,0,0,0,0,0,0,0,0,0,0,0,0,0,0,0,0,0,0,0,0,0,0,0,0,0,0,0,0,0,0,0,0,0,0,0,0],"sum_hessian":[3.967E3,2.628E3,1.339E3,1.971E3,6.57E2,5.84E2,7.55E2,1.131E3,8.4E2,6.19E2,3.8E1,1.75E2,4.09E2,1.6E2,5.95E2,2.04E2,9.27E2,8.38E2,2E0,2.88E2,3.31E2,2.3E1,1.5E1,1.58E2,1.7E1,6E0,4.03E2,3.3E1,1.27E2,4.78E2,1.17E2,1.48E2,5.6E1,6.36E2,2.91E2,6.97E2,1.41E2,1E0,1E0,1.63E2,1.25E2,2.06E2,1.25E2,1.2E1,1.1E1,1E1,5E0,2.9E1,1.29E2,1E0,1.6E1,4E0,2E0,3.87E2,1.6E1,1E1,2.3E1,1.15E2,1.2E1,3.93E2,8.5E1,8E0,1.09E2],"tree_param":{"num_deleted":"0","num_feature":"78","num_nodes":"63","size_leaf_vector":"1"}},{"base_weights":[9.732025E-3,-6.254034E-1,8.7574226E-1,-6.5638834E-1,2.3310187E0,3.3710966E-1,1.4861847E0,-9.058749E-1,-3.7445408E-1,-2.8884277E-1,3.9288583E0,2.516354E-1,3.4280224E0,1.2701366E0,3.170045E0,-2.4911627E-1,-1.0362258E0,-2.7495903E-1,-2.2019634E0,2.1399665E0,-2.2813768E0,7.047982E0,1.6544981E0,4.0139788E-1,-1.1774462E0,6.408546E0,4.0538344E-1,1.5150675E0,-1.2327353E0,1.6616486E0,6.2301183E0,1.5176843E-1,-7.259925E-2,-8.326372E-2,-1.4833526E-1,8.5429364E-1,-2.9217878E-2,-2.4561106E-1,1.6274396E-1,3.337633E-1,-1.2753494E-1,-3.1287992E-1,9.278678E-2,8.293459E-1,3.6029883E-2,3.2986745E-1,-6.2941335E-2,5.6434672E-2,-9.57499E-2,-2.3982179E-1,1.1749637E-1,8.210637E-1,-1.7012726E-1,-1.581385E-1,7.588407E-1,1.2507184E-1,3.7149587E-1,-1.7584582E-1,9.8345405E-1,2.6323438E-1,-3.5421315E-1,3.981629E-1,1.2713709E0],"categories":[],"categories_nodes":[],"categories_segments":[],"categories_sizes":[],"default_left":[0,0,0,0,0,0,0,0,0,0,0,0,0,0,0,0,0,0,0,0,0,0,0,0,0,0,0,0,0,0,0,0,0,0,0,0,0,0,0,0,0,0,0,0,0,0,0,0,0,0,0,0,0,0,0,0,0,0,0,0,0,0,0],"id":12,"left_children":[1,3,5,7,9,11,13,15,17,19,21,23,25,27,29,31,33,35,37,39,41,43,45,47,49,51,53,55,57,59,61,-1,-1,-1,-1,-1,-1,-1,-1,-1,-1,-1,-1,-1,-1,-1,-1,-1,-1,-1,-1,-1,-1,-1,-1,-1,-1,-1,-1,-1,-1,-1,-1],"loss_changes":[2.1891572E3,2.1168652E2,5.530231E2,1.5941296E2,1.0196567E2,2.3548676E2,2.825636E2,1.0277222E2,1.9352115E2,5.329106E1,9.387906E1,1.8723695E2,2.1293784E2,4.3163025E2,3.996651E2,1.703742E2,9.001843E1,1.5579062E2,5.7607788E1,2.4914923E1,1.9440722E1,4.612262E1,3.9894688E1,1.7565271E2,2.412958E2,1.8999503E2,1.9812395E2,3.6646057E2,3.8304016E2,3.1736148E2,3.7047937E2,0E0,0E0,0E0,0E0,0E0,0E0,0E0,0E0,0E0,0E0,0E0,0E0,0E0,0E0,0E0,0E0,0E0,0E0,0E0,0E0,0E0,0E0,0E0,0E0,0E0,0E0,0E0,0E0,0E0,0E0,0E0,0E0],"parents":[2147483647,0,0,1,1,2,2,3,3,4,4,5,5,6,6,7,7,8,8,9,9,10,10,11,11,12,12,13,13,14,14,15,15,16,16,17,17,18,18,19,19,20,20,21,21,22,22,23,23,24,24,25,25,26,26,27,27,28,28,29,29,30,30],"right_children":[2,4,6,8,10,12,14,16,18,20,22,24,26,28,30,32,34,36,38,40,42,44,46,48,50,52,54,56,58,60,62,-1,-1,-1,-1,-1,-1,-1,-1,-1,-1,-1,-1,-1,-1,-1,-1,-1,-1,-1,-1,-1,-1,-1,-1,-1,-1,-1,-1,-1,-1,-1,-1],"split_conditions":[3.125E0,1.99E1,5.125E0,1.1966926E1,7E0,2E1,1.25E-1,1.8947369E0,1.2447512E1,4.062167E-1,6.944444E-1,6E0,-2E0,1.29E1,8.4166664E-1,1E0,7.8541665E0,-6E0,1.3E1,2.5E-1,1E0,1.8366667E2,4.55E1,6E0,1.1333333E1,9.5E-1,6E-1,6.3333335E0,3.6382978E0,2.79E1,1.2288773E0,1.5176843E-1,-7.259925E-2,-8.326372E-2,-1.4833526E-1,8.5429364E-1,-2.9217878E-2,-2.4561106E-1,1.6274396E-1,3.337633E-1,-1.2753494E-1,-3.1287992E-1,9.278678E-2,8.293459E-1,3.6029883E-2,3.2986745E-1,-6.2941335E-2,5.6434672E-2,-9.57499E-2,-2.3982179E-1,1.1749637E-1,8.210637E-1,-1.7012726E-1,-1.581385E-1,7.588407E-1,1.2507184E-1,3.7149587E-1,-1.7584582E-1,9.8345405E-1,2.6323438E-1,-3.5421315E-1,3.981629E-1,1.2713709E0],"split_indices":[54,43,54,77,50,76,7,53,77,58,74,30,59,44,37,38,46,17,70,2,25,3,62,70,76,37,4,6,53,43,29,0,0,0,0,0,0,0,0,0,0,0,0,0,0,0,0,0,0,0,0,0,0,0,0,0,0,0,0,0,0,0,0],"split_type":[0,0,0,0,0,0,0,0,0,0,0,0,0,0,0,0,0,0,0,0,0,0,0,0,0,0,0,0,0,0,0,0,0,0,0,0,0,0,0,0,0,0,0,0,0,0,0,0,0,0,0,0,0,0,0,0,0,0,0,0,0,0,0],"sum_hessian":[3.978E3,2.295E3,1.683E3,2.272E3,2.3E1,8.95E2,7.88E2,1.204E3,1.068E3,9E0,1.4E1,8.72E2,2.3E1,7E2,8.8E1,2E2,1.004E3,1.014E3,5.4E1,4E0,5E0,5E0,9E0,7.9E2,8.2E1,1.1E1,1.2E1,6.38E2,6.2E1,6E1,2.8E1,4.2E1,1.58E2,6.92E2,3.12E2,1E0,1.013E3,5.1E1,3E0,3E0,1E0,4E0,1E0,4E0,1E0,5E0,4E0,7.06E2,8.4E1,5.4E1,2.8E1,9E0,2E0,1E1,2E0,5.71E2,6.7E1,6E1,2E0,5.1E1,9E0,2.2E1,6E0],"tree_param":{"num_deleted":"0","num_feature":"78","num_nodes":"63","size_leaf_vector":"1"}},{"base_weights":[1.3466868E-2,-4.1410723E-1,1.071835E0,-4.4582456E-1,2.561935E0,8.808331E-1,2.7103822E0,-6.403936E-1,-4.8295535E-2,5.475514E0,-3.2341617E-1,6.884577E-1,2.6964278E0,4.1386967E0,3.5156333E-1,-2.757287E-1,-8.31878E-1,2.4536021E-1,-7.308614E-1,8.216923E0,-0E0,1.7975127E0,-2.1838622E0,5.1970136E-1,2.148073E0,7.3557305E0,2.14149E0,3.1454456E0,1.192734E1,1.0465841E0,-3.4376392E-1,-7.5260103E-3,-1.5211415E-1,2.5321853E-1,-8.587423E-2,1.7331615E-2,5.95671E-1,-8.123072E-2,6.9724363E-1,9.621734E-1,3.679273E-1,2.1040165E-1,-1.587142E-1,-3.540484E-2,4.0625858E-1,3.561465E-2,-2.5583816E-1,1.1547669E-1,4.2593773E-4,1.6926645E-1,8.680422E-1,2.7146444E-1,1.1433889E0,1.891218E-1,1.203272E0,4.4627118E-1,-2.1529706E-1,1.6621176E0,3.0532086E-1,1.6890392E-1,-1.6899377E-1],"categories":[],"categories_nodes":[],"categories_segments":[],"categories_sizes":[],"default_left":[0,0,0,0,0,0,0,0,0,0,0,0,0,0,0,0,0,0,0,0,0,0,0,0,0,0,0,0,0,0,0,0,0,0,0,0,0,0,0,0,0,0,0,0,0,0,0,0,0,0,0,0,0,0,0,0,0,0,0,0,0],"id":13,"left_children":[1,3,5,7,9,11,13,15,17,19,21,23,25,27,29,31,33,35,37,39,41,43,45,47,49,51,53,55,57,-1,59,-1,-1,-1,-1,-1,-1,-1,-1,-1,-1,-1,-1,-1,-1,-1,-1,-1,-1,-1,-1,-1,-1,-1,-1,-1,-1,-1,-1,-1,-1],"loss_changes":[1.8006771E3,2.68438E2,3.5559912E2,2.1685803E2,2.5448701E2,3.565113E2,3.9902307E2,1.3114539E2,1.8523343E2,2.2545938E2,6.709814E1,2.2769379E2,2.3668915E2,5.334458E2,3.2811572E2,1.620089E2,1.1352765E2,2.6416348E2,1.7946521E2,2.7014343E1,2.3356735E1,4.079676E1,9.6929245E0,2.7320764E2,2.6985883E2,1.5681702E2,1.9617053E2,4.7746045E2,2.805144E2,0E0,1.23260735E2,0E0,0E0,0E0,0E0,0E0,0E0,0E0,0E0,0E0,0E0,0E0,0E0,0E0,0E0,0E0,0E0,0E0,0E0,0E0,0E0,0E0,0E0,0E0,0E0,0E0,0E0,0E0,0E0,0E0,0E0],"parents":[2147483647,0,0,1,1,2,2,3,3,4,4,5,5,6,6,7,7,8,8,9,9,10,10,11,11,12,12,13,13,14,14,15,15,16,16,17,17,18,18,19,19,20,20,21,21,22,22,23,23,24,24,25,25,26,26,27,27,28,28,30,30],"right_children":[2,4,6,8,10,12,14,16,18,20,22,24,26,28,30,32,34,36,38,40,42,44,46,48,50,52,54,56,58,-1,60,-1,-1,-1,-1,-1,-1,-1,-1,-1,-1,-1,-1,-1,-1,-1,-1,-1,-1,-1,-1,-1,-1,-1,-1,-1,-1,-1,-1,-1,-1],"split_conditions":[4.125E0,1.6666667E-1,6.3333335E0,2.625E0,-1.5E0,1.1444445E0,8.916667E0,1.8421052E-1,8.2323235E-1,4.7950304E-1,6.75E-1,1.25E-1,1.5853659E0,8.571428E0,-1.0506603E0,9.5E0,1.2E0,8.205357E-1,6.666667E-1,1.3E1,6.666667E-1,5.05E0,3.3333334E-1,1.25E-1,1.1285714E1,6.2E1,1.25E-1,1.1E0,6.844444E-1,1.0465841E0,8.666667E0,-7.5260103E-3,-1.5211415E-1,2.5321853E-1,-8.587423E-2,1.7331615E-2,5.95671E-1,-8.123072E-2,6.9724363E-1,9.621734E-1,3.679273E-1,2.1040165E-1,-1.587142E-1,-3.540484E-2,4.0625858E-1,3.561465E-2,-2.5583816E-1,1.1547669E-1,4.2593773E-4,1.6926645E-1,8.680422E-1,2.7146444E-1,1.1433889E0,1.891218E-1,1.203272E0,4.4627118E-1,-2.1529706E-1,1.6621176E0,3.0532086E-1,1.6890392E-1,-1.6899377E-1],"split_indices":[10,8,6,10,59,27,46,56,11,16,37,7,53,46,58,60,53,11,7,50,5,46,6,4,46,5,8,27,12,0,10,0,0,0,0,0,0,0,0,0,0,0,0,0,0,0,0,0,0,0,0,0,0,0,0,0,0,0,0,0,0],"split_type":[0,0,0,0,0,0,0,0,0,0,0,0,0,0,0,0,0,0,0,0,0,0,0,0,0,0,0,0,0,0,0,0,0,0,0,0,0,0,0,0,0,0,0,0,0,0,0,0,0,0,0,0,0,0,0,0,0,0,0,0,0],"sum_hessian":[3.977E3,2.833E3,1.144E3,2.804E3,2.9E1,1.026E3,1.18E2,1.882E3,9.22E2,1.4E1,1.5E1,9.29E2,9.7E1,7.3E1,4.5E1,6.49E2,1.233E3,6.45E2,2.77E2,9E0,5E0,7E0,8E0,8.34E2,9.5E1,9E0,8.8E1,6.6E1,7E0,2E0,4.3E1,5.6E2,8.9E1,9E0,1.224E3,6.38E2,7E0,2.75E2,2E0,6E0,3E0,2E0,3E0,4E0,3E0,1E0,7E0,3.73E2,4.61E2,9E1,5E0,5E0,4E0,8.7E1,1E0,5.3E1,1.3E1,4E0,3E0,1.7E1,2.6E1],"tree_param":{"num_deleted":"0","num_feature":"78","num_nodes":"61","size_leaf_vector":"1"}},{"base_weights":[5.3822645E-3,-3.0955338E-1,1.3117387E0,-4.568887E-1,1.4462307E-1,9.32547E-1,2.7722833E0,2.3637958E-1,-5.598138E-1,3.3560514E-2,2.2292602E0,7.6596826E-1,5.0331697E0,4.2283233E-2,3.621445E0,-1.3025283E-3,2.0878322E0,-5.813309E-1,5.194315E0,1.273927E-1,-1.8921223E0,6.9707737E0,1.0092187E0,9.2676777E-1,-1.9209981E0,7.1375155E0,-4.3708477E0,5.7928877E0,-1.8726611E0,7.331198E0,2.6371052E0,-1.1182848E-2,3.340352E-1,4.0771958E-1,-1.3223958E-1,-6.0035832E-2,3.4796757E-1,6.3857335E-1,-1.5228081E-1,-1.0864947E-1,2.9856319E-2,-2.3744284E-1,4.0106183E-1,8.799775E-1,9.558466E-2,2.643306E-1,-1.700401E-1,7.1209013E-1,8.2465634E-2,-4.3467274E-1,-2.0760737E-2,3.492019E-2,9.3703395E-1,-6.1523294E-1,1.3275397E-1,7.2487034E-2,1.0695932E0,-4.348937E-1,1.2608641E-1,4.938023E-1,1.4069916E0,3.288723E-1,-1.5003662E-1],"categories":[],"categories_nodes":[],"categories_segments":[],"categories_sizes":[],"default_left":[0,0,0,0,0,0,0,0,0,0,0,0,0,0,0,0,0,0,0,0,0,0,0,0,0,0,0,0,0,0,0,0,0,0,0,0,0,0,0,0,0,0,0,0,0,0,0,0,0,0,0,0,0,0,0,0,0,0,0,0,0,0,0],"id":14,"left_children":[1,3,5,7,9,11,13,15,17,19,21,23,25,27,29,31,33,35,37,39,41,43,45,47,49,51,53,55,57,59,61,-1,-1,-1,-1,-1,-1,-1,-1,-1,-1,-1,-1,-1,-1,-1,-1,-1,-1,-1,-1,-1,-1,-1,-1,-1,-1,-1,-1,-1,-1,-1,-1],"loss_changes":[1.649882E3,2.1630371E2,4.2847498E2,1.742702E2,1.830668E2,4.190722E2,3.703943E2,1.3926942E2,2.6565918E2,1.361249E2,2.2356067E2,2.596223E2,5.0641693E2,4.4071155E2,4.2517224E2,1.03835106E2,2.4989775E2,1.654596E2,7.423378E1,1.4964062E2,1.0900176E2,7.862369E1,1.507049E2,3.5005856E2,1.399537E2,2.9889825E2,5.94078E1,2.3959186E2,2.3857642E2,3.3179492E2,2.69326E2,0E0,0E0,0E0,0E0,0E0,0E0,0E0,0E0,0E0,0E0,0E0,0E0,0E0,0E0,0E0,0E0,0E0,0E0,0E0,0E0,0E0,0E0,0E0,0E0,0E0,0E0,0E0,0E0,0E0,0E0,0E0,0E0],"parents":[2147483647,0,0,1,1,2,2,3,3,4,4,5,5,6,6,7,7,8,8,9,9,10,10,11,11,12,12,13,13,14,14,15,15,16,16,17,17,18,18,19,19,20,20,21,21,22,22,23,23,24,24,25,25,26,26,27,27,28,28,29,29,30,30],"right_children":[2,4,6,8,10,12,14,16,18,20,22,24,26,28,30,32,34,36,38,40,42,44,46,48,50,52,54,56,58,60,62,-1,-1,-1,-1,-1,-1,-1,-1,-1,-1,-1,-1,-1,-1,-1,-1,-1,-1,-1,-1,-1,-1,-1,-1,-1,-1,-1,-1,-1,-1,-1,-1],"split_conditions":[5.3333335E0,3.5E0,1.0637144E0,5.104167E-1,1.6960101E0,1.9E1,5.692308E-1,3.3333334E-1,8.9E1,8.913044E-1,6.147541E-1,5E0,8E-1,1.2176023E0,5.8964646E-1,1E0,6E-1,7.1666665E0,2.125E0,-1.1965376E0,5.125E0,8.035714E-1,3.125E0,1.617647E0,-6.730967E-1,3.5396636E-1,4.7E-1,4.65E1,1.1864027E0,1.5E1,1.6E1,-1.1182848E-2,3.340352E-1,4.0771958E-1,-1.3223958E-1,-6.0035832E-2,3.4796757E-1,6.3857335E-1,-1.5228081E-1,-1.0864947E-1,2.9856319E-2,-2.3744284E-1,4.0106183E-1,8.799775E-1,9.558466E-2,2.643306E-1,-1.700401E-1,7.1209013E-1,8.2465634E-2,-4.3467274E-1,-2.0760737E-2,3.492019E-2,9.3703395E-1,-6.1523294E-1,1.3275397E-1,7.2487034E-2,1.0695932E0,-4.348937E-1,1.2608641E-1,4.938023E-1,1.4069916E0,3.288723E-1,-1.5003662E-1],"split_indices":[10,10,58,74,29,50,74,18,61,74,74,30,11,58,11,56,56,75,10,29,10,11,6,53,58,16,12,62,29,50,50,0,0,0,0,0,0,0,0,0,0,0,0,0,0,0,0,0,0,0,0,0,0,0,0,0,0,0,0,0,0,0,0],"split_type":[0,0,0,0,0,0,0,0,0,0,0,0,0,0,0,0,0,0,0,0,0,0,0,0,0,0,0,0,0,0,0,0,0,0,0,0,0,0,0,0,0,0,0,0,0,0,0,0,0,0,0,0,0,0,0,0,0,0,0,0,0,0,0],"sum_hessian":[4.008E3,3.23E3,7.78E2,2.439E3,7.91E2,6.19E2,1.59E2,3.15E2,2.124E3,7.52E2,3.9E1,5.96E2,2.3E1,3.8E1,1.21E2,2.8E2,3.5E1,2.117E3,7E0,7.18E2,3.4E1,7E0,3.2E1,5.63E2,3.3E1,1.9E1,4E0,9E0,2.9E1,2.4E1,9.7E1,2.72E2,8E0,2.2E1,1.3E1,2.108E3,9E0,6E0,1E0,8.8E1,6.3E2,3.2E1,2E0,5E0,2E0,2E1,1.2E1,8E0,5.55E2,1.3E1,2E1,5E0,1.4E1,3E0,1E0,5E0,4E0,1.6E1,1.3E1,1.9E1,5E0,8.4E1,1.3E1],"tree_param":{"num_deleted":"0","num_feature":"78","num_nodes":"63","size_leaf_vector":"1"}},{"base_weights":[2.5402475E-2,-2.9124197E-1,9.7445613E-1,-6.329341E-1,-1.01308E-1,1.1358149E0,-1.0186894E0,-6.629247E-1,7.4628005E0,-6.2639874E-1,6.2357526E-2,4.8168555E-1,1.5339084E0,-1.333909E0,6.957885E-1,1.604066E-1,-8.290032E-1,9.747079E-1,2.5498217E-2,2.237911E-1,-8.8165146E-1,1.4464481E-1,-1.2890568E0,2.0227043E-1,3.952002E0,-6.1407495E-1,1.7455422E0,-1.5392303E0,6.6746134E-1,-1.7364521E-1,6.0172707E-2,-9.32396E-2,2.8117737E-2,2.5666162E-1,-3.4973353E-2,-1.09177746E-1,8.752219E-2,7.6016985E-2,-8.484481E-3,-1.7013903E-1,3.475382E-1,8.4578626E-2,-1.4356099E-1,-8.104867E-2,6.9854635E-1,-2.954804E-1,3.6016548E-1,2.1827374E-1,3.1231968E-2,-1.8741661E-1,2.440758E-1],"categories":[],"categories_nodes":[],"categories_segments":[],"categories_sizes":[],"default_left":[0,0,0,0,0,0,0,0,0,0,0,0,0,0,0,0,0,0,0,0,0,0,0,0,0,0,0,0,0,0,0,0,0,0,0,0,0,0,0,0,0,0,0,0,0,0,0,0,0,0,0],"id":15,"left_children":[1,3,5,7,9,11,13,15,17,19,21,23,25,27,-1,29,31,-1,-1,33,35,37,39,41,43,45,47,49,-1,-1,-1,-1,-1,-1,-1,-1,-1,-1,-1,-1,-1,-1,-1,-1,-1,-1,-1,-1,-1,-1,-1],"loss_changes":[1.1951901E3,1.933911E2,3.2117212E2,2.6284485E2,1.6492694E2,2.3889233E2,1.9729674E2,1.4541522E2,6.2373123E1,9.922116E1,1.6276376E2,3.3816583E2,2.6120813E2,1.2979562E2,0E0,1.5077634E2,1.01796814E2,0E0,0E0,1.4354811E2,1.3055396E2,1.9506615E2,1.7075677E2,3.4370584E2,3.818965E2,5.237073E2,3.2552625E2,1.0049666E2,0E0,0E0,0E0,0E0,0E0,0E0,0E0,0E0,0E0,0E0,0E0,0E0,0E0,0E0,0E0,0E0,0E0,0E0,0E0,0E0,0E0,0E0,0E0],"parents":[2147483647,0,0,1,1,2,2,3,3,4,4,5,5,6,6,7,7,8,8,9,9,10,10,11,11,12,12,13,13,15,15,16,16,19,19,20,20,21,21,22,22,23,23,24,24,25,25,26,26,27,27],"right_children":[2,4,6,8,10,12,14,16,18,20,22,24,26,28,-1,30,32,-1,-1,34,36,38,40,42,44,46,48,50,-1,-1,-1,-1,-1,-1,-1,-1,-1,-1,-1,-1,-1,-1,-1,-1,-1,-1,-1,-1,-1,-1,-1],"split_conditions":[8.366667E0,1.6666666E0,1E0,8.2E0,2.1639345E0,-9.1679044E-2,4.05E0,1.880597E0,8.3E0,1.5E0,4.6153846E-1,1E1,5.6666665E0,1E0,6.957885E-1,3.4667444E0,3.6382978E0,9.747079E-1,2.5498217E-2,5.416667E-1,2.4333334E-1,1E0,1.1777778E0,-4.4560313E-1,3E0,8.2E0,7.5E-1,3.7297297E0,6.6746134E-1,-1.7364521E-1,6.0172707E-2,-9.32396E-2,2.8117737E-2,2.5666162E-1,-3.4973353E-2,-1.09177746E-1,8.752219E-2,7.6016985E-2,-8.484481E-3,-1.7013903E-1,3.475382E-1,8.4578626E-2,-1.4356099E-1,-8.104867E-2,6.9854635E-1,-2.954804E-1,3.6016548E-1,2.1827374E-1,3.1231968E-2,-1.8741661E-1,2.440758E-1],"split_indices":[0,10,11,0,53,58,22,53,0,53,47,10,46,34,0,77,53,0,0,11,12,38,27,58,30,44,4,53,0,0,0,0,0,0,0,0,0,0,0,0,0,0,0,0,0,0,0,0,0,0,0],"split_type":[0,0,0,0,0,0,0,0,0,0,0,0,0,0,0,0,0,0,0,0,0,0,0,0,0,0,0,0,0,0,0,0,0,0,0,0,0,0,0,0,0,0,0,0,0,0,0,0,0,0,0],"sum_hessian":[3.975E3,2.981E3,9.94E2,1.064E3,1.917E3,9.2E2,7.4E1,1.061E3,3E0,4.55E2,1.462E3,3.49E2,5.71E2,7.2E1,2E0,1.78E2,8.83E2,2E0,1E0,1.05E2,3.5E2,1.379E3,8.3E1,3.24E2,2.5E1,5.1E1,5.2E2,7.1E1,1E0,3.3E1,1.45E2,8.08E2,7.5E1,2E1,8.5E1,3.13E2,3.7E1,3.74E2,1.005E3,7.7E1,6E0,2.33E2,9.1E1,1E1,1.5E1,3.3E1,1.8E1,3.98E2,1.22E2,6.6E1,5E0],"tree_param":{"num_deleted":"0","num_feature":"78","num_nodes":"51","size_leaf_vector":"1"}},{"base_weights":[-2.6407622E-2,-3.162566E-1,8.044023E-1,-4.854669E-1,1.0382454E-1,9.098385E-1,-1.8174812E0,-5.6657547E-1,6.107593E-1,-1.14389285E-1,8.4823203E-1,-1.1829545E0,1.0417362E0,1.4451712E0,-2.6814308E0,-4.5693922E-1,-1.8099898E0,1.8081633E0,-8.8924813E-1,-2.2136453E-1,1.4905902E0,2.701496E0,-1.3868948E-2,-4.130205E0,-8.2068995E-2,1.161969E0,-1.5256114E0,2.9933693E0,-1.2134188E0,-3.871385E0,3.1360692E-1,-6.689443E-2,1.1980366E-2,-1.2750757E-1,-3.6505434E-1,2.1932475E-1,-1.9673873E-1,-1.4694151E-1,5.043963E-1,8.543893E-2,-4.271252E-2,2.2030783E-1,-1.7113079E-1,3.4708983E-1,-2.1184833E-1,-1.9955707E-1,6.1314415E-2,-9.587674E-2,-4.2710495E-1,-1.9478238E-1,4.0479645E-1,1.007906E-1,3.6717126E-1,2.3831756E-1,-2.9927027E-1,3.789702E-1,9.004693E-2,-1.4887789E-1,-1.4366932E-2,-4.1704494E-1,1.3040148E-1,5.219305E-1,-1.5527306E-1],"categories":[],"categories_nodes":[],"categories_segments":[],"categories_sizes":[],"default_left":[0,0,0,0,0,0,0,0,0,0,0,0,0,0,0,0,0,0,0,0,0,0,0,0,0,0,0,0,0,0,0,0,0,0,0,0,0,0,0,0,0,0,0,0,0,0,0,0,0,0,0,0,0,0,0,0,0,0,0,0,0,0,0],"id":16,"left_children":[1,3,5,7,9,11,13,15,17,19,21,23,25,27,29,31,33,35,37,39,41,43,45,47,49,51,53,55,57,59,61,-1,-1,-1,-1,-1,-1,-1,-1,-1,-1,-1,-1,-1,-1,-1,-1,-1,-1,-1,-1,-1,-1,-1,-1,-1,-1,-1,-1,-1,-1,-1,-1],"loss_changes":[9.562189E2,2.093541E2,2.854682E2,1.8697086E2,1.3759467E2,2.7394055E2,1.16749466E2,2.654583E2,2.6213644E2,1.1266199E2,3.0706476E2,1.9067035E2,2.8880792E2,4.0854424E1,1.156165E2,2.199809E2,1.5040973E2,1.2210391E2,2.3080066E2,1.3645111E2,9.735321E1,2.3370694E2,1.653788E2,2.5289612E0,3.4672238E2,3.3957092E2,2.4804413E2,6.1183357E0,8.011284E-1,4.1323822E1,1.0002772E2,0E0,0E0,0E0,0E0,0E0,0E0,0E0,0E0,0E0,0E0,0E0,0E0,0E0,0E0,0E0,0E0,0E0,0E0,0E0,0E0,0E0,0E0,0E0,0E0,0E0,0E0,0E0,0E0,0E0,0E0,0E0,0E0],"parents":[2147483647,0,0,1,1,2,2,3,3,4,4,5,5,6,6,7,7,8,8,9,9,10,10,11,11,12,12,13,13,14,14,15,15,16,16,17,17,18,18,19,19,20,20,21,21,22,22,23,23,24,24,25,25,26,26,27,27,28,28,29,29,30,30],"right_children":[2,4,6,8,10,12,14,16,18,20,22,24,26,28,30,32,34,36,38,40,42,44,46,48,50,52,54,56,58,60,62,-1,-1,-1,-1,-1,-1,-1,-1,-1,-1,-1,-1,-1,-1,-1,-1,-1,-1,-1,-1,-1,-1,-1,-1,-1,-1,-1,-1,-1,-1,-1,-1],"split_conditions":[3.125E0,1E0,8.5507244E-1,8.2E0,3.125E0,-1.4398142E0,9.3333334E-1,4.4E0,3E0,3.7530863E0,-3.2785767E-1,3.8E0,8.111111E0,4.3333335E0,2.5E1,1.2304256E1,4.125E0,3.448276E-2,1.665871E0,6E0,9.8E0,8.619047E0,6.27451E-1,-2.3921647E0,2.4242425E-1,4.0422535E0,6.388889E-1,8.888889E-1,7.9E0,1.1666666E0,7.39224E-1,-6.689443E-2,1.1980366E-2,-1.2750757E-1,-3.6505434E-1,2.1932475E-1,-1.9673873E-1,-1.4694151E-1,5.043963E-1,8.543893E-2,-4.271252E-2,2.2030783E-1,-1.7113079E-1,3.4708983E-1,-2.1184833E-1,-1.9955707E-1,6.1314415E-2,-9.587674E-2,-4.2710495E-1,-1.9478238E-1,4.0479645E-1,1.007906E-1,3.6717126E-1,2.3831756E-1,-2.9927027E-1,3.789702E-1,9.004693E-2,-1.4887789E-1,-1.4366932E-2,-4.1704494E-1,1.3040148E-1,5.219305E-1,-1.5527306E-1],"split_indices":[6,25,74,0,10,29,27,44,59,53,29,44,19,10,57,77,10,23,29,45,43,46,74,58,47,17,11,27,0,27,58,0,0,0,0,0,0,0,0,0,0,0,0,0,0,0,0,0,0,0,0,0,0,0,0,0,0,0,0,0,0,0,0],"split_type":[0,0,0,0,0,0,0,0,0,0,0,0,0,0,0,0,0,0,0,0,0,0,0,0,0,0,0,0,0,0,0,0,0,0,0,0,0,0,0,0,0,0,0,0,0,0,0,0,0,0,0,0,0,0,0,0,0,0,0,0,0,0,0],"sum_hessian":[3.969E3,2.943E3,1.026E3,2.098E3,8.45E2,9.87E2,3.9E1,1.954E3,1.44E2,6.54E2,1.91E2,5.8E1,9.29E2,8E0,3.1E1,1.797E3,1.57E2,8E1,6.4E1,6.14E2,4E1,6E1,1.31E2,1.5E1,4.3E1,8.88E2,4.1E1,5E0,3E0,2.2E1,9E0,1.314E3,4.83E2,1.23E2,3.4E1,7.3E1,7E0,5.9E1,5E0,9.8E1,5.16E2,3.3E1,7E0,5.2E1,8E0,3.1E1,1E2,1E0,1.4E1,3E1,1.3E1,8.38E2,5E1,1.1E1,3E1,3E0,2E0,2E0,1E0,2.1E1,1E0,2E0,7E0],"tree_param":{"num_deleted":"0","num_feature":"78","num_nodes":"63","size_leaf_vector":"1"}},{"base_weights":[-7.918458E-2,-2.4637577E-1,1.0248803E0,4.1547837E0,-2.6176214E-1,1.9061223E0,3.7704602E-1,5.4924645E0,8.130691E-2,-1.8869222E0,-2.2078153E-1,1.5648775E0,5.4285073E0,-8.16021E-2,2.2223094E0,6.351014E0,-6.379663E-2,-2.3256245E-1,1.6921588E0,2.4797387E0,-2.0248864E0,-1.8163283E-1,-2.0193093E0,2.1435294E0,-4.4193178E-1,7.035689E0,-2.3323452E0,8.2971036E-1,-1.3204578E0,3.8726199E0,-1.266943E0,7.2858113E-1,-4.628248E-3,1.9970484E-2,2.2885334E-1,4.2674284E-2,3.2428652E-1,-2.6372927E-1,-8.721391E-2,-2.0775145E-2,3.6793235E-1,-2.879632E-1,8.769883E-2,3.9876476E-1,8.96972E-2,-1.5739954E-1,3.7808967E-1,1.2688143E0,4.0858588E-1,-4.3554655E-1,1.8185075E-1,-5.1652747E-3,2.9615787E-1,-1.7042018E-1,2.4087813E-1,4.5619464E-1,-3.6191368E-1,5.6844425E-1,-1.9372497E-1],"categories":[],"categories_nodes":[],"categories_segments":[],"categories_sizes":[],"default_left":[0,0,0,0,0,0,0,0,0,0,0,0,0,0,0,0,0,0,0,0,0,0,0,0,0,0,0,0,0,0,0,0,0,0,0,0,0,0,0,0,0,0,0,0,0,0,0,0,0,0,0,0,0,0,0,0,0,0,0],"id":17,"left_children":[1,3,5,7,9,11,13,15,17,19,21,23,25,27,29,31,-1,-1,33,35,37,39,41,43,45,47,49,51,53,55,57,-1,-1,-1,-1,-1,-1,-1,-1,-1,-1,-1,-1,-1,-1,-1,-1,-1,-1,-1,-1,-1,-1,-1,-1,-1,-1,-1,-1],"loss_changes":[7.2985864E2,2.3324141E2,2.9592035E2,6.438417E1,2.2734454E2,2.5524469E2,2.551397E2,5.1992523E1,1.9380817E1,5.5580902E1,2.3458258E2,2.3568875E2,2.538689E2,2.7435898E2,3.5066803E2,4.8902557E1,0E0,0E0,1.9643307E0,2.949257E0,5.5236816E1,3.301734E2,1.7963998E2,3.568462E2,2.256339E2,2.1326111E2,4.176483E1,2.6349698E2,1.514351E2,2.2833948E2,1.0382869E2,0E0,0E0,0E0,0E0,0E0,0E0,0E0,0E0,0E0,0E0,0E0,0E0,0E0,0E0,0E0,0E0,0E0,0E0,0E0,0E0,0E0,0E0,0E0,0E0,0E0,0E0,0E0,0E0],"parents":[2147483647,0,0,1,1,2,2,3,3,4,4,5,5,6,6,7,7,8,8,9,9,10,10,11,11,12,12,13,13,14,14,15,15,18,18,19,19,20,20,21,21,22,22,23,23,24,24,25,25,26,26,27,27,28,28,29,29,30,30],"right_children":[2,4,6,8,10,12,14,16,18,20,22,24,26,28,30,32,-1,-1,34,36,38,40,42,44,46,48,50,52,54,56,58,-1,-1,-1,-1,-1,-1,-1,-1,-1,-1,-1,-1,-1,-1,-1,-1,-1,-1,-1,-1,-1,-1,-1,-1,-1,-1,-1,-1],"split_conditions":[6.25E0,-3.3333334E-1,1.3793103E-1,1.9734201E-1,8.2222223E-1,1.025E1,1.3543997E0,1.0111111E0,2.4666666E1,3E-1,1.01E1,1.29875E1,1E0,1.1802449E-1,2.554622E0,1.6666667E-1,-6.379663E-2,-2.3256245E-1,7.0666666E0,1.4E0,1E0,9.3E0,9.0024674E-1,1E0,1.4407408E1,1.075E1,9.55E1,-9.1679044E-2,3.3333334E-1,1.3888889E-2,1.3824589E0,7.2858113E-1,-4.628248E-3,1.9970484E-2,2.2885334E-1,4.2674284E-2,3.2428652E-1,-2.6372927E-1,-8.721391E-2,-2.0775145E-2,3.6793235E-1,-2.879632E-1,8.769883E-2,3.9876476E-1,8.96972E-2,-1.5739954E-1,3.7808967E-1,1.2688143E0,4.0858588E-1,-4.3554655E-1,1.8185075E-1,-5.1652747E-3,2.9615787E-1,-1.7042018E-1,2.4087813E-1,4.5619464E-1,-3.6191368E-1,5.6844425E-1,-1.9372497E-1],"split_indices":[10,9,47,58,27,10,58,27,5,0,44,0,31,58,53,18,0,0,0,17,13,44,29,38,76,10,5,58,7,20,58,0,0,0,0,0,0,0,0,0,0,0,0,0,0,0,0,0,0,0,0,0,0,0,0,0,0,0,0],"split_type":[0,0,0,0,0,0,0,0,0,0,0,0,0,0,0,0,0,0,0,0,0,0,0,0,0,0,0,0,0,0,0,0,0,0,0,0,0,0,0,0,0,0,0,0,0,0,0,0,0,0,0,0,0,0,0,0,0,0,0],"sum_hessian":[3.952E3,3.433E3,5.19E2,1.1E1,3.422E3,2.19E2,3E2,8E0,3E0,8.3E1,3.339E3,2.01E2,1.8E1,2.41E2,5.9E1,7E0,1E0,1E0,2E0,2E0,8.1E1,3.269E3,7E1,1.56E2,4.5E1,1.5E1,3E0,1.39E2,1.02E2,4E1,1.9E1,6E0,1E0,1E0,1E0,1E0,1E0,5.2E1,2.9E1,3.248E3,2.1E1,5.4E1,1.6E1,6.2E1,9.4E1,3.6E1,9E0,4E0,1.1E1,2E0,1E0,9.9E1,4E1,9.3E1,9E0,3.7E1,3E0,1E0,1.8E1],"tree_param":{"num_deleted":"0","num_feature":"78","num_nodes":"59","size_leaf_vector":"1"}},{"base_weights":[7.469833E-3,-2.3837681E-1,1.0636297E0,2.8864622E-1,-4.401757E-1,1.4713272E0,-3.439125E-1,1.6915885E0,1.4238858E-1,-4.6872187E-1,3.2865517E0,8.4079975E-1,2.4843967E0,4.586489E-1,-1.7285995E0,8.851892E-1,4.859234E0,-1.1523353E0,3.2651612E-1,-8.1411654E-1,-3.153831E-1,7.3753843E0,-1.6106571E0,6.427872E-1,6.5872684E0,6.07556E0,1.7216172E0,-2.7908856E-1,3.760535E0,5.485935E-1,-2.0567143E0,2.089664E-1,-4.8907634E-2,-2.9612718E-2,7.707261E-1,-7.772613E-2,-3.1135294E-1,-2.6832312E-2,8.1509836E-2,5.71804E-1,-8.313414E-2,1.6703852E-1,-3.9947394E-2,9.125318E-1,2.1710027E-2,7.068641E-2,-3.626047E-1,2.8409613E-2,3.1530473E-1,-2.1139296E-2,1.0025524E0,9.464554E-1,2.7152535E-1,1.9968377E-1,-2.8543478E-1,-2.1907468E-1,7.607784E-2,-4.4246966E-1,4.9213773E-1,-3.430669E-1,-8.617896E-2],"categories":[],"categories_nodes":[],"categories_segments":[],"categories_sizes":[],"default_left":[0,0,0,0,0,0,0,0,0,0,0,0,0,0,0,0,0,0,0,0,0,0,0,0,0,0,0,0,0,0,0,0,0,0,0,0,0,0,0,0,0,0,0,0,0,0,0,0,0,0,0,0,0,0,0,0,0,0,0,0,0],"id":18,"left_children":[1,3,5,7,9,11,13,15,17,19,21,23,25,27,29,31,33,35,37,39,41,43,45,47,49,51,53,55,57,-1,59,-1,-1,-1,-1,-1,-1,-1,-1,-1,-1,-1,-1,-1,-1,-1,-1,-1,-1,-1,-1,-1,-1,-1,-1,-1,-1,-1,-1,-1,-1],"loss_changes":[1.0423252E3,3.464265E2,4.3559808E2,1.8465802E2,2.5179245E2,3.7317432E2,1.9095149E2,2.1224713E2,1.9530023E2,1.2345636E2,3.728853E2,4.0922845E2,6.0509534E2,2.6691348E2,1.6007338E2,1.1539555E2,2.5262772E2,7.2221344E1,2.0865358E2,8.50509E1,2.7122266E2,1.22349915E2,4.489141E1,3.1660455E2,2.8360718E2,4.172174E2,2.4112146E2,1.8071797E2,2.1186047E2,0E0,9.676236E1,0E0,0E0,0E0,0E0,0E0,0E0,0E0,0E0,0E0,0E0,0E0,0E0,0E0,0E0,0E0,0E0,0E0,0E0,0E0,0E0,0E0,0E0,0E0,0E0,0E0,0E0,0E0,0E0,0E0,0E0],"parents":[2147483647,0,0,1,1,2,2,3,3,4,4,5,5,6,6,7,7,8,8,9,9,10,10,11,11,12,12,13,13,14,14,15,15,16,16,17,17,18,18,19,19,20,20,21,21,22,22,23,23,24,24,25,25,26,26,27,27,28,28,30,30],"right_children":[2,4,6,8,10,12,14,16,18,20,22,24,26,28,30,32,34,36,38,40,42,44,46,48,50,52,54,56,58,-1,60,-1,-1,-1,-1,-1,-1,-1,-1,-1,-1,-1,-1,-1,-1,-1,-1,-1,-1,-1,-1,-1,-1,-1,-1,-1,-1,-1,-1,-1,-1],"split_conditions":[9.575E0,1E0,8.148148E-1,1.617647E0,3.4E-1,7.2083336E-1,1.1E1,9.530381E-1,6E0,2.2717392E0,2.3709676E0,5.125E0,4.3E0,6E0,3E1,-6.358536E-2,-3E0,1.2412403E1,1.2216325E1,-3.5E0,2.3269231E0,1E1,4.0909117E-1,5.15E1,-1.5757683E-1,7.5555557E-1,1.08E1,1E0,4.1E1,5.485935E-1,1E0,2.089664E-1,-4.8907634E-2,-2.9612718E-2,7.707261E-1,-7.772613E-2,-3.1135294E-1,-2.6832312E-2,8.1509836E-2,5.71804E-1,-8.313414E-2,1.6703852E-1,-3.9947394E-2,9.125318E-1,2.1710027E-2,7.068641E-2,-3.626047E-1,2.8409613E-2,3.1530473E-1,-2.1139296E-2,1.0025524E0,9.464554E-1,2.7152535E-1,1.9968377E-1,-2.8543478E-1,-2.1907468E-1,7.607784E-2,-4.4246966E-1,4.9213773E-1,-3.430669E-1,-8.617896E-2],"split_indices":[0,38,11,53,12,11,50,16,45,53,53,22,44,59,61,29,59,77,77,17,53,45,16,62,29,11,19,51,62,0,38,0,0,0,0,0,0,0,0,0,0,0,0,0,0,0,0,0,0,0,0,0,0,0,0,0,0,0,0,0,0],"split_type":[0,0,0,0,0,0,0,0,0,0,0,0,0,0,0,0,0,0,0,0,0,0,0,0,0,0,0,0,0,0,0,0,0,0,0,0,0,0,0,0,0,0,0,0,0,0,0,0,0,0,0,0,0,0,0,0,0,0,0,0,0],"sum_hessian":[4.012E3,3.255E3,7.57E2,9.01E2,2.354E3,5.87E2,1.7E2,8.4E1,8.17E2,2.337E3,1.7E1,3.63E2,2.24E2,1.08E2,6.2E1,6.8E1,1.6E1,1.01E2,7.16E2,7.17E2,1.62E3,9E0,8E0,3.52E2,1.1E1,3.8E1,1.86E2,8.9E1,1.9E1,2E0,6E1,3.6E1,3.2E1,6E0,1E1,8.6E1,1.5E1,3.23E2,3.93E2,1E0,7.16E2,6.5E1,1.555E3,7E0,2E0,4E0,4E0,3.09E2,4.3E1,4E0,7E0,1.8E1,2E1,1.76E2,1E1,3.1E1,5.8E1,2E0,1.7E1,2.7E1,3.3E1],"tree_param":{"num_deleted":"0","num_feature":"78","num_nodes":"61","size_leaf_vector":"1"}},{"base_weights":[-9.54453E-2,-2.516539E-1,9.260016E-1,-4.4225585E-1,1.0928479E-1,1.4572663E0,3.1248572E-1,-1.7983485E0,-3.99707E-1,-3.5922833E-2,1.1962012E0,-8.638744E-2,2.105295E0,6.612802E-2,3.8280976E0,-1.2839831E0,-2.9636266E0,-3.6256468E-1,-1.8263406E0,-5.585444E-2,6.8922043E0,8.177579E-1,5.5508766E0,-8.1123096E-1,4.321943E0,1.1562582E0,1.89999E0,9.679481E-1,-8.4323937E-1,-2.2002189E-1,5.3961873E0,-2.5019896E-1,-5.55605E-2,-1.6908377E-1,-3.2685006E-1,-3.0805603E-2,-1.418415E-1,-2.0606862E-1,2.889211E-1,1.1706268E-3,-2.2001751E-1,1.6664436E-1,8.6218625E-1,1.9098268E-1,-7.043329E-2,-1.139218E-1,9.5508194E-1,-1.512631E-1,2.5346646E-1,5.3853065E-1,8.23889E-2,8.1187375E-2,2.8831562E-1,5.724682E-1,4.6424977E-2,-3.8455173E-2,-4.117732E-1,6.7505044E-1,6.363489E-2],"categories":[],"categories_nodes":[],"categories_segments":[],"categories_sizes":[],"default_left":[0,0,0,0,0,0,0,0,0,0,0,0,0,0,0,0,0,0,0,0,0,0,0,0,0,0,0,0,0,0,0,0,0,0,0,0,0,0,0,0,0,0,0,0,0,0,0,0,0,0,0,0,0,0,0,0,0,0,0],"id":19,"left_children":[1,3,5,7,9,11,13,15,17,19,21,23,25,27,29,31,33,35,37,39,41,43,45,47,49,-1,51,53,55,-1,57,-1,-1,-1,-1,-1,-1,-1,-1,-1,-1,-1,-1,-1,-1,-1,-1,-1,-1,-1,-1,-1,-1,-1,-1,-1,-1,-1,-1],"loss_changes":[6.315398E2,2.3625702E2,1.7048578E2,1.2871378E2,1.8750146E2,2.8147705E2,2.1155145E2,3.652774E1,1.1463379E2,1.4441827E2,2.2554355E2,2.715644E2,3.61127E2,1.894484E2,1.6343947E2,4.1775406E1,1.7383728E0,1.2174805E2,6.664967E1,1.5178053E2,1.1719666E1,2.1755536E2,3.060815E2,1.7504904E2,3.957863E1,0E0,2.0590045E2,2.746546E2,1.7069281E2,0E0,7.8767914E1,0E0,0E0,0E0,0E0,0E0,0E0,0E0,0E0,0E0,0E0,0E0,0E0,0E0,0E0,0E0,0E0,0E0,0E0,0E0,0E0,0E0,0E0,0E0,0E0,0E0,0E0,0E0,0E0],"parents":[2147483647,0,0,1,1,2,2,3,3,4,4,5,5,6,6,7,7,8,8,9,9,10,10,11,11,12,12,13,13,14,14,15,15,16,16,17,17,18,18,19,19,20,20,21,21,22,22,23,23,24,24,26,26,27,27,28,28,30,30],"right_children":[2,4,6,8,10,12,14,16,18,20,22,24,26,28,30,32,34,36,38,40,42,44,46,48,50,-1,52,54,56,-1,58,-1,-1,-1,-1,-1,-1,-1,-1,-1,-1,-1,-1,-1,-1,-1,-1,-1,-1,-1,-1,-1,-1,-1,-1,-1,-1,-1,-1],"split_conditions":[6.25E0,9.2E0,1.8149823E-1,3.4667444E0,1.25E-1,-7.306099E-1,3.3333333E0,2.3871279E-1,1.244372E1,1E0,7.5E-1,2.3076923E-1,3.8E1,1E1,5.2E0,3.5E0,4.75E1,6E0,7.5E1,6.5E0,1.35E1,1.1E0,3.9876935E-1,6E-1,1.2404086E1,1.1562582E0,7.269231E0,5.111111E0,9.25E0,-2.2002189E-1,1.075E1,-2.5019896E-1,-5.55605E-2,-1.6908377E-1,-3.2685006E-1,-3.0805603E-2,-1.418415E-1,-2.0606862E-1,2.889211E-1,1.1706268E-3,-2.2001751E-1,1.6664436E-1,8.6218625E-1,1.9098268E-1,-7.043329E-2,-1.139218E-1,9.5508194E-1,-1.512631E-1,2.5346646E-1,5.3853065E-1,8.23889E-2,8.1187375E-2,2.8831562E-1,5.724682E-1,4.6424977E-2,-3.8455173E-2,-4.117732E-1,6.7505044E-1,6.363489E-2],"split_indices":[54,43,29,77,7,29,53,29,77,23,4,18,62,50,46,60,62,30,61,17,5,26,29,56,77,0,46,46,54,0,54,0,0,0,0,0,0,0,0,0,0,0,0,0,0,0,0,0,0,0,0,0,0,0,0,0,0,0,0],"split_type":[0,0,0,0,0,0,0,0,0,0,0,0,0,0,0,0,0,0,0,0,0,0,0,0,0,0,0,0,0,0,0,0,0,0,0,0,0,0,0,0,0,0,0,0,0,0,0,0,0,0,0,0,0,0,0,0,0,0,0],"sum_hessian":[3.956E3,3.432E3,5.24E2,2.246E3,1.186E3,2.8E2,2.44E2,6.7E1,2.179E3,1.047E3,1.39E2,8.3E1,1.97E2,2.29E2,1.5E1,4.8E1,1.9E1,2.125E3,5.4E1,1.045E3,2E0,1.29E2,1E1,7.2E1,1.1E1,3E0,1.94E2,1.15E2,1.14E2,3E0,1.2E1,1.7E1,3.1E1,5E0,1.4E1,2.022E3,1.03E2,5.2E1,2E0,1.014E3,3.1E1,1E0,1E0,7.5E1,5.4E1,4E0,6E0,6E1,1.2E1,8E0,3E0,9.3E1,1.01E2,1E1,1.05E2,1.01E2,1.3E1,9E0,3E0],"tree_param":{"num_deleted":"0","num_feature":"78","num_nodes":"59","size_leaf_vector":"1"}},{"base_weights":[6.1835814E-3,-1.4326502E-1,7.924584E-1,-3.2561964E-1,1.6849472E-1,6.8624276E-1,4.211471E0,-2.8902897E-1,-2.1249812E0,1.2288185E-1,4.8138366E0,-1.11202575E-1,1.104098E0,7.24671E0,2.2682816E-2,-4.796537E-1,9.304458E-2,-2.5437326E0,4.1333666E-1,3.9665478E-1,-5.1524174E-1,7.4679146E0,-3.754551E-1,8.724431E-1,-1.2008178E0,1.4539537E0,-1.310378E0,1.1157762E0,3.0189463E-1,-2.4365823E-1,1.6750791E0,-5.6096043E-2,5.8198985E-2,2.4543073E-2,-1.5145133E-1,4.3647718E-2,-3.4262607E-1,3.4315906E-2,6.852184E-1,2.1547678E-1,-6.5858915E-2,8.593537E-1,2.6940304E-1,-8.3954975E-2,6.904616E-2,1.2891552E-2,4.1189012E-1,7.201931E-2,-2.1733849E-1,9.3683854E-2,3.169231E-1,-4.6919632E-1,-3.9114427E-2,-5.8101732E-2,1.1175084E-1,-4.925515E-2,2.2271156E-1],"categories":[],"categories_nodes":[],"categories_segments":[],"categories_sizes":[],"default_left":[0,0,0,0,0,0,0,0,0,0,0,0,0,0,0,0,0,0,0,0,0,0,0,0,0,0,0,0,0,0,0,0,0,0,0,0,0,0,0,0,0,0,0,0,0,0,0,0,0,0,0,0,0,0,0,0,0],"id":20,"left_children":[1,3,5,7,9,11,13,15,17,19,21,23,25,27,29,31,33,35,-1,37,39,41,43,45,47,49,51,-1,53,-1,55,-1,-1,-1,-1,-1,-1,-1,-1,-1,-1,-1,-1,-1,-1,-1,-1,-1,-1,-1,-1,-1,-1,-1,-1,-1,-1],"loss_changes":[4.6938663E2,1.9086195E2,2.2831152E2,1.3859319E2,2.6144324E2,2.0681644E2,2.406742E2,1.5135672E2,1.2042432E2,2.147253E2,1.6878653E2,2.3044467E2,3.4571988E2,2.9426245E2,4.0578445E1,1.1996216E2,1.6976373E2,1.06999176E2,0E0,2.9392432E2,1.4250015E2,1.870877E1,3.0680163E0,2.7180713E2,1.922784E2,3.123908E2,1.5929672E2,0E0,4.3035164E0,0E0,8.450092E0,0E0,0E0,0E0,0E0,0E0,0E0,0E0,0E0,0E0,0E0,0E0,0E0,0E0,0E0,0E0,0E0,0E0,0E0,0E0,0E0,0E0,0E0,0E0,0E0,0E0,0E0],"parents":[2147483647,0,0,1,1,2,2,3,3,4,4,5,5,6,6,7,7,8,8,9,9,10,10,11,11,12,12,13,13,14,14,15,15,16,16,17,17,19,19,20,20,21,21,22,22,23,23,24,24,25,25,26,26,28,28,30,30],"right_children":[2,4,6,8,10,12,14,16,18,20,22,24,26,28,30,32,34,36,-1,38,40,42,44,46,48,50,52,-1,54,-1,56,-1,-1,-1,-1,-1,-1,-1,-1,-1,-1,-1,-1,-1,-1,-1,-1,-1,-1,-1,-1,-1,-1,-1,-1,-1,-1],"split_conditions":[5.75E0,7.75E-1,2.1218128E0,3.888889E-1,1.5333333E1,2.2717392E0,7.0625E-1,1.2326275E1,9.2268753E-1,8.541667E-1,1.2E0,5E0,9.884615E0,3.4951457E-1,1.2219619E1,4.8958334E-1,8.669643E-1,2.8E0,4.1333666E-1,8.492063E-1,1.1802449E-1,8.051549E-1,4E0,1E0,6E0,6.4333336E1,4.5E0,1.1157762E0,6.770833E-1,-2.4365823E-1,4.15E1,-5.6096043E-2,5.8198985E-2,2.4543073E-2,-1.5145133E-1,4.3647718E-2,-3.4262607E-1,3.4315906E-2,6.852184E-1,2.1547678E-1,-6.5858915E-2,8.593537E-1,2.6940304E-1,-8.3954975E-2,6.904616E-2,1.2891552E-2,4.1189012E-1,7.201931E-2,-2.1733849E-1,9.3683854E-2,3.169231E-1,-4.6919632E-1,-3.9114427E-2,-5.8101732E-2,1.1175084E-1,-4.925515E-2,2.2271156E-1],"split_indices":[10,37,29,12,9,53,11,77,29,11,26,6,46,56,77,56,29,6,0,11,58,29,3,31,45,5,44,0,11,0,5,0,0,0,0,0,0,0,0,0,0,0,0,0,0,0,0,0,0,0,0,0,0,0,0,0,0],"split_type":[0,0,0,0,0,0,0,0,0,0,0,0,0,0,0,0,0,0,0,0,0,0,0,0,0,0,0,0,0,0,0,0,0,0,0,0,0,0,0,0,0,0,0,0,0,0,0,0,0,0,0,0,0,0,0,0,0],"sum_hessian":[3.992E3,3.355E3,6.37E2,2.117E3,1.238E3,6.19E2,1.8E1,2.076E3,4.1E1,1.227E3,1.1E1,2.13E2,4.06E2,1E1,8E0,1.385E3,6.91E2,3.9E1,2E0,8.59E2,3.68E2,7E0,4E0,1.12E2,1.01E2,3.55E2,5.1E1,6E0,4E0,3E0,5E0,1.287E3,9.8E1,6.32E2,5.9E1,9E0,3E1,8.53E2,6E0,1.8E1,3.5E2,5E0,2E0,3E0,1E0,9.2E1,2E1,3.4E1,6.7E1,2.74E2,8.1E1,1E1,4.1E1,2E0,2E0,1E0,4E0],"tree_param":{"num_deleted":"0","num_feature":"78","num_nodes":"57","size_leaf_vector":"1"}},{"base_weights":[1.2746441E-1,-1.394587E-1,4.9495068E-1,5.1936723E-2,-3.948734E-1,3.591515E-1,1.7192987E0,-1.6417944E-1,8.1867653E-1,5.111728E-1,-4.9543893E-1,4.8244205E-1,-1.2402865E0,1.3200474E0,6.6914163E0,-1.9639814E-1,5.286108E0,3.2622213E0,5.829073E-1,-4.5134825E-1,1.4849458E0,-3.8292482E-1,-1.4899976E0,-2.9021153E-1,8.1993157E-1,-1.555102E-1,-2.9130232E0,2.1686065E0,-3.8421488E-1,1.108965E1,1.9512992E0,-4.0746283E-2,2.7661383E-2,1.6372518E-1,8.35588E-1,-9.7057536E-2,4.9677855E-1,-7.620006E-2,1.14430465E-1,3.1681904E-1,-1.0191988E-1,1.15412734E-1,8.6321163E-1,-3.0443618E-2,-1.9296624E-1,-1.5886597E-1,3.5461327E-1,-1.9539124E-1,1.2388387E-3,1.1735498E-1,-6.2244805E-3,-1.512599E-1,5.4858977E-1,-1.9186111E-1,-4.2566523E-1,1.4507169E-1,5.070313E-1,4.192701E-1,-1.0745235E-1,1.2735718E0,1.3796513E-1,3.2403973E-1,-2.841644E-1],"categories":[],"categories_nodes":[],"categories_segments":[],"categories_sizes":[],"default_left":[0,0,0,0,0,0,0,0,0,0,0,0,0,0,0,0,0,0,0,0,0,0,0,0,0,0,0,0,0,0,0,0,0,0,0,0,0,0,0,0,0,0,0,0,0,0,0,0,0,0,0,0,0,0,0,0,0,0,0,0,0,0,0],"id":21,"left_children":[1,3,5,7,9,11,13,15,17,19,21,23,25,27,29,31,33,35,37,39,41,43,45,47,49,51,53,55,57,59,61,-1,-1,-1,-1,-1,-1,-1,-1,-1,-1,-1,-1,-1,-1,-1,-1,-1,-1,-1,-1,-1,-1,-1,-1,-1,-1,-1,-1,-1,-1,-1,-1],"loss_changes":[3.86091E2,1.11513084E2,2.7451025E2,2.1627899E2,8.927298E1,2.9473843E2,3.1791147E2,1.7929121E2,1.6305826E2,9.262674E1,9.7715775E1,3.617077E2,1.9339644E2,2.2372144E2,2.2723438E2,1.0125978E2,5.2526947E1,1.8570398E2,1.994825E2,1.0578195E2,1.0491521E2,9.533902E1,4.965976E1,2.1266823E2,3.0121942E2,5.1318945E2,4.7332733E1,2.065521E2,1.6848651E2,7.69176E1,5.2497944E1,0E0,0E0,0E0,0E0,0E0,0E0,0E0,0E0,0E0,0E0,0E0,0E0,0E0,0E0,0E0,0E0,0E0,0E0,0E0,0E0,0E0,0E0,0E0,0E0,0E0,0E0,0E0,0E0,0E0,0E0,0E0,0E0],"parents":[2147483647,0,0,1,1,2,2,3,3,4,4,5,5,6,6,7,7,8,8,9,9,10,10,11,11,12,12,13,13,14,14,15,15,16,16,17,17,18,18,19,19,20,20,21,21,22,22,23,23,24,24,25,25,26,26,27,27,28,28,29,29,30,30],"right_children":[2,4,6,8,10,12,14,16,18,20,22,24,26,28,30,32,34,36,38,40,42,44,46,48,50,52,54,56,58,60,62,-1,-1,-1,-1,-1,-1,-1,-1,-1,-1,-1,-1,-1,-1,-1,-1,-1,-1,-1,-1,-1,-1,-1,-1,-1,-1,-1,-1,-1,-1,-1,-1],"split_conditions":[3.125E0,5.8763564E-1,1.4360596E0,1.85E1,-1.1878436E0,6E0,1.4285715E-1,7.7916665E0,1.35E-1,2.6436782E-1,1.725E1,3E0,4E0,7.708333E-1,7.5555557E-1,7.941176E-1,1.724345E-1,6E0,-6.2294513E-1,8.105878E0,-1.1965376E0,7.875E0,1.4E1,6.0833335E-1,1E1,7E0,4.625E0,7.291667E-1,1.1E0,7.7E1,5.1304346E-1,-4.0746283E-2,2.7661383E-2,1.6372518E-1,8.35588E-1,-9.7057536E-2,4.9677855E-1,-7.620006E-2,1.14430465E-1,3.1681904E-1,-1.0191988E-1,1.15412734E-1,8.6321163E-1,-3.0443618E-2,-1.9296624E-1,-1.5886597E-1,3.5461327E-1,-1.9539124E-1,1.2388387E-3,1.1735498E-1,-6.2244805E-3,-1.512599E-1,5.4858977E-1,-1.9186111E-1,-4.2566523E-1,1.4507169E-1,5.070313E-1,4.192701E-1,-1.0745235E-1,1.2735718E0,1.3796513E-1,3.2403973E-1,-2.841644E-1],"split_indices":[10,16,29,5,29,30,7,75,12,56,76,30,45,11,11,74,16,45,29,77,29,19,45,37,45,60,10,11,26,5,18,0,0,0,0,0,0,0,0,0,0,0,0,0,0,0,0,0,0,0,0,0,0,0,0,0,0,0,0,0,0,0,0],"split_type":[0,0,0,0,0,0,0,0,0,0,0,0,0,0,0,0,0,0,0,0,0,0,0,0,0,0,0,0,0,0,0,0,0,0,0,0,0,0,0,0,0,0,0,0,0,0,0,0,0,0,0,0,0,0,0,0,0,0,0,0,0,0,0],"sum_hessian":[3.934E3,2.279E3,1.655E3,1.303E3,9.76E2,1.491E3,1.64E2,1.017E3,2.86E2,9.7E1,8.79E2,1.385E3,1.06E2,1.53E2,1.1E1,1.012E3,5E0,2.4E1,2.62E2,4.9E1,4.8E1,7.91E2,8.8E1,4.21E2,9.64E2,6.5E1,4.1E1,1.02E2,5.1E1,5E0,6E0,7E2,3.12E2,3E0,2E0,7E0,1.7E1,7.7E1,1.85E2,6E0,4.3E1,4.7E1,1E0,7.54E2,3.7E1,8.7E1,1E0,6.4E1,3.57E2,6.88E2,2.76E2,5.3E1,1.2E1,2.5E1,1.6E1,8.3E1,1.9E1,6E0,4.5E1,4E0,1E0,5E0,1E0],"tree_param":{"num_deleted":"0","num_feature":"78","num_nodes":"63","size_leaf_vector":"1"}},{"base_weights":[-9.276884E-3,-6.805597E-2,1.9863287E0,3.9179873E-1,-2.6302847E-1,9.728995E0,1.5368627E0,1.7155713E-1,1.8479877E0,-4.831349E-1,1.922555E-2,1.3577119E0,1.3218324E0,2.4599063E0,-9.4171435E-1,3.7857422E-1,-8.056416E-1,2.2025545E0,-4.7083926E0,-3.513376E-1,-1.2027117E0,-2.1090372E-2,4.322047E0,9.644861E-3,1.8363002E-1,1.0967468E0,7.3610325E0,4.070678E0,-1.8732624E0,2.6576707E-2,1.97408E-1,8.195432E-2,-1.3297121E-1,2.6268518E-1,-3.1187275E-1,-5.435688E-1,-1.6510049E-1,-5.0503958E-2,8.969209E-3,-9.736987E-2,-3.737664E-1,9.111392E-3,-1.1396762E-1,1.3548286E0,-8.188282E-2,4.5244774E-1,1.9954586E-2,9.0476674E-1,-3.5744928E-2,5.1697505E-1,-1.1280413E-2,-2.5107062E-1,3.817376E-1],"categories":[],"categories_nodes":[],"categories_segments":[],"categories_sizes":[],"default_left":[0,0,0,0,0,0,0,0,0,0,0,0,0,0,0,0,0,0,0,0,0,0,0,0,0,0,0,0,0,0,0,0,0,0,0,0,0,0,0,0,0,0,0,0,0,0,0,0,0,0,0,0,0],"id":22,"left_children":[1,3,5,7,9,11,13,15,17,19,21,-1,23,25,27,29,31,33,35,37,39,41,43,-1,-1,45,47,49,51,-1,-1,-1,-1,-1,-1,-1,-1,-1,-1,-1,-1,-1,-1,-1,-1,-1,-1,-1,-1,-1,-1,-1,-1],"loss_changes":[4.632779E2,3.442015E2,3.771687E2,3.660564E2,1.6754716E2,1.746742E2,2.4955452E2,2.0134534E2,3.5882117E2,1.4310202E2,2.0556543E2,0E0,1.5208778E0,5.1888135E2,1.4748424E2,1.4701862E2,1.4933856E2,3.310094E2,8.105957E0,8.698993E1,1.3173517E2,1.4730656E2,5.34107E2,0E0,0E0,1.923726E2,2.2541357E2,2.4078606E1,1.0376767E2,0E0,0E0,0E0,0E0,0E0,0E0,0E0,0E0,0E0,0E0,0E0,0E0,0E0,0E0,0E0,0E0,0E0,0E0,0E0,0E0,0E0,0E0,0E0,0E0],"parents":[2147483647,0,0,1,1,2,2,3,3,4,4,5,5,6,6,7,7,8,8,9,9,10,10,12,12,13,13,14,14,15,15,16,16,17,17,18,18,19,19,20,20,21,21,22,22,25,25,26,26,27,27,28,28],"right_children":[2,4,6,8,10,12,14,16,18,20,22,-1,24,26,28,30,32,34,36,38,40,42,44,-1,-1,46,48,50,52,-1,-1,-1,-1,-1,-1,-1,-1,-1,-1,-1,-1,-1,-1,-1,-1,-1,-1,-1,-1,-1,-1,-1,-1],"split_conditions":[6.3333335E0,1E0,4.5E1,1.99E1,1.2304256E1,6.2E-1,2.99E1,5.8E0,5.3846157E-1,1.2216325E1,6.3E1,1.3577119E0,7.95E1,1.4E1,2.5540513E-1,6E0,2.021E3,8.626894E-1,5E0,1.0555556E0,7.325E1,1E0,2.1E0,9.644861E-3,1.8363002E-1,6.191366E-1,8.125E-1,9.75E0,7.2336334E-1,2.6576707E-2,1.97408E-1,8.195432E-2,-1.3297121E-1,2.6268518E-1,-3.1187275E-1,-5.435688E-1,-1.6510049E-1,-5.0503958E-2,8.969209E-3,-9.736987E-2,-3.737664E-1,9.111392E-3,-1.1396762E-1,1.3548286E0,-8.188282E-2,4.5244774E-1,1.9954586E-2,9.0476674E-1,-3.5744928E-2,5.1697505E-1,-1.1280413E-2,-2.5107062E-1,3.817376E-1],"split_indices":[6,38,61,43,77,12,43,44,56,77,5,0,5,50,16,10,49,11,30,27,5,11,53,0,0,16,11,10,16,0,0,0,0,0,0,0,0,0,0,0,0,0,0,0,0,0,0,0,0,0,0,0,0],"split_type":[0,0,0,0,0,0,0,0,0,0,0,0,0,0,0,0,0,0,0,0,0,0,0,0,0,0,0,0,0,0,0,0,0,0,0,0,0,0,0,0,0,0,0,0,0,0,0,0,0,0,0,0,0],"sum_hessian":[3.949E3,3.837E3,1.12E2,1.142E3,2.695E3,5E0,1.07E2,9.93E2,1.49E2,1.514E3,1.181E3,3E0,2E0,7.8E1,2.9E1,8.2E2,1.73E2,1.42E2,7E0,1.281E3,2.33E2,1.171E3,1E1,1E0,1E0,6.2E1,1.6E1,4E0,2.5E1,7.67E2,5.3E1,4.2E1,1.31E2,1.32E2,1E1,5E0,2E0,9.5E2,3.31E2,2.15E2,1.8E1,1.065E3,1.06E2,3E0,7E0,1.2E1,5E1,1.3E1,3E0,3E0,1E0,2.3E1,2E0],"tree_param":{"num_deleted":"0","num_feature":"78","num_nodes":"53","size_leaf_vector":"1"}},{"base_weights":[-3.4667443E-2,-1.7784852E-1,5.569045E-1,-1.03858225E-1,-9.507298E-1,4.1153473E-1,2.7121782E0,-3.4673476E-1,1.8734217E-1,-1.1273161E0,5.064927E-1,2.9627854E-1,3.0914786E0,1.5761781E0,9.288725E0,-3.6981392E-1,4.95386E0,-1.1261753E-1,6.8511355E-1,-6.6549414E-1,-1.6171621E0,-4.1188362E-1,3.21081E0,2.6145768E-1,8.289051E0,-4.5481363E-1,3.8031702E0,-2.6809795E0,3.5136456E0,1.151977E0,2.4407439E-1,-3.3111792E-2,-2.2488181E-1,6.24324E-1,1.1202728E-1,2.1836817E-2,-7.164002E-2,-1.8034077E-1,8.81024E-2,-1.1214975E-1,3.2512017E-2,2.0805565E-1,-1.7296511E-1,7.761907E-2,-2.489362E-1,4.515706E-1,-4.3591928E-2,7.369935E-2,-2.241364E-2,1.1674289E0,7.092888E-2,5.0888824E-1,-3.4720588E-3,4.7650215E-1,-3.6279812E-1,4.50474E-1,-4.0296504E-1],"categories":[],"categories_nodes":[],"categories_segments":[],"categories_sizes":[],"default_left":[0,0,0,0,0,0,0,0,0,0,0,0,0,0,0,0,0,0,0,0,0,0,0,0,0,0,0,0,0,0,0,0,0,0,0,0,0,0,0,0,0,0,0,0,0,0,0,0,0,0,0,0,0,0,0,0,0],"id":23,"left_children":[1,3,5,7,9,11,13,15,17,19,21,23,25,27,29,31,33,35,37,39,41,43,45,47,49,-1,51,53,55,-1,-1,-1,-1,-1,-1,-1,-1,-1,-1,-1,-1,-1,-1,-1,-1,-1,-1,-1,-1,-1,-1,-1,-1,-1,-1,-1,-1],"loss_changes":[3.386147E2,1.8387662E2,2.4264127E2,2.0794385E2,7.294151E1,2.2453665E2,3.5034976E2,1.9747386E2,1.9976369E2,5.5477173E1,7.859338E1,1.9235495E2,1.8033432E2,3.6417175E2,7.7434204E1,1.1511519E2,2.6870178E1,1.670755E2,2.467228E2,5.9620037E1,5.389386E1,6.13403E1,4.044529E1,1.6185863E2,6.745909E1,0E0,1.3884592E2,1.1589295E2,2.4248352E2,0E0,0E0,0E0,0E0,0E0,0E0,0E0,0E0,0E0,0E0,0E0,0E0,0E0,0E0,0E0,0E0,0E0,0E0,0E0,0E0,0E0,0E0,0E0,0E0,0E0,0E0,0E0,0E0],"parents":[2147483647,0,0,1,1,2,2,3,3,4,4,5,5,6,6,7,7,8,8,9,9,10,10,11,11,12,12,13,13,14,14,15,15,16,16,17,17,18,18,19,19,20,20,21,21,22,22,23,23,24,24,26,26,27,27,28,28],"right_children":[2,4,6,8,10,12,14,16,18,20,22,24,26,28,30,32,34,36,38,40,42,44,46,48,50,-1,52,54,56,-1,-1,-1,-1,-1,-1,-1,-1,-1,-1,-1,-1,-1,-1,-1,-1,-1,-1,-1,-1,-1,-1,-1,-1,-1,-1,-1,-1],"split_conditions":[5.3333335E0,5E0,2.5E-1,3E0,7E0,1.9E1,1.3120941E0,2.45E1,7.5757575E-1,3E0,6.5E-1,1.24716425E1,2E0,6.357143E-1,6.25E0,1.244372E1,1.51E1,1.0333333E0,-1.4831411E0,2.1621622E-1,-1.2E1,1.15E1,1.3665283E0,1E1,8.066667E0,-4.5481363E-1,2.6E1,3.125E0,8.205357E-1,1.151977E0,2.4407439E-1,-3.3111792E-2,-2.2488181E-1,6.24324E-1,1.1202728E-1,2.1836817E-2,-7.164002E-2,-1.8034077E-1,8.81024E-2,-1.1214975E-1,3.2512017E-2,2.0805565E-1,-1.7296511E-1,7.761907E-2,-2.489362E-1,4.515706E-1,-4.3591928E-2,7.369935E-2,-2.241364E-2,1.1674289E0,7.092888E-2,5.0888824E-1,-3.4720588E-3,4.7650215E-1,-3.6279812E-1,4.50474E-1,-4.0296504E-1],"split_indices":[10,30,9,30,59,50,29,43,74,50,37,77,44,11,6,77,0,27,29,47,59,43,29,50,0,0,43,6,11,0,0,0,0,0,0,0,0,0,0,0,0,0,0,0,0,0,0,0,0,0,0,0,0,0,0,0,0],"split_type":[0,0,0,0,0,0,0,0,0,0,0,0,0,0,0,0,0,0,0,0,0,0,0,0,0,0,0,0,0,0,0,0,0,0,0,0,0,0,0,0,0,0,0,0,0,0,0,0,0,0,0,0,0,0,0,0,0],"sum_hessian":[3.996E3,3.218E3,7.78E2,2.938E3,2.8E2,7.3E2,4.8E1,1.602E3,1.336E3,2.5E2,3E1,7.01E2,2.9E1,4.2E1,6E0,1.596E3,6E0,8.34E2,5.02E2,1.3E2,1.2E2,2.3E1,7E0,6.99E2,2E0,2E0,2.7E1,1.3E1,2.9E1,4E0,2E0,1.565E3,3.1E1,4E0,2E0,5.39E2,2.95E2,3.6E1,4.66E2,8.9E1,4.1E1,3E0,1.17E2,1.5E1,8E0,5E0,2E0,3.53E2,3.46E2,1E0,1E0,2E1,7E0,1E0,1.2E1,2.6E1,3E0],"tree_param":{"num_deleted":"0","num_feature":"78","num_nodes":"57","size_leaf_vector":"1"}},{"base_weights":[4.649123E-2,1.2112893E-1,-8.419599E-1,7.655627E-2,1.5883282E0,-4.3835676E-1,-1.6284664E0,1.0216957E-1,-2.2359207E0,1.0121649E1,1.1618385E0,-7.3577374E-1,2.0645103E0,-1.3079256E0,-3.4364803E0,2.8903894E0,8.138151E-2,5.405808E0,-3.0256705E0,1.2575644E0,1.0283299E-2,1.5558094E0,-3.747787E0,-9.0774804E-1,2.0423448E0,3.744406E-1,9.5512134E-1,-1.7484689E0,-2.6642004E-1,1.114883E0,-4.2301426E0,5.578828E-1,-1.2737384E-1,-9.125088E-3,3.4164283E-2,-4.358972E-2,7.5316757E-1,-3.9316496E-1,-2.6696006E-2,-1.2769063E-1,2.5059748E-1,-4.408919E-1,3.9006777E-2,-4.64825E-2,-2.1279506E-1,4.78971E-2,4.633506E-1,1.6275626E-1,-2.595251E-1,-2.1037138E-1,1.130265E-2,1.9778423E-1,-1.1134523E-1,-7.067843E-3,1.793003E-1,-2.1039371E-1,-4.9302408E-1],"categories":[],"categories_nodes":[],"categories_segments":[],"categories_sizes":[],"default_left":[0,0,0,0,0,0,0,0,0,0,0,0,0,0,0,0,0,0,0,0,0,0,0,0,0,0,0,0,0,0,0,0,0,0,0,0,0,0,0,0,0,0,0,0,0,0,0,0,0,0,0,0,0,0,0,0,0],"id":24,"left_children":[1,3,5,7,9,11,13,15,17,19,21,23,25,27,29,31,33,35,37,-1,-1,39,41,43,45,47,-1,49,51,53,55,-1,-1,-1,-1,-1,-1,-1,-1,-1,-1,-1,-1,-1,-1,-1,-1,-1,-1,-1,-1,-1,-1,-1,-1,-1,-1],"loss_changes":[2.635536E2,2.3952263E2,9.68499E1,2.1087448E2,3.8016428E2,1.5398712E2,5.5303314E1,2.0360873E2,2.5148528E2,1.2036963E2,2.0677356E2,8.964922E1,2.7379816E2,4.0627213E1,5.921132E1,2.986065E2,1.5717477E2,5.366738E1,8.850656E1,0E0,0E0,2.64403E2,2.4007004E1,9.279091E1,4.1829926E1,7.4833496E1,0E0,4.2097916E1,5.5342747E1,2.710817E0,8.274841E0,0E0,0E0,0E0,0E0,0E0,0E0,0E0,0E0,0E0,0E0,0E0,0E0,0E0,0E0,0E0,0E0,0E0,0E0,0E0,0E0,0E0,0E0,0E0,0E0,0E0,0E0],"parents":[2147483647,0,0,1,1,2,2,3,3,4,4,5,5,6,6,7,7,8,8,9,9,10,10,11,11,12,12,13,13,14,14,15,15,16,16,17,17,18,18,21,21,22,22,23,23,24,24,25,25,27,27,28,28,29,29,30,30],"right_children":[2,4,6,8,10,12,14,16,18,20,22,24,26,28,30,32,34,36,38,-1,-1,40,42,44,46,48,-1,50,52,54,56,-1,-1,-1,-1,-1,-1,-1,-1,-1,-1,-1,-1,-1,-1,-1,-1,-1,-1,-1,-1,-1,-1,-1,-1,-1,-1],"split_conditions":[6E0,6.3333335E0,1.8421052E-1,1.37E1,4.5E1,7E0,3.3333334E-1,0E0,1.5853659E0,1.7933332E1,1.5E1,1.1666666E0,1.1134921E1,3.8947368E-1,1.5E0,1E1,8.9E0,2.1125E1,2.022E3,1.2575644E0,1.0283299E-2,9.083333E0,6.666667E-1,2.8E0,7.9166665E0,2.2222222E-1,9.5512134E-1,8.5833335E-1,1E0,1.08E1,3E0,5.578828E-1,-1.2737384E-1,-9.125088E-3,3.4164283E-2,-4.358972E-2,7.5316757E-1,-3.9316496E-1,-2.6696006E-2,-1.2769063E-1,2.5059748E-1,-4.408919E-1,3.9006777E-2,-4.64825E-2,-2.1279506E-1,4.78971E-2,4.633506E-1,1.6275626E-1,-2.595251E-1,-2.1037138E-1,1.130265E-2,1.9778423E-1,-1.1134523E-1,-7.067843E-3,1.793003E-1,-2.1039371E-1,-4.9302408E-1],"split_indices":[30,6,56,44,61,59,55,9,53,0,76,27,76,56,60,45,43,5,49,0,0,76,20,6,46,55,0,37,38,0,50,0,0,0,0,0,0,0,0,0,0,0,0,0,0,0,0,0,0,0,0,0,0,0,0,0,0],"split_type":[0,0,0,0,0,0,0,0,0,0,0,0,0,0,0,0,0,0,0,0,0,0,0,0,0,0,0,0,0,0,0,0,0,0,0,0,0,0,0,0,0,0,0,0,0,0,0,0,0,0,0,0,0,0,0,0,0],"sum_hessian":[3.973E3,3.666E3,3.07E2,3.559E3,1.07E2,2.04E2,1.03E2,3.521E3,3.8E1,4E0,1.03E2,1.83E2,2.1E1,8.9E1,1.4E1,2.5E1,3.496E3,3E0,3.5E1,3E0,1E0,9.6E1,7E0,1.73E2,1E1,1.8E1,3E0,6.2E1,2.7E1,2E0,1.2E1,1.5E1,1E1,2.102E3,1.394E3,1E0,2E0,2.6E1,9E0,2.4E1,7.2E1,6E0,1E0,1.28E2,4.5E1,7E0,3E0,1.3E1,5E0,5.2E1,1E1,7E0,2E1,1E0,1E0,4E0,8E0],"tree_param":{"num_deleted":"0","num_feature":"78","num_nodes":"57","size_leaf_vector":"1"}},{"base_weights":[-1.0907996E-2,-7.851483E-2,8.3684564E-1,6.9937535E-2,-3.4682253E-1,1.4749519E0,-9.958843E-1,-1.8699201E0,1.0294109E-1,-1.814693E-1,-1.0768826E0,-8.784815E-1,2.2845297E0,2.389131E0,-1.480506E0,-2.8705072E-2,-3.092034E0,4.288594E0,8.31951E-2,-2.3425949E-1,2.3633614E0,-4.34608E-1,-1.9220403E0,4.1006875E-1,-3.4824278E0,2.763649E0,-9.290434E-1,-2.9160216E0,5.093628E0,2.3165028E0,-1.8869342E0,-8.553941E-2,2.846883E-1,-1.9129531E-1,-4.8335075E-1,-4.504144E-2,8.329503E-1,-2.8247377E-2,2.5876373E-2,-1.89098E-2,-3.8457844E-1,-1.0289657E-1,5.858322E-1,-7.5501534E-3,-2.0024018E-1,-2.0531693E-1,5.807682E-1,-2.3877578E-2,6.172153E-1,1.3654076E-1,-4.8728776E-1,2.3629597E-1,8.455805E-1,6.407303E-1,-1.5882649E-1,-3.711671E-1,-2.1453686E-2,6.7441416E-1,6.1156284E-2,-1.6006848E-1,8.1063145E-1,2.3114474E-1,-2.3798223E-1],"categories":[],"categories_nodes":[],"categories_segments":[],"categories_sizes":[],"default_left":[0,0,0,0,0,0,0,0,0,0,0,0,0,0,0,0,0,0,0,0,0,0,0,0,0,0,0,0,0,0,0,0,0,0,0,0,0,0,0,0,0,0,0,0,0,0,0,0,0,0,0,0,0,0,0,0,0,0,0,0,0,0,0],"id":25,"left_children":[1,3,5,7,9,11,13,15,17,19,21,23,25,27,29,31,33,35,37,39,41,43,45,47,49,51,53,55,57,59,61,-1,-1,-1,-1,-1,-1,-1,-1,-1,-1,-1,-1,-1,-1,-1,-1,-1,-1,-1,-1,-1,-1,-1,-1,-1,-1,-1,-1,-1,-1,-1,-1],"loss_changes":[2.2970415E2,1.479441E2,3.4768182E2,1.5309286E2,1.5938838E2,4.2131067E2,1.2976102E2,8.9606155E1,1.9359856E2,1.4543018E2,1.313779E2,1.9298828E2,2.552594E2,1.5854858E2,1.0926654E2,4.2648743E1,3.9359207E1,2.1518854E2,1.504271E2,1.7159416E2,2.67344E2,7.846171E1,1.1797568E2,1.4787627E2,1.3507697E2,3.0508972E2,1.1609267E2,7.4088287E0,4.692392E1,1.7238467E2,1.3380627E2,0E0,0E0,0E0,0E0,0E0,0E0,0E0,0E0,0E0,0E0,0E0,0E0,0E0,0E0,0E0,0E0,0E0,0E0,0E0,0E0,0E0,0E0,0E0,0E0,0E0,0E0,0E0,0E0,0E0,0E0,0E0,0E0],"parents":[2147483647,0,0,1,1,2,2,3,3,4,4,5,5,6,6,7,7,8,8,9,9,10,10,11,11,12,12,13,13,14,14,15,15,16,16,17,17,18,18,19,19,20,20,21,21,22,22,23,23,24,24,25,25,26,26,27,27,28,28,29,29,30,30],"right_children":[2,4,6,8,10,12,14,16,18,20,22,24,26,28,30,32,34,36,38,40,42,44,46,48,50,52,54,56,58,60,62,-1,-1,-1,-1,-1,-1,-1,-1,-1,-1,-1,-1,-1,-1,-1,-1,-1,-1,-1,-1,-1,-1,-1,-1,-1,-1,-1,-1,-1,-1,-1,-1],"split_conditions":[2.18E1,7.708333E-1,1.3583333E1,3.7E1,9.3698305E-1,6.458333E-1,2.22E1,2.3333333E0,3.8E1,8.609953E-1,1.1E1,4.6613693E-1,3.4285715E0,1.8333334E0,2E0,7.5E1,5.1304346E-1,5.2380955E-1,5.5E0,1.4E1,2.5E0,3.75E-1,7.95E1,3.5886064E-1,1.21212125E-1,1.275E1,1E-1,6E-1,1E0,1.4285715E-1,-1.3E1,-8.553941E-2,2.846883E-1,-1.9129531E-1,-4.8335075E-1,-4.504144E-2,8.329503E-1,-2.8247377E-2,2.5876373E-2,-1.89098E-2,-3.8457844E-1,-1.0289657E-1,5.858322E-1,-7.5501534E-3,-2.0024018E-1,-2.0531693E-1,5.807682E-1,-2.3877578E-2,6.172153E-1,1.3654076E-1,-4.8728776E-1,2.3629597E-1,8.455805E-1,6.407303E-1,-1.5882649E-1,-3.711671E-1,-2.1453686E-2,6.7441416E-1,6.1156284E-2,-1.6006848E-1,8.1063145E-1,2.3114474E-1,-2.3798223E-1],"split_indices":[43,11,76,69,29,11,43,54,69,29,50,16,53,53,50,36,18,11,76,44,59,18,5,16,47,76,44,4,4,4,59,0,0,0,0,0,0,0,0,0,0,0,0,0,0,0,0,0,0,0,0,0,0,0,0,0,0,0,0,0,0,0,0],"split_type":[0,0,0,0,0,0,0,0,0,0,0,0,0,0,0,0,0,0,0,0,0,0,0,0,0,0,0,0,0,0,0,0,0,0,0,0,0,0,0,0,0,0,0,0,0,0,0,0,0,0,0,0,0,0,0,0,0,0,0,0,0,0,0],"sum_hessian":[4.007E3,3.712E3,2.95E2,2.39E3,1.322E3,2.19E2,7.6E1,3.9E1,2.351E3,1.079E3,2.43E2,5.6E1,1.63E2,9E0,6.7E1,1.6E1,2.3E1,1E1,2.341E3,1.058E3,2.1E1,1.39E2,1.04E2,3.8E1,1.8E1,1.42E2,2.1E1,3E0,6E0,6E0,6.1E1,1.3E1,3E0,1.5E1,8E0,5E0,5E0,7.59E2,1.582E3,1.046E3,1.2E1,1.1E1,1E1,1.14E2,2.5E1,1.03E2,1E0,3.5E1,3E0,4E0,1.4E1,1.34E2,8E0,1E0,2E1,2E0,1E0,4E0,2E0,4E0,2E0,6E0,5.5E1],"tree_param":{"num_deleted":"0","num_feature":"78","num_nodes":"63","size_leaf_vector":"1"}},{"base_weights":[3.246018E-2,-1.9614865E-1,3.4670052E-1,-2.0857355E-1,4.5454783E0,-3.4615368E-1,4.9143204E-1,-2.643599E-1,8.6368245E-1,7.39946E-1,-7.416566E-1,2.2629812E-1,-1.8386071E0,8.146554E0,4.4067416E-1,-2.0032244E0,-2.3071772E-1,6.754895E-1,5.7980675E-1,-1.9805382E-3,-1.04267955E-1,1.24434024E-1,1.0657016E0,-2.334622E0,6.593647E-1,2.0258203E0,1.0852617E1,-7.6870567E-1,5.5227494E-1,-2.1819608E-1,9.5475756E-2,-2.6136724E-2,1.6084847E-1,2.624682E-1,2.8988788E-2,-3.5434786E-2,1.8204561E-1,3.9575692E-2,-2.611311E-1,-1.7768346E-1,1.821528E-1,2.9484844E-1,-3.2108586E-2,1.1754967E0,3.1204346E-1,-1.22070245E-1,2.898707E-1,7.763981E-1,5.171088E-2],"categories":[],"categories_nodes":[],"categories_segments":[],"categories_sizes":[],"default_left":[0,0,0,0,0,0,0,0,0,0,0,0,0,0,0,0,0,0,0,0,0,0,0,0,0,0,0,0,0,0,0,0,0,0,0,0,0,0,0,0,0,0,0,0,0,0,0,0,0],"id":26,"left_children":[1,3,5,7,9,11,13,15,17,-1,19,21,23,25,27,29,31,33,-1,-1,-1,35,-1,37,39,41,43,45,47,-1,-1,-1,-1,-1,-1,-1,-1,-1,-1,-1,-1,-1,-1,-1,-1,-1,-1,-1,-1],"loss_changes":[2.8384363E2,1.352512E2,1.6704698E2,1.3667133E2,9.668994E1,2.466323E2,5.3059534E2,1.26257614E2,1.00369736E2,0E0,5.2498186E-1,2.1966156E2,1.0082941E2,1.25794495E2,1.851737E2,2.388263E1,1.2035516E2,8.162497E1,0E0,0E0,0E0,1.696928E2,0E0,5.1871216E1,4.287868E1,9.87108E0,3.6947021E0,1.9565906E2,3.131814E2,0E0,0E0,0E0,0E0,0E0,0E0,0E0,0E0,0E0,0E0,0E0,0E0,0E0,0E0,0E0,0E0,0E0,0E0,0E0,0E0],"parents":[2147483647,0,0,1,1,2,2,3,3,4,4,5,5,6,6,7,7,8,8,10,10,11,11,12,12,13,13,14,14,15,15,16,16,17,17,21,21,23,23,24,24,25,25,26,26,27,27,28,28],"right_children":[2,4,6,8,10,12,14,16,18,-1,20,22,24,26,28,30,32,34,-1,-1,-1,36,-1,38,40,42,44,46,48,-1,-1,-1,-1,-1,-1,-1,-1,-1,-1,-1,-1,-1,-1,-1,-1,-1,-1,-1,-1],"split_conditions":[3.125E0,1E0,-8.992019E-1,1.33E1,5.0277776E-1,8.052631E0,8.4444445E-1,8.2222223E-1,1E0,7.39946E-1,9.25E0,3E1,5E0,1.17E1,1.3274336E-1,1.3E1,5E-1,1.39E1,5.7980675E-1,-1.9805382E-3,-1.04267955E-1,1.0870833E1,1.0657016E0,1.5384616E-1,4.5384617E0,1.25E-1,7.5E-1,1.4666667E1,1.3793103E-1,-2.1819608E-1,9.5475756E-2,-2.6136724E-2,1.6084847E-1,2.624682E-1,2.8988788E-2,-3.5434786E-2,1.8204561E-1,3.9575692E-2,-2.611311E-1,-1.7768346E-1,1.821528E-1,2.9484844E-1,-3.2108586E-2,1.1754967E0,3.1204346E-1,-1.22070245E-1,2.898707E-1,7.763981E-1,5.171088E-2],"split_indices":[10,56,29,43,11,46,27,27,32,0,5,24,24,43,56,46,3,43,0,0,0,76,0,56,21,9,4,76,56,0,0,0,0,0,0,0,0,0,0,0,0,0,0,0,0,0,0,0,0],"split_type":[0,0,0,0,0,0,0,0,0,0,0,0,0,0,0,0,0,0,0,0,0,0,0,0,0,0,0,0,0,0,0,0,0,0,0,0,0,0,0,0,0,0,0,0,0,0,0,0,0],"sum_hessian":[3.949E3,2.286E3,1.663E3,2.281E3,5E0,2.87E2,1.376E3,2.169E3,1.12E2,3E0,2E0,2.08E2,7.9E1,8E0,1.368E3,4E1,2.129E3,1.09E2,3E0,1E0,1E0,2.07E2,1E0,6.6E1,1.3E1,3E0,5E0,1.15E2,1.253E3,3.8E1,2E0,2.095E3,3.4E1,1.7E1,9.2E1,1.62E2,4.5E1,6E0,6E1,4E0,9E0,2E0,1E0,4E0,1E0,1.03E2,1.2E1,5E0,1.248E3],"tree_param":{"num_deleted":"0","num_feature":"78","num_nodes":"49","size_leaf_vector":"1"}},{"base_weights":[1.3388409E-2,-1.8718803E-1,2.7114296E-1,-1.9782453E0,-1.6145031E-1,3.9579403E-1,-7.0087063E-1,-2.2369523E0,-4.6768913E-1,-1.2793915E-1,-1.4631186E0,-1.7498195E-1,5.827386E-1,-1.7765824E0,-1.610665E-1,-2.3884044E0,-7.440021E-2,7.633695E-2,-1.2990609E-1,-3.9928186E-1,3.110335E-2,-1.9839609E0,8.3886933E-1,-1.2766874E0,5.196852E-1,2.7338657E0,4.5069957E-1,-7.249164E-1,-3.04614E0,3.9941704E-1,-1.2931317E0,-4.78456E-2,-2.4462955E-1,-2.7767206E-2,-1.04744725E-1,7.6441474E-2,-1.0514997E-2,-2.3192136E-1,1.20895505E-1,3.735128E-1,-1.3354395E-1,-1.6435301E-1,2.1277995E-1,4.1564986E-1,2.0278005E-2,1.3619872E-2,5.036342E-1,4.872433E-2,-4.075024E-1,1.302416E-1,-1.4024477E-1,-3.5365325E-1,9.312848E-3,-1.802613E-2,3.899046E-1,-2.0888102E-1,2.7333612E-2],"categories":[],"categories_nodes":[],"categories_segments":[],"categories_sizes":[],"default_left":[0,0,0,0,0,0,0,0,0,0,0,0,0,0,0,0,0,0,0,0,0,0,0,0,0,0,0,0,0,0,0,0,0,0,0,0,0,0,0,0,0,0,0,0,0,0,0,0,0,0,0,0,0,0,0,0,0],"id":27,"left_children":[1,3,5,7,9,11,13,15,17,19,21,23,25,27,29,31,-1,-1,-1,33,35,37,39,41,43,45,47,49,51,53,55,-1,-1,-1,-1,-1,-1,-1,-1,-1,-1,-1,-1,-1,-1,-1,-1,-1,-1,-1,-1,-1,-1,-1,-1,-1,-1],"loss_changes":[2.086149E2,1.0406241E2,2.1421996E2,1.118866E1,9.7276184E1,1.6724033E2,1.1623549E2,4.0147705E0,7.186036E0,9.425667E1,6.892128E1,2.9691748E2,3.3360794E2,8.686978E1,8.62639E1,1.1907196E0,0E0,0E0,0E0,6.318701E1,1.3773077E2,5.21548E1,7.449897E1,1.9078539E2,2.730222E2,4.0550928E2,1.8570222E2,5.4032658E1,4.685791E1,1.8568268E2,5.6840714E1,0E0,0E0,0E0,0E0,0E0,0E0,0E0,0E0,0E0,0E0,0E0,0E0,0E0,0E0,0E0,0E0,0E0,0E0,0E0,0E0,0E0,0E0,0E0,0E0,0E0,0E0],"parents":[2147483647,0,0,1,1,2,2,3,3,4,4,5,5,6,6,7,7,8,8,9,9,10,10,11,11,12,12,13,13,14,14,15,15,19,19,20,20,21,21,22,22,23,23,24,24,25,25,26,26,27,27,28,28,29,29,30,30],"right_children":[2,4,6,8,10,12,14,16,18,20,22,24,26,28,30,32,-1,-1,-1,34,36,38,40,42,44,46,48,50,52,54,56,-1,-1,-1,-1,-1,-1,-1,-1,-1,-1,-1,-1,-1,-1,-1,-1,-1,-1,-1,-1,-1,-1,-1,-1,-1,-1],"split_conditions":[9E0,3.1829033E0,5E0,1.6E1,1.244372E1,3E0,6.9577465E0,9E-1,5.9615386E-1,-4.6239784E-1,1.665871E0,7.269231E0,9.6E0,1.2370929E1,1.8421052E-1,4.3333334E-1,-7.440021E-2,7.633695E-2,-1.2990609E-1,1.2083333E1,-1.9282737E-1,4E0,1.1E1,1.7E1,7.4615383E0,1.6666667E-1,1.74E1,1.25E-1,1E0,6.5E0,1.2E1,-4.78456E-2,-2.4462955E-1,-2.7767206E-2,-1.04744725E-1,7.6441474E-2,-1.0514997E-2,-2.3192136E-1,1.20895505E-1,3.735128E-1,-1.3354395E-1,-1.6435301E-1,2.1277995E-1,4.1564986E-1,2.0278005E-2,1.3619872E-2,5.036342E-1,4.872433E-2,-4.075024E-1,1.302416E-1,-1.4024477E-1,-3.5365325E-1,9.312848E-3,-1.802613E-2,3.899046E-1,-2.0888102E-1,2.7333612E-2],"split_indices":[43,77,30,50,77,30,46,74,18,29,29,46,43,77,56,37,0,0,0,76,29,30,50,50,46,12,44,4,74,59,50,0,0,0,0,0,0,0,0,0,0,0,0,0,0,0,0,0,0,0,0,0,0,0,0,0,0],"split_type":[0,0,0,0,0,0,0,0,0,0,0,0,0,0,0,0,0,0,0,0,0,0,0,0,0,0,0,0,0,0,0,0,0,0,0,0,0,0,0,0,0,0,0,0,0,0,0,0,0,0,0,0,0,0,0,0,0],"sum_hessian":[4.033E3,2.268E3,1.765E3,3.1E1,2.237E3,1.565E3,2E2,2.6E1,5E0,2.182E3,5.5E1,3.86E2,1.179E3,6.6E1,1.34E2,2.3E1,3E0,2E0,3E0,8.06E2,1.376E3,4.5E1,1E1,1.49E2,2.37E2,6.7E1,1.112E3,3.7E1,2.9E1,9E1,4.4E1,1E0,2.2E1,6.8E2,1.26E2,2.15E2,1.161E3,4.1E1,4E0,4E0,6E0,1.35E2,1.4E1,1.8E1,2.19E2,3.2E1,3.5E1,1.104E3,8E0,9E0,2.8E1,2.5E1,4E0,7.8E1,1.2E1,2.9E1,1.5E1],"tree_param":{"num_deleted":"0","num_feature":"78","num_nodes":"57","size_leaf_vector":"1"}},{"base_weights":[2.4189232E-2,-5.3991374E-2,5.894655E-1,-2.4666684E-2,-1.360939E0,7.191062E-1,-2.3106313E0,-3.569416E-2,3.4040453E0,-2.6368217E0,-3.928263E-1,1.3055683E0,-7.814069E-3,-3.901227E0,1.4135928E0,1.9748366E-2,-6.766666E-1,1.6696271E0,7.4392855E-1,-1.4633362E0,-3.6493177E0,-3.6615715E0,9.0373474E-1,3.4157603E0,7.6868165E-1,-2.2010026E0,7.5077564E-1,-4.323444E0,9.5490284E-2,1.8821499E0,-6.488747E-2,-1.0328212E-2,3.635021E-2,-1.3169535E-1,-1.0167583E-2,8.892892E-3,2.8963998E-1,1.0176088E-1,-2.3126738E-1,-2.484438E-2,-3.8400948E-1,-4.0125638E-1,2.2516819E-2,-6.352992E-2,2.7995953E-1,7.564401E-2,5.6645906E-1,-9.4720066E-2,1.2382891E-1,-6.4292066E-3,-4.4957566E-1,1.776539E-1,-7.110857E-2,-4.9501902E-1,-2.1852624E-1,2.2122423E-1,7.813099E-2],"categories":[],"categories_nodes":[],"categories_segments":[],"categories_sizes":[],"default_left":[0,0,0,0,0,0,0,0,0,0,0,0,0,0,0,0,0,0,0,0,0,0,0,0,0,0,0,0,0,0,0,0,0,0,0,0,0,0,0,0,0,0,0,0,0,0,0,0,0,0,0,0,0,0,0,0,0],"id":28,"left_children":[1,3,5,7,9,11,13,15,17,19,21,23,25,27,29,31,33,35,-1,37,39,41,43,45,47,49,51,53,-1,55,-1,-1,-1,-1,-1,-1,-1,-1,-1,-1,-1,-1,-1,-1,-1,-1,-1,-1,-1,-1,-1,-1,-1,-1,-1,-1,-1],"loss_changes":[1.7677155E2,1.3446654E2,1.8422414E2,1.297378E2,9.3771484E1,1.9880103E2,1.3016196E2,1.21864815E2,6.365502E1,3.3357483E1,1.9430061E2,2.892529E2,3.495171E2,3.5220383E1,8.109294E0,1.3349542E2,1.0023165E2,1.6896309E1,0E0,3.8304623E1,9.66684E0,1.9017029E1,9.828221E1,