{"learner":{"attributes":{},"feature_names":[],"feature_types":[],"gradient_booster":{"model":{"gbtree_model_param":{"num_parallel_tree":"1","num_trees":"300"},"iteration_indptr":[0,1,2,3,4,5,6,7,8,9,10,11,12,13,14,15,16,17,18,19,20,21,22,23,24,25,26,27,28,29,30,31,32,33,34,35,36,37,38,39,40,41,42,43,44,45,46,47,48,49,50,51,52,53,54,55,56,57,58,59,60,61,62,63,64,65,66,67,68,69,70,71,72,73,74,75,76,77,78,79,80,81,82,83,84,85,86,87,88,89,90,91,92,93,94,95,96,97,98,99,100,101,102,103,104,105,106,107,108,109,110,111,112,113,114,115,116,117,118,119,120,121,122,123,124,125,126,127,128,129,130,131,132,133,134,135,136,137,138,139,140,141,142,143,144,145,146,147,148,149,150,151,152,153,154,155,156,157,158,159,160,161,162,163,164,165,166,167,168,169,170,171,172,173,174,175,176,177,178,179,180,181,182,183,184,185,186,187,188,189,190,191,192,193,194,195,196,197,198,199,200,201,202,203,204,205,206,207,208,209,210,211,212,213,214,215,216,217,218,219,220,221,222,223,224,225,226,227,228,229,230,231,232,233,234,235,236,237,238,239,240,241,242,243,244,245,246,247,248,249,250,251,252,253,254,255,256,257,258,259,260,261,262,263,264,265,266,267,268,269,270,271,272,273,274,275,276,277,278,279,280,281,282,283,284,285,286,287,288,289,290,291,292,293,294,295,296,297,298,299,300],"tree_info":[0,0,0,0,0,0,0,0,0,0,0,0,0,0,0,0,0,0,0,0,0,0,0,0,0,0,0,0,0,0,0,0,0,0,0,0,0,0,0,0,0,0,0,0,0,0,0,0,0,0,0,0,0,0,0,0,0,0,0,0,0,0,0,0,0,0,0,0,0,0,0,0,0,0,0,0,0,0,0,0,0,0,0,0,0,0,0,0,0,0,0,0,0,0,0,0,0,0,0,0,0,0,0,0,0,0,0,0,0,0,0,0,0,0,0,0,0,0,0,0,0,0,0,0,0,0,0,0,0,0,0,0,0,0,0,0,0,0,0,0,0,0,0,0,0,0,0,0,0,0,0,0,0,0,0,0,0,0,0,0,0,0,0,0,0,0,0,0,0,0,0,0,0,0,0,0,0,0,0,0,0,0,0,0,0,0,0,0,0,0,0,0,0,0,0,0,0,0,0,0,0,0,0,0,0,0,0,0,0,0,0,0,0,0,0,0,0,0,0,0,0,0,0,0,0,0,0,0,0,0,0,0,0,0,0,0,0,0,0,0,0,0,0,0,0,0,0,0,0,0,0,0,0,0,0,0,0,0,0,0,0,0,0,0,0,0,0,0,0,0,0,0,0,0,0,0,0,0,0,0,0,0,0,0,0,0,0,0,0,0,0,0,0,0,0,0,0,0,0,0],"trees":[{"base_weights":[-1.3829561E-2,-1.6281722E0,3.7193544E0,-2.304226E0,-9.157626E-2,2.1075525E0,5.6424117E0,-7.9713017E-1,-2.4378097E0,-9.073963E-1,7.294464E-1,1.8140306E-1,2.8716137E0,4.7555223E0,9.151446E0,8.5645974E-1,-1.9613153E0,-2.9810038E0,-2.0172048E0,-9.652319E-1,8.547568E-1,1.213337E0,-1.3214496E0,-3.246667E-1,5.0801253E0,9.11688E-1,3.6901352E0,4.134736E0,9.586938E0,9.931688E0,-3.8988352E-1,-3.14272E-2,6.9082445E-1,-2.3509431E-1,3.4761086E-1,-2.3143123E-1,-3.30883E-1,-2.653191E-1,-1.7026365E-1,-1.0720612E-1,2.751232E-1,3.3702296E-1,6.515957E-2,-2.7990383E-1,-6.698672E-2,-9.767812E-2,3.175379E-1,8.567259E-1,8.529736E-2,2.9850042E-1,-3.4478918E-2,1.9536758E-2,4.002243E-1,3.466415E-1,8.863846E-1,4.7887936E-1,1.2418084E0,7.1008265E-1,1.2287568E0,2.421352E-1,-3.128648E-1],"categories":[],"categories_nodes":[],"categories_segments":[],"categories_sizes":[],"default_left":[0,0,0,0,0,0,0,0,0,0,0,0,0,0,0,0,0,0,0,0,0,0,0,0,0,0,0,0,0,0,0,0,0,0,0,0,0,0,0,0,0,0,0,0,0,0,0,0,0,0,0,0,0,0,0,0,0,0,0,0,0],"id":0,"left_children":[1,3,5,7,9,11,13,15,17,19,21,23,25,27,29,31,33,35,37,39,-1,41,43,45,47,49,51,53,55,57,59,-1,-1,-1,-1,-1,-1,-1,-1,-1,-1,-1,-1,-1,-1,-1,-1,-1,-1,-1,-1,-1,-1,-1,-1,-1,-1,-1,-1,-1,-1],"loss_changes":[1.7627734E4,2.1208228E3,2.7242686E3,2.8320947E2,4.193089E2,7.085315E2,1.2061641E3,2.2702524E2,2.9095557E2,1.7919778E2,3.1122424E2,3.4424002E2,5.496389E2,9.277544E2,6.0038916E2,3.4999628E2,1.5424103E2,1.15484375E2,1.4249194E2,1.2705112E2,0E0,3.0394052E2,5.554438E1,2.9046805E2,1.8337875E2,2.696159E2,2.6384888E2,8.782837E2,4.2784473E2,4.043286E2,6.1541473E1,0E0,0E0,0E0,0E0,0E0,0E0,0E0,0E0,0E0,0E0,0E0,0E0,0E0,0E0,0E0,0E0,0E0,0E0,0E0,0E0,0E0,0E0,0E0,0E0,0E0,0E0,0E0,0E0,0E0,0E0],"parents":[2147483647,0,0,1,1,2,2,3,3,4,4,5,5,6,6,7,7,8,8,9,9,10,10,11,11,12,12,13,13,14,14,15,15,16,16,17,17,18,18,19,19,21,21,22,22,23,23,24,24,25,25,26,26,27,27,28,28,29,29,30,30],"right_children":[2,4,6,8,10,12,14,16,18,20,22,24,26,28,30,32,34,36,38,40,-1,42,44,46,48,50,52,54,56,58,60,-1,-1,-1,-1,-1,-1,-1,-1,-1,-1,-1,-1,-1,-1,-1,-1,-1,-1,-1,-1,-1,-1,-1,-1,-1,-1,-1,-1,-1,-1],"split_conditions":[4.2E0,2.75E0,6.2E0,2E0,6.785714E-1,5.692308E-1,1.2196205E0,2.022E3,1.5E0,2.25E0,9.214326E-1,5.1E1,-4.907004E-1,1.9E1,4.4705883E-1,4.198848E0,4.2307825E0,-1.5E0,6.125E0,1.8706998E0,8.547568E-1,-3.5E0,-5.129523E-1,3.846154E-1,6.373902E-1,4.6403587E-1,3E0,4.7945204E-1,7.083333E-1,-7.5E0,8.75E0,-3.14272E-2,6.9082445E-1,-2.3509431E-1,3.4761086E-1,-2.3143123E-1,-3.30883E-1,-2.653191E-1,-1.7026365E-1,-1.0720612E-1,2.751232E-1,3.3702296E-1,6.515957E-2,-2.7990383E-1,-6.698672E-2,-9.767812E-2,3.175379E-1,8.567259E-1,8.529736E-2,2.9850042E-1,-3.4478918E-2,1.9536758E-2,4.002243E-1,3.466415E-1,8.863846E-1,4.7887936E-1,1.2418084E0,7.1008265E-1,1.2287568E0,2.421352E-1,-3.128648E-1],"split_indices":[10,10,10,36,57,57,41,35,10,9,14,45,41,36,39,60,60,42,59,41,0,42,41,15,14,14,36,39,11,42,10,0,0,0,0,0,0,0,0,0,0,0,0,0,0,0,0,0,0,0,0,0,0,0,0,0,0,0,0,0,0],"split_type":[0,0,0,0,0,0,0,0,0,0,0,0,0,0,0,0,0,0,0,0,0,0,0,0,0,0,0,0,0,0,0,0,0,0,0,0,0,0,0,0,0,0,0,0,0,0,0,0,0,0,0,0,0,0,0,0,0,0,0,0,0],"sum_hessian":[2.923E3,2.041E3,8.82E2,1.417E3,6.24E2,4.81E2,4.01E2,1.16E2,1.301E3,3.13E2,3.11E2,1.37E2,3.44E2,3.22E2,7.9E1,4.8E1,6.8E1,5.65E2,7.36E2,3.12E2,1E0,2.52E2,5.9E1,1.25E2,1.2E1,1.02E2,2.42E2,2.87E2,3.5E1,7.3E1,6E0,4.1E1,7E0,6.4E1,4E0,1.89E2,3.76E2,2.41E2,4.95E2,3.04E2,8E0,5.1E1,2.01E2,1.7E1,4.2E1,1.06E2,1.9E1,6E0,6E0,3.8E1,6.4E1,2E1,2.22E2,2.53E2,3.4E1,1.4E1,2.1E1,3.5E1,3.8E1,3E0,3E0],"tree_param":{"num_deleted":"0","num_feature":"61","num_nodes":"61","size_leaf_vector":"1"}},{"base_weights":[-4.1302145E-2,-1.4864229E0,3.3372004E0,-2.1305947E0,-4.014165E-2,2.5215936E0,6.159559E0,-8.7446326E-1,-2.245448E0,-1.0916338E0,6.6347647E-1,3.5848188E-1,3.2040136E0,7.5093727E0,3.4672375E0,-1.0389907E0,9.3021554E-1,-2.6691372E0,-1.7923869E0,2.729402E0,-1.2605217E0,1.2770561E0,-2.5656328E-1,-2.6222965E-1,2.9302368E0,2.551206E0,4.6014967E0,6.7258935E0,1.4579471E1,2.3928754E0,6.0502114E0,-1.2673898E-1,4.4019842E-1,-3.028347E-1,-1.9463739E-1,-1.6553225E-1,-3.449389E-1,5.2270496E-1,-2.9232433E-1,-8.819582E-2,-2.3987745E-1,5.0546116E-1,8.8717334E-2,-1.0583921E-1,8.0276504E-2,-6.3046075E-2,4.8701164E-1,-4.6962973E-2,4.9986383E-1,-6.0032856E-2,2.8665772E-1,4.315392E-1,1.4870313E0,7.107388E-1,-1.563231E-1,1.7989965E-1,1.6945666E0,6.1835885E-2,4.5380387E-1,2.3271644E-1,7.2065026E-1],"categories":[],"categories_nodes":[],"categories_segments":[],"categories_sizes":[],"default_left":[0,0,0,0,0,0,0,0,0,0,0,0,0,0,0,0,0,0,0,0,0,0,0,0,0,0,0,0,0,0,0,0,0,0,0,0,0,0,0,0,0,0,0,0,0,0,0,0,0,0,0,0,0,0,0,0,0,0,0,0,0],"id":1,"left_children":[1,3,5,7,9,11,13,15,17,19,21,23,25,27,29,31,-1,33,35,37,39,41,43,45,47,49,51,53,55,57,59,-1,-1,-1,-1,-1,-1,-1,-1,-1,-1,-1,-1,-1,-1,-1,-1,-1,-1,-1,-1,-1,-1,-1,-1,-1,-1,-1,-1,-1,-1],"loss_changes":[1.4227045E4,1.9012026E3,1.9931885E3,2.0143457E2,4.6687195E2,1.00080176E3,6.815215E2,2.0975858E2,2.4297021E2,1.6656122E2,2.1381734E2,2.6283133E2,4.5828613E2,6.14376E2,1.7060663E2,1.5314842E2,0E0,1.6651758E2,1.3640857E2,1.7081177E2,1.0226523E2,3.2924796E2,1.2998398E2,2.5400174E2,2.2783362E2,3.5378882E2,4.1279712E2,3.8481104E2,3.305337E2,1.8320297E2,6.40694E1,0E0,0E0,0E0,0E0,0E0,0E0,0E0,0E0,0E0,0E0,0E0,0E0,0E0,0E0,0E0,0E0,0E0,0E0,0E0,0E0,0E0,0E0,0E0,0E0,0E0,0E0,0E0,0E0,0E0,0E0],"parents":[2147483647,0,0,1,1,2,2,3,3,4,4,5,5,6,6,7,7,8,8,9,9,10,10,11,11,12,12,13,13,14,14,15,15,17,17,18,18,19,19,20,20,21,21,22,22,23,23,24,24,25,25,26,26,27,27,28,28,29,29,30,30],"right_children":[2,4,6,8,10,12,14,16,18,20,22,24,26,28,30,32,-1,34,36,38,40,42,44,46,48,50,52,54,56,58,60,-1,-1,-1,-1,-1,-1,-1,-1,-1,-1,-1,-1,-1,-1,-1,-1,-1,-1,-1,-1,-1,-1,-1,-1,-1,-1,-1,-1,-1,-1],"split_conditions":[4.25E0,2.75E0,7.3333335E0,2E0,6.111111E-1,5.263158E-1,7.6066446E-1,2.43631E0,1.6666666E0,1.575E1,6.0740256E-1,3.3333334E-1,4.258524E0,7.1152306E-1,9.69697E-1,1E0,9.3021554E-1,2.8394607E-1,6E0,-5.219459E-1,2.023E3,6.5789473E-1,1E0,1.5838346E0,9.145833E0,2E0,1.2E0,2.024E3,-6.306433E-1,2.2235293E0,-6.96744E-1,-1.2673898E-1,4.4019842E-1,-3.028347E-1,-1.9463739E-1,-1.6553225E-1,-3.449389E-1,5.2270496E-1,-2.9232433E-1,-8.819582E-2,-2.3987745E-1,5.0546116E-1,8.8717334E-2,-1.0583921E-1,8.0276504E-2,-6.3046075E-2,4.8701164E-1,-4.6962973E-2,4.9986383E-1,-6.0032856E-2,2.8665772E-1,4.315392E-1,1.4870313E0,7.107388E-1,-1.563231E-1,1.7989965E-1,1.6945666E0,6.1835885E-2,4.5380387E-1,2.3271644E-1,7.2065026E-1],"split_indices":[10,10,10,36,57,57,14,41,10,40,14,15,60,14,14,28,0,41,21,20,35,57,23,20,59,21,19,35,41,38,20,0,0,0,0,0,0,0,0,0,0,0,0,0,0,0,0,0,0,0,0,0,0,0,0,0,0,0,0,0,0],"split_type":[0,0,0,0,0,0,0,0,0,0,0,0,0,0,0,0,0,0,0,0,0,0,0,0,0,0,0,0,0,0,0,0,0,0,0,0,0,0,0,0,0,0,0,0,0,0,0,0,0,0,0,0,0,0,0,0,0,0,0,0,0],"sum_hessian":[2.912E3,2.04E3,8.72E2,1.411E3,6.29E2,6.78E2,1.94E2,1.19E2,1.292E3,2.52E2,3.77E2,1.63E2,5.15E2,1.28E2,6.6E1,1.18E2,1E0,6.65E2,6.27E2,1E1,2.42E2,2.26E2,1.51E2,1.32E2,3.1E1,3.53E2,1.62E2,1.17E2,1.1E1,4.8E1,1.8E1,1.14E2,4E0,4.42E2,2.23E2,5.81E2,4.6E1,7E0,3E0,1.83E2,5.9E1,2E1,2.06E2,8.6E1,6.5E1,1.24E2,8E0,1.2E1,1.9E1,3.2E1,3.21E2,1.59E2,3E0,1.12E2,5E0,2E0,9E0,2.7E1,2.1E1,5E0,1.3E1],"tree_param":{"num_deleted":"0","num_feature":"61","num_nodes":"61","size_leaf_vector":"1"}},{"base_weights":[2.77905E-2,-1.4529772E0,2.5992095E0,-2.0993977E0,-7.866004E-1,1.6117553E0,4.6630926E0,-4.2009005E-1,-2.2539294E0,3.2738656E-2,-1.7412018E0,4.0610113E0,1.1830412E0,1.003163E0,5.3044934E0,-9.031803E-1,4.801604E0,4.3516135E-1,-2.2743723E0,-7.524838E-1,7.7819395E-1,-1.8741726E0,5.5444217E-1,2.4253037E0,8.042437E0,-1.1943425E-1,1.6509305E0,-5.2312934E-1,6.8874726E0,3.7413766E0,6.9616446E0,-4.4479612E-2,-3.047413E-1,6.3201994E-1,-2.1049841E-1,-2.02435E-1,-2.8224656E-1,-8.564231E-2,1.209844E0,-1.0815116E-1,1.3440314E-1,-3.0680415E-1,-1.6955888E-1,-2.224303E-1,4.0497142E-1,3.0807508E-2,3.6700293E-1,4.9108037E-1,1.6419531E0,-3.7204947E-2,3.8233063E-1,1.3569778E0,1.5155108E-1,-8.5585944E-2,4.1652256E-1,3.035782E-1,1.0882345E0,4.9214646E-1,2.3276453E-1,5.637252E-1,1.1162299E0],"categories":[],"categories_nodes":[],"categories_segments":[],"categories_sizes":[],"default_left":[0,0,0,0,0,0,0,0,0,0,0,0,0,0,0,0,0,0,0,0,0,0,0,0,0,0,0,0,0,0,0,0,0,0,0,0,0,0,0,0,0,0,0,0,0,0,0,0,0,0,0,0,0,0,0,0,0,0,0,0,0],"id":2,"left_children":[1,3,5,7,9,11,13,15,17,19,21,23,25,27,29,31,33,-1,35,37,39,41,43,45,47,49,51,53,55,57,59,-1,-1,-1,-1,-1,-1,-1,-1,-1,-1,-1,-1,-1,-1,-1,-1,-1,-1,-1,-1,-1,-1,-1,-1,-1,-1,-1,-1,-1,-1],"loss_changes":[1.1190838E4,8.014265E2,2.1806587E3,2.4427881E2,7.1979865E2,7.590934E2,8.08624E2,2.0827338E2,1.2663135E2,2.9092087E2,1.3090393E2,6.8279236E2,3.7879675E2,4.8024182E2,7.370283E2,7.201146E1,8.714363E1,0E0,1.1220068E2,3.3248038E2,2.6981406E2,8.003015E1,2.4228961E2,2.040303E2,7.3048755E2,1.654167E2,7.1554626E2,7.031206E1,1.3482892E2,2.4474219E2,7.253867E2,0E0,0E0,0E0,0E0,0E0,0E0,0E0,0E0,0E0,0E0,0E0,0E0,0E0,0E0,0E0,0E0,0E0,0E0,0E0,0E0,0E0,0E0,0E0,0E0,0E0,0E0,0E0,0E0,0E0,0E0],"parents":[2147483647,0,0,1,1,2,2,3,3,4,4,5,5,6,6,7,7,8,8,9,9,10,10,11,11,12,12,13,13,14,14,15,15,16,16,18,18,19,19,20,20,21,21,22,22,23,23,24,24,25,25,26,26,27,27,28,28,29,29,30,30],"right_children":[2,4,6,8,10,12,14,16,18,20,22,24,26,28,30,32,34,-1,36,38,40,42,44,46,48,50,52,54,56,58,60,-1,-1,-1,-1,-1,-1,-1,-1,-1,-1,-1,-1,-1,-1,-1,-1,-1,-1,-1,-1,-1,-1,-1,-1,-1,-1,-1,-1,-1,-1],"split_conditions":[2.6666667E0,1.3333334E0,4.6E0,2E0,7.583333E-1,5.972222E-1,3.6363637E-1,7.5E0,-1.5E0,6.730769E-1,1.9E1,1.0555556E0,5.5E-1,1.1111112E0,1.96E1,6.7083335E-1,1.25E-1,4.3516135E-1,4E0,7.5555557E-1,2.0307693E0,3.2518196E-1,9.8E0,8.75E0,5.744048E-1,1.1444445E0,5.555556E-1,2E1,6.125E0,7.5333333E-1,8E0,-4.4479612E-2,-3.047413E-1,6.3201994E-1,-2.1049841E-1,-2.02435E-1,-2.8224656E-1,-8.564231E-2,1.209844E0,-1.0815116E-1,1.3440314E-1,-3.0680415E-1,-1.6955888E-1,-2.224303E-1,4.0497142E-1,3.0807508E-2,3.6700293E-1,4.9108037E-1,1.6419531E0,-3.7204947E-2,3.8233063E-1,1.3569778E0,1.5155108E-1,-8.5585944E-2,4.1652256E-1,3.035782E-1,1.0882345E0,4.9214646E-1,2.3276453E-1,5.637252E-1,1.1162299E0],"split_indices":[6,6,6,36,11,11,57,43,58,57,36,19,57,19,31,11,4,0,42,11,38,14,31,59,11,19,57,36,6,11,34,0,0,0,0,0,0,0,0,0,0,0,0,0,0,0,0,0,0,0,0,0,0,0,0,0,0,0,0,0,0],"split_type":[0,0,0,0,0,0,0,0,0,0,0,0,0,0,0,0,0,0,0,0,0,0,0,0,0,0,0,0,0,0,0,0,0,0,0,0,0,0,0,0,0,0,0,0,0,0,0,0,0,0,0,0,0,0,0,0,0,0,0,0,0],"sum_hessian":[2.937E3,1.864E3,1.073E3,9.45E2,9.19E2,7.27E2,3.46E2,8E1,8.65E2,4.95E2,4.24E2,1.07E2,6.2E2,5.2E1,2.94E2,7.4E1,6E0,2E0,8.63E2,2.41E2,2.54E2,4.01E2,2.3E1,7.7E1,3E1,1.64E2,4.56E2,4.2E1,1E1,1.53E2,1.41E2,6.2E1,1.2E1,5E0,1E0,5.96E2,2.67E2,2.4E2,1E0,5.9E1,1.95E2,5E1,3.51E2,1.3E1,1E1,2.9E1,4.8E1,2.3E1,7E0,1.55E2,9E0,4E0,4.52E2,4E1,2E0,6E0,4E0,8.2E1,7.1E1,1.09E2,3.2E1],"tree_param":{"num_deleted":"0","num_feature":"61","num_nodes":"61","size_leaf_vector":"1"}},{"base_weights":[6.950617E-2,-1.0129424E0,2.959211E0,-1.4856317E0,4.2638865E-1,2.1407542E0,4.6092396E0,-1.6760371E0,-6.362651E-1,-2.2701494E-1,1.1816398E0,5.8293337E-1,2.6842842E0,4.0998073E0,8.6277075E0,-2.0328298E0,-1.1625065E0,7.8734165E-1,-1.3706388E0,1.3834382E0,-6.6113275E-1,-7.7521956E-1,1.800416E0,1.7305698E0,-7.0894223E-1,-2.0042765E0,2.9107196E0,3.5422008E0,7.7056894E0,1.0784432E1,2.9451084E-1,-2.1791823E-1,-5.882032E-2,-2.607037E-1,-1.0362568E-1,2.5375962E-2,6.261716E-1,-1.5530196E-1,3.787268E-1,1.976575E-1,-3.4602687E-1,-8.7267265E-2,1.985014E-1,2.4047275E-1,-1.6223882E-1,1.7794856E0,1.6191898E-1,1.0988953E-1,5.296777E-1,4.2340317E-1,-1.0083634E-1,-2.8510138E-1,9.167912E-2,1.7134532E-1,3.4859917E-1,2.4115887E-1,5.283882E-1,1.1054282E0,3.390238E-1,-1.3629846E-1,1.1403087E0,6.81338E-1,-1.9108643E-1],"categories":[],"categories_nodes":[],"categories_segments":[],"categories_sizes":[],"default_left":[0,0,0,0,0,0,0,0,0,0,0,0,0,0,0,0,0,0,0,0,0,0,0,0,0,0,0,0,0,0,0,0,0,0,0,0,0,0,0,0,0,0,0,0,0,0,0,0,0,0,0,0,0,0,0,0,0,0,0,0,0,0,0],"id":3,"left_children":[1,3,5,7,9,11,13,15,17,19,21,23,25,27,29,31,33,35,37,39,41,43,45,47,49,51,53,55,57,59,61,-1,-1,-1,-1,-1,-1,-1,-1,-1,-1,-1,-1,-1,-1,-1,-1,-1,-1,-1,-1,-1,-1,-1,-1,-1,-1,-1,-1,-1,-1,-1,-1],"loss_changes":[9.240049E3,1.4628252E3,1.0765923E3,2.6037183E2,2.6289713E2,4.5533862E2,5.0789307E2,2.3935571E2,3.1268442E2,2.0079257E2,3.0058017E2,2.1037613E2,4.3058716E2,4.5011792E2,5.169158E2,1.6293018E2,9.614429E1,2.957043E2,1.9097662E2,1.8194287E2,1.2812802E2,1.6546022E2,5.141841E2,1.62491E2,1.03108955E2,4.9801376E1,2.5661084E2,3.9607446E2,4.090504E2,1.8939282E2,1.1414556E2,0E0,0E0,0E0,0E0,0E0,0E0,0E0,0E0,0E0,0E0,0E0,0E0,0E0,0E0,0E0,0E0,0E0,0E0,0E0,0E0,0E0,0E0,0E0,0E0,0E0,0E0,0E0,0E0,0E0,0E0,0E0,0E0],"parents":[2147483647,0,0,1,1,2,2,3,3,4,4,5,5,6,6,7,7,8,8,9,9,10,10,11,11,12,12,13,13,14,14,15,15,16,16,17,17,18,18,19,19,20,20,21,21,22,22,23,23,24,24,25,25,26,26,27,27,28,28,29,29,30,30],"right_children":[2,4,6,8,10,12,14,16,18,20,22,24,26,28,30,32,34,36,38,40,42,44,46,48,50,52,54,56,58,60,62,-1,-1,-1,-1,-1,-1,-1,-1,-1,-1,-1,-1,-1,-1,-1,-1,-1,-1,-1,-1,-1,-1,-1,-1,-1,-1,-1,-1,-1,-1,-1,-1],"split_conditions":[3.25E0,2.2E0,4.2662764E0,1E0,1.01E1,5.5E-1,1.25E-1,1.2857143E0,8E0,2E0,5E0,9.75E0,8.2222223E-1,1.8255479E0,1.35E1,1.1E0,-1.4307842E0,2.659091E0,1.29E1,9.5E0,2.966443E0,4.2319417E0,5E0,9.191667E0,7.4333334E0,6.7E0,2.3684211E-1,1.3E1,8E0,2.025E1,7.5E-1,-2.1791823E-1,-5.882032E-2,-2.607037E-1,-1.0362568E-1,2.5375962E-2,6.261716E-1,-1.5530196E-1,3.787268E-1,1.976575E-1,-3.4602687E-1,-8.7267265E-2,1.985014E-1,2.4047275E-1,-1.6223882E-1,1.7794856E0,1.6191898E-1,1.0988953E-1,5.296777E-1,4.2340317E-1,-1.0083634E-1,-2.8510138E-1,9.167912E-2,1.7134532E-1,3.4859917E-1,2.4115887E-1,5.283882E-1,1.1054282E0,3.390238E-1,-1.3629846E-1,1.1403087E0,6.81338E-1,-1.9108643E-1],"split_indices":[6,6,60,18,31,57,7,6,36,43,36,59,19,41,59,19,20,38,31,31,38,60,59,59,0,32,39,36,43,40,9,0,0,0,0,0,0,0,0,0,0,0,0,0,0,0,0,0,0,0,0,0,0,0,0,0,0,0,0,0,0,0,0],"split_type":[0,0,0,0,0,0,0,0,0,0,0,0,0,0,0,0,0,0,0,0,0,0,0,0,0,0,0,0,0,0,0,0,0,0,0,0,0,0,0,0,0,0,0,0,0,0,0,0,0,0,0,0,0,0,0,0,0,0,0,0,0,0,0],"sum_hessian":[2.952E3,2.148E3,8.04E2,1.617E3,5.31E2,5.39E2,2.65E2,1.32E3,2.97E2,2.85E2,2.46E2,1.4E2,3.99E2,2.37E2,2.8E1,7.77E2,5.43E2,1.01E2,1.96E2,6E1,2.25E2,5.9E1,1.87E2,7.4E1,6.6E1,1.8E1,3.81E2,2.07E2,3E1,2.2E1,6E0,7.05E2,7.2E1,4.2E1,5.01E2,9.3E1,8E0,1.9E2,6E0,5.4E1,6E0,2.09E2,1.6E1,1.2E1,4.7E1,1E0,1.86E2,6.4E1,1E1,3E0,6.3E1,1.4E1,4E0,1.25E2,2.56E2,1.27E2,8E1,1.6E1,1.4E1,1E0,2.1E1,1E0,5E0],"tree_param":{"num_deleted":"0","num_feature":"61","num_nodes":"63","size_leaf_vector":"1"}},{"base_weights":[7.7848434E-2,-1.4081945E0,2.2051642E0,-1.7600832E0,-6.8572015E-1,1.5832136E0,4.955953E0,-8.8713783E-1,-1.9290099E0,-1.0319444E0,1.4829239E-1,3.232068E-2,2.0132904E0,1.1209796E1,4.609248E0,-9.858985E-1,8.8886976E-1,-2.4018736E0,-1.5688094E0,1.1246258E0,-1.1778145E0,7.095681E-1,-2.0817225E0,-2.4471635E-1,4.7706766E0,9.9812716E-1,2.914355E0,1.2220731E0,1.32823925E1,4.2918334E0,1.1316003E1,-3.6598194E-2,-2.2892307E-1,-1.9119315E-1,-2.8339395E-1,-6.11507E-2,-1.8977532E-1,1.3968795E-2,5.2134275E-1,-2.1352108E-1,-7.915539E-2,-1.0630927E-1,1.4681946E-1,-8.175963E-2,-3.8220745E-1,-1.2942751E-1,3.959891E-2,8.2610464E-1,-7.986822E-3,-1.2643561E-1,1.3035487E-1,4.6597996E-1,2.4432087E-1,1.8935655E-1,-1.0455799E-3,1.4216427E0,2.8550637E-1,3.7850055E-1,8.7857383E-1,4.2269835E-3,1.4516745E0],"categories":[],"categories_nodes":[],"categories_segments":[],"categories_sizes":[],"default_left":[0,0,0,0,0,0,0,0,0,0,0,0,0,0,0,0,0,0,0,0,0,0,0,0,0,0,0,0,0,0,0,0,0,0,0,0,0,0,0,0,0,0,0,0,0,0,0,0,0,0,0,0,0,0,0,0,0,0,0,0,0],"id":4,"left_children":[1,3,5,7,9,11,13,15,17,19,21,23,25,27,29,31,-1,33,35,37,39,41,43,45,47,49,51,53,55,57,59,-1,-1,-1,-1,-1,-1,-1,-1,-1,-1,-1,-1,-1,-1,-1,-1,-1,-1,-1,-1,-1,-1,-1,-1,-1,-1,-1,-1,-1,-1],"loss_changes":[9.316324E3,4.3963867E2,2.0650562E3,1.6994995E2,1.6483197E2,6.600635E2,4.302671E2,1.9237753E2,1.6207251E2,1.2810522E2,2.1161765E2,2.8516327E2,7.05614E2,2.100232E2,4.03312E2,1.5240855E2,0E0,8.301587E1,1.739873E2,1.03444046E2,1.3780328E2,1.8314767E2,7.121193E1,1.384562E2,2.0464026E2,2.5456201E2,3.2507227E2,2.691011E0,4.5359375E1,4.324043E2,3.2268933E2,0E0,0E0,0E0,0E0,0E0,0E0,0E0,0E0,0E0,0E0,0E0,0E0,0E0,0E0,0E0,0E0,0E0,0E0,0E0,0E0,0E0,0E0,0E0,0E0,0E0,0E0,0E0,0E0,0E0,0E0],"parents":[2147483647,0,0,1,1,2,2,3,3,4,4,5,5,6,6,7,7,8,8,9,9,10,10,11,11,12,12,13,13,14,14,15,15,17,17,18,18,19,19,20,20,21,21,22,22,23,23,24,24,25,25,26,26,27,27,28,28,29,29,30,30],"right_children":[2,4,6,8,10,12,14,16,18,20,22,24,26,28,30,32,-1,34,36,38,40,42,44,46,48,50,52,54,56,58,60,-1,-1,-1,-1,-1,-1,-1,-1,-1,-1,-1,-1,-1,-1,-1,-1,-1,-1,-1,-1,-1,-1,-1,-1,-1,-1,-1,-1,-1,-1],"split_conditions":[3.5E0,2.25E0,7.3333335E0,3E0,1E0,9.2857145E-2,4.375E0,2.43631E0,5.5E0,4.2114553E0,6.3158685E-1,1.5838346E0,2.225E1,4.2471805E0,2E1,6.339286E-1,8.8886976E-1,2E0,7.375E0,3.75E-1,4.2227335E0,2.6666667E0,1.0125E1,4.235931E0,1.3E1,4E0,1.875E0,3.1125E1,5.8E1,1.9568448E0,6.9426405E-1,-3.6598194E-2,-2.2892307E-1,-1.9119315E-1,-2.8339395E-1,-6.11507E-2,-1.8977532E-1,1.3968795E-2,5.2134275E-1,-2.1352108E-1,-7.915539E-2,-1.0630927E-1,1.4681946E-1,-8.175963E-2,-3.8220745E-1,-1.2942751E-1,3.959891E-2,8.2610464E-1,-7.986822E-3,-1.2643561E-1,1.3035487E-1,4.6597996E-1,2.4432087E-1,1.8935655E-1,-1.0455799E-3,1.4216427E0,2.8550637E-1,3.7850055E-1,8.7857383E-1,4.2269835E-3,1.4516745E0],"split_indices":[10,10,10,36,23,39,6,41,59,60,20,20,40,60,36,11,0,42,59,15,60,10,59,60,36,36,38,5,5,41,11,0,0,0,0,0,0,0,0,0,0,0,0,0,0,0,0,0,0,0,0,0,0,0,0,0,0,0,0,0,0],"split_type":[0,0,0,0,0,0,0,0,0,0,0,0,0,0,0,0,0,0,0,0,0,0,0,0,0,0,0,0,0,0,0,0,0,0,0,0,0,0,0,0,0,0,0,0,0,0,0,0,0,0,0,0,0,0,0,0,0,0,0,0,0],"sum_hessian":[2.945E3,1.734E3,1.211E3,1.165E3,5.69E2,9.89E2,2.22E2,1.9E2,9.75E2,4.02E2,1.67E2,2.15E2,7.74E2,1E1,2.12E2,1.89E2,1E0,4.19E2,5.56E2,2.5E1,3.77E2,1.34E2,3.3E1,2.04E2,1.1E1,3.65E2,4.09E2,2E0,8E0,2.04E2,8E0,1.29E2,6E1,1.99E2,2.2E2,1.43E2,4.13E2,2.1E1,4E0,1.07E2,2.7E2,4E1,9.4E1,2E1,1.3E1,7.7E1,1.27E2,6E0,5E0,4.3E1,3.22E2,8.5E1,3.24E2,1E0,1E0,7E0,1E0,1.85E2,1.9E1,2E0,6E0],"tree_param":{"num_deleted":"0","num_feature":"61","num_nodes":"61","size_leaf_vector":"1"}},{"base_weights":[-9.399799E-2,-9.7392744E-1,2.239437E0,-1.4344654E0,-3.9483258E-1,1.8233142E0,5.766094E0,-1.6500565E0,-8.2331467E-1,2.788846E-1,-1.2880211E0,4.5683503E0,1.5371445E0,4.76999E0,1.4744849E1,-1.7492093E0,-4.535414E-1,1.097789E0,-1.1916971E0,-2.8807437E-1,1.363336E0,-1.4678808E0,6.7812985E-1,2.2357626E0,7.624735E0,1.0898985E0,2.9360952E0,3.1863272E0,9.198295E0,1.5850126E1,3.4539574E-1,-1.9623254E-1,-1.0835653E-1,-7.42977E-2,2.6926947E-1,9.722602E-3,6.451162E-1,-2.405013E-2,-1.7696184E-1,-3.652772E-2,8.936021E-1,-6.641648E-2,2.2358873E-1,-2.2513306E-1,-9.98468E-2,-1.2258705E-1,2.550012E-1,6.9881044E-2,5.755417E-1,1.0391195E0,1.3193426E-1,-1.1975458E-2,1.7173846E-1,6.929981E-1,2.4712463E-1,5.887255E-1,8.768921E-2,1.1956981E0,2.352592E-1,6.7935973E-1,1.8094019E0],"categories":[],"categories_nodes":[],"categories_segments":[],"categories_sizes":[],"default_left":[0,0,0,0,0,0,0,0,0,0,0,0,0,0,0,0,0,0,0,0,0,0,0,0,0,0,0,0,0,0,0,0,0,0,0,0,0,0,0,0,0,0,0,0,0,0,0,0,0,0,0,0,0,0,0,0,0,0,0,0,0],"id":5,"left_children":[1,3,5,7,9,11,13,15,17,19,21,23,25,27,29,31,33,35,37,39,41,43,45,47,49,51,53,55,57,59,-1,-1,-1,-1,-1,-1,-1,-1,-1,-1,-1,-1,-1,-1,-1,-1,-1,-1,-1,-1,-1,-1,-1,-1,-1,-1,-1,-1,-1,-1,-1],"loss_changes":[6.073539E3,5.7211194E2,1.1774216E3,1.5597778E2,5.73934E2,5.6267334E2,6.879365E2,1.0374341E2,2.2353572E2,3.3497293E2,1.4606323E2,4.667583E2,4.087174E2,5.1646216E2,4.3160522E1,1.1318457E2,6.463928E1,2.7189368E2,1.444985E2,2.5734827E2,3.3246353E2,1.3570544E2,1.2800063E2,2.1171426E2,4.9098425E2,3.806447E2,2.7712634E2,3.6218042E2,3.481422E2,1.684082E1,0E0,0E0,0E0,0E0,0E0,0E0,0E0,0E0,0E0,0E0,0E0,0E0,0E0,0E0,0E0,0E0,0E0,0E0,0E0,0E0,0E0,0E0,0E0,0E0,0E0,0E0,0E0,0E0,0E0,0E0,0E0],"parents":[2147483647,0,0,1,1,2,2,3,3,4,4,5,5,6,6,7,7,8,8,9,9,10,10,11,11,12,12,13,13,14,14,15,15,16,16,17,17,18,18,19,19,20,20,21,21,22,22,23,23,24,24,25,25,26,26,27,27,28,28,29,29],"right_children":[2,4,6,8,10,12,14,16,18,20,22,24,26,28,30,32,34,36,38,40,42,44,46,48,50,52,54,56,58,60,-1,-1,-1,-1,-1,-1,-1,-1,-1,-1,-1,-1,-1,-1,-1,-1,-1,-1,-1,-1,-1,-1,-1,-1,-1,-1,-1,-1,-1,-1,-1],"split_conditions":[3.25E0,1.6666666E0,1.725E1,4.5646605E-1,7.5555557E-1,5.873016E-1,2.00783E0,8.956522E-1,6.4027506E-1,1.3E1,8.8E0,6E0,7.974563E-1,1.25E-1,1.1888889E0,5.2E0,1.0666667E0,1.2857143E0,6.9767445E-2,2.69E1,1.4102565E-1,1.6814159E-1,-1.417457E-1,1.1180555E1,4E0,5E0,3.2941183E-1,4.7595713E-1,1.3291667E1,1.25E-1,3.4539574E-1,-1.9623254E-1,-1.0835653E-1,-7.42977E-2,2.6926947E-1,9.722602E-3,6.451162E-1,-2.405013E-2,-1.7696184E-1,-3.652772E-2,8.936021E-1,-6.641648E-2,2.2358873E-1,-2.2513306E-1,-9.98468E-2,-1.2258705E-1,2.550012E-1,6.9881044E-2,5.755417E-1,1.0391195E0,1.3193426E-1,-1.1975458E-2,1.7173846E-1,6.929981E-1,2.4712463E-1,5.887255E-1,8.768921E-2,1.1956981E0,2.352592E-1,6.7935973E-1,1.8094019E0],"split_indices":[6,6,0,41,11,11,41,57,41,36,0,34,41,7,19,31,19,6,39,31,39,39,41,59,42,34,14,41,59,4,0,0,0,0,0,0,0,0,0,0,0,0,0,0,0,0,0,0,0,0,0,0,0,0,0,0,0,0,0,0,0],"split_type":[0,0,0,0,0,0,0,0,0,0,0,0,0,0,0,0,0,0,0,0,0,0,0,0,0,0,0,0,0,0,0,0,0,0,0,0,0,0,0,0,0,0,0,0,0,0,0,0,0,0,0,0,0,0,0,0,0,0,0,0,0],"sum_hessian":[2.956E3,2.147E3,8.09E2,1.195E3,9.52E2,7.25E2,8.4E1,8.82E2,3.13E2,5.43E2,4.09E2,6.7E1,6.58E2,7.7E1,7E0,8.14E2,6.8E1,5E1,2.63E2,3.57E2,1.86E2,3.75E2,3.4E1,3.9E1,2.8E1,5E2,1.58E2,5.8E1,1.9E1,6E0,1E0,6.15E2,1.99E2,6.3E1,5E0,4.3E1,7E0,1E2,1.63E2,3.55E2,2E0,5.6E1,1.3E2,1.39E2,2.36E2,1.7E1,1.7E1,2.8E1,1.1E1,1.9E1,9E0,1.71E2,3.29E2,1.5E1,1.43E2,2.6E1,3.2E1,1.3E1,6E0,2E0,4E0],"tree_param":{"num_deleted":"0","num_feature":"61","num_nodes":"61","size_leaf_vector":"1"}},{"base_weights":[3.0352484E-2,-8.849242E-1,2.105057E0,-1.2584552E0,3.943878E-2,1.387736E0,3.6087747E0,-1.060782E0,-1.8402327E0,-4.5179376E-1,1.1740295E0,1.5943018E0,-1.1819175E0,1.0716065E0,4.3220806E0,-2.5250986E0,-9.786996E-1,-1.9897804E0,5.908457E-1,-6.1669976E-1,2.1150231E0,-2.323965E0,1.5344732E0,1.1233613E0,3.3161628E0,1.650768E0,-1.9182671E0,2.278061E0,-2.462974E0,4.9799385E0,2.0788853E0,-7.670695E-2,-3.1900105E-1,-1.00425996E-1,2.889596E-1,-4.2547956E-2,-2.1475263E-1,3.3345708E-1,-6.4021185E-2,3.4182858E-2,-1.1678963E-1,-5.1773172E-2,3.911375E-1,4.4100817E-2,-3.5211214E-1,2.2060306E-1,-9.624937E-2,8.292992E-2,4.348824E-1,4.1854396E-1,6.542156E-2,2.8188682E-1,-6.11058E-3,-4.290797E-2,-3.1576225E-1,1.4583997E-1,6.9733995E-1,7.9586655E-2,-3.5346073E-1,6.747369E-1,3.7244818E-1,6.6654396E-1,5.7146847E-2],"categories":[],"categories_nodes":[],"categories_segments":[],"categories_sizes":[],"default_left":[0,0,0,0,0,0,0,0,0,0,0,0,0,0,0,0,0,0,0,0,0,0,0,0,0,0,0,0,0,0,0,0,0,0,0,0,0,0,0,0,0,0,0,0,0,0,0,0,0,0,0,0,0,0,0,0,0,0,0,0,0,0,0],"id":6,"left_children":[1,3,5,7,9,11,13,15,17,19,21,23,25,27,29,31,33,35,37,39,41,43,45,47,49,51,53,55,57,59,61,-1,-1,-1,-1,-1,-1,-1,-1,-1,-1,-1,-1,-1,-1,-1,-1,-1,-1,-1,-1,-1,-1,-1,-1,-1,-1,-1,-1,-1,-1,-1,-1],"loss_changes":[5.5829365E3,7.0453894E2,9.652759E2,1.6485571E2,3.283232E2,3.2624622E2,5.196643E2,1.2782959E2,1.347428E2,1.7512402E2,2.2791487E2,4.5479688E2,9.9142334E1,2.8277246E2,3.2245068E2,6.378662E1,1.04653564E2,8.420862E1,7.6713295E1,2.0494841E2,1.2059825E2,5.8132652E1,2.738985E2,4.1890076E2,2.767682E2,2.0444427E1,6.6574844E1,1.7756749E2,6.2455734E1,3.59917E2,3.6190125E2,0E0,0E0,0E0,0E0,0E0,0E0,0E0,0E0,0E0,0E0,0E0,0E0,0E0,0E0,0E0,0E0,0E0,0E0,0E0,0E0,0E0,0E0,0E0,0E0,0E0,0E0,0E0,0E0,0E0,0E0,0E0,0E0],"parents":[2147483647,0,0,1,1,2,2,3,3,4,4,5,5,6,6,7,7,8,8,9,9,10,10,11,11,12,12,13,13,14,14,15,15,16,16,17,17,18,18,19,19,20,20,21,21,22,22,23,23,24,24,25,25,26,26,27,27,28,28,29,29,30,30],"right_children":[2,4,6,8,10,12,14,16,18,20,22,24,26,28,30,32,34,36,38,40,42,44,46,48,50,52,54,56,58,60,62,-1,-1,-1,-1,-1,-1,-1,-1,-1,-1,-1,-1,-1,-1,-1,-1,-1,-1,-1,-1,-1,-1,-1,-1,-1,-1,-1,-1,-1,-1,-1,-1],"split_conditions":[4.125E0,2.875E0,7E0,9.519708E-1,1E0,7E-1,8.75E0,-1.6172229E0,9.354839E-1,1.1333333E0,1.4358975E0,2E-1,-3E0,8.375E0,7.916435E-1,5.44937E-4,6.666667E-1,-1.2384683E0,-4E0,1.7E0,7.8E0,9.6666664E-1,2.7631578E0,1.4190162E0,7.586207E-1,3.2258064E-1,4.1E1,5.121951E-1,6.9E0,1.1E1,1.6E0,-7.670695E-2,-3.1900105E-1,-1.00425996E-1,2.889596E-1,-4.2547956E-2,-2.1475263E-1,3.3345708E-1,-6.4021185E-2,3.4182858E-2,-1.1678963E-1,-5.1773172E-2,3.911375E-1,4.4100817E-2,-3.5211214E-1,2.2060306E-1,-9.624937E-2,8.292992E-2,4.348824E-1,4.1854396E-1,6.542156E-2,2.8188682E-1,-6.11058E-3,-4.290797E-2,-3.1576225E-1,1.4583997E-1,6.9733995E-1,7.9586655E-2,-3.5346073E-1,6.747369E-1,3.7244818E-1,6.6654396E-1,5.7146847E-2],"split_indices":[10,10,10,14,23,15,59,20,57,19,38,15,42,59,14,14,7,20,42,32,31,19,38,20,57,39,5,15,32,59,38,0,0,0,0,0,0,0,0,0,0,0,0,0,0,0,0,0,0,0,0,0,0,0,0,0,0,0,0,0,0,0,0],"split_type":[0,0,0,0,0,0,0,0,0,0,0,0,0,0,0,0,0,0,0,0,0,0,0,0,0,0,0,0,0,0,0,0,0,0,0,0,0,0,0,0,0,0,0,0,0,0,0,0,0,0,0,0,0,0,0,0,0,0,0,0,0,0,0],"sum_hessian":[2.938E3,2.039E3,8.99E2,1.452E3,5.87E2,6.1E2,2.89E2,1.086E3,3.66E2,4.1E2,1.77E2,5.65E2,4.5E1,6.4E1,2.25E2,5.6E1,1.03E3,3.45E2,2.1E1,3.86E2,2.4E1,1.6E1,1.61E2,4.45E2,1.2E2,9E0,3.6E1,4.8E1,1.6E1,1.73E2,5.2E1,1.6E1,4E1,1.024E3,6E0,3.2E1,3.13E2,6E0,1.5E1,1.41E2,2.45E2,1E1,1.4E1,5E0,1.1E1,1.27E2,3.4E1,4.09E2,3.6E1,9E1,3E1,5E0,4E0,1.7E1,1.9E1,4.2E1,6E0,4E0,1.2E1,7E1,1.03E2,1.2E1,4E1],"tree_param":{"num_deleted":"0","num_feature":"61","num_nodes":"63","size_leaf_vector":"1"}},{"base_weights":[-1.9631231E-2,-7.564878E-1,1.9764966E0,-1.183004E0,-8.323231E-3,1.6284227E0,4.455757E0,-5.237446E-1,-1.3675562E0,4.145493E-1,-1.032035E0,4.619582E-1,2.0710347E0,3.4502254E0,1.2085854E1,-7.128156E-1,3.436498E0,-1.4335673E0,5.819752E-1,8.02651E-1,-1.0263532E0,-1.4197819E0,2.95111E-1,1.1623251E0,-1.1315727E0,2.662719E0,7.712798E-1,5.577937E0,1.5588418E0,1.3372347E1,-3.395421E-2,4.0383156E-2,-1.0959295E-1,-8.178784E-2,5.902027E-1,-1.5314156E-1,-6.0476393E-2,-1.15589224E-1,1.744977E-1,-1.0160334E-2,1.3545199E-1,-1.8977493E-1,3.4680147E-2,-4.480091E-2,-1.8930034E-1,1.1197835E-1,-1.8620448E-1,8.1218146E-2,6.6506E-1,6.9957024E-1,-1.3895893E-1,-5.598232E-2,3.1162342E-1,-7.739706E-2,1.4752123E-1,3.0611014E-1,8.9451694E-1,2.4313672E-1,-3.8847163E-1,1.4821721E0,5.016567E-1],"categories":[],"categories_nodes":[],"categories_segments":[],"categories_sizes":[],"default_left":[0,0,0,0,0,0,0,0,0,0,0,0,0,0,0,0,0,0,0,0,0,0,0,0,0,0,0,0,0,0,0,0,0,0,0,0,0,0,0,0,0,0,0,0,0,0,0,0,0,0,0,0,0,0,0,0,0,0,0,0,0],"id":7,"left_children":[1,3,5,7,9,11,13,15,17,19,21,23,25,27,29,31,33,35,37,39,41,43,45,47,49,51,53,55,57,59,-1,-1,-1,-1,-1,-1,-1,-1,-1,-1,-1,-1,-1,-1,-1,-1,-1,-1,-1,-1,-1,-1,-1,-1,-1,-1,-1,-1,-1,-1,-1],"loss_changes":[4.369827E3,6.923275E2,6.833716E2,1.672395E2,3.4204733E2,3.6225903E2,7.086334E2,2.2980237E2,1.3977673E2,3.1340356E2,1.19403275E2,2.1894934E2,3.8981567E2,3.4473132E2,1.8168079E2,1.2500244E2,1.5218558E2,8.352539E1,7.483706E1,2.2033511E2,1.4320407E2,8.123346E1,9.629505E1,2.552013E2,1.3497885E2,5.1351514E2,1.7633994E2,3.188828E2,2.3728268E2,4.4768433E1,0E0,0E0,0E0,0E0,0E0,0E0,0E0,0E0,0E0,0E0,0E0,0E0,0E0,0E0,0E0,0E0,0E0,0E0,0E0,0E0,0E0,0E0,0E0,0E0,0E0,0E0,0E0,0E0,0E0,0E0,0E0],"parents":[2147483647,0,0,1,1,2,2,3,3,4,4,5,5,6,6,7,7,8,8,9,9,10,10,11,11,12,12,13,13,14,14,15,15,16,16,17,17,18,18,19,19,20,20,21,21,22,22,23,23,24,24,25,25,26,26,27,27,28,28,29,29],"right_children":[2,4,6,8,10,12,14,16,18,20,22,24,26,28,30,32,34,36,38,40,42,44,46,48,50,52,54,56,58,60,-1,-1,-1,-1,-1,-1,-1,-1,-1,-1,-1,-1,-1,-1,-1,-1,-1,-1,-1,-1,-1,-1,-1,-1,-1,-1,-1,-1,-1,-1,-1],"split_conditions":[3.125E0,2E0,1.625E1,4.6511607E-7,8.541667E-1,5.5E-1,1.9568448E0,1.925E1,9.354839E-1,5.5E0,1.03E1,1.21E1,7.962963E-1,4.4018906E-1,1.4E1,2E0,9.5555556E-1,1.1E0,6.6843677E-1,6.142857E-1,1.3E1,-3.983983E-1,1.48E1,4.2662764E0,3.6125E1,-9.0932286E-1,1.04E1,1E0,5.125E0,2.22895E0,-3.395421E-2,4.0383156E-2,-1.0959295E-1,-8.178784E-2,5.902027E-1,-1.5314156E-1,-6.0476393E-2,-1.15589224E-1,1.744977E-1,-1.0160334E-2,1.3545199E-1,-1.8977493E-1,3.4680147E-2,-4.480091E-2,-1.8930034E-1,1.1197835E-1,-1.8620448E-1,8.1218146E-2,6.6506E-1,6.9957024E-1,-1.3895893E-1,-5.598232E-2,3.1162342E-1,-7.739706E-2,1.4752123E-1,3.0611014E-1,8.9451694E-1,2.4313672E-1,-3.8847163E-1,1.4821721E0,5.016567E-1],"split_indices":[6,6,0,14,11,57,41,5,57,42,31,0,11,41,36,36,19,19,14,57,36,20,31,60,5,41,31,23,16,41,0,0,0,0,0,0,0,0,0,0,0,0,0,0,0,0,0,0,0,0,0,0,0,0,0,0,0,0,0,0,0],"split_type":[0,0,0,0,0,0,0,0,0,0,0,0,0,0,0,0,0,0,0,0,0,0,0,0,0,0,0,0,0,0,0,0,0,0,0,0,0,0,0,0,0,0,0,0,0,0,0,0,0,0,0,0,0,0,0,0,0,0,0,0,0],"sum_hessian":[2.969E3,2.169E3,8E2,1.381E3,7.88E2,7.03E2,9.7E1,3.03E2,1.078E3,5.58E2,2.3E2,1.94E2,5.09E2,8.7E1,1E1,2.9E2,1.3E1,1.043E3,3.5E1,4.4E2,1.18E2,1.78E2,5.2E1,1.35E2,5.9E1,3.49E2,1.6E2,4E1,4.7E1,9E0,1E0,7.4E1,2.16E2,5E0,8E0,9.32E2,1.11E2,1.4E1,2.1E1,1.67E2,2.73E2,7.2E1,4.6E1,5.9E1,1.19E2,3.8E1,1.4E1,1.28E2,7E0,1E0,5.8E1,4.3E1,3.06E2,5E1,1.1E2,2.4E1,1.6E1,4.1E1,6E0,7E0,2E0],"tree_param":{"num_deleted":"0","num_feature":"61","num_nodes":"61","size_leaf_vector":"1"}},{"base_weights":[-6.360476E-2,-8.086795E-1,1.6476982E0,-1.0761241E0,-2.0612875E-1,1.1968207E0,3.3051422E0,1.8784049E-1,-1.1789557E0,-7.8099674E-1,3.9311033E-1,-6.793566E-1,1.5746579E0,-3.3180693E-1,3.8808541E0,1.9226207E0,-1.0802187E0,-1.7068034E0,-9.779527E-1,3.02742E0,-9.248306E-1,-1.00688286E-1,2.0057783E0,-1.8551389E0,1.096387E0,1.5226078E0,1.6014044E0,-2.837432E0,1.3031155E0,5.1852283E0,1.7928135E0,9.352858E-2,6.4830506E-1,-1.4895909E-1,3.9464167E-1,-1.869043E-1,-2.7168155E-2,-2.5010845E-1,-8.857768E-2,4.5079476E-1,-1.0356213E-1,-3.4632232E-2,-1.5505008E-1,1.2872556E-1,-6.955173E-2,7.677177E-1,1.2864302E-1,-2.8566512E-1,-7.714974E-2,-8.5455924E-2,3.8754398E-1,1.3470858E-1,3.9518115E-1,-4.0815577E-1,3.351781E-2,2.263814E-1,-3.9014155E-1,6.2377286E-1,-8.9514203E-4,2.0780303E-2,5.914352E-1],"categories":[],"categories_nodes":[],"categories_segments":[],"categories_sizes":[],"default_left":[0,0,0,0,0,0,0,0,0,0,0,0,0,0,0,0,0,0,0,0,0,0,0,0,0,0,0,0,0,0,0,0,0,0,0,0,0,0,0,0,0,0,0,0,0,0,0,0,0,0,0,0,0,0,0,0,0,0,0,0,0],"id":8,"left_children":[1,3,5,7,9,11,13,15,17,19,21,23,25,27,29,31,33,35,37,39,41,43,45,47,49,51,-1,53,55,57,59,-1,-1,-1,-1,-1,-1,-1,-1,-1,-1,-1,-1,-1,-1,-1,-1,-1,-1,-1,-1,-1,-1,-1,-1,-1,-1,-1,-1,-1,-1],"loss_changes":[3.7664673E3,3.3129456E2,6.651787E2,1.8553552E2,2.1874826E2,5.0163544E2,4.015652E2,2.3973991E2,1.3790088E2,1.8007011E2,2.480521E2,2.5056848E2,4.1578735E2,1.1445649E2,4.393977E2,2.0031754E2,1.3527203E2,8.356384E1,1.3180487E2,7.720109E1,1.1256534E2,1.9815193E2,2.8704626E2,7.55735E1,2.6385944E2,2.4443103E2,0E0,4.516108E1,9.366806E1,5.5283325E2,4.2278308E2,0E0,0E0,0E0,0E0,0E0,0E0,0E0,0E0,0E0,0E0,0E0,0E0,0E0,0E0,0E0,0E0,0E0,0E0,0E0,0E0,0E0,0E0,0E0,0E0,0E0,0E0,0E0,0E0,0E0,0E0],"parents":[2147483647,0,0,1,1,2,2,3,3,4,4,5,5,6,6,7,7,8,8,9,9,10,10,11,11,12,12,13,13,14,14,15,15,16,16,17,17,18,18,19,19,20,20,21,21,22,22,23,23,24,24,25,25,27,27,28,28,29,29,30,30],"right_children":[2,4,6,8,10,12,14,16,18,20,22,24,26,28,30,32,34,36,38,40,42,44,46,48,50,52,-1,54,56,58,60,-1,-1,-1,-1,-1,-1,-1,-1,-1,-1,-1,-1,-1,-1,-1,-1,-1,-1,-1,-1,-1,-1,-1,-1,-1,-1,-1,-1,-1,-1],"split_conditions":[4.25E0,2.75E0,7.4E0,2E0,6.831683E-1,4E0,3.4042552E-1,2.022E3,4.207443E0,8.75E0,2.4E1,4.1991672E-1,1.25E-1,2.25E1,7.6066446E-1,4.198848E0,4.2307825E0,1.1E0,-1.4307842E0,1.0671242E-1,-9.0325795E-2,4.35E0,2.425E1,2.023E3,8.3745056E-1,1.9E1,1.6014044E0,1.0333333E0,2.575E1,3.89E1,4.9778467E-1,9.352858E-2,6.4830506E-1,-1.4895909E-1,3.9464167E-1,-1.869043E-1,-2.7168155E-2,-2.5010845E-1,-8.857768E-2,4.5079476E-1,-1.0356213E-1,-3.4632232E-2,-1.5505008E-1,1.2872556E-1,-6.955173E-2,7.677177E-1,1.2864302E-1,-2.8566512E-1,-7.714974E-2,-8.5455924E-2,3.8754398E-1,1.3470858E-1,3.9518115E-1,-4.0815577E-1,3.351781E-2,2.263814E-1,-3.9014155E-1,6.2377286E-1,-8.9514203E-4,2.0780303E-2,5.914352E-1],"split_indices":[10,10,10,36,57,36,57,35,60,5,40,41,8,31,14,60,60,19,20,41,41,0,40,35,14,36,0,19,40,31,20,0,0,0,0,0,0,0,0,0,0,0,0,0,0,0,0,0,0,0,0,0,0,0,0,0,0,0,0,0,0],"split_type":[0,0,0,0,0,0,0,0,0,0,0,0,0,0,0,0,0,0,0,0,0,0,0,0,0,0,0,0,0,0,0,0,0,0,0,0,0,0,0,0,0,0,0,0,0,0,0,0,0,0,0,0,0,0,0,0,0,0,0,0,0],"sum_hessian":[2.952E3,2.057E3,8.95E2,1.424E3,6.33E2,7.05E2,1.9E2,1.07E2,1.317E3,3.23E2,3.1E2,1.18E2,5.87E2,2.6E1,1.64E2,4.5E1,6.2E1,3.61E2,9.56E2,1.1E1,3.12E2,2.38E2,7.2E1,7.1E1,4.7E1,5.86E2,1E0,1E1,1.6E1,1E2,6.4E1,3.8E1,7E0,5.8E1,4E0,3.24E2,3.7E1,5.3E1,9.03E2,8E0,3E0,1.63E2,1.49E2,7.1E1,1.67E2,7E0,6.5E1,3.6E1,3.5E1,2.8E1,1.9E1,5.48E2,3.8E1,7E0,3E0,1.4E1,2E0,8.3E1,1.7E1,4.7E1,1.7E1],"tree_param":{"num_deleted":"0","num_feature":"61","num_nodes":"61","size_leaf_vector":"1"}},{"base_weights":[3.0077506E-2,-4.3206707E-1,2.3504534E0,-8.3017814E-1,5.390066E-1,2.150058E0,7.7466516E0,-1.1109389E0,-6.1681324E-1,1.6697812E-1,1.4235173E0,1.7942575E0,4.22561E0,1.0043149E1,2.0642832E-1,3.5594288E-1,-1.2952634E0,-4.788929E-1,-1.8195918E0,-9.177806E-1,6.742717E-1,1.2072562E0,7.508342E0,1.0990587E0,3.3856657E0,1.8624184E0,6.531083E0,-1.9414903E0,1.2407764E1,-2.3214455E-1,2.6988262E-1,-6.0303076E-3,5.7938576E-1,-1.3896286E-1,6.1594113E-3,-8.1963874E-2,-1.9138053E-2,4.1483852E-1,-1.98307E-1,-1.0557975E-1,3.5519037E-1,8.285524E-2,-2.9923436E-1,8.447619E-2,4.321147E-1,1.1495516E0,-1.6063967E-1,-1.9187427E-3,1.8149093E-1,1.0824122E-1,4.3743476E-1,8.197455E-2,6.748714E-1,9.196066E-1,2.9519734E-1,-3.3986967E-2,-2.5223657E-1,1.7979975E0,8.0581886E-1],"categories":[],"categories_nodes":[],"categories_segments":[],"categories_sizes":[],"default_left":[0,0,0,0,0,0,0,0,0,0,0,0,0,0,0,0,0,0,0,0,0,0,0,0,0,0,0,0,0,0,0,0,0,0,0,0,0,0,0,0,0,0,0,0,0,0,0,0,0,0,0,0,0,0,0,0,0,0,0],"id":9,"left_children":[1,3,5,7,9,11,13,15,17,19,21,23,25,27,29,31,33,35,37,39,41,43,45,47,49,51,53,55,57,-1,-1,-1,-1,-1,-1,-1,-1,-1,-1,-1,-1,-1,-1,-1,-1,-1,-1,-1,-1,-1,-1,-1,-1,-1,-1,-1,-1,-1,-1],"loss_changes":[3.1378284E3,9.437688E2,5.0790186E2,1.0283667E2,2.3323813E2,3.3890308E2,2.9127557E2,2.0226013E2,1.6246402E2,2.7629034E2,2.6640533E2,4.416875E2,3.5747974E2,3.9354407E2,3.780525E1,1.9105757E2,8.510901E1,8.654227E1,1.0654901E2,1.0220322E2,1.9572818E2,2.2610168E2,2.7384964E2,2.2595456E2,2.725359E2,1.7202917E2,2.959397E2,1.6475267E0,1.1911438E2,0E0,0E0,0E0,0E0,0E0,0E0,0E0,0E0,0E0,0E0,0E0,0E0,0E0,0E0,0E0,0E0,0E0,0E0,0E0,0E0,0E0,0E0,0E0,0E0,0E0,0E0,0E0,0E0,0E0,0E0],"parents":[2147483647,0,0,1,1,2,2,3,3,4,4,5,5,6,6,7,7,8,8,9,9,10,10,11,11,12,12,13,13,14,14,15,15,16,16,17,17,18,18,19,19,20,20,21,21,22,22,23,23,24,24,25,25,26,26,27,27,28,28],"right_children":[2,4,6,8,10,12,14,16,18,20,22,24,26,28,30,32,34,36,38,40,42,44,46,48,50,52,54,56,58,-1,-1,-1,-1,-1,-1,-1,-1,-1,-1,-1,-1,-1,-1,-1,-1,-1,-1,-1,-1,-1,-1,-1,-1,-1,-1,-1,-1,-1,-1],"split_conditions":[5.75E0,3.5E0,1.25E0,1.6666666E0,1.4E1,2.7E1,2.9803922E0,2E0,2.625E1,8.25E0,2.4E1,2E-1,1.1055555E1,1.96875E0,8E-1,7.5E0,3.1836734E0,5E0,1.5E0,2.9268293E0,4.7368422E-1,8.5625E0,2.2115386E0,5.2E0,2.826087E-1,1.1888889E0,1.4277778E1,6.3E0,1E0,-2.3214455E-1,2.6988262E-1,-6.0303076E-3,5.7938576E-1,-1.3896286E-1,6.1594113E-3,-8.1963874E-2,-1.9138053E-2,4.1483852E-1,-1.98307E-1,-1.0557975E-1,3.5519037E-1,8.285524E-2,-2.9923436E-1,8.447619E-2,4.321147E-1,1.1495516E0,-1.6063967E-1,-1.9187427E-3,1.8149093E-1,1.0824122E-1,4.3743476E-1,8.197455E-2,6.748714E-1,9.196066E-1,2.9519734E-1,-3.3986967E-2,-2.5223657E-1,1.7979975E0,8.0581886E-1],"split_indices":[10,10,58,10,54,40,38,54,40,59,31,15,59,38,4,43,38,34,43,38,39,16,38,32,39,19,59,0,23,0,0,0,0,0,0,0,0,0,0,0,0,0,0,0,0,0,0,0,0,0,0,0,0,0,0,0,0,0,0],"split_type":[0,0,0,0,0,0,0,0,0,0,0,0,0,0,0,0,0,0,0,0,0,0,0,0,0,0,0,0,0,0,0,0,0,0,0,0,0,0,0,0,0,0,0,0,0,0,0,0,0,0,0,0,0,0,0,0,0,0,0],"sum_hessian":[2.924E3,2.439E3,4.85E2,1.73E3,7.09E2,4.69E2,1.6E1,7.45E2,9.85E2,5E2,2.09E2,4.02E2,6.7E1,1.2E1,4E0,8.3E1,6.62E2,8.85E2,1E2,1.59E2,3.41E2,2.03E2,6E0,2.81E2,1.21E2,3.4E1,3.3E1,2E0,1E1,2E0,2E0,7.8E1,5E0,6.19E2,4.3E1,4.04E2,4.81E2,2E0,9.8E1,1.55E2,4E0,3.28E2,1.3E1,1.83E2,2E1,4E0,2E0,1.1E2,1.71E2,3.7E1,8.4E1,2.9E1,5E0,1.8E1,1.5E1,1E0,1E0,3E0,7E0],"tree_param":{"num_deleted":"0","num_feature":"61","num_nodes":"59","size_leaf_vector":"1"}},{"base_weights":[3.2499585E-2,-7.926999E-1,1.1056384E0,-5.8542657E-1,-1.3658835E0,4.722908E-1,1.8893039E0,-8.183133E-1,5.3635184E-2,-1.4053123E0,4.7601148E-1,1.448386E0,1.7130756E-1,4.7487625E-1,2.4965897E0,-9.835252E-1,-1.864623E-2,3.476885E-1,-1.6423316E0,-1.1645149E0,-2.1204553E0,2.0729244E0,-1.2090054E0,-3.28791E0,2.909126E-1,7.566546E-2,5.7497807E0,6.564073E0,2.2155015E0,-1.24457754E-1,-3.3317182E-2,1.11281075E-1,-8.241418E-2,2.1119347E-2,4.8984352E-1,-2.876337E-1,7.712273E-2,-1.3660294E-1,4.6091108E-4,-2.2493246E-1,-2.1592265E-2,-1.5214425E-1,2.574037E-1,-1.978825E-1,1.3353066E-1,-1.9138129E-1,-5.159518E-1,-1.5379618E-2,9.9795684E-2,-8.157133E-2,1.892519E-1,2.133479E-1,8.9938354E-1,1.0642203E0,1.9733223E-1,1.7931633E-1,5.4787433E-1],"categories":[],"categories_nodes":[],"categories_segments":[],"categories_sizes":[],"default_left":[0,0,0,0,0,0,0,0,0,0,0,0,0,0,0,0,0,0,0,0,0,0,0,0,0,0,0,0,0,0,0,0,0,0,0,0,0,0,0,0,0,0,0,0,0,0,0,0,0,0,0,0,0,0,0,0,0],"id":10,"left_children":[1,3,5,7,9,11,13,15,17,19,-1,21,23,25,27,29,31,33,35,37,39,41,43,45,47,49,51,53,55,-1,-1,-1,-1,-1,-1,-1,-1,-1,-1,-1,-1,-1,-1,-1,-1,-1,-1,-1,-1,-1,-1,-1,-1,-1,-1,-1,-1],"loss_changes":[2.5769832E3,1.9444055E2,6.267323E2,1.8020346E2,1.1166577E2,2.0553549E2,4.8383057E2,1.1706708E2,1.6202187E2,7.1939026E1,0E0,2.7643365E2,2.2283505E2,3.59074E2,4.361914E2,1.24213135E2,1.4032994E2,1.7051428E2,1.4538936E2,7.718213E1,2.5774841E1,2.4538007E2,6.538384E1,3.5710175E1,1.6374084E2,2.607722E2,1.2047693E2,4.4578003E2,5.007577E2,0E0,0E0,0E0,0E0,0E0,0E0,0E0,0E0,0E0,0E0,0E0,0E0,0E0,0E0,0E0,0E0,0E0,0E0,0E0,0E0,0E0,0E0,0E0,0E0,0E0,0E0,0E0,0E0],"parents":[2147483647,0,0,1,1,2,2,3,3,4,4,5,5,6,6,7,7,8,8,9,9,11,11,12,12,13,13,14,14,15,15,16,16,17,17,18,18,19,19,20,20,21,21,22,22,23,23,24,24,25,25,26,26,27,27,28,28],"right_children":[2,4,6,8,10,12,14,16,18,20,-1,22,24,26,28,30,32,34,36,38,40,42,44,46,48,50,52,54,56,-1,-1,-1,-1,-1,-1,-1,-1,-1,-1,-1,-1,-1,-1,-1,-1,-1,-1,-1,-1,-1,-1,-1,-1,-1,-1,-1,-1],"split_conditions":[2.3333333E0,8.5714287E-1,9.4E0,1.6666666E0,2.5879068E0,6.3095236E-1,5E0,8.7260145E-1,7.8511566E-1,6.865998E-1,4.7601148E-1,5.5E0,6.423611E-1,1.5838346E0,5.873016E-1,7.5268817E-1,8.3333336E-2,7.641309E-1,1.1333333E0,3.6507937E-1,8.2523365E0,5.8020835E0,3.939394E-1,7.6E0,3.3E1,6.5E0,4E0,5.0125E1,1.9E1,-1.24457754E-1,-3.3317182E-2,1.11281075E-1,-8.241418E-2,2.1119347E-2,4.8984352E-1,-2.876337E-1,7.712273E-2,-1.3660294E-1,4.6091108E-4,-2.2493246E-1,-2.1592265E-2,-1.5214425E-1,2.574037E-1,-1.978825E-1,1.3353066E-1,-1.9138129E-1,-5.159518E-1,-1.5379618E-2,9.9795684E-2,-8.157133E-2,1.892519E-1,2.133479E-1,8.9938354E-1,1.0642203E0,1.9733223E-1,1.7931633E-1,5.4787433E-1],"split_indices":[6,11,0,6,20,11,34,20,20,20,0,42,11,20,11,57,39,20,19,39,16,59,39,0,5,43,21,5,36,0,0,0,0,0,0,0,0,0,0,0,0,0,0,0,0,0,0,0,0,0,0,0,0,0,0,0,0],"split_type":[0,0,0,0,0,0,0,0,0,0,0,0,0,0,0,0,0,0,0,0,0,0,0,0,0,0,0,0,0,0,0,0,0,0,0,0,0,0,0,0,0,0,0,0,0,0,0,0,0,0,0,0,0,0,0,0,0],"sum_hessian":[2.908E3,1.644E3,1.264E3,1.209E3,4.35E2,7E2,5.64E2,8.86E2,3.23E2,4.33E2,2E0,1.64E2,5.36E2,1.7E2,3.94E2,7.34E2,1.52E2,2.76E2,4.7E1,3.26E2,1.07E2,1.33E2,3.1E1,1.7E1,5.19E2,1.59E2,1.1E1,2.4E1,3.7E2,5.23E2,2.11E2,6.3E1,8.9E1,2.69E2,7E0,3.1E1,1.6E1,2.78E2,4.8E1,1E2,7E0,1.6E1,1.17E2,2.4E1,7E0,1.1E1,6E0,3.19E2,2E2,1.07E2,5.2E1,6E0,5E0,1.2E1,1.2E1,3.29E2,4.1E1],"tree_param":{"num_deleted":"0","num_feature":"61","num_nodes":"57","size_leaf_vector":"1"}},{"base_weights":[3.267383E-2,-5.185677E-1,1.4055706E0,-6.804629E-1,2.55195E-1,9.471843E-1,2.728712E0,-2.2329128E0,-6.306068E-1,4.2138037E-1,-3.588494E0,-7.084272E-1,1.3012275E0,6.5056453E0,2.2393136E0,4.343582E-1,-2.5847847E0,-6.0417396E-1,-3.1531646E0,3.283403E-1,5.622262E0,2.8158966E-1,-4.254229E0,-1.0969471E0,3.7624009E0,1.249636E0,1.3782232E0,2.464155E0,9.728126E0,1.7892425E0,5.792783E0,-1.8122716E-1,4.0672883E-1,-2.7535942E-1,2.540226E-1,-6.202234E-2,3.8800684E-1,-9.584048E-2,-3.54787E-1,-7.4462585E-2,7.106364E-2,-1.7489718E-1,1.360982E0,-1.6534887E-1,-4.8041138E-1,3.9955718E-4,-1.9679368E-1,6.899254E-1,-1.0693233E-2,6.7587085E-2,2.1163543E-1,-7.120918E-2,3.1806135E-1,-3.1924507E-1,1.1079211E0,1.3780822E-1,5.9667706E-1,2.0414522E-1,1.1621014E0],"categories":[],"categories_nodes":[],"categories_segments":[],"categories_sizes":[],"default_left":[0,0,0,0,0,0,0,0,0,0,0,0,0,0,0,0,0,0,0,0,0,0,0,0,0,0,0,0,0,0,0,0,0,0,0,0,0,0,0,0,0,0,0,0,0,0,0,0,0,0,0,0,0,0,0,0,0,0,0],"id":11,"left_children":[1,3,5,7,9,11,13,15,17,19,21,23,25,27,29,31,33,35,37,39,41,-1,43,45,47,49,-1,51,53,55,57,-1,-1,-1,-1,-1,-1,-1,-1,-1,-1,-1,-1,-1,-1,-1,-1,-1,-1,-1,-1,-1,-1,-1,-1,-1,-1,-1,-1],"loss_changes":[2.2030989E3,2.603988E2,5.0287695E2,1.3127728E2,2.3115079E2,3.6498523E2,3.8012036E2,5.108026E1,1.08805115E2,1.6498505E2,7.607767E1,1.9493121E2,3.1095764E2,2.8737616E2,2.9434613E2,6.4729485E1,4.767816E1,1.2083008E2,1.0875916E1,1.4040082E2,3.7825818E2,0E0,1.1432205E1,9.801305E1,1.1065476E2,2.5240692E2,0E0,2.9819527E1,2.630968E2,2.8475824E2,4.3404596E2,0E0,0E0,0E0,0E0,0E0,0E0,0E0,0E0,0E0,0E0,0E0,0E0,0E0,0E0,0E0,0E0,0E0,0E0,0E0,0E0,0E0,0E0,0E0,0E0,0E0,0E0,0E0,0E0],"parents":[2147483647,0,0,1,1,2,2,3,3,4,4,5,5,6,6,7,7,8,8,9,9,10,10,11,11,12,12,13,13,14,14,15,15,16,16,17,17,18,18,19,19,20,20,22,22,23,23,24,24,25,25,27,27,28,28,29,29,30,30],"right_children":[2,4,6,8,10,12,14,16,18,20,22,24,26,28,30,32,34,36,38,40,42,-1,44,46,48,50,-1,52,54,56,58,-1,-1,-1,-1,-1,-1,-1,-1,-1,-1,-1,-1,-1,-1,-1,-1,-1,-1,-1,-1,-1,-1,-1,-1,-1,-1,-1,-1],"split_conditions":[4.4E0,3.5E0,7.3333335E0,3.7E1,1.15E1,9.52381E-2,5.888889E-1,4E0,2E0,2.5E1,3E0,5.1E1,1.25E-1,1.3E1,1.9568448E0,-8.55903E-1,7.2E0,8E-1,1E0,1.5517242E0,1E0,2.8158966E-1,1.4E1,5.3333335E0,5.35E1,7.270833E-1,1.3782232E0,-1.3215197E0,4.3E1,1.9E1,1.685E1,-1.8122716E-1,4.0672883E-1,-2.7535942E-1,2.540226E-1,-6.202234E-2,3.8800684E-1,-9.584048E-2,-3.54787E-1,-7.4462585E-2,7.106364E-2,-1.7489718E-1,1.360982E0,-1.6534887E-1,-4.8041138E-1,3.9955718E-4,-1.9679368E-1,6.899254E-1,-1.0693233E-2,6.7587085E-2,2.1163543E-1,-7.120918E-2,3.1806135E-1,-3.1924507E-1,1.1079211E0,1.3780822E-1,5.9667706E-1,2.0414522E-1,1.1621014E0],"split_indices":[10,10,10,45,0,39,11,36,9,31,36,45,8,36,41,41,0,7,34,38,23,0,31,10,45,11,0,41,25,36,0,0,0,0,0,0,0,0,0,0,0,0,0,0,0,0,0,0,0,0,0,0,0,0,0,0,0,0,0],"split_type":[0,0,0,0,0,0,0,0,0,0,0,0,0,0,0,0,0,0,0,0,0,0,0,0,0,0,0,0,0,0,0,0,0,0,0,0,0,0,0,0,0,0,0,0,0,0,0,0,0,0,0,0,0,0,0,0,0,0,0],"sum_hessian":[2.909E3,2.076E3,8.33E2,1.717E3,3.59E2,6.2E2,2.13E2,5.2E1,1.665E3,3.45E2,1.4E1,1.09E2,5.11E2,2.3E1,1.9E2,6E0,4.6E1,1.649E3,1.6E1,3.4E2,5E0,1E0,1.3E1,1.01E2,8E0,5.1E2,1E0,1.1E1,1.2E1,1.7E2,2E1,4E0,2E0,4.5E1,1E0,1.644E3,5E0,3E0,1.3E1,8.9E1,2.51E2,3E0,2E0,3E0,1E1,4.5E1,5.6E1,4E0,4E0,3.08E2,2.02E2,2E0,9E0,1E0,1.1E1,1.56E2,1.4E1,1.3E1,7E0],"tree_param":{"num_deleted":"0","num_feature":"61","num_nodes":"59","size_leaf_vector":"1"}},{"base_weights":[2.057515E-2,-4.7599125E-1,1.1529895E0,-6.8237895E-1,-7.5973816E-2,-1.4510329E-1,1.5176183E0,-5.773704E-2,-8.5355055E-1,-1.0449176E0,1.026909E-1,-1.1691184E0,5.72968E-1,4.1779394E0,1.3158242E0,-1.1422784E-1,8.140542E-1,-6.901782E-1,-1.4503009E0,-3.636642E-1,-1.9678589E0,2.5471663E-1,-1.3816819E0,2.7781563E0,-1.6951954E0,2.8346038E-1,6.981246E-1,2.7167027E0,1.4180685E0,7.286682E-1,2.5532937E0,-5.8620628E-2,6.783068E-2,-7.335254E-2,8.4735817E-1,1.9827856E-1,-1.6181058E-1,1.06218815E-1,-1.0381923E-1,-2.4354716E-1,2.333659E-1,1.6288271E-2,6.294374E-1,-1.7346214E-1,3.526952E-1,-1.6107485E-1,7.5092113E-1,1.8655561E-1,-1.9859207E-1,5.217105E-1,5.8184564E-4,8.010728E-1,7.0624806E-2,9.441668E-2,-1.3056247E-1,3.2103878E-1,5.9371818E-2],"categories":[],"categories_nodes":[],"categories_segments":[],"categories_sizes":[],"default_left":[0,0,0,0,0,0,0,0,0,0,0,0,0,0,0,0,0,0,0,0,0,0,0,0,0,0,0,0,0,0,0,0,0,0,0,0,0,0,0,0,0,0,0,0,0,0,0,0,0,0,0,0,0,0,0,0,0],"id":12,"left_children":[1,3,5,7,9,11,13,15,17,19,21,23,25,27,29,31,-1,33,35,37,39,41,43,45,47,49,-1,51,-1,53,55,-1,-1,-1,-1,-1,-1,-1,-1,-1,-1,-1,-1,-1,-1,-1,-1,-1,-1,-1,-1,-1,-1,-1,-1,-1,-1],"loss_changes":[1.6583325E3,1.6911761E2,4.2587378E2,1.4441675E2,1.2120966E2,1.46322E2,3.70813E2,1.3536041E2,1.0222449E2,6.7585724E1,1.3360597E2,1.7488007E2,2.1435829E2,6.7598804E2,4.7299963E2,1.09239655E2,0E0,3.3712296E2,1.33944E2,6.265412E1,9.822015E1,2.9617365E2,1.01223495E2,2.2032677E2,7.92865E1,1.5423325E2,0E0,4.617802E2,0E0,1.9627888E2,2.6811475E2,0E0,0E0,0E0,0E0,0E0,0E0,0E0,0E0,0E0,0E0,0E0,0E0,0E0,0E0,0E0,0E0,0E0,0E0,0E0,0E0,0E0,0E0,0E0,0E0,0E0,0E0],"parents":[2147483647,0,0,1,1,2,2,3,3,4,4,5,5,6,6,7,7,8,8,9,9,10,10,11,11,12,12,13,13,14,14,15,15,17,17,18,18,19,19,20,20,21,21,22,22,23,23,24,24,25,25,27,27,29,29,30,30],"right_children":[2,4,6,8,10,12,14,16,18,20,22,24,26,28,30,32,-1,34,36,38,40,42,44,46,48,50,-1,52,-1,54,56,-1,-1,-1,-1,-1,-1,-1,-1,-1,-1,-1,-1,-1,-1,-1,-1,-1,-1,-1,-1,-1,-1,-1,-1,-1,-1],"split_conditions":[4.25E0,7.4285716E-1,5E0,4E0,-1.0398242E0,5E0,6E0,2.43631E0,9.391304E-1,1.9444445E-1,4.9E0,2.022E3,2.8421052E0,4.4117647E-1,6.875E0,1.6666666E0,8.140542E-1,6.666667E-1,8.333333E-1,3E0,2.4242425E-1,3.375E0,9.684211E0,9.777778E-1,1.575E1,4.714286E0,6.981246E-1,4.8E0,1.4180685E0,6.8421054E-1,7.6066446E-1,-5.8620628E-2,6.783068E-2,-7.335254E-2,8.4735817E-1,1.9827856E-1,-1.6181058E-1,1.06218815E-1,-1.0381923E-1,-2.4354716E-1,2.333659E-1,1.6288271E-2,6.294374E-1,-1.7346214E-1,3.526952E-1,-1.6107485E-1,7.5092113E-1,1.8655561E-1,-1.9859207E-1,5.217105E-1,5.8184564E-4,8.010728E-1,7.0624806E-2,9.441668E-2,-1.3056247E-1,3.2103878E-1,5.9371818E-2],"split_indices":[10,57,36,36,20,32,36,41,14,39,32,35,38,39,10,6,0,7,19,43,39,6,16,19,5,10,0,10,0,15,14,0,0,0,0,0,0,0,0,0,0,0,0,0,0,0,0,0,0,0,0,0,0,0,0,0,0],"split_type":[0,0,0,0,0,0,0,0,0,0,0,0,0,0,0,0,0,0,0,0,0,0,0,0,0,0,0,0,0,0,0,0,0,0,0,0,0,0,0,0,0,0,0,0,0,0,0,0,0,0,0,0,0,0,0,0,0],"sum_hessian":[2.947E3,2.049E3,8.98E2,1.351E3,6.98E2,1.97E2,7.01E2,2.91E2,1.06E3,1.08E2,5.9E2,8.1E1,1.16E2,4.8E1,6.53E2,2.9E2,1E0,8.34E2,2.26E2,6.3E1,4.5E1,5.36E2,5.4E1,9E0,7.2E1,1.12E2,4E0,4.3E1,5E0,4.44E2,2.09E2,1.82E2,1.08E2,8.31E2,3E0,1E1,2.16E2,2E1,4.3E1,4.1E1,4E0,5.29E2,7E0,5.1E1,3E0,5E0,4E0,5E0,6.7E1,5E0,1.07E2,1.1E1,3.2E1,4.02E2,4.2E1,1.56E2,5.3E1],"tree_param":{"num_deleted":"0","num_feature":"61","num_nodes":"57","size_leaf_vector":"1"}},{"base_weights":[-1.0614398E-4,-3.1881237E-1,1.5376903E0,-6.635892E-1,1.5588899E-1,1.2256949E0,5.0362315E0,-2.3451456E-1,-8.3344513E-1,1.029708E-1,6.113093E0,4.4675305E-1,2.0329864E0,7.785267E0,6.9140124E-1,-4.6912032E-1,1.1919434E0,-1.648647E0,-6.5952396E-1,7.321158E-1,-2.290562E-1,3.1825826E-1,8.9555854E-1,-4.9685648E-1,1.6682967E0,1.656224E0,5.4810233E0,9.851509E-2,9.697029E0,4.23289E0,-1.1286266E0,-5.1560193E-2,7.7335155E-1,-2.6782978E-2,2.716988E-1,1.8135677E-1,-1.7193379E-1,-7.014414E-2,1.8415917E-1,4.207341E-2,2.957609E-1,-3.2891926E-1,-5.422397E-3,-1.6785018E-1,1.5435104E-1,3.0142236E-1,3.643973E-2,1.2633418E-1,4.5951447E-1,9.546801E-1,5.3826433E-2,3.876715E-1,-4.9385902E-1,1.0685188E0,5.024069E-2,6.113338E-1,-2.5346756E-1,-2.602455E-1,2.4446438E-1],"categories":[],"categories_nodes":[],"categories_segments":[],"categories_sizes":[],"default_left":[0,0,0,0,0,0,0,0,0,0,0,0,0,0,0,0,0,0,0,0,0,0,0,0,0,0,0,0,0,0,0,0,0,0,0,0,0,0,0,0,0,0,0,0,0,0,0,0,0,0,0,0,0,0,0,0,0,0,0],"id":13,"left_children":[1,3,5,7,9,11,13,15,17,19,21,23,25,27,29,31,33,35,37,39,41,-1,-1,43,45,47,49,51,53,55,57,-1,-1,-1,-1,-1,-1,-1,-1,-1,-1,-1,-1,-1,-1,-1,-1,-1,-1,-1,-1,-1,-1,-1,-1,-1,-1,-1,-1],"loss_changes":[1.4417682E3,3.990083E2,5.44423E2,1.0260559E2,3.2218976E2,2.9125116E2,4.834773E2,1.350183E2,1.4202222E2,2.128712E2,4.5253876E1,2.752792E2,2.8640106E2,3.6544617E2,1.1466312E2,1.3518561E2,1.278671E2,4.6428955E1,8.871933E1,2.4234596E2,3.563393E2,0E0,0E0,3.2808792E2,1.8107889E2,2.326214E2,4.359682E2,1.3322647E2,1.7522778E2,9.220954E1,6.95745E1,0E0,0E0,0E0,0E0,0E0,0E0,0E0,0E0,0E0,0E0,0E0,0E0,0E0,0E0,0E0,0E0,0E0,0E0,0E0,0E0,0E0,0E0,0E0,0E0,0E0,0E0,0E0,0E0],"parents":[2147483647,0,0,1,1,2,2,3,3,4,4,5,5,6,6,7,7,8,8,9,9,10,10,11,11,12,12,13,13,14,14,15,15,16,16,17,17,18,18,19,19,20,20,23,23,24,24,25,25,26,26,27,27,28,28,29,29,30,30],"right_children":[2,4,6,8,10,12,14,16,18,20,22,24,26,28,30,32,34,36,38,40,42,-1,-1,44,46,48,50,52,54,56,58,-1,-1,-1,-1,-1,-1,-1,-1,-1,-1,-1,-1,-1,-1,-1,-1,-1,-1,-1,-1,-1,-1,-1,-1,-1,-1,-1,-1],"split_conditions":[4.2544217E0,2.75E0,3.3333334E-1,5E0,8.333333E0,7E0,7.6666665E-1,1E0,4.2041035E0,6.3095236E-1,9E0,6.962025E-1,2.097902E-2,4.651163E-1,4E0,2.43631E0,4.5646605E-1,0E0,3.75E-1,8.148148E-1,6.5E-1,3.1825826E-1,8.9555854E-1,7.3E0,7.5555557E-1,4.915254E-1,3.8239273E-1,3.3333334E-1,1.6E1,7E0,7E0,-5.1560193E-2,7.7335155E-1,-2.6782978E-2,2.716988E-1,1.8135677E-1,-1.7193379E-1,-7.014414E-2,1.8415917E-1,4.207341E-2,2.957609E-1,-3.2891926E-1,-5.422397E-3,-1.6785018E-1,1.5435104E-1,3.0142236E-1,3.643973E-2,1.2633418E-1,4.5951447E-1,9.546801E-1,5.3826433E-2,3.876715E-1,-4.9385902E-1,1.0685188E0,5.024069E-2,6.113338E-1,-2.5346756E-1,-2.602455E-1,2.4446438E-1],"split_indices":[60,10,58,36,10,10,11,49,60,11,31,57,17,57,32,41,41,59,7,57,11,0,0,32,11,39,41,7,36,6,34,0,0,0,0,0,0,0,0,0,0,0,0,0,0,0,0,0,0,0,0,0,0,0,0,0,0,0,0],"split_type":[0,0,0,0,0,0,0,0,0,0,0,0,0,0,0,0,0,0,0,0,0,0,0,0,0,0,0,0,0,0,0,0,0,0,0,0,0,0,0,0,0,0,0,0,0,0,0,0,0,0,0,0,0,0,0,0,0,0,0],"sum_hessian":[2.94E3,2.436E3,5.04E2,1.411E3,1.025E3,4.64E2,4E1,4.01E2,1.01E3,1.017E3,8E0,2.37E2,2.27E2,2.4E1,1.6E1,3.45E2,5.6E1,1.76E2,8.34E2,3.51E2,6.66E2,5E0,3E0,1.34E2,1.03E2,2.06E2,2.1E1,5E0,1.9E1,5E0,1.1E1,3.44E2,1E0,2.9E1,2.7E1,3E0,1.73E2,8.21E2,1.3E1,3.09E2,4.2E1,3.5E1,6.31E2,8.5E1,4.9E1,5E1,5.3E1,1.83E2,2.3E1,1.1E1,1E1,3E0,2E0,1.7E1,2E0,4E0,1E0,8E0,3E0],"tree_param":{"num_deleted":"0","num_feature":"61","num_nodes":"59","size_leaf_vector":"1"}},{"base_weights":[3.7785638E-2,-4.9636716E-1,8.334139E-1,-4.2215365E-1,-1.1326421E0,-4.527986E-1,1.0744072E0,-7.640981E-1,-2.381872E-1,-1.2889334E0,1.4192679E0,1.1524726E-1,-1.8200222E0,1.0572125E1,1.015659E0,7.1145654E-1,-9.2605263E-1,-2.1237538E0,-1.292058E-1,1.0608647E0,-1.4871099E0,5.8338934E-1,-9.5295334E-1,-8.7214166E-1,1.132326E0,-2.7830992E0,6.9517154E-1,1.3869776E0,-2.9080638E-1,9.7514236E-1,8.782405E-1,-5.013424E-3,3.4530014E-1,4.4737062E-1,-9.461605E-2,-2.069047E-2,-2.6395556E-1,-1.9853333E-2,2.1285324E-1,-1.5296462E-2,5.595893E-1,-2.0311902E-1,-7.75077E-2,-2.427058E-1,1.1029156E-1,-2.2908214E-1,1.8200554E-1,1.8529586E-1,-1.6695206E-1,8.4879324E-2,-3.451927E-1,4.204447E-1,-1.2730853E-1,6.0694963E-2,1.6917732E-1],"categories":[],"categories_nodes":[],"categories_segments":[],"categories_sizes":[],"default_left":[0,0,0,0,0,0,0,0,0,0,0,0,0,0,0,0,0,0,0,0,0,0,0,0,0,0,0,0,0,0,0,0,0,0,0,0,0,0,0,0,0,0,0,0,0,0,0,0,0,0,0,0,0,0,0],"id":14,"left_children":[1,3,5,7,9,11,13,15,17,19,21,23,25,27,29,31,33,35,37,39,41,-1,43,45,47,49,51,-1,-1,53,-1,-1,-1,-1,-1,-1,-1,-1,-1,-1,-1,-1,-1,-1,-1,-1,-1,-1,-1,-1,-1,-1,-1,-1,-1],"loss_changes":[1.2494844E3,8.242673E1,3.6662146E2,9.892102E1,7.4804214E1,1.4561298E2,5.432875E2,1.3235425E2,2.1054027E2,8.2181946E1,1.2124466E2,1.3457912E2,1.3537138E2,3.0814813E2,3.019956E2,1.1534984E2,5.7843018E1,5.4537216E1,1.5237038E2,7.8466774E1,6.0129547E1,0E0,2.705378E1,2.6393335E2,1.3637265E2,1.0035474E2,1.16160225E2,0E0,0E0,2.5890747E2,0E0,0E0,0E0,0E0,0E0,0E0,0E0,0E0,0E0,0E0,0E0,0E0,0E0,0E0,0E0,0E0,0E0,0E0,0E0,0E0,0E0,0E0,0E0,0E0,0E0],"parents":[2147483647,0,0,1,1,2,2,3,3,4,4,5,5,6,6,7,7,8,8,9,9,10,10,11,11,12,12,13,13,14,14,15,15,16,16,17,17,18,18,19,19,20,20,22,22,23,23,24,24,25,25,26,26,29,29],"right_children":[2,4,6,8,10,12,14,16,18,20,22,24,26,28,30,32,34,36,38,40,42,-1,44,46,48,50,52,-1,-1,54,-1,-1,-1,-1,-1,-1,-1,-1,-1,-1,-1,-1,-1,-1,-1,-1,-1,-1,-1,-1,-1,-1,-1,-1,-1],"split_conditions":[3.5E0,5E0,-8.481937E-1,2E0,1.15E1,7.3043483E-1,8.4444445E-1,-1.2384683E0,-1.6172229E0,-1.4048494E-1,1E0,8.7777776E-1,6.5E0,1.1833333E1,1.1E1,-1.336637E0,7.888889E-1,5.44937E-4,8.35E0,9.8888886E-1,1.7333334E1,5.8338934E-1,1.2333333E1,5E-1,1E0,2E0,-1.5509154E0,1.3869776E0,-2.9080638E-1,1E0,8.782405E-1,-5.013424E-3,3.4530014E-1,4.4737062E-1,-9.461605E-2,-2.069047E-2,-2.6395556E-1,-1.9853333E-2,2.1285324E-1,-1.5296462E-2,5.595893E-1,-2.0311902E-1,-7.75077E-2,-2.427058E-1,1.1029156E-1,-2.2908214E-1,1.8200554E-1,1.8529586E-1,-1.6695206E-1,8.4879324E-2,-3.451927E-1,4.204447E-1,-1.2730853E-1,6.0694963E-2,1.6917732E-1],"split_indices":[10,21,20,21,43,14,19,20,20,14,34,19,43,0,34,20,19,14,0,19,5,0,5,16,18,43,20,0,0,23,0,0,0,0,0,0,0,0,0,0,0,0,0,0,0,0,0,0,0,0,0,0,0,0,0],"split_type":[0,0,0,0,0,0,0,0,0,0,0,0,0,0,0,0,0,0,0,0,0,0,0,0,0,0,0,0,0,0,0,0,0,0,0,0,0,0,0,0,0,0,0,0,0,0,0,0,0,0,0,0,0,0,0],"sum_hessian":[2.938E3,1.758E3,1.18E3,1.576E3,1.82E2,1.86E2,9.94E2,5.5E2,1.026E3,1.72E2,1E1,1.32E2,5.4E1,5E0,9.89E2,5.4E1,4.96E2,5.5E1,9.71E2,1.3E1,1.59E2,3E0,7E0,6.7E1,6.5E1,3.9E1,1.5E1,4E0,1E0,9.85E2,4E0,4.3E1,1.1E1,1E0,4.95E2,1.2E1,4.3E1,9.43E2,2.8E1,1.1E1,2E0,8.9E1,7E1,4E0,3E0,4.4E1,2.3E1,5.2E1,1.3E1,6E0,3.3E1,5E0,1E1,6.52E2,3.33E2],"tree_param":{"num_deleted":"0","num_feature":"61","num_nodes":"55","size_leaf_vector":"1"}},{"base_weights":[-1.6644567E-2,-5.5051744E-1,7.587786E-1,-8.119255E-1,-3.4478515E-1,3.9899912E-1,1.8732514E0,2.7552295E-1,-9.336462E-1,-1.443268E-1,-8.596713E-1,5.5679286E-1,-1.1999029E0,1.2647016E0,5.5803204E0,-4.675461E-1,2.3194506E0,-1.0099974E0,4.8079735E-1,-1.2495669E0,-1.4734247E-2,-1.0601807E0,2.433553E0,3.834339E-1,2.3727548E0,6.982361E0,-1.8231975E0,8.0007976E-1,4.5629587E0,9.582151E0,2.6318624E0,2.4835734E-2,-2.2146285E-1,-2.9368636E-1,3.3642176E-1,-1.333777E-1,-8.294533E-2,-1.6379802E-1,1.4825787E-1,9.807109E-3,-1.8235305E-1,6.5197664E-1,-6.6813375E-3,2.971544E-1,-1.151638E-1,1.1093311E-4,6.4707744E-1,5.0381314E-2,-1.5328819E-1,1.9438174E-1,1.1557041E0,9.21164E-1,3.5398117E-1,-2.696204E-1,4.7732707E-2,4.311313E-2,3.575146E-1,5.3593934E-1,-4.6235567E-1,1.1394032E0,-2.637966E-1,8.972061E-2,9.3710464E-1],"categories":[],"categories_nodes":[],"categories_segments":[],"categories_sizes":[],"default_left":[0,0,0,0,0,0,0,0,0,0,0,0,0,0,0,0,0,0,0,0,0,0,0,0,0,0,0,0,0,0,0,0,0,0,0,0,0,0,0,0,0,0,0,0,0,0,0,0,0,0,0,0,0,0,0,0,0,0,0,0,0,0,0],"id":15,"left_children":[1,3,5,7,9,11,13,15,17,19,21,23,25,27,29,31,33,35,37,39,41,43,45,47,49,51,53,55,57,59,61,-1,-1,-1,-1,-1,-1,-1,-1,-1,-1,-1,-1,-1,-1,-1,-1,-1,-1,-1,-1,-1,-1,-1,-1,-1,-1,-1,-1,-1,-1,-1,-1],"loss_changes":[1.2203883E3,9.350433E1,4.8098456E2,1.0197937E2,1.0082129E2,2.3019376E2,6.532473E2,1.19734436E2,7.51626E1,1.00976166E2,1.8337096E2,2.5979474E2,4.30411E2,3.835209E2,4.5732825E2,7.328969E1,1.2524708E2,3.7024902E1,7.882475E1,5.7590004E1,2.1520723E2,9.8741425E1,1.5647064E2,1.7552832E2,2.598279E2,1.2163818E1,1.561535E2,2.26378E2,2.5166309E2,4.0733618E2,2.8281964E2,0E0,0E0,0E0,0E0,0E0,0E0,0E0,0E0,0E0,0E0,0E0,0E0,0E0,0E0,0E0,0E0,0E0,0E0,0E0,0E0,0E0,0E0,0E0,0E0,0E0,0E0,0E0,0E0,0E0,0E0,0E0,0E0],"parents":[2147483647,0,0,1,1,2,2,3,3,4,4,5,5,6,6,7,7,8,8,9,9,10,10,11,11,12,12,13,13,14,14,15,15,16,16,17,17,18,18,19,19,20,20,21,21,22,22,23,23,24,24,25,25,26,26,27,27,28,28,29,29,30,30],"right_children":[2,4,6,8,10,12,14,16,18,20,22,24,26,28,30,32,34,36,38,40,42,44,46,48,50,52,54,56,58,60,62,-1,-1,-1,-1,-1,-1,-1,-1,-1,-1,-1,-1,-1,-1,-1,-1,-1,-1,-1,-1,-1,-1,-1,-1,-1,-1,-1,-1,-1,-1,-1,-1],"split_conditions":[3.5E0,1.6E0,1.93E1,2E0,4.6096462E-1,1.1966666E1,8E0,1.1E0,9.302326E-1,-1.4307842E0,2E-1,5.1666668E1,3.05E1,3.3333334E-1,1.0444445E1,5E0,3.5E0,9.5555556E-1,9.3333334E-1,3E0,-1.4078301E0,4.199966E0,2.5514019E0,6E0,1.85E1,4.2529845E0,1.0555556E0,6.75E0,7.25E0,3.6296296E-1,3.2933333E0,2.4835734E-2,-2.2146285E-1,-2.9368636E-1,3.3642176E-1,-1.333777E-1,-8.294533E-2,-1.6379802E-1,1.4825787E-1,9.807109E-3,-1.8235305E-1,6.5197664E-1,-6.6813375E-3,2.971544E-1,-1.151638E-1,1.1093311E-4,6.4707744E-1,5.0381314E-2,-1.5328819E-1,1.9438174E-1,1.1557041E0,9.21164E-1,3.5398117E-1,-2.696204E-1,4.7732707E-2,4.311313E-2,3.575146E-1,5.3593934E-1,-4.6235567E-1,1.1394032E0,-2.637966E-1,8.972061E-2,9.3710464E-1],"split_indices":[10,10,31,36,20,0,34,19,57,20,17,5,5,9,59,43,43,19,19,21,20,60,38,21,31,60,19,6,6,39,38,0,0,0,0,0,0,0,0,0,0,0,0,0,0,0,0,0,0,0,0,0,0,0,0,0,0,0,0,0,0,0,0],"split_type":[0,0,0,0,0,0,0,0,0,0,0,0,0,0,0,0,0,0,0,0,0,0,0,0,0,0,0,0,0,0,0,0,0,0,0,0,0,0,0,0,0,0,0,0,0,0,0,0,0,0,0,0,0,0,0,0,0,0,0,0,0,0,0],"sum_hessian":[2.946E3,1.745E3,1.201E3,7.67E2,9.78E2,9.09E2,2.92E2,7.7E1,6.9E2,7.05E2,2.73E2,8.28E2,8.1E1,2.52E2,4E1,5.7E1,2E1,6.55E2,3.5E1,7.3E1,6.32E2,2.58E2,1.5E1,7.57E2,7.1E1,5E0,7.6E1,2.22E2,3E1,1.6E1,2.4E1,4.1E1,1.6E1,3E0,1.7E1,2.32E2,4.23E2,1.1E1,2.4E1,2.2E1,5.1E1,4E0,6.28E2,5E0,2.53E2,1E1,5E0,7.13E2,4.4E1,6.9E1,2E0,2E0,3E0,5.5E1,2.1E1,1.97E2,2.5E1,2.8E1,2E0,1.4E1,2E0,2E1,4E0],"tree_param":{"num_deleted":"0","num_feature":"61","num_nodes":"63","size_leaf_vector":"1"}},{"base_weights":[8.761931E-2,-2.7994663E-1,9.964606E-1,-4.6066347E-1,9.5428385E-2,7.548063E-1,2.6937635E0,-3.8368014E-1,-1.2148119E0,5.855714E-1,-5.209235E-1,1.0493597E0,7.137815E-1,2.0753472E0,7.7244334E0,1.0335798E0,-4.6224672E-1,-1.8313643E0,4.2604172E-1,-3.6904386E-1,1.3505944E0,1.7975314E-1,-1.3741881E0,5.4257226E-1,2.8546796E0,7.865343E-1,3.7930813E0,1.0698893E0,1.3074905E1,4.3632206E-2,4.0254083E-1,-6.751546E-2,-1.1207106E-2,2.1321242E-1,-1.8979837E-1,9.6994035E-2,-3.1201178E-1,-8.368111E-2,1.7219536E-1,1.08890906E-1,1.000613E0,1.075168E-1,-9.07747E-2,4.9837208E-1,-1.5080193E-1,8.280518E-2,-5.8393497E-2,2.0790401E-1,1.0020142E0,1.120278E-2,6.259666E-1,-8.88686E-2,4.8161435E-1,-5.630111E-1,5.8524173E-1,1.4843383E0,2.0662573E-1],"categories":[],"categories_nodes":[],"categories_segments":[],"categories_sizes":[],"default_left":[0,0,0,0,0,0,0,0,0,0,0,0,0,0,0,0,0,0,0,0,0,0,0,0,0,0,0,0,0,0,0,0,0,0,0,0,0,0,0,0,0,0,0,0,0,0,0,0,0,0,0,0,0,0,0,0,0],"id":16,"left_children":[1,3,5,7,9,11,13,15,17,19,21,-1,23,25,27,29,31,33,35,37,39,41,43,45,47,49,51,53,55,-1,-1,-1,-1,-1,-1,-1,-1,-1,-1,-1,-1,-1,-1,-1,-1,-1,-1,-1,-1,-1,-1,-1,-1,-1,-1,-1,-1],"loss_changes":[9.721286E2,1.406379E2,3.4133636E2,8.059558E1,2.0392729E2,2.8504507E2,3.0653815E2,1.4194557E2,1.3142648E2,2.7519037E2,1.7912735E2,0E0,2.6678638E2,2.0465942E2,3.7625128E2,1.17519264E2,8.96846E1,2.8843628E1,7.2246346E1,1.6567325E2,4.613852E2,1.6166376E2,1.220376E2,2.1919241E2,2.7807993E2,2.0170303E2,1.9626233E2,2.2522958E2,8.445007E1,0E0,0E0,0E0,0E0,0E0,0E0,0E0,0E0,0E0,0E0,0E0,0E0,0E0,0E0,0E0,0E0,0E0,0E0,0E0,0E0,0E0,0E0,0E0,0E0,0E0,0E0,0E0,0E0],"parents":[2147483647,0,0,1,1,2,2,3,3,4,4,5,5,6,6,7,7,8,8,9,9,10,10,12,12,13,13,14,14,15,15,16,16,17,17,18,18,19,19,20,20,21,21,22,22,23,23,24,24,25,25,26,26,27,27,28,28],"right_children":[2,4,6,8,10,12,14,16,18,20,22,-1,24,26,28,30,32,34,36,38,40,42,44,46,48,50,52,54,56,-1,-1,-1,-1,-1,-1,-1,-1,-1,-1,-1,-1,-1,-1,-1,-1,-1,-1,-1,-1,-1,-1,-1,-1,-1,-1,-1,-1],"split_conditions":[4.4E0,2.75E0,1.4190162E0,6E0,5.3257334E-1,4.5E0,1.6666667E-1,2E0,4.2259574E0,6.142857E-1,2.1463416E0,1.0493597E0,1.9E1,1.6184077E0,1.0862895E0,1.1656495E0,3E0,-1.45E1,4.2316527E0,6.5E0,3.7313432E-1,7.7916664E-1,3E0,7.916435E-1,8.434783E0,9.69697E-1,-8E0,7.25E-1,1.9633333E1,4.3632206E-2,4.0254083E-1,-6.751546E-2,-1.1207106E-2,2.1321242E-1,-1.8979837E-1,9.6994035E-2,-3.1201178E-1,-8.368111E-2,1.7219536E-1,1.08890906E-1,1.000613E0,1.075168E-1,-9.07747E-2,4.9837208E-1,-1.5080193E-1,8.280518E-2,-5.8393497E-2,2.0790401E-1,1.0020142E0,1.120278E-2,6.259666E-1,-8.88686E-2,4.8161435E-1,-5.630111E-1,5.8524173E-1,1.4843383E0,2.0662573E-1],"split_indices":[10,10,20,21,14,10,7,36,60,57,38,0,36,41,41,41,21,42,60,42,39,11,34,14,16,14,42,11,0,0,0,0,0,0,0,0,0,0,0,0,0,0,0,0,0,0,0,0,0,0,0,0,0,0,0,0,0],"split_type":[0,0,0,0,0,0,0,0,0,0,0,0,0,0,0,0,0,0,0,0,0,0,0,0,0,0,0,0,0,0,0,0,0,0,0,0,0,0,0,0,0,0,0,0,0,0,0,0,0,0,0,0,0,0,0,0,0],"sum_hessian":[2.908E3,2.071E3,8.37E2,1.398E3,6.73E2,7.34E2,1.03E2,1.27E3,1.28E2,3.75E2,2.98E2,2E0,7.32E2,9.3E1,1E1,6.6E1,1.204E3,9.3E1,3.5E1,1.67E2,2.08E2,1.64E2,1.34E2,6.79E2,5.3E1,5.4E1,3.9E1,5E0,5E0,5.6E1,1E1,7.48E2,4.56E2,1E0,9.2E1,3.1E1,4E0,1.37E2,3E1,2.03E2,5E0,9E1,7.4E1,2E0,1.32E2,5.42E2,1.37E2,4.9E1,4E0,4.9E1,5E0,7E0,3.2E1,2E0,3E0,4E0,1E0],"tree_param":{"num_deleted":"0","num_feature":"61","num_nodes":"57","size_leaf_vector":"1"}},{"base_weights":[-2.7044255E-2,-2.0117538E-1,1.0697994E0,-5.090464E-1,6.298304E-2,8.425687E-1,5.3400555E0,4.3606701E-1,-5.254717E-1,-5.3526866E-1,2.8045708E-1,6.7568326E-1,4.862861E0,2.40283E0,9.43304E0,-6.4619625E-1,4.3545898E-2,-1.9819322E-1,-2.193654E0,5.8905494E-1,-6.374492E-1,1.4812567E0,6.589143E-2,7.4301925E0,-2.0983425E-1,3.627255E0,-2.854339E-1,5.058795E-1,1.230778E1,-3.4160893E-2,-9.219935E-2,1.00835085E-1,-8.056726E-2,-7.5316764E-2,5.511381E-2,1.6438304E-1,-2.5674266E-1,6.8842255E-2,-3.0474097E-1,6.6399163E-1,-7.229699E-2,8.400919E-2,6.415867E-1,-2.6657036E-2,3.2426068E-1,8.928637E-1,2.925367E-1,-1.7153598E-1,1.8341446E-1,4.3951818E-1,-1.9760063E-1,1.1544168E-1,-3.4559745E-2,3.5711205E-1,1.3320888E0],"categories":[],"categories_nodes":[],"categories_segments":[],"categories_sizes":[],"default_left":[0,0,0,0,0,0,0,0,0,0,0,0,0,0,0,0,0,0,0,0,0,0,0,0,0,0,0,0,0,0,0,0,0,0,0,0,0,0,0,0,0,0,0,0,0,0,0,0,0,0,0,0,0,0,0],"id":17,"left_children":[1,3,5,7,9,11,13,-1,15,17,19,21,23,25,27,29,31,33,35,37,39,41,43,45,47,49,-1,51,53,-1,-1,-1,-1,-1,-1,-1,-1,-1,-1,-1,-1,-1,-1,-1,-1,-1,-1,-1,-1,-1,-1,-1,-1,-1,-1],"loss_changes":[5.5764166E2,2.0501997E2,3.8301578E2,9.501245E1,1.7667606E2,2.5178412E2,2.1659076E2,0E0,7.984259E1,2.016844E2,2.8250153E2,1.8002985E2,1.9763043E2,9.4111824E1,1.9779852E2,8.003485E1,1.6797604E2,1.2602494E2,9.180786E1,2.7142667E2,1.6042241E2,4.9378036E2,2.2295065E2,4.0197388E1,2.1597912E1,5.6258667E1,0E0,2.136489E0,3.847412E0,0E0,0E0,0E0,0E0,0E0,0E0,0E0,0E0,0E0,0E0,0E0,0E0,0E0,0E0,0E0,0E0,0E0,0E0,0E0,0E0,0E0,0E0,0E0,0E0,0E0,0E0],"parents":[2147483647,0,0,1,1,2,2,3,3,4,4,5,5,6,6,8,8,9,9,10,10,11,11,12,12,13,13,14,14,15,15,16,16,17,17,18,18,19,19,20,20,21,21,22,22,23,23,24,24,25,25,27,27,28,28],"right_children":[2,4,6,8,10,12,14,-1,16,18,20,22,24,26,28,30,32,34,36,38,40,42,44,46,48,50,-1,52,54,-1,-1,-1,-1,-1,-1,-1,-1,-1,-1,-1,-1,-1,-1,-1,-1,-1,-1,-1,-1,-1,-1,-1,-1,-1,-1],"split_conditions":[6.2E0,2.25E0,1.1777778E0,-3.75E-1,-7.083611E-1,8E-1,1E0,4.3606701E-1,1E0,1.2471429E1,6E-1,-7.722173E-2,1.0333333E0,1.4277778E1,4.9E0,1.5E0,1E1,8.9E0,2.5E0,1E0,2.5E0,-1.3452528E-1,3.3333334E-1,8.232201E-1,-2E0,5.3333335E0,-2.854339E-1,1.15E1,6.4E0,-3.4160893E-2,-9.219935E-2,1.00835085E-1,-8.056726E-2,-7.5316764E-2,5.511381E-2,1.6438304E-1,-2.5674266E-1,6.8842255E-2,-3.0474097E-1,6.6399163E-1,-7.229699E-2,8.400919E-2,6.415867E-1,-2.6657036E-2,3.2426068E-1,8.928637E-1,2.925367E-1,-1.7153598E-1,1.8341446E-1,4.3951818E-1,-1.9760063E-1,1.1544168E-1,-3.4559745E-2,3.5711205E-1,1.3320888E0],"split_indices":[10,10,19,9,41,57,18,0,18,59,16,20,19,59,32,42,54,59,43,12,59,20,9,41,42,16,0,0,10,0,0,0,0,0,0,0,0,0,0,0,0,0,0,0,0,0,0,0,0,0,0,0,0,0,0],"split_type":[0,0,0,0,0,0,0,0,0,0,0,0,0,0,0,0,0,0,0,0,0,0,0,0,0,0,0,0,0,0,0,0,0,0,0,0,0,0,0,0,0,0,0,0,0,0,0,0,0,0,0,0,0,0,0],"sum_hessian":[2.918E3,2.519E3,3.99E2,1.163E3,1.356E3,3.8E2,1.9E1,3E0,1.16E3,3.61E2,9.95E2,3.66E2,1.4E1,1.2E1,7E0,9.57E2,2.03E2,3.01E2,6E1,7.45E2,2.5E2,1.57E2,2.09E2,9E0,5E0,1E1,2E0,2E0,5E0,4.56E2,5.01E2,9.5E1,1.08E2,1.73E2,1.28E2,5E0,5.5E1,7.26E2,1.9E1,2E0,2.48E2,1.4E2,1.7E1,1.9E2,1.9E1,6E0,3E0,3E0,2E0,9E0,1E0,1E0,1E0,1E0,4E0],"tree_param":{"num_deleted":"0","num_feature":"61","num_nodes":"55","size_leaf_vector":"1"}},{"base_weights":[2.9140836E-2,-2.113178E-1,1.183387E0,-3.8427672E-1,1.6555804E-1,9.3450403E-1,4.3303676E0,6.013225E-1,-4.540002E-1,1.1523612E0,-1.9737945E-1,4.550224E-1,2.6950202E0,-1.2736428E0,5.9236684E0,-2.2287962E-1,2.8374307E0,-5.514404E-1,-1.21960845E-2,-4.3532214E-1,2.4024863E0,3.257028E-1,-1.1563123E0,1.1948519E0,-1.6324247E-1,9.585303E-1,4.3109717E0,1.1523229E0,-4.6191803E-1,1.4123899E0,4.789433E0,4.9584672E-1,-4.1564412E-2,7.785487E-2,5.8525413E-1,-4.8126172E-2,-1.2585473E-1,-2.3402445E-2,1.003883E-1,3.5676226E-1,-9.682133E-2,-5.883487E-2,3.985667E-1,1.7347476E-2,5.199817E-1,-2.1570375E-2,-2.2250092E-1,3.2786388E-2,3.267066E-1,-2.5112202E-2,8.7881535E-1,3.740507E-1,-7.200974E-2,7.796706E-1,2.2333272E-1,-2.190839E-1,2.279123E-1,6.0620125E-2,7.208616E-1],"categories":[],"categories_nodes":[],"categories_segments":[],"categories_sizes":[],"default_left":[0,0,0,0,0,0,0,0,0,0,0,0,0,0,0,0,0,0,0,0,0,0,0,0,0,0,0,0,0,0,0,0,0,0,0,0,0,0,0,0,0,0,0,0,0,0,0,0,0,0,0,0,0,0,0,0,0,0,0],"id":18,"left_children":[1,3,5,7,9,11,13,15,17,19,21,23,25,27,29,31,33,35,37,39,41,43,45,47,49,51,53,55,-1,-1,57,-1,-1,-1,-1,-1,-1,-1,-1,-1,-1,-1,-1,-1,-1,-1,-1,-1,-1,-1,-1,-1,-1,-1,-1,-1,-1,-1,-1],"loss_changes":[8.1939276E2,1.5933011E2,3.9409094E2,1.1536328E2,2.7573865E2,3.9773468E2,3.38378E2,2.054674E2,6.730936E1,4.1209674E2,2.828609E2,1.7091237E2,2.7875525E2,7.8714905E1,2.0019208E2,8.3506615E1,1.8101314E2,6.2838074E1,6.417017E1,1.994426E2,5.5194836E2,2.693822E2,1.9931586E2,3.0398868E2,1.6182872E2,2.3649072E2,3.5817456E2,2.7604473E1,0E0,0E0,2.6808875E2,0E0,0E0,0E0,0E0,0E0,0E0,0E0,0E0,0E0,0E0,0E0,0E0,0E0,0E0,0E0,0E0,0E0,0E0,0E0,0E0,0E0,0E0,0E0,0E0,0E0,0E0,0E0,0E0],"parents":[2147483647,0,0,1,1,2,2,3,3,4,4,5,5,6,6,7,7,8,8,9,9,10,10,11,11,12,12,13,13,14,14,15,15,16,16,17,17,18,18,19,19,20,20,21,21,22,22,23,23,24,24,25,25,26,26,27,27,30,30],"right_children":[2,4,6,8,10,12,14,16,18,20,22,24,26,28,30,32,34,36,38,40,42,44,46,48,50,52,54,56,-1,-1,58,-1,-1,-1,-1,-1,-1,-1,-1,-1,-1,-1,-1,-1,-1,-1,-1,-1,-1,-1,-1,-1,-1,-1,-1,-1,-1,-1,-1],"split_conditions":[5.75E0,3.25E0,1.9E1,0E0,3.4549236E-1,1.1268795E0,7E-1,1.4E1,1.6E1,2.0307693E0,1.14E1,2.175E1,-7.5E0,7.4E0,1.36E1,1.375E1,6.5E0,4.1E0,2.1666666E1,2E0,1.3899156E-1,1.1E1,1.2E1,2.9411766E-1,1E0,1.26625E1,4.8E0,6.125E0,-4.6191803E-1,1.4123899E0,3.0232558E-1,4.9584672E-1,-4.1564412E-2,7.785487E-2,5.8525413E-1,-4.8126172E-2,-1.2585473E-1,-2.3402445E-2,1.003883E-1,3.5676226E-1,-9.682133E-2,-5.883487E-2,3.985667E-1,1.7347476E-2,5.199817E-1,-2.1570375E-2,-2.2250092E-1,3.2786388E-2,3.267066E-1,-2.5112202E-2,8.7881535E-1,3.740507E-1,-7.200974E-2,7.796706E-1,2.2333272E-1,-2.190839E-1,2.279123E-1,6.0620125E-2,7.208616E-1],"split_indices":[10,10,36,14,14,41,11,5,36,38,31,40,42,32,31,40,43,32,5,36,14,31,36,15,37,0,6,10,0,0,39,0,0,0,0,0,0,0,0,0,0,0,0,0,0,0,0,0,0,0,0,0,0,0,0,0,0,0,0],"split_type":[0,0,0,0,0,0,0,0,0,0,0,0,0,0,0,0,0,0,0,0,0,0,0,0,0,0,0,0,0,0,0,0,0,0,0,0,0,0,0,0,0,0,0,0,0,0,0,0,0,0,0,0,0,0,0,0,0,0,0],"sum_hessian":[2.95E3,2.442E3,5.08E2,1.674E3,7.68E2,4.72E2,3.6E1,1.1E2,1.564E3,2.06E2,5.62E2,3.72E2,1E2,8E0,2.8E1,8.1E1,2.9E1,1.281E3,2.83E2,9.1E1,1.15E2,3.64E2,1.98E2,1.69E2,2.03E2,4.9E1,5.1E1,5E0,3E0,2E0,2.6E1,2E0,7.9E1,1.8E1,1.1E1,1.167E3,1.14E2,2.33E2,5E1,1E1,8.1E1,4E1,7.5E1,3.54E2,1E1,1.06E2,9.2E1,1.2E2,4.9E1,2.02E2,1E0,1.8E1,3.1E1,1.8E1,3.3E1,1E0,4E0,1E1,1.6E1],"tree_param":{"num_deleted":"0","num_feature":"61","num_nodes":"59","size_leaf_vector":"1"}},{"base_weights":[1.5343598E-3,-1.2564325E-1,1.7217693E0,-3.32103E-1,2.98672E-1,6.071127E0,1.4374849E0,-2.7413225E-1,-3.1296568E0,2.2611153E-1,3.7957053E0,8.7258E0,5.8942527E-1,1.0316882E0,5.252225E0,-5.94648E-1,-7.109991E-2,-3.925354E0,2.3291491E-1,-1.1680793E0,3.9396772E-1,8.398246E0,7.862477E-1,9.614566E0,1.2022197E-1,-2.1414848E-1,1.832524E-1,-1.6303284E0,1.4720824E0,2.1132255E0,1.1161353E1,4.291628E-1,-6.292887E-2,2.242321E-2,-4.9775477E-2,-4.418746E-1,-1.19866185E-1,-1.250983E-1,3.1564057E-1,-1.4113161E-1,6.6472095E-1,-1.6976582E-1,5.274997E-2,1.2921722E-1,9.350563E-1,3.0621657E-1,-1.9833647E-1,1.1220757E0,3.699393E-1,-3.514088E-1,2.0979202E-1,1.0064319E0,1.2259109E-1,-1.9456755E-1,3.5354635E-1,-4.4863384E-2,1.3593078E0],"categories":[],"categories_nodes":[],"categories_segments":[],"categories_sizes":[],"default_left":[0,0,0,0,0,0,0,0,0,0,0,0,0,0,0,0,0,0,0,0,0,0,0,0,0,0,0,0,0,0,0,0,0,0,0,0,0,0,0,0,0,0,0,0,0,0,0,0,0,0,0,0,0,0,0,0,0],"id":19,"left_children":[1,3,5,7,9,11,13,15,17,19,21,23,25,27,29,31,33,35,37,39,41,43,45,47,-1,-1,-1,49,51,53,55,-1,-1,-1,-1,-1,-1,-1,-1,-1,-1,-1,-1,-1,-1,-1,-1,-1,-1,-1,-1,-1,-1,-1,-1,-1,-1],"loss_changes":[6.387625E2,2.3821028E2,2.3904944E2,2.9542218E2,2.2457378E2,1.6855075E2,2.880746E2,1.16570724E2,1.00280304E2,2.0468533E2,2.417992E2,4.085315E1,2.0867378E1,2.0519841E2,3.089636E2,1.1997296E2,1.3861829E2,3.4501556E1,3.8844448E1,1.8754852E2,2.1863162E2,3.4223816E1,8.18222E1,2.3504272E1,0E0,0E0,0E0,1.8309198E2,3.0169238E2,8.208324E1,1.7680646E2,0E0,0E0,0E0,0E0,0E0,0E0,0E0,0E0,0E0,0E0,0E0,0E0,0E0,0E0,0E0,0E0,0E0,0E0,0E0,0E0,0E0,0E0,0E0,0E0,0E0,0E0],"parents":[2147483647,0,0,1,1,2,2,3,3,4,4,5,5,6,6,7,7,8,8,9,9,10,10,11,11,12,12,13,13,14,14,15,15,16,16,17,17,18,18,19,19,20,20,21,21,22,22,23,23,27,27,28,28,29,29,30,30],"right_children":[2,4,6,8,10,12,14,16,18,20,22,24,26,28,30,32,34,36,38,40,42,44,46,48,-1,-1,-1,50,52,54,56,-1,-1,-1,-1,-1,-1,-1,-1,-1,-1,-1,-1,-1,-1,-1,-1,-1,-1,-1,-1,-1,-1,-1,-1,-1,-1],"split_conditions":[7.3333335E0,4.235931E0,4.375E0,4.2352743E0,2.2953548E0,7.166667E-1,5.272727E-1,5.588235E-1,9.166667E-1,2E0,4.918899E-1,8.25E0,3.75E0,3.7078503E-1,2.5E0,1.425E1,5.961403E-1,8E0,4.235674E0,1.5193195E0,8.4444445E-1,5.3333336E-1,2.85E1,5.873016E-1,1.2022197E-1,-2.1414848E-1,1.832524E-1,6.831683E-1,4.024424E-1,9.6666664E-1,3.662071E-1,4.291628E-1,-6.292887E-2,2.242321E-2,-4.9775477E-2,-4.418746E-1,-1.19866185E-1,-1.250983E-1,3.1564057E-1,-1.4113161E-1,6.6472095E-1,-1.6976582E-1,5.274997E-2,1.2921722E-1,9.350563E-1,3.0621657E-1,-1.9833647E-1,1.1220757E0,3.699393E-1,-3.514088E-1,2.0979202E-1,1.0064319E0,1.2259109E-1,-1.9456755E-1,3.5354635E-1,-4.4863384E-2,1.3593078E0],"split_indices":[10,60,6,60,20,14,39,57,11,21,14,10,6,14,42,40,14,34,60,20,19,11,40,11,0,0,0,57,14,19,14,0,0,0,0,0,0,0,0,0,0,0,0,0,0,0,0,0,0,0,0,0,0,0,0,0,0],"split_type":[0,0,0,0,0,0,0,0,0,0,0,0,0,0,0,0,0,0,0,0,0,0,0,0,0,0,0,0,0,0,0,0,0,0,0,0,0,0,0,0,0,0,0,0,0,0,0,0,0,0,0,0,0,0,0,0,0],"sum_hessian":[2.917E3,2.717E3,2E2,1.828E3,8.89E2,1.1E1,1.89E2,1.792E3,3.6E1,8.72E2,1.7E1,7E0,4E0,1.72E2,1.7E1,6.94E2,1.098E3,2.9E1,7E0,9.3E1,7.79E2,6E0,1.1E1,6E0,1E0,1E0,3E0,2.4E1,1.48E2,1.2E1,5E0,4E0,6.9E2,6.49E2,4.49E2,2.4E1,5E0,5E0,2E0,9.1E1,2E0,4.6E1,7.33E2,1E0,5E0,6E0,5E0,4E0,2E0,1.6E1,8E0,3E0,1.45E2,3E0,9E0,1E0,4E0],"tree_param":{"num_deleted":"0","num_feature":"61","num_nodes":"57","size_leaf_vector":"1"}},{"base_weights":[5.9376946E-3,-1.5949292E-1,7.832592E-1,-3.1161883E-1,1.5132323E-1,5.0159354E-2,1.4934012E0,1.4127964E-1,-4.5066258E-1,3.618735E-1,-8.923835E-1,-1.19280666E-1,8.566016E0,1.1282367E0,5.2345347E0,3.1571242E-1,-1.7153018E0,-9.1112447E-1,-2.7953476E-1,-2.230132E-1,8.1625897E-1,2.0512864E-1,-1.8705299E0,1.021359E0,-7.312136E-1,2.101382E-1,9.631829E-1,5.82532E-1,2.9090786E0,8.233193E0,-3.3373392E-1,5.5459857E-2,-1.09841384E-1,-3.6641654E-1,-5.6977153E-2,9.838921E-3,-1.20086454E-1,2.6645318E-2,-5.5948615E-2,-3.0205835E-2,3.565306E-1,5.66858E-2,5.4410213E-1,1.3240926E-1,-2.7224514E-1,-2.955111E-1,-2.8643211E-2,1.2754994E-2,6.663187E-1,4.9631992E-1,-9.795027E-2,-1.76963E-1,9.789209E-2,9.5879145E-2,6.9675297E-1,4.2891726E-2,1.0140187E0,3.418505E-1,-4.0392262E-1],"categories":[],"categories_nodes":[],"categories_segments":[],"categories_sizes":[],"default_left":[0,0,0,0,0,0,0,0,0,0,0,0,0,0,0,0,0,0,0,0,0,0,0,0,0,0,0,0,0,0,0,0,0,0,0,0,0,0,0,0,0,0,0,0,0,0,0,0,0,0,0,0,0,0,0,0,0,0,0],"id":20,"left_children":[1,3,5,7,9,11,13,15,17,19,21,23,25,27,29,31,33,35,37,39,41,43,45,47,49,-1,-1,51,53,55,57,-1,-1,-1,-1,-1,-1,-1,-1,-1,-1,-1,-1,-1,-1,-1,-1,-1,-1,-1,-1,-1,-1,-1,-1,-1,-1,-1,-1],"loss_changes":[3.781215E2,1.1467763E2,2.6840283E2,1.0261417E2,1.7541281E2,3.698128E2,3.513838E2,1.2443564E2,9.780835E1,1.7670865E2,1.4440291E2,1.7591457E2,1.3036987E1,2.311915E2,3.8757642E2,1.1912792E2,7.116078E1,9.879974E1,1.3927197E2,8.789001E1,4.2769397E2,2.1311977E2,1.2081328E2,4.422301E2,2.3633621E2,0E0,0E0,1.7414188E2,4.3577505E2,2.1783417E2,1.3900519E2,0E0,0E0,0E0,0E0,0E0,0E0,0E0,0E0,0E0,0E0,0E0,0E0,0E0,0E0,0E0,0E0,0E0,0E0,0E0,0E0,0E0,0E0,0E0,0E0,0E0,0E0,0E0,0E0],"parents":[2147483647,0,0,1,1,2,2,3,3,4,4,5,5,6,6,7,7,8,8,9,9,10,10,11,11,12,12,13,13,14,14,15,15,16,16,17,17,18,18,19,19,20,20,21,21,22,22,23,23,24,24,27,27,28,28,29,29,30,30],"right_children":[2,4,6,8,10,12,14,16,18,20,22,24,26,28,30,32,34,36,38,40,42,44,46,48,50,-1,-1,52,54,56,58,-1,-1,-1,-1,-1,-1,-1,-1,-1,-1,-1,-1,-1,-1,-1,-1,-1,-1,-1,-1,-1,-1,-1,-1,-1,-1,-1,-1],"split_conditions":[4.2544217E0,9.1E0,6.3492066E-1,4E0,3.825E1,1E0,3.3333334E-1,8.3E0,2E0,3.375E0,1E0,1.1966666E1,6.125E0,2.5060241E0,1.6E1,2.4615386E0,8.6E0,-6.990439E-1,5.744048E-1,2.57E1,8.4615386E-1,3.7037036E-1,7.583333E-1,4.2668715E0,4.6E1,2.101382E-1,9.631829E-1,5E0,1.6E1,5E0,1.1691667E1,5.5459857E-2,-1.09841384E-1,-3.6641654E-1,-5.6977153E-2,9.838921E-3,-1.20086454E-1,2.6645318E-2,-5.5948615E-2,-3.0205835E-2,3.565306E-1,5.66858E-2,5.4410213E-1,1.3240926E-1,-2.7224514E-1,-2.955111E-1,-2.8643211E-2,1.2754994E-2,6.663187E-1,4.9631992E-1,-9.795027E-2,-1.76963E-1,9.789209E-2,9.5879145E-2,6.9675297E-1,4.2891726E-2,1.0140187E0,3.418505E-1,-4.0392262E-1],"split_indices":[60,31,57,54,5,37,9,31,21,10,19,0,10,38,54,38,31,20,11,31,57,39,11,60,52,0,0,34,54,54,59,0,0,0,0,0,0,0,0,0,0,0,0,0,0,0,0,0,0,0,0,0,0,0,0,0,0,0,0],"split_type":[0,0,0,0,0,0,0,0,0,0,0,0,0,0,0,0,0,0,0,0,0,0,0,0,0,0,0,0,0,0,0,0,0,0,0,0,0,0,0,0,0,0,0,0,0,0,0,0,0,0,0,0,0,0,0,0,0,0,0],"sum_hessian":[2.938E3,2.423E3,5.15E2,1.627E3,7.96E2,2.54E2,2.61E2,3.82E2,1.245E3,6.63E2,1.33E2,2.5E2,4E0,2.39E2,2.2E1,3.5E2,3.2E1,3.36E2,9.09E2,2.9E2,3.73E2,6.3E1,7E1,8.7E1,1.63E2,1E0,3E0,1.84E2,5.5E1,1.4E1,8E0,3E2,5E1,1.1E1,2.1E1,7.5E1,2.61E2,3.08E2,6.01E2,2.85E2,5E0,3.55E2,1.8E1,4.6E1,1.7E1,4.1E1,2.9E1,7.6E1,1.1E1,6E0,1.57E2,2.6E1,1.58E2,3.8E1,1.7E1,3E0,1.1E1,4E0,4E0],"tree_param":{"num_deleted":"0","num_feature":"61","num_nodes":"59","size_leaf_vector":"1"}},{"base_weights":[6.2480353E-2,-1.115485E-1,1.0818219E0,-2.6149996E-2,-1.035359E0,3.1351511E0,7.429075E-1,-2.950214E-1,2.469241E-1,-1.3379272E0,3.746993E-1,4.4154425E0,1.3476244E-1,-1.026776E0,1.0855637E0,7.009602E-2,-7.005732E-1,8.3138146E-2,1.1026444E0,-9.891134E-1,-2.851754E0,1.2434412E0,-3.0260134E0,5.942752E0,5.4354024E-1,-1.0524925E0,3.689575E0,3.9064722E0,-1.548098E0,-2.8239587E-1,1.6520717E0,3.5732172E-2,-1.1878403E-1,-8.815324E-2,1.0711203E-1,2.2491552E-3,3.415063E-1,3.0549523E-1,2.5436645E-2,-1.6097902E-1,-3.1741064E-2,-1.389163E-1,-3.6548504E-1,2.1552058E-1,-2.898112E-1,-3.6840996E-1,7.402956E-2,3.2649562E-1,1.026213E0,-3.313448E-1,1.5551244E-1,-1.6301316E-1,3.4672272E-1,5.9957993E-1,1.2015928E-2,4.484015E-1,4.5937985E-2,9.840364E-2,-2.2799504E-1,-2.0851417E-1,8.797692E-2,-5.4110546E-2,2.005457E-1],"categories":[],"categories_nodes":[],"categories_segments":[],"categories_sizes":[],"default_left":[0,0,0,0,0,0,0,0,0,0,0,0,0,0,0,0,0,0,0,0,0,0,0,0,0,0,0,0,0,0,0,0,0,0,0,0,0,0,0,0,0,0,0,0,0,0,0,0,0,0,0,0,0,0,0,0,0,0,0,0,0,0,0],"id":21,"left_children":[1,3,5,7,9,11,13,15,17,19,21,23,25,27,29,31,33,35,37,39,41,43,45,47,49,51,53,55,57,59,61,-1,-1,-1,-1,-1,-1,-1,-1,-1,-1,-1,-1,-1,-1,-1,-1,-1,-1,-1,-1,-1,-1,-1,-1,-1,-1,-1,-1,-1,-1,-1,-1],"loss_changes":[5.1821063E2,1.9670241E2,2.9373767E2,1.6784653E2,9.061841E1,2.2943219E2,2.2366673E2,1.7069342E2,1.587255E2,8.8674805E1,1.158494E2,2.4449219E2,8.433587E1,1.6012042E2,2.3929126E2,2.1965755E2,1.7597525E2,1.9215204E2,3.003022E2,5.8914474E1,3.2005676E1,1.2323149E2,2.2850151E1,3.121344E2,5.5698673E1,4.4629826E1,3.9827316E1,9.390846E0,1.0429631E2,1.9260797E2,1.7018958E2,0E0,0E0,0E0,0E0,0E0,0E0,0E0,0E0,0E0,0E0,0E0,0E0,0E0,0E0,0E0,0E0,0E0,0E0,0E0,0E0,0E0,0E0,0E0,0E0,0E0,0E0,0E0,0E0,0E0,0E0,0E0,0E0],"parents":[2147483647,0,0,1,1,2,2,3,3,4,4,5,5,6,6,7,7,8,8,9,9,10,10,11,11,12,12,13,13,14,14,15,15,16,16,17,17,18,18,19,19,20,20,21,21,22,22,23,23,24,24,25,25,26,26,27,27,28,28,29,29,30,30],"right_children":[2,4,6,8,10,12,14,16,18,20,22,24,26,28,30,32,34,36,38,40,42,44,46,48,50,52,54,56,58,60,62,-1,-1,-1,-1,-1,-1,-1,-1,-1,-1,-1,-1,-1,-1,-1,-1,-1,-1,-1,-1,-1,-1,-1,-1,-1,-1,-1,-1,-1,-1,-1,-1],"split_conditions":[4.25808E0,6E0,1.0575E1,3E0,1.5E1,1E0,-6.6469485E-1,2E0,4.2E0,3.25E0,4.2529845E0,4.2619677E0,9.5E0,5.625E-1,4.6666665E0,4.7E0,8.8235295E-1,5.652174E-1,4.243884E0,1.45E1,9.6666664E-1,2E0,1.0444444E0,1E0,9.552083E0,1.1777778E0,4E0,-7.2054297E-1,1.8421053E0,2.35E1,3.4042552E-1,3.5732172E-2,-1.1878403E-1,-8.815324E-2,1.0711203E-1,2.2491552E-3,3.415063E-1,3.0549523E-1,2.5436645E-2,-1.6097902E-1,-3.1741064E-2,-1.389163E-1,-3.6548504E-1,2.1552058E-1,-2.898112E-1,-3.6840996E-1,7.402956E-2,3.2649562E-1,1.026213E0,-3.313448E-1,1.5551244E-1,-1.6301316E-1,3.4672272E-1,5.9957993E-1,1.2015928E-2,4.484015E-1,4.5937985E-2,9.840364E-2,-2.2799504E-1,-2.0851417E-1,8.797692E-2,-5.4110546E-2,2.005457E-1],"split_indices":[60,21,0,21,31,42,20,42,32,10,60,60,42,11,6,32,57,39,60,5,19,36,19,23,59,19,6,20,38,40,57,0,0,0,0,0,0,0,0,0,0,0,0,0,0,0,0,0,0,0,0,0,0,0,0,0,0,0,0,0,0,0,0],"split_type":[0,0,0,0,0,0,0,0,0,0,0,0,0,0,0,0,0,0,0,0,0,0,0,0,0,0,0,0,0,0,0,0,0,0,0,0,0,0,0,0,0,0,0,0,0,0,0,0,0,0,0,0,0,0,0,0,0,0,0,0,0,0,0],"sum_hessian":[2.919E3,2.494E3,4.25E2,2.284E3,2.1E2,5.9E1,3.66E2,1.151E3,1.133E3,1.73E2,3.7E1,4.1E1,1.8E1,5.9E1,3.07E2,6.06E2,5.45E2,9.52E2,1.81E2,1.42E2,3.1E1,3E1,7E0,2.9E1,1.2E1,1.4E1,4E0,5E0,5.4E1,9E1,2.17E2,4.94E2,1.12E2,4.95E2,5E1,9.36E2,1.6E1,5.4E1,1.27E2,7.3E1,6.9E1,1.2E1,1.9E1,2.5E1,5E0,6E0,1E0,1.9E1,1E1,2E0,1E1,1.3E1,1E0,2E0,2E0,4E0,1E0,1.2E1,4.2E1,3.5E1,5.5E1,3E1,1.87E2],"tree_param":{"num_deleted":"0","num_feature":"61","num_nodes":"63","size_leaf_vector":"1"}},{"base_weights":[5.4933604E-2,-9.978195E-2,1.0073456E0,-1.3145612E-1,2.0086849E0,1.4835819E0,-1.5285116E-1,-4.1698035E-2,-9.397976E-1,6.727779E0,8.750609E-1,4.6398864E0,1.2430254E0,2.4100742E0,-7.2766244E-1,-1.6625774E-1,1.2508688E0,-1.4928347E0,5.143451E-2,1.5283314E0,2.2890185E-1,2.6297622E0,-1.1652712E0,5.621583E0,-2.7635905E-1,7.1069527E-1,3.0448942E0,4.057641E0,-1.6858038E0,-1.6849732E0,1.6047313E0,-2.9248282E-2,1.9544097E-2,1.9849764E-1,-2.1253815E-2,-2.1458438E-1,-5.2397784E-2,1.15029536E-1,-1.9387332E-1,1.8825364E-1,-1.4677E-1,2.414625E-2,4.7147545E-1,5.566873E-1,-2.0509152E-1,9.066359E-1,1.1583235E-1,8.407563E-3,4.302767E-1,7.001835E-1,1.6001996E-1,8.76637E-3,8.004161E-1,2.5936115E-1,-2.847975E-1,-2.5325978E-1,4.0998743E-3,3.120949E-1,-2.1003023E-1],"categories":[],"categories_nodes":[],"categories_segments":[],"categories_sizes":[],"default_left":[0,0,0,0,0,0,0,0,0,0,0,0,0,0,0,0,0,0,0,0,0,0,0,0,0,0,0,0,0,0,0,0,0,0,0,0,0,0,0,0,0,0,0,0,0,0,0,0,0,0,0,0,0,0,0,0,0,0,0],"id":22,"left_children":[1,3,5,7,9,11,13,15,17,19,21,23,25,27,29,31,33,35,37,-1,39,41,43,45,-1,47,49,51,53,55,57,-1,-1,-1,-1,-1,-1,-1,-1,-1,-1,-1,-1,-1,-1,-1,-1,-1,-1,-1,-1,-1,-1,-1,-1,-1,-1,-1,-1],"loss_changes":[4.2810422E2,1.669694E2,2.2468613E2,1.7856609E2,1.9129056E2,2.1231378E2,1.768961E2,3.5720135E2,1.3507521E2,3.8415994E2,1.14196205E2,1.61181E2,2.5548233E2,1.555387E2,2.2152887E2,9.247351E1,2.1008722E2,9.857086E1,1.9678693E2,0E0,1.683228E1,8.301892E1,1.00499855E2,2.6522443E2,0E0,4.6962982E2,3.366463E2,2.4917062E2,4.222587E1,1.0276135E2,1.6956845E2,0E0,0E0,0E0,0E0,0E0,0E0,0E0,0E0,0E0,0E0,0E0,0E0,0E0,0E0,0E0,0E0,0E0,0E0,0E0,0E0,0E0,0E0,0E0,0E0,0E0,0E0,0E0,0E0],"parents":[2147483647,0,0,1,1,2,2,3,3,4,4,5,5,6,6,7,7,8,8,9,9,10,10,11,11,12,12,13,13,14,14,15,15,16,16,17,17,18,18,20,20,21,21,22,22,23,23,25,25,26,26,27,27,28,28,29,29,30,30],"right_children":[2,4,6,8,10,12,14,16,18,20,22,24,26,28,30,32,34,36,38,-1,40,42,44,46,-1,48,50,52,54,56,58,-1,-1,-1,-1,-1,-1,-1,-1,-1,-1,-1,-1,-1,-1,-1,-1,-1,-1,-1,-1,-1,-1,-1,-1,-1,-1,-1,-1],"split_conditions":[6.2E0,4.2662764E0,7.6066446E-1,3.825E1,5.2666668E1,8.666667E-1,1.617647E0,3.125E0,4.5E0,2.0892856E0,3.1547618E-1,8.1666666E-1,1.1268795E0,1E1,2.6E0,1E0,8.1969696E-1,1.325E1,1.0333333E0,1.5283314E0,8E-1,1.75E-1,5.9375E-1,3.5E0,-2.7635905E-1,4.871795E-1,1.9E1,7.111111E-1,2.2125E1,9.0909094E-1,7.75E-1,-2.9248282E-2,1.9544097E-2,1.9849764E-1,-2.1253815E-2,-2.1458438E-1,-5.2397784E-2,1.15029536E-1,-1.9387332E-1,1.8825364E-1,-1.4677E-1,2.414625E-2,4.7147545E-1,5.566873E-1,-2.0509152E-1,9.066359E-1,1.1583235E-1,8.407563E-3,4.302767E-1,7.001835E-1,1.6001996E-1,8.76637E-3,8.004161E-1,2.5936115E-1,-2.847975E-1,-2.5325978E-1,4.0998743E-3,3.120949E-1,-2.1003023E-1],"split_indices":[10,60,14,5,5,19,38,6,43,38,39,11,41,36,38,23,11,59,19,0,4,39,11,43,0,39,31,11,5,14,11,0,0,0,0,0,0,0,0,0,0,0,0,0,0,0,0,0,0,0,0,0,0,0,0,0,0,0,0],"split_type":[0,0,0,0,0,0,0,0,0,0,0,0,0,0,0,0,0,0,0,0,0,0,0,0,0,0,0,0,0,0,0,0,0,0,0,0,0,0,0,0,0,0,0,0,0,0,0,0,0,0,0,0,0,0,0,0,0,0,0],"sum_hessian":[2.903E3,2.498E3,4.05E2,2.462E3,3.6E1,2.87E2,1.18E2,2.217E3,2.45E2,6E0,3E1,1.9E1,2.68E2,2.1E1,9.7E1,2.023E3,1.94E2,1.57E2,8.8E1,2E0,4E0,1.6E1,1.4E1,1.7E1,2E0,2.08E2,6E1,1.5E1,6E0,6.9E1,2.8E1,1.5E3,5.23E2,1.29E2,6.5E1,9.3E1,6.4E1,5.7E1,3.1E1,2E0,2E0,8E0,8E0,1E0,1.3E1,9E0,8E0,1.78E2,3E1,1.5E1,4.5E1,8E0,7E0,1E0,5E0,4.6E1,2.3E1,2E1,8E0],"tree_param":{"num_deleted":"0","num_feature":"61","num_nodes":"59","size_leaf_vector":"1"}},{"base_weights":[-8.079136E-3,-1.4510888E-1,1.0531249E0,-5.434058E-1,1.9461926E-2,-9.307894E-1,1.3371491E0,-4.9721783E-1,-3.1799185E0,-1.8906823E-1,4.763634E-1,1.2883753E0,-2.0499852E0,5.3323693E0,9.6602225E-1,-5.252319E-1,4.8757324E-1,2.3520005E-1,-3.8452451E0,5.663796E-1,-3.8099357E-1,1.3271298E-1,1.296175E0,2.4434962E0,-2.4740813E0,-4.3720922E-1,-1.3798758E0,3.3679142E0,1.2496606E0,9.149051E-1,8.715015E-1,-1.1255047E-2,-8.608314E-2,-4.655873E-1,-1.7591918E-1,1.2799479E-1,-2.3219947E-2,-1.6614376E-1,-2.9190524E-2,6.0152408E-2,-8.996519E-2,2.9191193E-1,3.9978426E-2,3.4333292E-1,-3.6950167E-2,-4.5335025E-2,-2.9632086E-1,-2.4756813E-1,-2.5452623E-2,4.7491652E-1,-8.6007334E-2,5.441866E-2,3.2960042E-1],"categories":[],"categories_nodes":[],"categories_segments":[],"categories_sizes":[],"default_left":[0,0,0,0,0,0,0,0,0,0,0,0,0,0,0,0,0,0,0,0,0,0,0,0,0,0,0,0,0,0,0,0,0,0,0,0,0,0,0,0,0,0,0,0,0,0,0,0,0,0,0,0,0],"id":23,"left_children":[1,3,5,7,9,11,13,15,17,19,21,23,25,27,29,31,-1,-1,33,35,37,39,41,43,45,-1,47,49,-1,-1,51,-1,-1,-1,-1,-1,-1,-1,-1,-1,-1,-1,-1,-1,-1,-1,-1,-1,-1,-1,-1,-1,-1],"loss_changes":[4.3107657E2,1.7219212E2,1.9230487E2,9.15744E1,1.7724011E2,1.0951555E2,4.3459088E2,1.1591754E2,5.7040268E1,1.8534895E2,1.6393285E2,7.1233734E1,3.851777E1,3.081715E2,2.0218066E2,1.04093E2,0E0,0E0,1.1460083E1,1.4799072E2,1.1555974E2,1.9991281E2,2.487254E2,3.4987778E1,2.268549E0,0E0,2.8692799E1,1.2711165E2,0E0,0E0,2.1288142E2,0E0,0E0,0E0,0E0,0E0,0E0,0E0,0E0,0E0,0E0,0E0,0E0,0E0,0E0,0E0,0E0,0E0,0E0,0E0,0E0,0E0,0E0],"parents":[2147483647,0,0,1,1,2,2,3,3,4,4,5,5,6,6,7,7,8,8,9,9,10,10,11,11,12,12,13,13,14,14,15,15,18,18,19,19,20,20,21,21,22,22,23,23,24,24,26,26,27,27,30,30],"right_children":[2,4,6,8,10,12,14,16,18,20,22,24,26,28,30,32,-1,-1,34,36,38,40,42,44,46,-1,48,50,-1,-1,52,-1,-1,-1,-1,-1,-1,-1,-1,-1,-1,-1,-1,-1,-1,-1,-1,-1,-1,-1,-1,-1,-1],"split_conditions":[1.85E1,3.939394E-1,-8.8135195E-1,1.1966666E1,1.02E1,2.022E3,1.9E1,1.15E1,8.5555553E-1,2E0,2.35E1,5.2666668E1,3E0,4.7368422E-1,8.4444445E-1,2.022E3,4.8757324E-1,2.3520005E-1,4.2431937E-3,8.0375E0,8.333333E-1,1.15625E1,1.20154426E-1,5E0,5.8E1,-4.3720922E-1,1.975E1,7.631579E-1,1.2496606E0,9.149051E-1,3.3333334E-1,-1.1255047E-2,-8.608314E-2,-4.655873E-1,-1.7591918E-1,1.2799479E-1,-2.3219947E-2,-1.6614376E-1,-2.9190524E-2,6.0152408E-2,-8.996519E-2,2.9191193E-1,3.9978426E-2,3.4333292E-1,-3.6950167E-2,-4.5335025E-2,-2.9632086E-1,-2.4756813E-1,-2.5452623E-2,4.7491652E-1,-8.6007334E-2,5.441866E-2,3.2960042E-1],"split_indices":[31,57,20,0,31,35,40,0,19,43,40,5,21,39,19,35,0,0,20,59,19,59,20,34,5,0,40,57,0,0,9,0,0,0,0,0,0,0,0,0,0,0,0,0,0,0,0,0,0,0,0,0,0],"split_type":[0,0,0,0,0,0,0,0,0,0,0,0,0,0,0,0,0,0,0,0,0,0,0,0,0,0,0,0,0,0,0,0,0,0,0,0,0,0,0,0,0,0,0,0,0,0,0,0,0,0,0,0,0],"sum_hessian":[2.963E3,2.625E3,3.38E2,7.67E2,1.858E3,4.2E1,2.96E2,7.55E2,1.2E1,1.276E3,5.82E2,1.4E1,2.8E1,2.4E1,2.72E2,7.52E2,3E0,1E0,1.1E1,2.58E2,1.018E3,4.11E2,1.71E2,1.1E1,3E0,5E0,2.3E1,2E1,4E0,2E0,2.7E2,3.38E2,4.14E2,7E0,4E0,1.36E2,1.22E2,6.5E1,9.53E2,2.83E2,1.28E2,6E1,1.11E2,8E0,3E0,1E0,2E0,1.1E1,1.2E1,1.5E1,5E0,2.39E2,3.1E1],"tree_param":{"num_deleted":"0","num_feature":"61","num_nodes":"53","size_leaf_vector":"1"}},{"base_weights":[-2.9987384E-2,-1.1981117E-1,7.497366E-1,-8.7685235E-2,-1.4702369E0,3.4432787E-1,3.404191E0,-4.821171E-1,3.8656227E-2,5.084236E0,-2.0211515E0,1.0368117E0,-1.0998459E0,7.1651845E0,3.0844846E-1,-5.6095445E-1,9.9077845E-1,8.227219E-2,-1.1669362E0,7.618796E-1,8.215975E-1,-3.6470747E0,5.3875368E-2,1.8350481E0,-5.752745E-1,-4.5243582E-1,-3.5149262E0,-0E0,8.592011E0,-1.3516994E0,8.557076E-1,-5.1455956E-2,-2.5836056E-1,2.0736995E-1,-5.4252714E-2,1.6339926E-2,-6.9910586E-2,-1.0508342E-2,-2.1051085E-1,1.298672E-1,-1.6275597E-3,1.4973104E-1,-3.864549E-1,2.0613849E-1,-1.3234046E-1,1.3753621E-1,9.04493E-1,-3.7420115E-1,1.3091305E-2,-1.0830387E-1,2.9619285E-1,-4.5167324E-1,-1.2811266E-1,-1.7186461E-1,1.17681555E-1,1.0978223E0,3.1663236E-1,-4.5581213E-1,3.409188E-2],"categories":[],"categories_nodes":[],"categories_segments":[],"categories_sizes":[],"default_left":[0,0,0,0,0,0,0,0,0,0,0,0,0,0,0,0,0,0,0,0,0,0,0,0,0,0,0,0,0,0,0,0,0,0,0,0,0,0,0,0,0,0,0,0,0,0,0,0,0,0,0,0,0,0,0,0,0,0,0],"id":24,"left_children":[1,3,5,7,9,11,13,15,17,19,21,23,25,27,29,31,33,35,37,-1,39,41,43,45,47,49,51,53,55,57,-1,-1,-1,-1,-1,-1,-1,-1,-1,-1,-1,-1,-1,-1,-1,-1,-1,-1,-1,-1,-1,-1,-1,-1,-1,-1,-1,-1,-1],"loss_changes":[2.0544759E2,1.1385779E2,3.245231E2,1.2818387E2,2.3023795E2,2.651517E2,4.6276523E2,7.2971146E1,1.0241937E2,4.6915924E1,1.9286436E2,2.3152348E2,1.3247806E2,1.8322223E2,3.272477E2,5.4008255E1,5.4412518E1,1.1929895E2,6.729944E1,0E0,1.3485596E0,4.1823822E1,7.468931E1,3.842318E2,1.350296E2,1.5158444E2,3.391472E1,1.0062172E1,1.5802747E2,1.10520615E2,0E0,0E0,0E0,0E0,0E0,0E0,0E0,0E0,0E0,0E0,0E0,0E0,0E0,0E0,0E0,0E0,0E0,0E0,0E0,0E0,0E0,0E0,0E0,0E0,0E0,0E0,0E0,0E0,0E0],"parents":[2147483647,0,0,1,1,2,2,3,3,4,4,5,5,6,6,7,7,8,8,9,9,10,10,11,11,12,12,13,13,14,14,15,15,16,16,17,17,18,18,20,20,21,21,22,22,23,23,24,24,25,25,26,26,27,27,28,28,29,29],"right_children":[2,4,6,8,10,12,14,16,18,20,22,24,26,28,30,32,34,36,38,-1,40,42,44,46,48,50,52,54,56,58,-1,-1,-1,-1,-1,-1,-1,-1,-1,-1,-1,-1,-1,-1,-1,-1,-1,-1,-1,-1,-1,-1,-1,-1,-1,-1,-1,-1,-1],"split_conditions":[1.93E1,1.26625E1,8E0,1.5E0,6.7916665E0,2.3466666E0,1.0444445E1,9.354839E-1,5.8E1,1E0,3.10692E-1,1.25E1,8.1666666E-1,1.1699384E-1,3.2933333E0,6.666667E-1,6E0,6E0,5.9375E-1,7.618796E-1,1.2966666E1,-2.1651266E0,1.96875E0,4.871795E-1,1.3166667E1,7.8333336E-1,3.970588E-1,9.65E0,2.5E0,2.6923078E-1,8.557076E-1,-5.1455956E-2,-2.5836056E-1,2.0736995E-1,-5.4252714E-2,1.6339926E-2,-6.9910586E-2,-1.0508342E-2,-2.1051085E-1,1.298672E-1,-1.6275597E-3,1.4973104E-1,-3.864549E-1,2.0613849E-1,-1.3234046E-1,1.3753621E-1,9.04493E-1,-3.7420115E-1,1.3091305E-2,-1.0830387E-1,2.9619285E-1,-4.5167324E-1,-1.2811266E-1,-1.7186461E-1,1.17681555E-1,1.0978223E0,3.1663236E-1,-4.5581213E-1,3.409188E-2],"split_indices":[31,0,34,10,59,38,59,57,48,42,41,59,11,14,38,7,36,21,57,0,0,20,38,39,59,11,39,0,42,39,0,0,0,0,0,0,0,0,0,0,0,0,0,0,0,0,0,0,0,0,0,0,0,0,0,0,0,0,0],"split_type":[0,0,0,0,0,0,0,0,0,0,0,0,0,0,0,0,0,0,0,0,0,0,0,0,0,0,0,0,0,0,0,0,0,0,0,0,0,0,0,0,0,0,0,0,0,0,0,0,0,0,0,0,0,0,0,0,0,0,0],"sum_hessian":[2.932E3,2.63E3,3.02E2,2.57E3,6E1,2.63E2,3.9E1,6.23E2,1.947E3,4E0,5.6E1,1.78E2,8.5E1,1.7E1,2.2E1,5.92E2,3.1E1,1.88E3,6.7E1,2E0,2E0,3.1E1,2.5E1,1.19E2,5.9E1,6.8E1,1.7E1,3E0,1.4E1,1.9E1,3E0,5.8E2,1.2E1,1.8E1,1.3E1,1.704E3,1.76E2,3.2E1,3.5E1,1E0,1E0,1E0,3E1,1E1,1.5E1,1.13E2,6E0,1E1,4.9E1,5.8E1,1E1,1.1E1,6E0,1E0,2E0,9E0,5E0,6E0,1.3E1],"tree_param":{"num_deleted":"0","num_feature":"61","num_nodes":"59","size_leaf_vector":"1"}},{"base_weights":[7.258248E-2,-3.6874976E-2,7.757576E-1,-5.2473567E-2,3.5776777E0,6.4109766E-1,3.9528613E0,1.344597E-2,-7.9619837E-1,6.2801843E0,-9.0136725E-1,1.4922959E0,3.250737E-2,-2.8537505E0,5.7508297E0,-1.3368177E-1,4.400647E-1,-1.0961385E0,2.2398448E0,-6.4356335E-2,7.5580697E0,8.164369E-2,-1.5599276E-1,9.8381823E-1,3.659572E0,-9.734866E-2,4.805144E0,1.815099E-1,-5.0484E-1,6.9510117E0,1.2876672E0,-1.0451942E-2,-1.9146554E-1,7.306156E-2,-7.826798E-2,2.9738102E-2,-1.4703928E-1,-9.938251E-2,5.25953E-1,8.9245665E-1,3.1279344E-2,8.5219815E-2,8.9972156E-1,2.1245721E-1,8.3853465E-1,-2.0370107E-2,5.6716067E-1,1.666746E-1,7.3546267E-1,2.8259358E-1,9.213406E-1,1.0195131E-2,1.6155887E-1],"categories":[],"categories_nodes":[],"categories_segments":[],"categories_sizes":[],"default_left":[0,0,0,0,0,0,0,0,0,0,0,0,0,0,0,0,0,0,0,0,0,0,0,0,0,0,0,0,0,0,0,0,0,0,0,0,0,0,0,0,0,0,0,0,0,0,0,0,0,0,0,0,0],"id":25,"left_children":[1,3,5,7,9,11,13,15,17,19,21,23,25,27,29,31,33,35,37,-1,39,-1,-1,41,43,45,47,-1,-1,49,51,-1,-1,-1,-1,-1,-1,-1,-1,-1,-1,-1,-1,-1,-1,-1,-1,-1,-1,-1,-1,-1,-1],"loss_changes":[2.2800404E2,1.4434209E2,1.6771004E2,1.2525234E2,1.393498E2,1.987229E2,2.1251028E2,1.473419E2,1.9175208E2,6.748981E1,7.0043197E0,1.7225714E2,1.4038358E2,5.0472622E1,5.986145E1,9.022872E1,2.1443884E2,9.964543E1,1.9118227E2,0E0,5.56886E1,0E0,0E0,1.2951648E2,1.9875568E2,1.3558783E2,3.4847305E1,0E0,0E0,6.608499E1,1.2188215E0,0E0,0E0,0E0,0E0,0E0,0E0,0E0,0E0,0E0,0E0,0E0,0E0,0E0,0E0,0E0,0E0,0E0,0E0,0E0,0E0,0E0,0E0],"parents":[2147483647,0,0,1,1,2,2,3,3,4,4,5,5,6,6,7,7,8,8,9,9,10,10,11,11,12,12,13,13,14,14,15,15,16,16,17,17,18,18,20,20,23,23,24,24,25,25,26,26,29,29,30,30],"right_children":[2,4,6,8,10,12,14,16,18,20,22,24,26,28,30,32,34,36,38,-1,40,-1,-1,42,44,46,48,-1,-1,50,52,-1,-1,-1,-1,-1,-1,-1,-1,-1,-1,-1,-1,-1,-1,-1,-1,-1,-1,-1,-1,-1,-1],"split_conditions":[6.3333335E0,1.625E1,2E1,5.3333335E0,2.55E1,1.1833333E1,1.34E1,3.5E0,1.9E1,3.125E0,1.795E1,5.3333335E0,1.1E1,1.1725E1,8.5E0,2E1,2E0,-7.878443E-1,4.8E0,-6.4356335E-2,1.369863E-2,8.164369E-2,-1.5599276E-1,1.25E-1,6E-1,9E0,5.75E0,1.815099E-1,-5.0484E-1,5.3333335E0,6.125E0,-1.0451942E-2,-1.9146554E-1,7.306156E-2,-7.826798E-2,2.9738102E-2,-1.4703928E-1,-9.938251E-2,5.25953E-1,8.9245665E-1,3.1279344E-2,8.5219815E-2,8.9972156E-1,2.1245721E-1,8.3853465E-1,-2.0370107E-2,5.6716067E-1,1.666746E-1,7.3546267E-1,2.8259358E-1,9.213406E-1,1.0195131E-2,1.6155887E-1],"split_indices":[10,0,36,10,40,0,0,10,36,6,0,6,34,0,10,36,16,20,32,0,17,0,0,8,16,53,6,0,0,6,6,0,0,0,0,0,0,0,0,0,0,0,0,0,0,0,0,0,0,0,0,0,0],"split_type":[0,0,0,0,0,0,0,0,0,0,0,0,0,0,0,0,0,0,0,0,0,0,0,0,0,0,0,0,0,0,0,0,0,0,0,0,0,0,0,0,0,0,0,0,0,0,0,0,0,0,0,0,0],"sum_hessian":[2.96E3,2.562E3,3.98E2,2.552E3,1E1,3.83E2,1.5E1,2.345E3,2.07E2,6E0,4E0,1.59E2,2.24E2,3E0,1.2E1,1.744E3,6.01E2,1.89E2,1.8E1,1E0,5E0,1E0,3E0,1.3E2,2.9E1,2.19E2,5E0,1E0,2E0,9E0,3E0,1.717E3,2.7E1,4.86E2,1.15E2,4E1,1.49E2,9E0,9E0,4E0,1E0,1.29E2,1E0,2.3E1,6E0,2.16E2,3E0,3E0,2E0,4E0,5E0,1E0,2E0],"tree_param":{"num_deleted":"0","num_feature":"61","num_nodes":"53","size_leaf_vector":"1"}},{"base_weights":[-4.4657942E-2,-1.6641927E-1,5.6984407E-1,-9.266458E-2,-9.074487E-1,3.6110947E-1,2.6901553E0,-3.1674036E-1,1.4324161E-1,1.8182971E0,-1.0060333E0,-2.2256846E-2,1.7928338E0,8.1255764E-1,2.0768592E0,-5.086711E-1,1.7825337E-1,3.6604115E-1,-8.5561746E-1,-1.4235693E-1,5.16684E-1,1.2221628E-1,-1.2522944E0,5.8413213E-1,-6.9894356E-1,2.8725042E0,-1.0960288E0,5.5158944E0,7.433177E-1,-3.6942773E-2,-1.3238053E-1,-1.4216857E-2,3.2623762E-1,-7.514314E-2,5.813347E-2,-1.02638505E-1,3.911845E-1,2.1504469E-1,-1.8513706E-1,-1.3197064E-1,1.714751E-1,-1.5894083E-2,-1.4587907E-1,-1.70098E-2,2.4048732E-1,-5.1860657E-2,-5.3747743E-1,7.219758E-1,1.0374518E-1,-3.1154603E-1,1.5112625E-1,2.764987E-1,7.33082E-1,8.156515E-3,9.9170715E-1],"categories":[],"categories_nodes":[],"categories_segments":[],"categories_sizes":[],"default_left":[0,0,0,0,0,0,0,0,0,0,0,0,0,0,0,0,0,0,0,0,0,0,0,0,0,0,0,0,0,0,0,0,0,0,0,0,0,0,0,0,0,0,0,0,0,0,0,0,0,0,0,0,0,0,0],"id":26,"left_children":[1,3,5,7,9,11,13,15,17,19,21,23,25,-1,27,29,31,33,35,37,-1,39,41,43,45,47,49,51,53,-1,-1,-1,-1,-1,-1,-1,-1,-1,-1,-1,-1,-1,-1,-1,-1,-1,-1,-1,-1,-1,-1,-1,-1,-1,-1],"loss_changes":[2.180875E2,1.3279004E2,2.1204811E2,1.1709668E2,6.0865677E1,2.4172192E2,1.25445496E2,1.08048836E2,2.4039066E2,5.376065E1,5.9446854E1,1.4321646E2,2.9339484E2,0E0,1.7871786E2,9.2299805E1,3.1502997E2,2.1285608E2,1.6410979E2,2.7461964E1,0E0,9.185864E1,3.911673E1,2.5331197E2,1.3575546E2,5.3414996E2,1.4176508E2,3.364041E1,1.803139E2,0E0,0E0,0E0,0E0,0E0,0E0,0E0,0E0,0E0,0E0,0E0,0E0,0E0,0E0,0E0,0E0,0E0,0E0,0E0,0E0,0E0,0E0,0E0,0E0,0E0,0E0],"parents":[2147483647,0,0,1,1,2,2,3,3,4,4,5,5,6,6,7,7,8,8,9,9,10,10,11,11,12,12,14,14,15,15,16,16,17,17,18,18,19,19,21,21,22,22,23,23,24,24,25,25,26,26,27,27,28,28],"right_children":[2,4,6,8,10,12,14,16,18,20,22,24,26,-1,28,30,32,34,36,38,-1,40,42,44,46,48,50,52,54,-1,-1,-1,-1,-1,-1,-1,-1,-1,-1,-1,-1,-1,-1,-1,-1,-1,-1,-1,-1,-1,-1,-1,-1,-1,-1],"split_conditions":[6E0,6E0,1.9E1,3E0,-1.4048494E-1,1.1268795E0,0E0,4.440879E-1,4.246881E0,9.8888886E-1,-9.808342E-1,1.21E1,7.232869E-1,8.1255764E-1,5.090943E-1,1.9345659E-1,1.07E1,8.888889E-1,1.3925E1,2E0,5.16684E-1,7.1666664E-1,6.026786E-1,7.111111E-1,1.0727097E0,1.16E1,1.7825649E0,2.857143E-1,6.393443E-1,-3.6942773E-2,-1.3238053E-1,-1.4216857E-2,3.2623762E-1,-7.514314E-2,5.813347E-2,-1.02638505E-1,3.911845E-1,2.1504469E-1,-1.8513706E-1,-1.3197064E-1,1.714751E-1,-1.5894083E-2,-1.4587907E-1,-1.70098E-2,2.4048732E-1,-5.1860657E-2,-5.3747743E-1,7.219758E-1,1.0374518E-1,-3.1154603E-1,1.5112625E-1,2.764987E-1,7.33082E-1,8.156515E-3,9.9170715E-1],"split_indices":[10,21,36,21,14,41,9,41,60,19,41,0,14,0,14,41,31,19,0,36,0,11,11,11,41,0,41,4,15,0,0,0,0,0,0,0,0,0,0,0,0,0,0,0,0,0,0,0,0,0,0,0,0,0,0],"split_type":[0,0,0,0,0,0,0,0,0,0,0,0,0,0,0,0,0,0,0,0,0,0,0,0,0,0,0,0,0,0,0,0,0,0,0,0,0,0,0,0,0,0,0,0,0,0,0,0,0,0,0,0,0,0,0],"sum_hessian":[2.913E3,2.432E3,4.81E2,2.213E3,2.19E2,4.39E2,4.2E1,1.135E3,1.078E3,7E0,2.12E2,3.47E2,9.2E1,3E0,3.9E1,8.18E2,3.17E2,8.82E2,1.96E2,5E0,2E0,3.8E1,1.74E2,1.83E2,1.64E2,6.7E1,2.5E1,1E1,2.9E1,7E2,1.18E2,2.88E2,2.9E1,1.42E2,7.4E2,1.9E2,6E0,2E0,3E0,2E1,1.8E1,2.8E1,1.46E2,1.3E2,5.3E1,1.59E2,5E0,1.9E1,4.8E1,1.4E1,1.1E1,5E0,5E0,2.8E1,1E0],"tree_param":{"num_deleted":"0","num_feature":"61","num_nodes":"55","size_leaf_vector":"1"}},{"base_weights":[-3.7460312E-2,-1.614514E-1,5.156162E-1,-9.8724894E-2,-8.9353245E-1,3.0598004E0,3.5107592E-1,-4.7526E-2,-9.7328407E-1,-4.3599427E-1,-2.3340669E0,-7.204229E-1,6.665918E0,-1.0186746E0,7.181984E-1,-5.95225E-2,4.176494E0,-1.2596725E0,1.1851164E0,-6.0459733E-1,2.556558E0,8.2171696E-1,-3.0226982E0,-4.67559E-1,1.11972004E-1,1.5396191E0,5.151764E0,-4.025165E0,-3.3813587E-1,7.1778754E-3,1.4428353E0,-4.056625E-3,-2.0400567E-1,-5.9253402E-2,6.734142E-1,-1.8773054E-1,-6.718411E-2,-3.3236045E-2,4.306542E-1,-4.4565793E-4,-1.20324574E-1,-1.4471297E-1,3.349532E-1,-2.907413E-1,2.316813E-1,-0E0,-3.591919E-1,-2.1104279E-1,1.4442149E-1,7.565858E-1,1.7794381E-1,9.337832E-2,-4.9610844E-1,-1.3286543E-1,1.7877358E-1,1.615992E-2,-4.3915996E-1,1.0938916E-1,3.8516435E-1],"categories":[],"categories_nodes":[],"categories_segments":[],"categories_sizes":[],"default_left":[0,0,0,0,0,0,0,0,0,0,0,0,0,0,0,0,0,0,0,0,0,0,0,0,0,0,0,0,0,0,0,0,0,0,0,0,0,0,0,0,0,0,0,0,0,0,0,0,0,0,0,0,0,0,0,0,0,0,0],"id":27,"left_children":[1,3,5,7,9,11,13,15,17,19,21,23,25,27,29,31,33,35,37,39,41,43,45,-1,47,-1,49,51,53,55,57,-1,-1,-1,-1,-1,-1,-1,-1,-1,-1,-1,-1,-1,-1,-1,-1,-1,-1,-1,-1,-1,-1,-1,-1,-1,-1,-1,-1],"loss_changes":[2.0447455E2,1.1167586E2,2.2715164E2,1.0037483E2,1.2525246E2,4.552505E2,2.591748E2,1.0736598E2,7.814978E1,7.551984E1,1.02669754E2,5.6948334E1,1.4335028E2,2.2122028E2,2.0902875E2,7.918877E1,7.7789314E1,3.8420868E1,7.2879105E1,5.0172134E1,3.0436005E1,5.685554E1,6.566547E1,0E0,4.7392937E1,0E0,1.158602E2,9.7858795E1,1.9184375E2,1.4021527E2,1.6424039E2,0E0,0E0,0E0,0E0,0E0,0E0,0E0,0E0,0E0,0E0,0E0,0E0,0E0,0E0,0E0,0E0,0E0,0E0,0E0,0E0,0E0,0E0,0E0,0E0,0E0,0E0,0E0,0E0],"parents":[2147483647,0,0,1,1,2,2,3,3,4,4,5,5,6,6,7,7,8,8,9,9,10,10,11,11,12,12,13,13,14,14,15,15,16,16,17,17,18,18,19,19,20,20,21,21,22,22,24,24,26,26,27,27,28,28,29,29,30,30],"right_children":[2,4,6,8,10,12,14,16,18,20,22,24,26,28,30,32,34,36,38,40,42,44,46,-1,48,-1,50,52,54,56,58,-1,-1,-1,-1,-1,-1,-1,-1,-1,-1,-1,-1,-1,-1,-1,-1,-1,-1,-1,-1,-1,-1,-1,-1,-1,-1,-1,-1],"split_conditions":[5.6666665E0,1.05E1,3.0666666E1,8.181818E-1,2.4E1,2.6E1,8.75E0,8E-1,8.5E0,1.2113084E0,-7.625343E-1,3.1678888E-1,2.7666666E1,1.14E1,2.1639345E0,2.5E0,1.5666667E0,1.1E1,2.716418E0,8.7833256E-2,4.5E0,5.0666666E0,1E0,-4.67559E-1,1.925E1,1.5396191E0,2.2184875E0,5.3571427E-1,4.7368422E-1,2.1E1,2.5E-1,-4.056625E-3,-2.0400567E-1,-5.9253402E-2,6.734142E-1,-1.8773054E-1,-6.718411E-2,-3.3236045E-2,4.306542E-1,-4.4565793E-4,-1.20324574E-1,-1.4471297E-1,3.349532E-1,-2.907413E-1,2.316813E-1,-0E0,-3.591919E-1,-2.1104279E-1,1.4442149E-1,7.565858E-1,1.7794381E-1,9.337832E-2,-4.9610844E-1,-1.3286543E-1,1.7877358E-1,1.615992E-2,-4.3915996E-1,1.0938916E-1,3.8516435E-1],"split_indices":[10,43,5,15,5,5,59,15,43,20,20,14,5,31,38,9,0,36,38,20,5,0,38,0,5,0,38,11,15,36,9,0,0,0,0,0,0,0,0,0,0,0,0,0,0,0,0,0,0,0,0,0,0,0,0,0,0,0,0],"split_type":[0,0,0,0,0,0,0,0,0,0,0,0,0,0,0,0,0,0,0,0,0,0,0,0,0,0,0,0,0,0,0,0,0,0,0,0,0,0,0,0,0,0,0,0,0,0,0,0,0,0,0,0,0,0,0,0,0,0,0],"sum_hessian":[2.98E3,2.435E3,5.45E2,2.244E3,1.91E2,3.2E1,5.13E2,2.121E3,1.23E2,1.46E2,4.5E1,1.6E1,1.6E1,1.08E2,4.05E2,2.116E3,5E0,1.09E2,1.4E1,1.39E2,7E0,8E0,3.7E1,2E0,1.4E1,1E0,1.5E1,1.9E1,8.9E1,2.05E2,2E2,2.097E3,1.9E1,2E0,3E0,5.2E1,5.7E1,1E1,4E0,7E1,6.9E1,1E0,6E0,2E0,6E0,6E0,3.1E1,5E0,9E0,8E0,7E0,3E0,1.6E1,6.1E1,2.8E1,1.99E2,6E0,1.76E2,2.4E1],"tree_param":{"num_deleted":"0","num_feature":"61","num_nodes":"59","size_leaf_vector":"1"}},{"base_weights":[-4.910526E-2,-1.3608043E-1,4.2675686E-1,-7.9032704E-2,-1.1703387E0,3.035503E-1,4.2789373E0,-1.1284458E-1,1.9344035E0,2.2970557E0,-1.3871584E0,6.855089E-2,1.9540272E0,5.897905E0,-1.2179567E0,-3.853401E-1,4.430199E-2,4.32204E0,8.1176296E-2,-2.2787602E0,7.467562E-1,2.819713E0,-1.5531013E0,2.3135283E0,-1.0548767E-1,3.051808E0,-1.4717463E0,8.213519E0,1.4564635E0,2.6514798E-1,-2.8836355E-1,-5.6297082E-2,4.4000335E-2,4.9705067E-1,2.0713615E-3,8.5806763E-1,2.3439462E-1,-2.7790177E-1,1.5124498E-1,-2.5488696E-1,-5.4916162E-2,5.7551928E-2,3.2118818E-1,-4.0209037E-1,-1.2635945E-1,5.8345884E-1,2.7684313E-3,-1.1810894E-1,2.0458076E-2,4.9677548E-1,1.07968606E-1,1.52137E-1,-2.8311297E-1,9.009057E-1,1.6701476E-1,1.886818E-2,1.7012386E-1,-3.470723E-2,7.9479426E-2],"categories":[],"categories_nodes":[],"categories_segments":[],"categories_sizes":[],"default_left":[0,0,0,0,0,0,0,0,0,0,0,0,0,0,0,0,0,0,0,0,0,0,0,0,0,0,0,0,0,0,0,0,0,0,0,0,0,0,0,0,0,0,0,0,0,0,0,0,0,0,0,0,0,0,0,0,0,0,0],"id":28,"left_children":[1,3,5,7,9,11,13,15,17,19,21,23,25,27,29,31,33,35,37,39,-1,41,43,45,47,49,51,53,55,57,-1,-1,-1,-1,-1,-1,-1,-1,-1,-1,-1,-1,-1,-1,-1,-1,-1,-1,-1,-1,-1,-1,-1,-1,-1,-1,-1,-1,-1],"loss_changes":[1.2187582E2,1.4669774E2,2.1419217E2,1.6076839E2,1.00829315E2,